~o
<STREAMINFO> 1 39
<VECSIZE> 39<NULLD><MFCC_D_A_0><DIAGC>
~h "za-posledni"
<BEGINHMM>
<NUMSTATES> 10
<STATE> 2
<MEAN> 39
 -9.797421e+00 1.722893e+00 -3.367892e+00 -4.825228e+00 8.989916e-01 -4.256320e+00 -2.777964e-02 -4.259798e+00 1.133427e+00 -1.504230e+00 -1.044592e+00 -8.247066e-01 3.713977e+01 5.835581e-02 6.158447e-03 -1.054309e-02 -1.104721e-01 -3.635532e-03 -4.060001e-02 5.547816e-02 -4.220473e-02 4.325832e-02 -3.748997e-02 -2.263342e-02 3.041947e-04 2.631291e-01 7.440493e-04 -4.624132e-03 -9.624477e-05 2.635295e-03 -4.640928e-03 4.535001e-03 7.315019e-04 6.594604e-03 -4.921157e-04 -4.450060e-03 2.624624e-03 2.931459e-03 -1.874996e-02
<VARIANCE> 39
 3.531557e+01 2.535833e+01 2.183421e+01 4.786140e+01 2.307617e+01 3.424922e+01 2.671126e+01 3.326933e+01 1.981900e+01 3.469319e+01 1.340919e+01 7.760800e+00 1.795570e+02 2.312291e+00 1.676662e+00 1.212427e+00 2.875981e+00 1.630799e+00 1.548316e+00 1.984406e+00 1.991338e+00 1.541079e+00 1.693094e+00 1.130750e+00 6.890485e-01 3.941478e+00 3.366727e-01 2.777566e-01 2.132197e-01 4.702455e-01 2.943706e-01 2.608294e-01 3.447147e-01 3.525530e-01 2.814680e-01 3.091736e-01 2.142630e-01 1.309902e-01 4.460908e-01
<GCONST> 1.060768e+02
<STATE> 3
<MEAN> 39
 -9.443818e+00 1.641788e+00 -3.390556e+00 -5.369913e+00 7.717332e-01 -4.427351e+00 3.029461e-01 -4.348448e+00 1.361913e+00 -1.853954e+00 -1.120406e+00 -7.652006e-01 3.817950e+01 5.262966e-02 -1.472599e-02 2.408329e-03 -8.305103e-02 -2.245238e-02 -2.206626e-02 5.176474e-02 -6.754720e-03 3.330616e-02 -5.870072e-02 -7.390059e-03 1.394227e-02 1.586220e-01 -1.317103e-03 -3.124366e-03 2.502780e-03 5.271829e-03 -2.704335e-03 2.525721e-03 -1.097550e-03 5.376600e-03 -1.964700e-03 -3.134430e-03 2.500303e-03 2.102545e-03 -1.666876e-02
<VARIANCE> 39
 3.814230e+01 2.598759e+01 2.386576e+01 5.325620e+01 2.414443e+01 3.526800e+01 2.817558e+01 3.461813e+01 2.127289e+01 3.630989e+01 1.416700e+01 7.877957e+00 1.757869e+02 2.452091e+00 1.818509e+00 1.258682e+00 3.310267e+00 1.808576e+00 1.574243e+00 2.060931e+00 2.172636e+00 1.639012e+00 1.807741e+00 1.212717e+00 7.043819e-01 4.142776e+00 3.469869e-01 3.056594e-01 2.215820e-01 5.384136e-01 3.293216e-01 2.634118e-01 3.530706e-01 3.847124e-01 2.948614e-01 3.313850e-01 2.289803e-01 1.339508e-01 4.741901e-01
<GCONST> 1.083376e+02
<STATE> 4
<MEAN> 39
 -9.195382e+00 1.523380e+00 -3.265486e+00 -5.711606e+00 6.132199e-01 -4.555559e+00 5.343629e-01 -4.293367e+00 1.501589e+00 -2.261656e+00 -1.128022e+00 -6.604006e-01 3.879905e+01 3.446564e-02 -1.854252e-02 2.815229e-02 -4.565640e-02 -2.519344e-02 -1.837823e-02 3.219666e-02 1.249984e-02 1.697021e-02 -6.542188e-02 3.108567e-03 2.023086e-02 9.485096e-02 -2.764120e-03 -2.331377e-04 4.380892e-03 6.782591e-03 -1.826398e-04 -9.014878e-06 -3.583485e-03 2.295907e-03 -2.972600e-03 -6.586621e-04 1.582630e-03 8.147144e-04 -9.730957e-03
<VARIANCE> 39
 4.106770e+01 2.622568e+01 2.588997e+01 5.773026e+01 2.527840e+01 3.627722e+01 2.862004e+01 3.540156e+01 2.278181e+01 3.674511e+01 1.489861e+01 7.978831e+00 1.705741e+02 2.599749e+00 1.938160e+00 1.290508e+00 3.750683e+00 1.983361e+00 1.619329e+00 2.107265e+00 2.341607e+00 1.711164e+00 1.900754e+00 1.290688e+00 7.225326e-01 4.272088e+00 3.577001e-01 3.303807e-01 2.287382e-01 6.111217e-01 3.629713e-01 2.693503e-01 3.602257e-01 4.148974e-01 3.032414e-01 3.477068e-01 2.424862e-01 1.370567e-01 4.983473e-01
<GCONST> 1.101975e+02
<STATE> 5
<MEAN> 39
 -9.085904e+00 1.455125e+00 -2.962259e+00 -5.830487e+00 4.967952e-01 -4.703322e+00 5.942558e-01 -4.216444e+00 1.537580e+00 -2.636980e+00 -1.097235e+00 -5.442704e-01 3.926828e+01 1.533798e-02 -8.869890e-03 5.711558e-02 -5.824943e-03 -1.789067e-02 -2.489618e-02 3.190863e-03 1.019521e-02 -1.439521e-03 -5.776607e-02 8.634012e-03 2.104922e-02 7.309648e-02 -2.243827e-03 1.796180e-03 4.651758e-03 7.061981e-03 1.112474e-03 -1.583212e-03 -4.652333e-03 -1.271396e-03 -3.314217e-03 1.491825e-03 8.771203e-04 -2.514410e-05 -3.456208e-03
<VARIANCE> 39
 4.422278e+01 2.651797e+01 2.801000e+01 6.091195e+01 2.655805e+01 3.704927e+01 2.841040e+01 3.591206e+01 2.454347e+01 3.630812e+01 1.563754e+01 8.087268e+00 1.640233e+02 2.745365e+00 2.026156e+00 1.307795e+00 4.120503e+00 2.120151e+00 1.678584e+00 2.136420e+00 2.489210e+00 1.765754e+00 1.969841e+00 1.363637e+00 7.432791e-01 4.241864e+00 3.684068e-01 3.485596e-01 2.328151e-01 6.725162e-01 3.872930e-01 2.782937e-01 3.682394e-01 4.411126e-01 3.081320e-01 3.575191e-01 2.542579e-01 1.402777e-01 5.037060e-01
<GCONST> 1.116071e+02
<STATE> 6
<MEAN> 39
 -9.061660e+00 1.468419e+00 -2.506310e+00 -5.736808e+00 4.374501e-01 -4.898187e+00 4.830703e-01 -4.233418e+00 1.471978e+00 -2.916565e+00 -1.040538e+00 -4.326490e-01 3.974825e+01 8.654339e-03 4.694475e-03 8.087075e-02 3.209778e-02 -1.033693e-02 -3.528222e-02 -2.245984e-02 -9.887160e-03 -1.988094e-02 -4.162220e-02 1.318946e-02 1.964366e-02 7.178751e-02 9.696878e-05 2.223248e-03 3.664708e-03 6.661578e-03 9.044189e-04 -1.981201e-03 -3.609087e-03 -3.806212e-03 -3.435649e-03 2.549379e-03 1.007405e-03 -3.223439e-04 -9.926404e-04
<VARIANCE> 39
 4.755707e+01 2.698524e+01 3.023059e+01 6.262731e+01 2.777999e+01 3.736723e+01 2.794097e+01 3.654673e+01 2.676030e+01 3.546814e+01 1.644770e+01 8.196755e+00 1.568923e+02 2.863635e+00 2.073942e+00 1.314809e+00 4.336698e+00 2.188234e+00 1.738460e+00 2.164224e+00 2.603196e+00 1.815376e+00 2.014190e+00 1.429417e+00 7.633685e-01 4.009374e+00 3.759131e-01 3.583130e-01 2.326944e-01 7.047909e-01 3.963521e-01 2.881277e-01 3.784656e-01 4.607803e-01 3.110842e-01 3.614469e-01 2.635018e-01 1.431333e-01 4.831933e-01
<GCONST> 1.125097e+02
<STATE> 7
<MEAN> 39
 -9.011248e+00 1.549490e+00 -1.944856e+00 -5.444368e+00 4.030475e-01 -5.140613e+00 2.641852e-01 -4.408864e+00 1.303545e+00 -3.080835e+00 -9.487298e-01 -3.288668e-01 4.023631e+01 2.041761e-02 1.537347e-02 9.684248e-02 6.749805e-02 -8.800318e-03 -4.428776e-02 -3.559192e-02 -3.744411e-02 -3.959505e-02 -2.437058e-02 2.105166e-02 1.793426e-02 6.529076e-02 2.775064e-03 1.623458e-03 2.392102e-03 6.026811e-03 -5.986392e-05 -1.389470e-03 -1.379741e-03 -4.481916e-03 -3.711330e-03 2.498063e-03 1.808379e-03 -3.529385e-04 -2.259179e-03
<VARIANCE> 39
 5.087212e+01 2.748136e+01 3.257665e+01 6.307136e+01 2.860485e+01 3.716362e+01 2.745522e+01 3.745679e+01 2.973271e+01 3.456403e+01 1.748289e+01 8.289512e+00 1.496943e+02 2.925622e+00 2.081005e+00 1.320325e+00 4.354862e+00 2.177371e+00 1.788394e+00 2.203587e+00 2.671141e+00 1.873271e+00 2.036941e+00 1.488398e+00 7.799570e-01 3.627197e+00 3.770654e-01 3.598542e-01 2.291674e-01 6.989250e-01 3.891257e-01 2.970499e-01 3.916372e-01 4.713314e-01 3.136055e-01 3.611426e-01 2.697805e-01 1.452443e-01 4.421761e-01
<GCONST> 1.129269e+02
<STATE> 8
<MEAN> 39
 -8.828905e+00 1.671273e+00 -1.315793e+00 -4.959705e+00 3.466515e-01 -5.410161e+00 2.174972e-02 -4.739938e+00 1.015561e+00 -3.148295e+00 -7.962000e-01 -2.314195e-01 4.061424e+01 4.568025e-02 2.136557e-02 1.068730e-01 1.001565e-01 -1.392537e-02 -4.762654e-02 -3.492703e-02 -6.127821e-02 -6.226232e-02 -1.101817e-02 3.444094e-02 1.645978e-02 3.926015e-02 4.124911e-03 8.339816e-04 1.513312e-03 5.091206e-03 -8.983772e-04 -6.023928e-05 6.398038e-04 -3.417179e-03 -3.874808e-03 1.872714e-03 2.610032e-03 -3.484836e-04 -5.139605e-03
<VARIANCE> 39
 5.394834e+01 2.782927e+01 3.506066e+01 6.268855e+01 2.880129e+01 3.650587e+01 2.710034e+01 3.835771e+01 3.381188e+01 3.365268e+01 1.898591e+01 8.347361e+00 1.425641e+02 2.910851e+00 2.052919e+00 1.330836e+00 4.186149e+00 2.100688e+00 1.821270e+00 2.255974e+00 2.681841e+00 1.944146e+00 2.042417e+00 1.541434e+00 7.913792e-01 3.197146e+00 3.706397e-01 3.545666e-01 2.239372e-01 6.584365e-01 3.695594e-01 3.037954e-01 4.071413e-01 4.706675e-01 3.164555e-01 3.584188e-01 2.730067e-01 1.465051e-01 3.926655e-01
<GCONST> 1.129274e+02
<STATE> 9
<MEAN> 39
 -8.208055e+00 1.848980e+00 8.905191e-01 -2.824774e+00 -2.706468e-01 -5.583183e+00 -9.868993e-01 -5.476883e+00 -4.999682e-02 -3.283920e+00 -2.575301e-01 -5.385559e-02 3.789381e+01 5.395219e-02 2.425601e-02 8.668194e-02 1.129596e-01 -2.420514e-02 1.929764e-02 -1.457531e-02 -3.275302e-02 -9.824768e-02 2.188552e-02 5.745467e-02 1.276446e-02 -9.308349e-02 -2.507155e-04 -2.246948e-04 -1.336638e-03 7.239260e-04 -2.007168e-04 2.549049e-03 1.529492e-03 1.702526e-03 -9.997734e-04 6.134289e-04 1.195949e-03 -3.464364e-04 -6.333839e-03
<VARIANCE> 39
 5.044681e+01 2.722550e+01 4.739832e+01 5.150966e+01 2.567915e+01 3.459383e+01 2.721241e+01 3.455383e+01 4.256340e+01 2.838319e+01 2.053869e+01 8.128024e+00 1.237539e+02 2.408743e+00 1.655993e+00 1.345279e+00 3.099804e+00 1.738304e+00 1.687947e+00 2.276091e+00 2.182387e+00 1.931593e+00 1.815340e+00 1.418521e+00 7.616444e-01 2.042434e+00 3.087507e-01 2.698378e-01 1.982629e-01 4.491458e-01 3.002206e-01 2.801850e-01 4.121654e-01 3.762306e-01 3.059630e-01 3.182440e-01 2.421579e-01 1.425990e-01 2.485720e-01
<GCONST> 1.085775e+02
<TRANSP> 10
 0.000000e+00 1.000000e+00 0.000000e+00 0.000000e+00 0.000000e+00 0.000000e+00 0.000000e+00 0.000000e+00 0.000000e+00 0.000000e+00
 0.000000e+00 8.352529e-01 1.647471e-01 0.000000e+00 0.000000e+00 0.000000e+00 0.000000e+00 0.000000e+00 0.000000e+00 0.000000e+00
 0.000000e+00 0.000000e+00 8.352531e-01 1.647469e-01 0.000000e+00 0.000000e+00 0.000000e+00 0.000000e+00 0.000000e+00 0.000000e+00
 0.000000e+00 0.000000e+00 0.000000e+00 8.352528e-01 1.647472e-01 0.000000e+00 0.000000e+00 0.000000e+00 0.000000e+00 0.000000e+00
 0.000000e+00 0.000000e+00 0.000000e+00 0.000000e+00 8.352529e-01 1.647470e-01 0.000000e+00 0.000000e+00 0.000000e+00 0.000000e+00
 0.000000e+00 0.000000e+00 0.000000e+00 0.000000e+00 0.000000e+00 8.352532e-01 1.647469e-01 0.000000e+00 0.000000e+00 0.000000e+00
 0.000000e+00 0.000000e+00 0.000000e+00 0.000000e+00 0.000000e+00 0.000000e+00 8.352528e-01 1.647471e-01 0.000000e+00 0.000000e+00
 0.000000e+00 0.000000e+00 0.000000e+00 0.000000e+00 0.000000e+00 0.000000e+00 0.000000e+00 8.352527e-01 1.647473e-01 0.000000e+00
 0.000000e+00 0.000000e+00 0.000000e+00 0.000000e+00 0.000000e+00 0.000000e+00 0.000000e+00 0.000000e+00 9.710799e-01 2.892005e-02
 0.000000e+00 0.000000e+00 0.000000e+00 0.000000e+00 0.000000e+00 0.000000e+00 0.000000e+00 0.000000e+00 0.000000e+00 0.000000e+00
<ENDHMM>
~h "apple"
<BEGINHMM>
<NUMSTATES> 10
<STATE> 2
<MEAN> 39
 -9.302503e+00 -2.788992e+00 -2.103667e+00 -3.852458e+00 -6.910114e-01 -2.771947e+00 8.673993e-01 -1.200674e+00 9.163034e-01 -2.335525e+00 -1.149374e+00 -4.690002e-01 3.249182e+01 1.605766e-01 4.167439e-02 -4.508777e-02 -6.586193e-02 3.951037e-02 -4.892416e-03 -1.552340e-02 -3.767644e-03 1.093551e-01 8.748227e-02 -6.687917e-02 -3.322629e-02 2.664235e-01 2.829271e-03 2.636906e-03 -8.992452e-03 -1.852325e-03 7.106960e-03 1.002110e-02 -7.032927e-03 -1.337725e-03 3.587814e-04 1.323856e-02 5.310803e-03 9.826054e-04 -1.543020e-03
<VARIANCE> 39
 2.432996e+01 2.096019e+01 1.723279e+01 4.047383e+01 1.866072e+01 2.617443e+01 2.537036e+01 1.711704e+01 2.438737e+01 2.829239e+01 1.321856e+01 9.415149e+00 1.592051e+02 1.351424e+00 1.479190e+00 1.383667e+00 2.630332e+00 1.817281e+00 1.640322e+00 1.797282e+00 1.432043e+00 1.643346e+00 1.236383e+00 1.164974e+00 9.734476e-01 7.570137e+00 2.270751e-01 2.535428e-01 2.803524e-01 4.354028e-01 3.773737e-01 2.811680e-01 3.237901e-01 2.551430e-01 3.147396e-01 2.378264e-01 2.303364e-01 1.984218e-01 8.723528e-01
<GCONST> 1.045265e+02
<STATE> 3
<MEAN> 39
 -8.434514e+00 -2.735839e+00 -2.288707e+00 -4.378170e+00 -3.676434e-01 -2.820641e+00 9.171215e-01 -1.356224e+00 1.457044e+00 -1.932763e+00 -1.408611e+00 -6.354745e-01 3.409823e+01 1.791006e-01 2.939239e-02 -3.171000e-02 -1.077486e-01 5.916034e-02 2.600164e-02 -1.644012e-02 -4.253973e-02 1.168234e-01 1.033218e-01 -3.020027e-02 -2.723472e-02 2.908721e-01 5.729266e-03 -4.808824e-03 5.601864e-03 -1.498558e-02 2.429508e-03 6.432277e-03 2.334461e-04 -1.131701e-02 4.527369e-03 -6.881145e-05 8.134397e-03 2.758660e-03 9.532565e-03
<VARIANCE> 39
 2.767883e+01 1.967091e+01 1.724436e+01 4.423570e+01 2.120321e+01 2.670188e+01 2.512355e+01 1.867089e+01 2.748654e+01 2.504894e+01 1.300106e+01 9.936839e+00 1.755159e+02 1.627785e+00 1.502478e+00 1.448615e+00 2.751813e+00 1.957926e+00 1.696226e+00 1.817484e+00 1.512014e+00 1.818857e+00 1.210465e+00 1.202374e+00 9.723101e-01 8.866853e+00 2.660109e-01 2.638449e-01 2.924461e-01 4.449660e-01 4.066378e-01 2.913997e-01 3.199870e-01 2.662770e-01 3.425842e-01 2.276610e-01 2.344434e-01 1.983275e-01 1.031179e+00
<GCONST> 1.064031e+02
<STATE> 4
<MEAN> 39
 -7.508335e+00 -2.698247e+00 -2.252941e+00 -5.153474e+00 -9.201793e-02 -2.705573e+00 9.619181e-01 -1.755266e+00 1.989969e+00 -1.579362e+00 -1.491195e+00 -7.160585e-01 3.564978e+01 2.010836e-01 1.956614e-02 2.353878e-02 -1.864240e-01 4.220124e-02 5.885524e-02 -1.795370e-02 -1.059139e-01 1.247348e-01 7.609001e-02 1.329372e-03 -3.504636e-03 2.997208e-01 6.064437e-03 -3.525359e-03 1.224799e-02 -2.044867e-02 -4.028006e-03 5.389376e-03 -2.986922e-04 -1.519712e-02 3.177214e-03 -9.920150e-03 4.344973e-03 5.430943e-03 6.013816e-03
<VARIANCE> 39
 3.167201e+01 2.022234e+01 1.740664e+01 5.395183e+01 2.231424e+01 2.730875e+01 2.753876e+01 2.137686e+01 3.136745e+01 2.238460e+01 1.212424e+01 1.022880e+01 1.819001e+02 1.908716e+00 1.611425e+00 1.509400e+00 2.985054e+00 1.967053e+00 1.725657e+00 1.893032e+00 1.600703e+00 1.980743e+00 1.240707e+00 1.183235e+00 9.357307e-01 9.561471e+00 3.073205e-01 2.913152e-01 3.015587e-01 4.603378e-01 4.046834e-01 3.013423e-01 3.259414e-01 2.788385e-01 3.618436e-01 2.266779e-01 2.302181e-01 1.891474e-01 1.130299e+00
<GCONST> 1.081688e+02
<STATE> 5
<MEAN> 39
 -6.541287e+00 -2.578654e+00 -1.940669e+00 -6.277399e+00 2.600163e-03 -2.381839e+00 9.612422e-01 -2.418458e+00 2.457466e+00 -1.404887e+00 -1.458710e+00 -6.294283e-01 3.697540e+01 2.114390e-01 3.342597e-02 7.674813e-02 -2.675730e-01 9.088700e-03 9.261467e-02 -2.430836e-02 -1.627110e-01 1.129617e-01 2.223369e-02 1.321089e-02 3.124414e-02 2.668298e-01 3.302130e-04 3.084349e-03 8.802255e-03 -1.454680e-02 -4.641506e-03 4.228237e-03 6.046141e-05 -1.004831e-02 -4.083853e-03 -1.437820e-02 -2.708635e-04 6.280994e-03 -7.401004e-03
<VARIANCE> 39
 3.578428e+01 2.292676e+01 1.796506e+01 6.935058e+01 2.270588e+01 2.795472e+01 3.221608e+01 2.502403e+01 3.637194e+01 2.081873e+01 1.119249e+01 1.035990e+01 1.769940e+02 2.104776e+00 1.765906e+00 1.542165e+00 3.343949e+00 1.900670e+00 1.745849e+00 1.989822e+00 1.674007e+00 2.079175e+00 1.279760e+00 1.127261e+00 8.802246e-01 9.438642e+00 3.356500e-01 3.254482e-01 3.056381e-01 4.830219e-01 3.822467e-01 3.136265e-01 3.356071e-01 2.886866e-01 3.654206e-01 2.299415e-01 2.189076e-01 1.756130e-01 1.135487e+00
<GCONST> 1.095998e+02
<STATE> 6
<MEAN> 39
 -5.602079e+00 -2.269705e+00 -1.459932e+00 -7.681301e+00 -4.946674e-02 -1.878287e+00 9.354110e-01 -3.247276e+00 2.772198e+00 -1.456270e+00 -1.391937e+00 -3.665193e-01 3.795637e+01 1.918484e-01 7.554892e-02 9.904820e-02 -2.973581e-01 -3.977063e-03 1.160304e-01 -2.154691e-02 -1.812696e-01 7.140902e-02 -3.313647e-02 1.001201e-02 6.014359e-02 1.838594e-01 -8.826044e-03 1.041040e-02 1.971176e-03 4.358828e-03 1.350968e-03 1.954675e-03 3.061970e-03 1.609870e-03 -1.328798e-02 -1.176524e-02 -2.298030e-03 3.532026e-03 -2.354815e-02
<VARIANCE> 39
 3.889449e+01 2.730256e+01 1.834696e+01 8.688206e+01 2.344912e+01 2.847064e+01 3.807301e+01 2.850875e+01 4.213955e+01 2.052708e+01 1.071127e+01 1.052410e+01 1.644163e+02 2.126643e+00 1.871008e+00 1.537541e+00 3.752377e+00 1.832754e+00 1.795985e+00 2.077073e+00 1.723339e+00 2.080156e+00 1.329620e+00 1.074394e+00 8.390990e-01 8.553266e+00 3.348706e-01 3.472077e-01 3.004788e-01 5.020065e-01 3.542823e-01 3.338145e-01 3.454043e-01 2.945256e-01 3.521242e-01 2.378667e-01 2.064860e-01 1.653575e-01 1.040754e+00
<GCONST> 1.104821e+02
<STATE> 7
<MEAN> 39
 -4.815405e+00 -1.695547e+00 -9.527843e-01 -9.010118e+00 -7.385616e-02 -1.272824e+00 9.280418e-01 -4.041056e+00 2.855606e+00 -1.679195e+00 -1.336272e+00 -5.557432e-03 3.845011e+01 1.368939e-01 1.355419e-01 9.729194e-02 -2.190157e-01 2.064645e-02 1.252491e-01 -1.021382e-02 -1.463357e-01 4.790375e-03 -6.484646e-02 3.506226e-03 6.671360e-02 4.814067e-02 -1.661829e-02 1.354420e-02 -9.464070e-04 3.009167e-02 7.650389e-03 -3.536010e-04 4.641358e-03 1.353579e-02 -1.911228e-02 -3.463240e-03 -1.268155e-03 -1.464678e-03 -3.603657e-02
<VARIANCE> 39
 4.017057e+01 3.228028e+01 1.845842e+01 1.013294e+02 2.501620e+01 2.886300e+01 4.340485e+01 3.060390e+01 4.717183e+01 2.116074e+01 1.087297e+01 1.077621e+01 1.492812e+02 1.963536e+00 1.861149e+00 1.498694e+00 4.090678e+00 1.806283e+00 1.904624e+00 2.151284e+00 1.746522e+00 2.012152e+00 1.398503e+00 1.048914e+00 8.392372e-01 7.163449e+00 3.028752e-01 3.458652e-01 2.858201e-01 5.015796e-01 3.306834e-01 3.644669e-01 3.555362e-01 2.967112e-01 3.307267e-01 2.508888e-01 1.979516e-01 1.633743e-01 8.700741e-01
<GCONST> 1.107491e+02
<STATE> 8
<MEAN> 39
 -4.323826e+00 -8.583882e-01 -4.716150e-01 -9.700943e+00 9.271958e-02 -6.389021e-01 9.219299e-01 -4.577197e+00 2.670795e+00 -1.954319e+00 -1.288550e+00 3.239749e-01 3.826188e+01 5.407230e-02 1.884786e-01 9.459871e-02 -2.629962e-02 6.463412e-02 1.210554e-01 -4.725001e-03 -6.837442e-02 -6.804885e-02 -6.048988e-02 4.249312e-03 4.778852e-02 -1.248334e-01 -2.068936e-02 9.678822e-03 3.952288e-04 4.726755e-02 7.630927e-03 -2.896439e-03 3.143961e-03 1.999876e-02 -1.740747e-02 6.132284e-03 2.121811e-03 -4.758870e-03 -3.909209e-02
<VARIANCE> 39
 3.971487e+01 3.631250e+01 1.908165e+01 1.108129e+02 2.708978e+01 2.913430e+01 4.636744e+01 3.096109e+01 4.953481e+01 2.189355e+01 1.147898e+01 1.109544e+01 1.353761e+02 1.693848e+00 1.748913e+00 1.439568e+00 4.212648e+00 1.819107e+00 2.057123e+00 2.220865e+00 1.739033e+00 1.943465e+00 1.481534e+00 1.050997e+00 8.843053e-01 5.603599e+00 2.535109e-01 3.251010e-01 2.667086e-01 4.757516e-01 3.159714e-01 4.008714e-01 3.663278e-01 2.957248e-01 3.134875e-01 2.661568e-01 1.945745e-01 1.700851e-01 6.679436e-01
<GCONST> 1.104143e+02
<STATE> 9
<MEAN> 39
 -6.828022e+00 1.448147e-01 -7.705446e-01 -6.002420e+00 3.070147e-02 2.849743e-01 1.966840e-01 -3.185951e+00 1.553878e+00 -1.716079e+00 -6.722016e-01 4.584150e-01 3.246270e+01 -6.749050e-02 1.275991e-01 5.912311e-02 2.134337e-01 4.886187e-02 5.169735e-02 -3.937525e-02 4.699121e-02 -8.220431e-02 -5.068345e-03 2.462360e-02 -2.613520e-04 -2.492058e-01 -9.868556e-03 -2.063008e-03 2.132116e-04 2.063670e-02 -1.378821e-03 -5.502085e-03 -4.255728e-04 9.072276e-03 -2.154471e-03 5.542220e-03 3.101030e-03 -2.196839e-03 -1.241879e-02
<VARIANCE> 39
 4.143144e+01 2.772851e+01 1.849022e+01 9.511005e+01 2.329399e+01 2.221779e+01 3.448217e+01 2.957659e+01 3.615930e+01 1.670990e+01 1.019275e+01 9.599576e+00 1.161271e+02 9.842799e-01 1.135335e+00 1.080594e+00 2.672445e+00 1.510939e+00 1.769653e+00 1.830812e+00 1.387840e+00 1.548777e+00 1.299194e+00 9.092512e-01 8.519626e-01 2.485605e+00 1.444365e-01 2.059969e-01 1.941683e-01 2.976568e-01 2.661667e-01 3.487108e-01 3.075659e-01 2.375251e-01 2.605804e-01 2.413047e-01 1.725166e-01 1.599771e-01 2.775080e-01
<GCONST> 1.005587e+02
<TRANSP> 10
 0.000000e+00 1.000000e+00 0.000000e+00 0.000000e+00 0.000000e+00 0.000000e+00 0.000000e+00 0.000000e+00 0.000000e+00 0.000000e+00
 0.000000e+00 8.062860e-01 1.937139e-01 0.000000e+00 0.000000e+00 0.000000e+00 0.000000e+00 0.000000e+00 0.000000e+00 0.000000e+00
 0.000000e+00 0.000000e+00 8.062862e-01 1.937139e-01 0.000000e+00 0.000000e+00 0.000000e+00 0.000000e+00 0.000000e+00 0.000000e+00
 0.000000e+00 0.000000e+00 0.000000e+00 8.062860e-01 1.937140e-01 0.000000e+00 0.000000e+00 0.000000e+00 0.000000e+00 0.000000e+00
 0.000000e+00 0.000000e+00 0.000000e+00 0.000000e+00 8.062862e-01 1.937138e-01 0.000000e+00 0.000000e+00 0.000000e+00 0.000000e+00
 0.000000e+00 0.000000e+00 0.000000e+00 0.000000e+00 0.000000e+00 8.062859e-01 1.937140e-01 0.000000e+00 0.000000e+00 0.000000e+00
 0.000000e+00 0.000000e+00 0.000000e+00 0.000000e+00 0.000000e+00 0.000000e+00 8.062862e-01 1.937138e-01 0.000000e+00 0.000000e+00
 0.000000e+00 0.000000e+00 0.000000e+00 0.000000e+00 0.000000e+00 0.000000e+00 0.000000e+00 8.062860e-01 1.937140e-01 0.000000e+00
 0.000000e+00 0.000000e+00 0.000000e+00 0.000000e+00 0.000000e+00 0.000000e+00 0.000000e+00 0.000000e+00 9.527687e-01 4.723127e-02
 0.000000e+00 0.000000e+00 0.000000e+00 0.000000e+00 0.000000e+00 0.000000e+00 0.000000e+00 0.000000e+00 0.000000e+00 0.000000e+00
<ENDHMM>
~h "mesic"
<BEGINHMM>
<NUMSTATES> 10
<STATE> 2
<MEAN> 39
 -8.501367e+00 9.747965e-01 6.522810e-01 4.677756e-01 -3.848526e-01 -5.018294e+00 1.154028e+00 -4.762609e+00 -3.905430e+00 -1.344104e+00 1.166552e+00 -1.015185e-01 3.476787e+01 1.280009e-02 2.220634e-02 7.173257e-02 -1.605999e-02 -1.938418e-02 -1.168687e-01 4.168886e-02 -6.492522e-02 -4.723972e-02 -3.799695e-02 -1.259430e-02 5.345073e-04 4.055658e-01 -4.981869e-03 -1.887393e-04 -1.173345e-03 -5.253552e-03 -3.805235e-03 4.680359e-03 -2.603073e-03 5.230570e-03 7.259822e-03 -1.773574e-03 -2.638879e-03 9.177389e-04 -1.161600e-02
<VARIANCE> 39
 5.977377e+01 1.212387e+01 3.517947e+01 4.637206e+01 1.581499e+01 4.618839e+01 2.726679e+01 4.046465e+01 4.446878e+01 1.609292e+01 1.579129e+01 1.267182e+01 1.447648e+02 1.720987e+00 1.036389e+00 1.797951e+00 2.626016e+00 1.354848e+00 2.541114e+00 1.734647e+00 1.498672e+00 1.898222e+00 1.298818e+00 9.178203e-01 8.530169e-01 1.314725e+00 2.311374e-01 1.925180e-01 2.743170e-01 4.070691e-01 2.534458e-01 4.547321e-01 3.225502e-01 2.591810e-01 3.273101e-01 2.332584e-01 1.763638e-01 1.494671e-01 1.601440e-01
<GCONST> 1.033738e+02
<STATE> 3
<MEAN> 39
 -8.682998e+00 1.101256e+00 1.033944e+00 1.950541e-01 -5.888988e-01 -5.497953e+00 1.329665e+00 -4.973634e+00 -3.912627e+00 -1.612001e+00 1.004590e+00 -7.727290e-02 3.678198e+01 -4.229664e-02 2.537929e-02 6.410331e-02 -4.856392e-02 -3.951433e-02 -7.573149e-02 2.625082e-02 -2.727929e-02 9.630093e-03 -4.965580e-02 -2.822216e-02 7.422696e-03 3.330771e-01 -1.024697e-02 6.805948e-04 -1.492746e-03 -5.504248e-03 -3.362817e-03 7.463356e-03 -2.792706e-03 6.567651e-03 1.022503e-02 -1.943164e-03 -2.626752e-03 1.254612e-03 -1.265090e-02
<VARIANCE> 39
 6.356805e+01 1.358292e+01 3.986892e+01 5.140871e+01 1.661345e+01 4.604913e+01 2.865757e+01 3.955577e+01 4.646393e+01 1.813644e+01 1.706042e+01 1.369459e+01 1.467278e+02 1.756326e+00 1.106994e+00 1.937045e+00 2.903834e+00 1.426580e+00 2.736760e+00 1.734370e+00 1.488561e+00 1.967461e+00 1.428334e+00 9.340388e-01 9.142025e-01 1.102889e+00 2.340561e-01 2.032197e-01 2.778805e-01 4.437976e-01 2.612591e-01 4.905981e-01 3.164628e-01 2.586040e-01 3.336032e-01 2.532812e-01 1.762129e-01 1.585082e-01 1.214462e-01
<GCONST> 1.047380e+02
<STATE> 4
<MEAN> 39
 -9.237061e+00 1.281536e+00 1.373138e+00 -2.349949e-01 -8.561252e-01 -5.718622e+00 1.419748e+00 -4.978170e+00 -3.575101e+00 -1.939469e+00 7.584854e-01 -2.500362e-02 3.837367e+01 -1.070933e-01 3.532284e-02 5.626808e-02 -7.448516e-02 -4.834976e-02 -3.006656e-02 1.086243e-02 7.588120e-03 6.980956e-02 -5.898091e-02 -4.276011e-02 1.193892e-02 2.564940e-01 -1.119005e-02 1.733796e-03 -1.566801e-03 -4.303518e-03 -1.003535e-03 7.920186e-03 -2.723879e-03 5.897411e-03 1.041151e-02 -1.300955e-03 -2.614446e-03 5.970277e-04 -1.368275e-02
<VARIANCE> 39
 6.518294e+01 1.542707e+01 4.564931e+01 5.483503e+01 1.681129e+01 4.414480e+01 2.994271e+01 3.853149e+01 4.643600e+01 2.020521e+01 1.783037e+01 1.427652e+01 1.479863e+02 1.779966e+00 1.176778e+00 2.110062e+00 3.082319e+00 1.479156e+00 2.842248e+00 1.743375e+00 1.487122e+00 1.942274e+00 1.539624e+00 9.291297e-01 9.525493e-01 1.006832e+00 2.349335e-01 2.140881e-01 2.842165e-01 4.595263e-01 2.659872e-01 5.130571e-01 3.138551e-01 2.604657e-01 3.239803e-01 2.688238e-01 1.714358e-01 1.640890e-01 1.043334e-01
<GCONST> 1.056444e+02
<STATE> 5
<MEAN> 39
 -1.010058e+01 1.542277e+00 1.671467e+00 -7.519730e-01 -1.102353e+00 -5.718549e+00 1.421802e+00 -4.830138e+00 -2.959429e+00 -2.303638e+00 4.482957e-01 3.504591e-02 3.949826e+01 -1.576508e-01 4.864796e-02 4.823563e-02 -8.809617e-02 -4.147623e-02 6.761867e-03 -4.220521e-03 3.211633e-02 1.156591e-01 -6.329028e-02 -5.425997e-02 1.192518e-02 1.727215e-01 -8.279976e-03 2.090395e-03 -1.653378e-03 -2.096187e-03 1.858237e-03 5.992926e-03 -2.496288e-03 3.933733e-03 7.336928e-03 -2.810198e-04 -2.057486e-03 -3.292573e-04 -1.471825e-02
<VARIANCE> 39
 6.401353e+01 1.755202e+01 5.252402e+01 5.613548e+01 1.658245e+01 4.121174e+01 3.115316e+01 3.753405e+01 4.409792e+01 2.233891e+01 1.793755e+01 1.442130e+01 1.470060e+02 1.801365e+00 1.234941e+00 2.311148e+00 3.144310e+00 1.508387e+00 2.848398e+00 1.750082e+00 1.487972e+00 1.847754e+00 1.623080e+00 9.111084e-01 9.666288e-01 9.854143e-01 2.354144e-01 2.230211e-01 2.936157e-01 4.540721e-01 2.674254e-01 5.184951e-01 3.112166e-01 2.628080e-01 3.039005e-01 2.782730e-01 1.645021e-01 1.657523e-01 1.015504e-01
<GCONST> 1.060742e+02
<STATE> 6
<MEAN> 39
 -1.112350e+01 1.880472e+00 1.933100e+00 -1.268415e+00 -1.257700e+00 -5.580400e+00 1.342917e+00 -4.602768e+00 -2.200570e+00 -2.674994e+00 1.097206e-01 8.922240e-02 4.012687e+01 -1.817323e-01 5.997246e-02 4.039689e-02 -8.646137e-02 -2.270707e-02 2.784736e-02 -1.669057e-02 4.372246e-02 1.355781e-01 -6.167001e-02 -5.902798e-02 9.184148e-03 8.703909e-02 -3.632022e-03 1.541193e-03 -1.492978e-03 5.931099e-04 3.742246e-03 3.123495e-03 -1.830398e-03 1.678834e-03 2.396917e-03 7.438110e-04 -6.889750e-04 -7.633631e-04 -1.459525e-02
<VARIANCE> 39
 6.022791e+01 1.974670e+01 6.020200e+01 5.529922e+01 1.625331e+01 3.787467e+01 3.228624e+01 3.639475e+01 3.949325e+01 2.455868e+01 1.732234e+01 1.422262e+01 1.440420e+02 1.828357e+00 1.272556e+00 2.521138e+00 3.095099e+00 1.509181e+00 2.764754e+00 1.747222e+00 1.480695e+00 1.719557e+00 1.679265e+00 8.893834e-01 9.621300e-01 1.016983e+00 2.362860e-01 2.282680e-01 3.049054e-01 4.320430e-01 2.646263e-01 5.062787e-01 3.062442e-01 2.632016e-01 2.804117e-01 2.820942e-01 1.580565e-01 1.644293e-01 1.087920e-01
<GCONST> 1.060334e+02
<STATE> 7
<MEAN> 39
 -1.214972e+01 2.264659e+00 2.158751e+00 -1.702803e+00 -1.294471e+00 -5.390106e+00 1.205353e+00 -4.360646e+00 -1.450974e+00 -3.019457e+00 -2.085129e-01 1.379293e-01 4.028377e+01 -1.802434e-01 6.486680e-02 3.331316e-02 -7.116811e-02 -4.757832e-04 3.420151e-02 -2.452310e-02 4.500311e-02 1.280159e-01 -5.415320e-02 -5.433146e-02 6.831083e-03 8.583532e-03 8.499915e-04 3.807560e-04 -8.907833e-04 2.875536e-03 3.938093e-03 7.484138e-04 -9.760861e-04 -1.385062e-06 -2.406259e-03 1.478276e-03 1.138801e-03 -5.284625e-04 -1.306385e-02
<VARIANCE> 39
 5.492717e+01 2.177417e+01 6.806207e+01 5.290875e+01 1.608591e+01 3.465698e+01 3.331253e+01 3.504934e+01 3.339410e+01 2.676840e+01 1.616976e+01 1.379851e+01 1.395168e+02 1.853940e+00 1.286584e+00 2.713927e+00 2.958459e+00 1.482928e+00 2.616388e+00 1.739036e+00 1.461410e+00 1.584632e+00 1.715602e+00 8.713163e-01 9.485536e-01 1.090479e+00 2.368415e-01 2.291643e-01 3.161585e-01 4.001852e-01 2.577519e-01 4.801485e-01 2.997294e-01 2.608770e-01 2.590847e-01 2.824576e-01 1.539062e-01 1.620224e-01 1.233975e-01
<GCONST> 1.056000e+02
<STATE> 8
<MEAN> 39
 -1.307236e+01 2.645008e+00 2.343280e+00 -2.004935e+00 -1.225398e+00 -5.208445e+00 1.037006e+00 -4.136110e+00 -8.326197e-01 -3.299781e+00 -4.581655e-01 1.887690e-01 4.004680e+01 -1.601742e-01 6.134479e-02 2.830551e-02 -4.815334e-02 1.772672e-02 3.167260e-02 -2.790136e-02 4.173509e-02 1.005670e-01 -4.207088e-02 -4.079054e-02 6.571758e-03 -5.553804e-02 4.583962e-03 -8.452060e-04 1.265565e-04 4.083960e-03 2.817141e-03 -3.677254e-04 -2.828174e-04 -7.400364e-04 -5.383633e-03 1.682742e-03 2.707404e-03 5.904385e-05 -1.072086e-02
<VARIANCE> 39
 4.954919e+01 2.342833e+01 7.523361e+01 4.984030e+01 1.619545e+01 3.193413e+01 3.418681e+01 3.363079e+01 2.708882e+01 2.875646e+01 1.487459e+01 1.324843e+01 1.336210e+02 1.863855e+00 1.279271e+00 2.864819e+00 2.771709e+00 1.438232e+00 2.434656e+00 1.732377e+00 1.433431e+00 1.456162e+00 1.739518e+00 8.608852e-01 9.344093e-01 1.190165e+00 2.357814e-01 2.259952e-01 3.252618e-01 3.657934e-01 2.483206e-01 4.465749e-01 2.936200e-01 2.567238e-01 2.422467e-01 2.818574e-01 1.528047e-01 1.603465e-01 1.420446e-01
<GCONST> 1.048952e+02
<STATE> 9
<MEAN> 39
 -1.426099e+01 2.401779e+00 1.417477e+00 -2.120049e+00 -9.089504e-01 -3.977069e+00 2.994611e-01 -3.563313e+00 -2.906579e-01 -2.987157e+00 -4.597566e-01 1.711066e-01 3.491806e+01 -5.551630e-02 6.476732e-03 -2.251803e-02 1.360987e-02 2.750436e-02 2.886568e-02 -2.011366e-02 5.549854e-02 2.551902e-02 1.476449e-02 8.342033e-03 8.280617e-03 -1.113447e-01 4.972811e-03 -2.104891e-03 -1.768896e-04 1.947943e-03 1.096479e-03 1.403754e-03 5.626437e-04 6.486233e-04 -2.237863e-03 1.885212e-03 1.946582e-03 -1.413692e-05 -3.873967e-03
<VARIANCE> 39
 3.430568e+01 2.404216e+01 8.092796e+01 4.466103e+01 1.534264e+01 2.767861e+01 3.756214e+01 3.289438e+01 1.514822e+01 2.586789e+01 1.454157e+01 1.145859e+01 1.147795e+02 1.493708e+00 1.105188e+00 2.703018e+00 2.265819e+00 1.268520e+00 1.876950e+00 1.755214e+00 1.320140e+00 1.178805e+00 1.559223e+00 8.757374e-01 8.926673e-01 1.205953e+00 1.869959e-01 1.938188e-01 3.048426e-01 2.917510e-01 2.209827e-01 3.427567e-01 2.823974e-01 2.402600e-01 2.160174e-01 2.625218e-01 1.623320e-01 1.564458e-01 1.526072e-01
<GCONST> 1.007253e+02
<TRANSP> 10
 0.000000e+00 1.000000e+00 0.000000e+00 0.000000e+00 0.000000e+00 0.000000e+00 0.000000e+00 0.000000e+00 0.000000e+00 0.000000e+00
 0.000000e+00 8.313749e-01 1.686251e-01 0.000000e+00 0.000000e+00 0.000000e+00 0.000000e+00 0.000000e+00 0.000000e+00 0.000000e+00
 0.000000e+00 0.000000e+00 8.313749e-01 1.686252e-01 0.000000e+00 0.000000e+00 0.000000e+00 0.000000e+00 0.000000e+00 0.000000e+00
 0.000000e+00 0.000000e+00 0.000000e+00 8.313750e-01 1.686250e-01 0.000000e+00 0.000000e+00 0.000000e+00 0.000000e+00 0.000000e+00
 0.000000e+00 0.000000e+00 0.000000e+00 0.000000e+00 8.313750e-01 1.686250e-01 0.000000e+00 0.000000e+00 0.000000e+00 0.000000e+00
 0.000000e+00 0.000000e+00 0.000000e+00 0.000000e+00 0.000000e+00 8.313749e-01 1.686251e-01 0.000000e+00 0.000000e+00 0.000000e+00
 0.000000e+00 0.000000e+00 0.000000e+00 0.000000e+00 0.000000e+00 0.000000e+00 8.313749e-01 1.686252e-01 0.000000e+00 0.000000e+00
 0.000000e+00 0.000000e+00 0.000000e+00 0.000000e+00 0.000000e+00 0.000000e+00 0.000000e+00 8.313749e-01 1.686251e-01 0.000000e+00
 0.000000e+00 0.000000e+00 0.000000e+00 0.000000e+00 0.000000e+00 0.000000e+00 0.000000e+00 0.000000e+00 9.688053e-01 3.119477e-02
 0.000000e+00 0.000000e+00 0.000000e+00 0.000000e+00 0.000000e+00 0.000000e+00 0.000000e+00 0.000000e+00 0.000000e+00 0.000000e+00
<ENDHMM>
~h "mesicu"
<BEGINHMM>
<NUMSTATES> 10
<STATE> 2
<MEAN> 39
 -8.927956e+00 4.710862e+00 5.830701e+00 1.535194e+00 -4.613783e+00 -6.145144e+00 8.339647e-01 -4.330571e+00 -7.272726e-01 -5.646599e+00 -2.358772e-01 6.829900e-01 4.521573e+01 -2.231750e-01 6.671412e-02 2.090996e-03 -1.265007e-01 -2.230436e-02 -2.244610e-02 -2.757466e-02 -5.344224e-02 6.726399e-02 -6.345452e-02 -3.035875e-02 3.974024e-02 3.148466e-01 -1.896268e-02 -3.243078e-03 -1.332485e-02 -7.543105e-03 1.087850e-02 1.235727e-02 -1.692598e-03 6.061936e-03 5.729408e-03 7.751047e-03 1.724569e-03 2.134380e-03 -1.796013e-02
<VARIANCE> 39
 1.062464e+02 1.857213e+01 5.334868e+01 2.643916e+01 4.523903e+01 2.637143e+01 1.407987e+01 1.973789e+01 3.292904e+01 2.034535e+01 9.524962e+00 9.384256e+00 5.382373e+01 2.419378e+00 1.293200e+00 2.166072e+00 1.749501e+00 2.343452e+00 2.905498e+00 1.571766e+00 1.371970e+00 1.969354e+00 1.211584e+00 1.209804e+00 7.984917e-01 1.294388e+00 2.929740e-01 2.281884e-01 2.772220e-01 3.158715e-01 3.697593e-01 5.188402e-01 3.332582e-01 2.348407e-01 3.575245e-01 1.869388e-01 2.466112e-01 1.542564e-01 1.623611e-01
<GCONST> 1.033345e+02
<STATE> 3
<MEAN> 39
 -1.076133e+01 5.041804e+00 5.533829e+00 7.144809e-01 -4.339264e+00 -5.999221e+00 6.505978e-01 -4.445235e+00 -2.317607e-01 -5.744218e+00 -3.445634e-01 9.034356e-01 4.655000e+01 -2.961826e-01 5.370478e-02 -5.437331e-02 -1.322506e-01 5.656087e-02 3.252890e-02 -3.192484e-02 -1.337837e-02 7.312503e-02 -9.522622e-03 -1.585199e-02 3.166255e-02 1.962354e-01 -9.092753e-03 -1.871692e-03 -8.507982e-03 -1.252140e-04 1.200955e-02 8.286995e-03 -5.117091e-04 6.078076e-03 -2.677486e-05 8.225892e-03 2.288393e-03 -1.708946e-03 -1.873713e-02
<VARIANCE> 39
 1.063997e+02 2.022616e+01 5.762700e+01 2.257235e+01 4.334008e+01 2.270795e+01 1.512344e+01 2.100254e+01 3.079367e+01 1.942974e+01 9.385300e+00 8.331787e+00 3.917041e+01 2.397107e+00 1.256129e+00 2.196383e+00 1.590329e+00 2.227270e+00 2.482702e+00 1.583138e+00 1.474241e+00 1.761010e+00 1.203109e+00 1.170342e+00 7.605433e-01 1.291984e+00 2.886058e-01 2.150736e-01 2.644374e-01 2.877337e-01 3.537554e-01 4.445683e-01 3.314468e-01 2.518005e-01 3.106752e-01 1.861535e-01 2.370480e-01 1.482511e-01 1.659511e-01
<GCONST> 1.017142e+02
<STATE> 4
<MEAN> 39
 -1.265412e+01 5.351688e+00 5.110293e+00 3.831998e-02 -3.683611e+00 -5.691403e+00 4.421585e-01 -4.354754e+00 8.792740e-02 -5.601050e+00 -3.754102e-01 9.928861e-01 4.721951e+01 -2.891887e-01 5.146771e-02 -7.198496e-02 -1.071641e-01 1.106856e-01 5.643431e-02 -3.505781e-02 1.645153e-02 4.019414e-02 2.467927e-02 -4.225904e-03 9.614638e-03 9.290166e-02 3.698421e-03 -5.727756e-05 -2.440211e-03 4.220793e-03 7.440817e-03 3.521228e-03 -2.188089e-04 4.217287e-03 -5.871871e-03 4.704856e-03 1.710350e-03 -3.636766e-03 -1.597067e-02
<VARIANCE> 39
 9.928836e+01 2.231091e+01 6.091848e+01 1.876505e+01 3.982561e+01 2.005799e+01 1.656741e+01 2.267761e+01 2.776389e+01 1.904422e+01 9.404161e+00 7.378012e+00 3.212451e+01 2.467130e+00 1.229016e+00 2.238408e+00 1.439397e+00 2.068857e+00 2.082809e+00 1.581520e+00 1.574371e+00 1.558071e+00 1.174577e+00 1.120780e+00 7.255210e-01 1.322003e+00 2.901848e-01 2.049277e-01 2.579042e-01 2.574139e-01 3.379435e-01 3.710369e-01 3.230602e-01 2.685041e-01 2.658141e-01 1.839213e-01 2.247630e-01 1.428141e-01 1.764320e-01
<GCONST> 1.000948e+02
<STATE> 5
<MEAN> 39
 -1.417844e+01 5.691885e+00 4.760462e+00 -4.444102e-01 -2.888406e+00 -5.325734e+00 2.114777e-01 -4.156025e+00 9.327882e-02 -5.388000e+00 -3.658817e-01 9.392848e-01 4.737367e+01 -2.167518e-01 5.767293e-02 -6.033978e-02 -7.747854e-02 1.252611e-01 6.600777e-02 -3.641418e-02 3.001869e-02 -1.110296e-02 3.149772e-02 1.274902e-03 -1.286341e-02 1.418447e-02 1.346718e-02 1.341008e-03 1.838080e-03 4.507947e-03 1.145236e-03 1.528555e-03 2.689934e-04 1.608918e-03 -8.187028e-03 4.244201e-04 7.273327e-04 -3.501503e-03 -1.207725e-02
<VARIANCE> 39
 9.004498e+01 2.465495e+01 6.303615e+01 1.653376e+01 3.458574e+01 1.836312e+01 1.860074e+01 2.455092e+01 2.529412e+01 1.901882e+01 9.605772e+00 6.839820e+00 3.011255e+01 2.596849e+00 1.218405e+00 2.285489e+00 1.332857e+00 1.907475e+00 1.755357e+00 1.584702e+00 1.679184e+00 1.405966e+00 1.148385e+00 1.079335e+00 7.065790e-01 1.397935e+00 2.973266e-01 1.984019e-01 2.570376e-01 2.341020e-01 3.257550e-01 3.098426e-01 3.123358e-01 2.846160e-01 2.346698e-01 1.820898e-01 2.133493e-01 1.406506e-01 1.942754e-01
<GCONST> 9.901932e+01
<STATE> 6
<MEAN> 39
 -1.508022e+01 6.080716e+00 4.547774e+00 -7.974573e-01 -2.168244e+00 -4.914344e+00 -2.109323e-02 -3.955360e+00 -2.033761e-01 -5.232514e+00 -3.490086e-01 7.825954e-01 4.718631e+01 -1.082773e-01 6.717421e-02 -4.143941e-02 -5.904887e-02 1.073960e-01 7.419606e-02 -3.306862e-02 2.714204e-02 -5.733006e-02 1.953133e-02 1.771105e-03 -2.852448e-02 -3.765197e-02 1.828967e-02 1.842223e-03 2.651575e-03 2.610366e-03 -3.611398e-03 1.297582e-03 1.169233e-03 -7.923195e-04 -6.917221e-03 -2.263690e-03 -2.990439e-05 -2.363907e-03 -8.026519e-03
<VARIANCE> 39
 8.472133e+01 2.704187e+01 6.425470e+01 1.613653e+01 2.889290e+01 1.764579e+01 2.133011e+01 2.665131e+01 2.392486e+01 1.945144e+01 9.923326e+00 6.710889e+00 3.067310e+01 2.720982e+00 1.218251e+00 2.312373e+00 1.283114e+00 1.770155e+00 1.506673e+00 1.606690e+00 1.791003e+00 1.316208e+00 1.133340e+00 1.046639e+00 7.068914e-01 1.506392e+00 3.070089e-01 1.937985e-01 2.582527e-01 2.206669e-01 3.184346e-01 2.639717e-01 3.028623e-01 2.993072e-01 2.188361e-01 1.813617e-01 2.030318e-01 1.420115e-01 2.160663e-01
<GCONST> 9.866321e+01
<STATE> 7
<MEAN> 39
 -1.527401e+01 6.505533e+00 4.395314e+00 -1.110922e+00 -1.643369e+00 -4.443763e+00 -2.160877e-01 -3.832970e+00 -6.972199e-01 -5.182160e+00 -3.443996e-01 5.702533e-01 4.682307e+01 8.794370e-03 7.492528e-02 -3.566540e-02 -5.435824e-02 7.317548e-02 8.344925e-02 -2.255702e-02 1.338570e-02 -8.536810e-02 1.628770e-03 -6.292102e-04 -3.683379e-02 -6.537162e-02 1.866724e-02 1.410527e-03 5.696044e-04 5.714664e-04 -5.675298e-03 1.263173e-03 2.284323e-03 -2.111372e-03 -3.810096e-03 -2.919642e-03 -4.719539e-04 -1.210583e-03 -4.557380e-03
<VARIANCE> 39
 8.693840e+01 2.935205e+01 6.459444e+01 1.705014e+01 2.430708e+01 1.781968e+01 2.478396e+01 2.910315e+01 2.340866e+01 2.046811e+01 1.028487e+01 6.857641e+00 3.217920e+01 2.801215e+00 1.218050e+00 2.293723e+00 1.278892e+00 1.665082e+00 1.330168e+00 1.649621e+00 1.904159e+00 1.282005e+00 1.126803e+00 1.015112e+00 7.208460e-01 1.619924e+00 3.157108e-01 1.890024e-01 2.574454e-01 2.149223e-01 3.146680e-01 2.320188e-01 2.957371e-01 3.113168e-01 2.140540e-01 1.810704e-01 1.925313e-01 1.453839e-01 2.363518e-01
<GCONST> 9.887415e+01
<STATE> 8
<MEAN> 39
 -1.479506e+01 6.944406e+00 4.160024e+00 -1.448558e+00 -1.346244e+00 -3.910824e+00 -3.199927e-01 -3.821914e+00 -1.266415e+00 -5.229663e+00 -3.609604e-01 3.342415e-01 4.640180e+01 1.148828e-01 7.856131e-02 -5.058856e-02 -5.838194e-02 3.653279e-02 9.158275e-02 -3.911163e-03 -2.866249e-03 -9.374902e-02 -1.404908e-02 -4.456799e-03 -4.026088e-02 -7.730165e-02 1.593832e-02 3.697367e-04 -2.298083e-03 -5.154355e-04 -5.586303e-03 8.876374e-04 3.299317e-03 -2.057253e-03 -6.777789e-04 -2.330949e-03 -7.039911e-04 -4.648572e-04 -2.462559e-03
<VARIANCE> 39
 9.682922e+01 3.163070e+01 6.386058e+01 1.856421e+01 2.157679e+01 1.861123e+01 2.893607e+01 3.185982e+01 2.335596e+01 2.200873e+01 1.063999e+01 7.147286e+00 3.391455e+01 2.827390e+00 1.207435e+00 2.213035e+00 1.295067e+00 1.584349e+00 1.212609e+00 1.704265e+00 2.005959e+00 1.285315e+00 1.122319e+00 9.780408e-01 7.383266e-01 1.704052e+00 3.199794e-01 1.821970e-01 2.515643e-01 2.127044e-01 3.108936e-01 2.108588e-01 2.899882e-01 3.191784e-01 2.148133e-01 1.799009e-01 1.807844e-01 1.485664e-01 2.494136e-01
<GCONST> 9.930434e+01
<STATE> 9
<MEAN> 39
 -1.099859e+01 8.079134e+00 2.274798e+00 -2.492706e+00 -1.528320e+00 -2.240488e+00 2.341323e-01 -4.275730e+00 -2.680563e+00 -5.783699e+00 -4.797990e-01 -2.481911e-01 4.549725e+01 3.076711e-01 9.726680e-02 -1.293436e-01 -6.358757e-02 -4.328035e-02 9.925663e-02 8.505885e-02 -2.696250e-02 -7.321443e-02 -5.119721e-02 -1.727537e-02 -3.867287e-02 -1.145373e-01 3.148186e-03 -1.250782e-03 2.483466e-04 1.768642e-03 -1.698413e-03 -1.538059e-03 3.231768e-03 2.125206e-03 2.911656e-03 -6.452001e-05 -9.354579e-04 5.726532e-05 -6.795668e-03
<VARIANCE> 39
 1.367110e+02 3.768233e+01 5.376986e+01 2.036634e+01 2.064702e+01 2.039355e+01 4.247876e+01 3.823708e+01 2.503913e+01 2.878012e+01 1.104553e+01 7.836004e+00 3.839893e+01 2.631240e+00 1.063386e+00 1.673025e+00 1.241069e+00 1.339943e+00 1.042331e+00 1.784521e+00 2.137108e+00 1.331663e+00 1.085778e+00 8.279399e-01 7.315880e-01 1.548949e+00 2.887712e-01 1.440387e-01 2.024621e-01 1.961632e-01 2.683650e-01 1.815402e-01 2.633747e-01 3.124542e-01 2.146488e-01 1.649976e-01 1.414844e-01 1.409595e-01 2.168154e-01
<GCONST> 9.837543e+01
<TRANSP> 10
 0.000000e+00 1.000000e+00 0.000000e+00 0.000000e+00 0.000000e+00 0.000000e+00 0.000000e+00 0.000000e+00 0.000000e+00 0.000000e+00
 0.000000e+00 8.336167e-01 1.663833e-01 0.000000e+00 0.000000e+00 0.000000e+00 0.000000e+00 0.000000e+00 0.000000e+00 0.000000e+00
 0.000000e+00 0.000000e+00 8.336169e-01 1.663831e-01 0.000000e+00 0.000000e+00 0.000000e+00 0.000000e+00 0.000000e+00 0.000000e+00
 0.000000e+00 0.000000e+00 0.000000e+00 8.336167e-01 1.663833e-01 0.000000e+00 0.000000e+00 0.000000e+00 0.000000e+00 0.000000e+00
 0.000000e+00 0.000000e+00 0.000000e+00 0.000000e+00 8.336167e-01 1.663833e-01 0.000000e+00 0.000000e+00 0.000000e+00 0.000000e+00
 0.000000e+00 0.000000e+00 0.000000e+00 0.000000e+00 0.000000e+00 8.336167e-01 1.663832e-01 0.000000e+00 0.000000e+00 0.000000e+00
 0.000000e+00 0.000000e+00 0.000000e+00 0.000000e+00 0.000000e+00 0.000000e+00 8.336167e-01 1.663833e-01 0.000000e+00 0.000000e+00
 0.000000e+00 0.000000e+00 0.000000e+00 0.000000e+00 0.000000e+00 0.000000e+00 0.000000e+00 8.336168e-01 1.663832e-01 0.000000e+00
 0.000000e+00 0.000000e+00 0.000000e+00 0.000000e+00 0.000000e+00 0.000000e+00 0.000000e+00 0.000000e+00 9.642393e-01 3.576065e-02
 0.000000e+00 0.000000e+00 0.000000e+00 0.000000e+00 0.000000e+00 0.000000e+00 0.000000e+00 0.000000e+00 0.000000e+00 0.000000e+00
<ENDHMM>
~h "tyden"
<BEGINHMM>
<NUMSTATES> 10
<STATE> 2
<MEAN> 39
 -1.047569e+01 2.035932e+00 3.570689e+00 -1.821512e+00 -2.049098e+00 -3.400964e+00 -6.229609e-01 -2.338155e+00 -3.051884e-01 -4.796319e+00 -7.155676e-01 7.063023e-01 3.413531e+01 6.287894e-02 4.674226e-02 1.645227e-01 -3.756513e-02 -3.970485e-02 -1.214617e-01 -1.269417e-02 -5.188033e-02 1.532081e-02 -1.020724e-01 -3.936644e-02 9.865918e-03 3.462816e-01 4.821860e-03 -1.038335e-03 4.595123e-04 2.072413e-04 7.861488e-04 -2.564725e-03 -1.424452e-04 -1.405915e-03 -5.815873e-04 1.281523e-03 4.635629e-04 -1.050618e-03 -2.843607e-03
<VARIANCE> 39
 1.182409e+01 2.455183e+01 8.392996e+01 4.606352e+01 1.348791e+01 2.824285e+01 1.970078e+01 2.168609e+01 1.127231e+01 3.996632e+01 1.167101e+01 1.020426e+01 1.602029e+02 4.252799e-01 7.749141e-01 1.583179e+00 1.770866e+00 1.145838e+00 1.236246e+00 1.163545e+00 1.142879e+00 8.015295e-01 1.290215e+00 6.820856e-01 5.619900e-01 3.434511e+00 7.559562e-02 1.279341e-01 2.124643e-01 3.132639e-01 2.235716e-01 2.259103e-01 2.049673e-01 1.984497e-01 1.500162e-01 2.134152e-01 1.307666e-01 1.001863e-01 5.351562e-01
<GCONST> 9.249970e+01
<STATE> 3
<MEAN> 39
 -1.001697e+01 2.273016e+00 4.512247e+00 -2.059777e+00 -2.221371e+00 -4.139832e+00 -6.817125e-01 -2.628105e+00 -2.126474e-01 -5.332715e+00 -9.385116e-01 7.273719e-01 3.597322e+01 8.336001e-02 3.033794e-02 1.387912e-01 -3.687070e-02 -2.407407e-02 -1.220908e-01 -1.045247e-02 -4.854852e-02 1.683755e-02 -7.649828e-02 -3.442948e-02 -7.065157e-05 2.988595e-01 3.208725e-03 -3.246418e-03 -5.718819e-03 2.017176e-04 2.875410e-03 6.914588e-04 5.616311e-04 5.094291e-04 4.248131e-04 5.018480e-03 8.839291e-04 -1.836336e-03 -9.093493e-03
<VARIANCE> 39
 1.356738e+01 2.784150e+01 8.887714e+01 5.173849e+01 1.438209e+01 2.978746e+01 2.202861e+01 2.353436e+01 1.354098e+01 4.178624e+01 1.268286e+01 1.129590e+01 1.638522e+02 4.021515e-01 8.215867e-01 1.621758e+00 1.963380e+00 1.240349e+00 1.316434e+00 1.233367e+00 1.220315e+00 8.900651e-01 1.339735e+00 7.059905e-01 5.830476e-01 3.344967e+00 7.454681e-02 1.297745e-01 2.115239e-01 3.465234e-01 2.400101e-01 2.371532e-01 2.130425e-01 2.100311e-01 1.612109e-01 2.224709e-01 1.327910e-01 1.028242e-01 5.298686e-01
<GCONST> 9.472219e+01
<STATE> 4
<MEAN> 39
 -9.488145e+00 2.333248e+00 5.123352e+00 -2.302600e+00 -2.277243e+00 -4.816527e+00 -7.259780e-01 -2.865744e+00 -9.101302e-02 -5.623131e+00 -1.114997e+00 6.576000e-01 3.742777e+01 9.456903e-02 -1.604577e-03 7.662071e-02 -3.745025e-02 -4.242545e-03 -1.075486e-01 -7.094886e-03 -4.215507e-02 2.213788e-02 -3.215085e-02 -2.674486e-02 -1.612140e-02 2.300040e-01 1.741072e-03 -5.440388e-03 -1.109647e-02 -8.687477e-05 3.305327e-03 3.133148e-03 7.062468e-04 6.556044e-04 8.856306e-04 7.625402e-03 1.262372e-03 -2.729478e-03 -1.218643e-02
<VARIANCE> 39
 1.599509e+01 3.077462e+01 9.175463e+01 5.712168e+01 1.551768e+01 3.089281e+01 2.471179e+01 2.599485e+01 1.664907e+01 4.216174e+01 1.344664e+01 1.216665e+01 1.640092e+02 3.990395e-01 8.633786e-01 1.645962e+00 2.140698e+00 1.354903e+00 1.400032e+00 1.315861e+00 1.334967e+00 1.006218e+00 1.329366e+00 7.311789e-01 5.981411e-01 3.159762e+00 7.495974e-02 1.306616e-01 2.092023e-01 3.763877e-01 2.599977e-01 2.479392e-01 2.230037e-01 2.282840e-01 1.738033e-01 2.230032e-01 1.354749e-01 1.045377e-01 5.141425e-01
<GCONST> 9.678149e+01
<STATE> 5
<MEAN> 39
 -8.914408e+00 2.156187e+00 5.269488e+00 -2.550456e+00 -2.227410e+00 -5.367380e+00 -7.516630e-01 -3.082525e+00 6.654480e-02 -5.609297e+00 -1.239575e+00 4.770281e-01 3.849260e+01 1.017135e-01 -3.962884e-02 -1.614439e-03 -3.831023e-02 1.296453e-02 -8.282559e-02 -2.836934e-03 -4.228461e-02 2.728659e-02 1.794247e-02 -1.839367e-02 -3.404197e-02 1.628749e-01 1.015750e-03 -5.732856e-03 -1.258571e-02 -1.339933e-04 2.808052e-03 4.729842e-03 8.310598e-04 -3.982804e-04 6.363025e-04 7.900503e-03 1.400981e-03 -2.802054e-03 -1.151482e-02
<VARIANCE> 39
 1.894991e+01 3.295100e+01 9.344831e+01 6.159574e+01 1.676158e+01 3.169748e+01 2.759978e+01 2.940224e+01 2.041249e+01 4.169939e+01 1.391910e+01 1.269673e+01 1.632236e+02 4.048858e-01 8.989450e-01 1.656032e+00 2.298089e+00 1.471063e+00 1.482496e+00 1.407877e+00 1.500537e+00 1.139958e+00 1.285642e+00 7.611023e-01 6.097492e-01 2.987628e+00 7.606009e-02 1.317883e-01 2.065488e-01 4.031571e-01 2.798453e-01 2.582203e-01 2.354947e-01 2.554410e-01 1.865698e-01 2.190154e-01 1.396274e-01 1.059940e-01 5.012285e-01
<GCONST> 9.869693e+01
<STATE> 6
<MEAN> 39
 -8.302054e+00 1.766361e+00 4.964782e+00 -2.789310e+00 -2.097930e+00 -5.750539e+00 -7.413862e-01 -3.337449e+00 2.382701e-01 -5.320375e+00 -1.314560e+00 2.035678e-01 3.924718e+01 1.066903e-01 -6.902161e-02 -7.026642e-02 -3.656276e-02 2.619836e-02 -5.155735e-02 4.120158e-03 -5.041272e-02 2.733195e-02 5.934786e-02 -9.812728e-03 -4.761329e-02 1.090927e-01 4.522454e-04 -3.644916e-03 -9.878202e-03 3.447836e-04 2.243256e-03 5.656105e-03 1.125193e-03 -1.197249e-03 -3.855065e-04 5.932769e-03 1.555869e-03 -1.915433e-03 -9.369637e-03
<VARIANCE> 39
 2.224206e+01 3.389752e+01 9.401855e+01 6.455070e+01 1.796703e+01 3.232129e+01 3.051282e+01 3.400517e+01 2.443993e+01 4.086449e+01 1.412232e+01 1.280081e+01 1.630579e+02 4.135939e-01 9.301354e-01 1.666742e+00 2.424579e+00 1.567870e+00 1.557520e+00 1.516189e+00 1.729904e+00 1.274676e+00 1.242422e+00 7.950203e-01 6.198267e-01 2.879571e+00 7.743526e-02 1.343803e-01 2.060730e-01 4.254691e-01 2.952943e-01 2.676295e-01 2.527550e-01 2.930937e-01 1.979397e-01 2.148360e-01 1.447081e-01 1.074987e-01 4.929793e-01
<GCONST> 1.004600e+02
<STATE> 7
<MEAN> 39
 -7.668412e+00 1.265828e+00 4.343598e+00 -2.990118e+00 -1.906679e+00 -5.938737e+00 -6.719999e-01 -3.663379e+00 3.738315e-01 -4.849246e+00 -1.338543e+00 -1.164573e-01 3.975578e+01 1.073139e-01 -7.863373e-02 -1.115029e-01 -2.968723e-02 3.717305e-02 -1.675555e-02 1.323880e-02 -5.947038e-02 1.861653e-02 8.317628e-02 -2.224895e-04 -5.305772e-02 6.386229e-02 -4.476301e-04 -1.134555e-04 -4.772834e-03 1.193147e-03 1.893782e-03 5.907795e-03 1.121241e-03 -6.102202e-04 -1.774594e-03 2.903676e-03 1.791206e-03 -5.818720e-04 -8.232741e-03
<VARIANCE> 39
 2.551381e+01 3.333918e+01 9.263890e+01 6.558689e+01 1.906417e+01 3.285826e+01 3.325723e+01 3.968076e+01 2.809757e+01 3.979298e+01 1.414447e+01 1.248189e+01 1.632878e+02 4.198985e-01 9.585129e-01 1.689022e+00 2.503912e+00 1.627334e+00 1.615677e+00 1.647673e+00 2.019629e+00 1.387725e+00 1.218634e+00 8.280325e-01 6.280996e-01 2.797907e+00 7.817671e-02 1.386376e-01 2.093966e-01 4.403862e-01 3.030808e-01 2.750982e-01 2.765694e-01 3.400542e-01 2.063290e-01 2.122887e-01 1.494029e-01 1.088123e-01 4.799448e-01
<GCONST> 1.019122e+02
<STATE> 8
<MEAN> 39
 -7.051099e+00 7.913324e-01 3.594028e+00 -3.116607e+00 -1.657241e+00 -5.919199e+00 -5.398368e-01 -4.032495e+00 4.173722e-01 -4.309000e+00 -1.304882e+00 -4.309766e-01 4.001323e+01 1.010406e-01 -6.556972e-02 -1.202792e-01 -1.708771e-02 4.723661e-02 1.788968e-02 2.025851e-02 -5.939196e-02 2.173391e-03 8.866160e-02 1.062214e-02 -5.052703e-02 1.632273e-02 -1.582723e-03 3.432304e-03 4.531554e-04 2.127010e-03 1.513028e-03 5.348401e-03 5.043375e-04 1.259500e-03 -2.756769e-03 2.186747e-04 1.904882e-03 5.755301e-04 -8.643711e-03
<VARIANCE> 39
 2.840406e+01 3.159999e+01 8.862582e+01 6.468413e+01 2.004327e+01 3.336490e+01 3.562362e+01 4.575862e+01 3.069399e+01 3.847926e+01 1.410124e+01 1.185486e+01 1.628633e+02 4.191188e-01 9.825360e-01 1.717611e+00 2.523849e+00 1.641977e+00 1.649318e+00 1.797523e+00 2.336602e+00 1.457453e+00 1.214737e+00 8.541711e-01 6.329792e-01 2.675828e+00 7.723573e-02 1.438744e-01 2.162247e-01 4.453611e-01 3.022265e-01 2.796638e-01 3.058566e-01 3.902918e-01 2.107794e-01 2.112020e-01 1.524967e-01 1.095942e-01 4.525157e-01
<GCONST> 1.028375e+02
<STATE> 9
<MEAN> 39
 -8.282539e+00 -1.444013e-01 7.126895e-01 -2.388597e+00 -1.010682e+00 -3.461692e+00 -3.400111e-01 -2.969363e+00 -4.655392e-01 -2.775659e+00 -6.105596e-01 -6.715420e-01 3.388549e+01 3.242474e-02 1.083735e-02 -4.704001e-02 3.307563e-02 3.757203e-02 5.947562e-02 2.315200e-03 2.878335e-03 -1.936985e-02 4.292000e-02 1.857227e-02 -1.323394e-02 -8.613658e-02 -2.136075e-03 4.011622e-03 3.574529e-03 1.787017e-03 -3.478774e-04 1.126596e-03 -1.368496e-03 3.033890e-03 -1.260090e-04 -1.209243e-03 6.433197e-04 9.634562e-04 -5.804337e-03
<VARIANCE> 39
 3.058909e+01 2.023097e+01 5.794567e+01 4.621671e+01 1.684006e+01 3.141241e+01 3.212323e+01 4.300158e+01 2.131150e+01 2.929856e+01 1.282920e+01 9.269840e+00 1.523146e+02 3.108468e-01 8.245747e-01 1.278172e+00 1.850110e+00 1.202421e+00 1.428153e+00 1.682294e+00 2.034420e+00 1.109139e+00 1.063783e+00 7.634392e-01 5.878839e-01 1.409130e+00 5.279450e-02 1.334922e-01 1.874690e-01 3.368527e-01 2.196210e-01 2.563581e-01 2.903500e-01 3.440728e-01 1.802301e-01 1.840789e-01 1.325991e-01 1.065371e-01 2.200383e-01
<GCONST> 9.464112e+01
<TRANSP> 10
 0.000000e+00 1.000000e+00 0.000000e+00 0.000000e+00 0.000000e+00 0.000000e+00 0.000000e+00 0.000000e+00 0.000000e+00 0.000000e+00
 0.000000e+00 8.357770e-01 1.642229e-01 0.000000e+00 0.000000e+00 0.000000e+00 0.000000e+00 0.000000e+00 0.000000e+00 0.000000e+00
 0.000000e+00 0.000000e+00 8.357772e-01 1.642228e-01 0.000000e+00 0.000000e+00 0.000000e+00 0.000000e+00 0.000000e+00 0.000000e+00
 0.000000e+00 0.000000e+00 0.000000e+00 8.357777e-01 1.642223e-01 0.000000e+00 0.000000e+00 0.000000e+00 0.000000e+00 0.000000e+00
 0.000000e+00 0.000000e+00 0.000000e+00 0.000000e+00 8.357774e-01 1.642226e-01 0.000000e+00 0.000000e+00 0.000000e+00 0.000000e+00
 0.000000e+00 0.000000e+00 0.000000e+00 0.000000e+00 0.000000e+00 8.357773e-01 1.642227e-01 0.000000e+00 0.000000e+00 0.000000e+00
 0.000000e+00 0.000000e+00 0.000000e+00 0.000000e+00 0.000000e+00 0.000000e+00 8.357773e-01 1.642226e-01 0.000000e+00 0.000000e+00
 0.000000e+00 0.000000e+00 0.000000e+00 0.000000e+00 0.000000e+00 0.000000e+00 0.000000e+00 8.357771e-01 1.642229e-01 0.000000e+00
 0.000000e+00 0.000000e+00 0.000000e+00 0.000000e+00 0.000000e+00 0.000000e+00 0.000000e+00 0.000000e+00 9.763634e-01 2.363654e-02
 0.000000e+00 0.000000e+00 0.000000e+00 0.000000e+00 0.000000e+00 0.000000e+00 0.000000e+00 0.000000e+00 0.000000e+00 0.000000e+00
<ENDHMM>
~h "dnu"
<BEGINHMM>
<NUMSTATES> 5
<STATE> 2
<MEAN> 39
 -3.480459e+00 1.363080e+00 8.735009e-02 3.202151e+00 -1.758935e+00 -4.178675e+00 1.037258e+00 -5.075273e+00 -3.753037e+00 -3.158867e+00 -6.813172e-01 -1.552786e+00 3.481649e+01 1.575684e-01 2.889862e-02 -3.060571e-02 -3.215221e-02 -9.066483e-02 -6.552503e-02 9.137165e-02 -3.305071e-02 -6.047759e-02 -4.159920e-02 -1.300794e-02 -2.931237e-02 1.836463e-01 -2.876404e-03 6.238575e-05 -4.780205e-03 -6.767733e-03 -2.901260e-03 2.691842e-03 1.765881e-03 4.948353e-03 1.057557e-03 1.348079e-03 9.155733e-04 1.053353e-03 -1.136160e-02
<VARIANCE> 39
 6.165459e+01 2.902370e+01 2.946678e+01 3.484114e+01 3.227127e+01 2.847165e+01 3.913010e+01 4.539599e+01 2.614710e+01 1.610152e+01 1.880635e+01 1.454691e+01 1.018127e+02 7.980283e-01 1.645068e+00 1.331261e+00 1.005627e+00 1.506116e+00 1.496912e+00 1.948315e+00 1.973733e+00 1.385234e+00 9.105064e-01 9.811423e-01 7.551569e-01 1.718417e+00 1.271152e-01 2.893483e-01 2.368668e-01 1.704630e-01 2.477153e-01 2.909577e-01 3.349001e-01 3.195208e-01 2.627189e-01 1.624744e-01 1.757529e-01 1.277581e-01 2.608725e-01
<GCONST> 1.002099e+02
<STATE> 3
<MEAN> 39
 -2.574910e+00 1.609813e+00 -1.982874e-01 2.806433e+00 -2.374104e+00 -4.489031e+00 1.642220e+00 -5.134676e+00 -4.135421e+00 -3.411225e+00 -7.425520e-01 -1.704844e+00 3.560482e+01 1.347847e-01 4.727677e-02 -4.300809e-02 -7.200826e-02 -9.466184e-02 -4.012852e-02 9.388521e-02 2.181993e-03 -5.472019e-02 -3.887063e-02 -1.116497e-02 -2.144629e-02 1.047244e-01 -4.398576e-03 2.657980e-03 -1.331216e-03 -5.443116e-03 3.370190e-04 4.313056e-03 -1.093356e-04 5.427107e-03 1.163454e-03 5.848136e-04 2.851406e-04 1.295309e-03 -1.271317e-02
<VARIANCE> 39
 6.491522e+01 3.141450e+01 2.728212e+01 3.790966e+01 3.369114e+01 2.796025e+01 4.150012e+01 4.664802e+01 2.831131e+01 1.716772e+01 2.043026e+01 1.519695e+01 9.578918e+01 6.962070e-01 1.473517e+00 1.149426e+00 9.670671e-01 1.448260e+00 1.444664e+00 1.859017e+00 1.923859e+00 1.384714e+00 8.878272e-01 9.854221e-01 7.613536e-01 1.412781e+00 1.099830e-01 2.571585e-01 2.043835e-01 1.629583e-01 2.370215e-01 2.785743e-01 3.122662e-01 3.082972e-01 2.555698e-01 1.559215e-01 1.752134e-01 1.264560e-01 2.113556e-01
<GCONST> 9.893828e+01
<STATE> 4
<MEAN> 39
 -3.548657e+00 2.393761e+00 -6.197327e-01 5.258554e-01 -2.642885e+00 -3.827924e+00 1.729430e+00 -3.413640e+00 -3.908580e+00 -3.639801e+00 -1.496987e+00 -1.857478e+00 3.309951e+01 -7.574201e-03 6.494057e-02 -8.835549e-03 -8.168998e-02 -1.597818e-02 4.443473e-02 2.473246e-02 7.222162e-02 1.294433e-02 -1.024964e-02 -1.467010e-02 4.442271e-03 -7.063264e-02 -6.141387e-03 -1.235653e-03 1.753403e-03 1.942405e-03 4.317383e-03 3.042160e-03 -2.729392e-03 1.514158e-03 2.832025e-03 1.816528e-03 3.910364e-04 9.977446e-04 -6.065596e-03
<VARIANCE> 39
 6.802559e+01 3.151502e+01 1.975964e+01 3.015558e+01 3.053696e+01 2.513803e+01 3.956290e+01 3.258273e+01 2.714401e+01 1.923364e+01 2.410823e+01 1.815080e+01 7.517627e+01 4.053247e-01 8.668556e-01 7.170296e-01 7.894803e-01 1.161206e+00 1.167963e+00 1.447042e+00 1.473388e+00 1.249564e+00 8.242646e-01 8.779830e-01 7.475570e-01 5.290515e-01 5.534758e-02 1.379914e-01 1.193750e-01 1.341183e-01 1.865749e-01 2.256415e-01 2.351601e-01 2.445429e-01 2.110259e-01 1.365256e-01 1.467696e-01 1.206173e-01 7.356504e-02
<GCONST> 8.939668e+01
<TRANSP> 5
 0.000000e+00 1.000000e+00 0.000000e+00 0.000000e+00 0.000000e+00
 0.000000e+00 8.402895e-01 1.597106e-01 0.000000e+00 0.000000e+00
 0.000000e+00 0.000000e+00 8.402892e-01 1.597108e-01 0.000000e+00
 0.000000e+00 0.000000e+00 0.000000e+00 9.764585e-01 2.354148e-02
 0.000000e+00 0.000000e+00 0.000000e+00 0.000000e+00 0.000000e+00
<ENDHMM>
~h "rok"
<BEGINHMM>
<NUMSTATES> 10
<STATE> 2
<MEAN> 39
 -8.220011e+00 -2.454712e+00 -4.648488e+00 -1.662580e+00 -2.732318e-01 -3.841160e+00 -1.373841e-01 -2.169158e+00 1.050128e+00 -1.017357e+00 -2.270397e-02 -2.585249e-01 3.084417e+01 3.014541e-01 -7.416969e-02 -1.123362e-01 -7.273732e-02 4.766462e-02 -2.042109e-01 5.282170e-02 -6.634928e-02 3.356268e-02 6.872240e-03 2.025839e-02 -7.289728e-03 4.728955e-01 1.306011e-02 -2.608725e-03 -3.311865e-03 -4.645822e-03 -2.319014e-03 -5.733937e-03 -3.528180e-04 1.929829e-03 -4.377570e-03 -2.220099e-03 2.866611e-03 1.981838e-03 1.126478e-02
<VARIANCE> 39
 5.703806e+01 2.681247e+01 1.655522e+01 2.016260e+01 1.571069e+01 4.205729e+01 2.113355e+01 2.123242e+01 1.766625e+01 1.449095e+01 1.617830e+01 5.480407e+00 1.312346e+02 1.934053e+00 1.506409e+00 1.401694e+00 1.745770e+00 1.479326e+00 1.960513e+00 1.787470e+00 1.470528e+00 1.221754e+00 1.186187e+00 9.746189e-01 5.743815e-01 2.613002e+00 3.176924e-01 2.616836e-01 2.786593e-01 3.237711e-01 2.821811e-01 3.359824e-01 3.412828e-01 2.440058e-01 2.274581e-01 2.144302e-01 1.742205e-01 1.149963e-01 3.254780e-01
<GCONST> 9.928630e+01
<STATE> 3
<MEAN> 39
 -6.598013e+00 -2.964628e+00 -5.213562e+00 -2.084418e+00 -9.017847e-02 -4.945657e+00 1.069239e-01 -2.499215e+00 1.148923e+00 -1.029278e+00 5.801199e-02 -2.606222e-01 3.337068e+01 3.148409e-01 -9.364650e-02 -1.142746e-01 -9.963641e-02 3.248226e-02 -2.022776e-01 4.322734e-02 -4.504589e-02 -2.899143e-03 -6.230732e-03 2.783787e-02 5.533140e-03 4.947763e-01 -3.305441e-03 -2.768541e-03 1.205740e-03 -6.625195e-03 -3.119303e-03 3.837138e-03 -1.748767e-03 6.138011e-03 -8.502822e-03 -3.267459e-03 1.106597e-03 2.724575e-03 -9.459126e-05
<VARIANCE> 39
 6.649023e+01 2.970270e+01 1.895560e+01 2.666946e+01 1.720725e+01 4.514494e+01 2.400650e+01 2.479469e+01 2.104691e+01 1.652345e+01 1.869436e+01 6.064467e+00 1.521539e+02 2.029794e+00 1.509599e+00 1.541765e+00 2.050077e+00 1.568875e+00 2.223728e+00 2.049220e+00 1.752892e+00 1.385418e+00 1.301349e+00 1.065553e+00 6.460131e-01 2.733568e+00 3.278333e-01 2.403649e-01 2.987930e-01 3.603314e-01 2.943770e-01 3.779318e-01 3.837863e-01 2.877304e-01 2.517071e-01 2.281291e-01 1.891979e-01 1.295125e-01 3.140290e-01
<GCONST> 1.032693e+02
<STATE> 4
<MEAN> 39
 -5.199434e+00 -3.532699e+00 -5.710865e+00 -2.663334e+00 3.245594e-02 -5.854326e+00 2.950673e-01 -2.640383e+00 1.013851e+00 -1.105089e+00 1.417689e-01 -1.971024e-01 3.574134e+01 2.416595e-01 -9.415317e-02 -9.165528e-02 -1.366484e-01 2.039854e-02 -1.459724e-01 3.528407e-02 1.405455e-03 -5.352055e-02 -2.288255e-02 2.629915e-02 1.818443e-02 4.346642e-01 -1.946857e-02 2.410822e-03 6.023251e-03 -7.416676e-03 -2.253746e-03 1.432252e-02 -7.394092e-04 1.002864e-02 -9.804952e-03 -3.646185e-03 -9.964427e-04 2.097033e-03 -1.840027e-02
<VARIANCE> 39
 7.000364e+01 3.274188e+01 2.013873e+01 3.614707e+01 1.864602e+01 4.577182e+01 2.707804e+01 2.814960e+01 2.495579e+01 1.878489e+01 2.131288e+01 6.759037e+00 1.654662e+02 1.935964e+00 1.569038e+00 1.580187e+00 2.395968e+00 1.656324e+00 2.419373e+00 2.336941e+00 2.017866e+00 1.544794e+00 1.431853e+00 1.165270e+00 7.339320e-01 2.845957e+00 3.046131e-01 2.246374e-01 3.021557e-01 3.942207e-01 3.072787e-01 4.090652e-01 4.315996e-01 3.320518e-01 2.761090e-01 2.438250e-01 2.067273e-01 1.469238e-01 3.109036e-01
<GCONST> 1.064971e+02
<STATE> 5
<MEAN> 39
 -4.363727e+00 -3.969997e+00 -6.046263e+00 -3.419211e+00 1.336305e-01 -6.335744e+00 4.702238e-01 -2.501867e+00 6.337555e-01 -1.248519e+00 2.069893e-01 -9.433081e-02 3.751590e+01 1.125381e-01 -5.521462e-02 -5.411953e-02 -1.675377e-01 1.670284e-02 -5.012807e-02 3.807466e-02 5.571773e-02 -9.611650e-02 -3.681348e-02 1.853479e-02 2.269147e-02 2.861434e-01 -2.743896e-02 9.229891e-03 7.850595e-03 -3.492257e-03 -3.718498e-04 2.006919e-02 8.903930e-04 9.166948e-03 -6.042659e-03 -1.835859e-03 -2.627783e-03 2.369692e-05 -3.450205e-02
<VARIANCE> 39
 6.821501e+01 3.612412e+01 1.989954e+01 4.803616e+01 2.003782e+01 4.535146e+01 2.989241e+01 3.114753e+01 2.912325e+01 2.103331e+01 2.374392e+01 7.521023e+00 1.705964e+02 1.690947e+00 1.714856e+00 1.518759e+00 2.746651e+00 1.747530e+00 2.530606e+00 2.554526e+00 2.205403e+00 1.702281e+00 1.554784e+00 1.254882e+00 8.349578e-01 2.957306e+00 2.600485e-01 2.225434e-01 2.895264e-01 4.236284e-01 3.217181e-01 4.287882e-01 4.646842e-01 3.681107e-01 3.029724e-01 2.578576e-01 2.224187e-01 1.665318e-01 3.118813e-01
<GCONST> 1.088475e+02
<STATE> 6
<MEAN> 39
 -4.220033e+00 -4.089937e+00 -6.211034e+00 -4.246228e+00 2.563213e-01 -6.286664e+00 6.767051e-01 -2.123678e+00 1.182768e-01 -1.416645e+00 2.477690e-01 -6.106449e-03 3.835716e+01 -2.549530e-02 7.857707e-03 -2.063600e-02 -1.623333e-01 2.230367e-02 5.324066e-02 4.295443e-02 8.963450e-02 -1.070337e-01 -3.425368e-02 6.454219e-03 1.535005e-02 8.493590e-02 -2.570026e-02 1.056462e-02 6.208326e-03 6.057849e-03 1.960359e-03 1.852060e-02 -8.505997e-04 3.231225e-03 1.357558e-03 3.161630e-03 -3.927619e-03 -2.359232e-03 -4.021479e-02
<VARIANCE> 39
 6.336716e+01 4.005386e+01 1.885165e+01 5.973149e+01 2.146742e+01 4.551179e+01 3.202033e+01 3.337678e+01 3.283425e+01 2.286196e+01 2.551578e+01 8.188225e+00 1.712288e+02 1.403808e+00 1.919633e+00 1.424228e+00 3.027497e+00 1.848155e+00 2.577758e+00 2.632476e+00 2.286273e+00 1.865309e+00 1.633496e+00 1.308417e+00 9.272030e-01 3.103644e+00 2.136235e-01 2.355637e-01 2.727845e-01 4.433390e-01 3.378884e-01 4.407871e-01 4.698439e-01 3.886652e-01 3.340096e-01 2.637591e-01 2.307126e-01 1.840990e-01 3.188385e-01
<GCONST> 1.103184e+02
<STATE> 7
<MEAN> 39
 -4.698233e+00 -3.878201e+00 -6.263413e+00 -4.898118e+00 4.325547e-01 -5.763042e+00 8.615991e-01 -1.655931e+00 -3.484501e-01 -1.502029e+00 2.488845e-01 1.760056e-02 3.816143e+01 -1.344105e-01 5.459557e-02 5.135033e-05 -1.009385e-01 3.791796e-02 1.310111e-01 2.495141e-02 8.810908e-02 -8.018358e-02 -2.238355e-03 -1.103049e-02 -1.239800e-03 -1.091991e-01 -1.703236e-02 4.588201e-03 4.115160e-03 1.674626e-02 4.902493e-03 1.071201e-02 -7.212702e-03 -3.620599e-03 7.782761e-03 9.734079e-03 -4.923604e-03 -3.947796e-03 -3.204276e-02
<VARIANCE> 39
 5.703818e+01 4.361945e+01 1.778588e+01 6.772050e+01 2.316203e+01 4.640125e+01 3.327655e+01 3.431067e+01 3.528557e+01 2.396413e+01 2.609123e+01 8.571163e+00 1.694783e+02 1.172158e+00 2.117713e+00 1.367376e+00 3.138547e+00 1.971537e+00 2.584910e+00 2.571255e+00 2.280656e+00 2.025041e+00 1.636921e+00 1.305647e+00 9.800233e-01 3.319166e+00 1.783444e-01 2.583417e-01 2.635570e-01 4.443673e-01 3.573288e-01 4.461017e-01 4.481725e-01 3.936238e-01 3.672807e-01 2.562972e-01 2.278550e-01 1.940065e-01 3.383457e-01
<GCONST> 1.109420e+02
<STATE> 8
<MEAN> 39
 -5.599415e+00 -3.516937e+00 -6.250521e+00 -5.107756e+00 7.027227e-01 -4.950970e+00 8.541431e-01 -1.259367e+00 -6.172495e-01 -1.363227e+00 1.792361e-01 -4.839904e-02 3.712289e+01 -1.918608e-01 5.791707e-02 1.590169e-02 4.083703e-03 6.727350e-02 1.611681e-01 -3.172171e-02 5.967148e-02 -3.268194e-02 5.830867e-02 -3.275768e-02 -2.171358e-02 -2.317545e-01 -4.923136e-03 -3.014306e-03 4.537642e-03 2.218666e-02 7.847610e-03 2.440200e-04 -1.365867e-02 -7.046381e-03 9.681242e-03 1.365324e-02 -4.721530e-03 -4.387876e-03 -1.328819e-02
<VARIANCE> 39
 4.982071e+01 4.486726e+01 1.724739e+01 6.992060e+01 2.556825e+01 4.660623e+01 3.394505e+01 3.375515e+01 3.599286e+01 2.456063e+01 2.516055e+01 8.596144e+00 1.638311e+02 1.033787e+00 2.229527e+00 1.383456e+00 3.008724e+00 2.127980e+00 2.547100e+00 2.425979e+00 2.232953e+00 2.143111e+00 1.563158e+00 1.244978e+00 9.750959e-01 3.604003e+00 1.574262e-01 2.791937e-01 2.673444e-01 4.207149e-01 3.821199e-01 4.402716e-01 4.128104e-01 3.899959e-01 3.954310e-01 2.367084e-01 2.145189e-01 1.929565e-01 3.739116e-01
<GCONST> 1.107414e+02
<STATE> 9
<MEAN> 39
 -9.400928e+00 -2.896710e+00 -5.358196e+00 -2.332321e+00 8.545686e-01 -2.932753e+00 -6.475306e-01 -9.207991e-01 1.190338e-01 -5.300332e-01 -1.977274e-01 -3.586994e-01 3.061344e+01 -1.169209e-01 3.727959e-02 4.159985e-02 9.857073e-02 5.093195e-02 1.003191e-01 -9.712692e-02 3.055972e-02 -5.340091e-03 7.574850e-02 -1.021949e-02 -2.336845e-02 -1.721545e-01 6.860695e-03 -2.259571e-03 5.226622e-03 7.788565e-03 2.596504e-03 -5.519347e-03 -4.756823e-03 -3.220392e-03 2.640192e-03 3.006974e-03 -6.514207e-04 -1.194579e-03 6.386700e-03
<VARIANCE> 39
 3.027274e+01 3.260193e+01 1.500296e+01 4.731161e+01 2.659378e+01 3.588067e+01 2.570678e+01 2.364102e+01 2.742450e+01 1.721632e+01 1.617166e+01 6.692313e+00 1.172806e+02 6.727231e-01 1.532353e+00 1.288644e+00 1.735299e+00 1.962240e+00 1.821208e+00 1.680254e+00 1.692992e+00 1.795257e+00 1.031917e+00 8.811248e-01 7.087561e-01 2.484234e+00 1.034239e-01 2.020824e-01 2.493896e-01 2.518781e-01 3.560306e-01 2.963433e-01 2.955796e-01 3.017085e-01 3.435574e-01 1.587727e-01 1.490775e-01 1.416683e-01 2.761886e-01
<GCONST> 9.886891e+01
<TRANSP> 10
 0.000000e+00 1.000000e+00 0.000000e+00 0.000000e+00 0.000000e+00 0.000000e+00 0.000000e+00 0.000000e+00 0.000000e+00 0.000000e+00
 0.000000e+00 8.193575e-01 1.806425e-01 0.000000e+00 0.000000e+00 0.000000e+00 0.000000e+00 0.000000e+00 0.000000e+00 0.000000e+00
 0.000000e+00 0.000000e+00 8.193575e-01 1.806425e-01 0.000000e+00 0.000000e+00 0.000000e+00 0.000000e+00 0.000000e+00 0.000000e+00
 0.000000e+00 0.000000e+00 0.000000e+00 8.193575e-01 1.806425e-01 0.000000e+00 0.000000e+00 0.000000e+00 0.000000e+00 0.000000e+00
 0.000000e+00 0.000000e+00 0.000000e+00 0.000000e+00 8.193576e-01 1.806423e-01 0.000000e+00 0.000000e+00 0.000000e+00 0.000000e+00
 0.000000e+00 0.000000e+00 0.000000e+00 0.000000e+00 0.000000e+00 8.193576e-01 1.806424e-01 0.000000e+00 0.000000e+00 0.000000e+00
 0.000000e+00 0.000000e+00 0.000000e+00 0.000000e+00 0.000000e+00 0.000000e+00 8.193574e-01 1.806426e-01 0.000000e+00 0.000000e+00
 0.000000e+00 0.000000e+00 0.000000e+00 0.000000e+00 0.000000e+00 0.000000e+00 0.000000e+00 8.193578e-01 1.806422e-01 0.000000e+00
 0.000000e+00 0.000000e+00 0.000000e+00 0.000000e+00 0.000000e+00 0.000000e+00 0.000000e+00 0.000000e+00 9.605828e-01 3.941725e-02
 0.000000e+00 0.000000e+00 0.000000e+00 0.000000e+00 0.000000e+00 0.000000e+00 0.000000e+00 0.000000e+00 0.000000e+00 0.000000e+00
<ENDHMM>
~h "sil"
<BEGINHMM>
<NUMSTATES> 5
<STATE> 2
<MEAN> 39
 -8.259454e+00 8.056432e-01 -1.164109e+00 -1.389852e+00 -7.514630e-02 -1.227859e+00 9.566713e-02 -1.928501e+00 -7.948084e-01 -1.476890e+00 1.307726e-01 -2.505714e-02 2.714861e+01 -4.511852e-02 4.847165e-02 4.571570e-02 6.003831e-02 3.279110e-02 4.372930e-02 -3.728873e-02 2.695277e-02 4.831688e-03 -7.870182e-03 -1.424894e-02 -2.538152e-02 1.448760e-02 -2.739796e-03 -1.232645e-03 1.971271e-03 8.010562e-03 5.503736e-03 -3.761415e-03 4.346143e-03 -8.849165e-03 -8.431113e-04 1.874529e-03 1.645402e-03 5.135754e-03 2.470599e-02
<VARIANCE> 39
 4.817048e+01 2.256902e+01 2.707725e+01 3.136824e+01 2.018026e+01 2.306766e+01 2.229813e+01 2.367446e+01 1.720960e+01 1.581639e+01 1.152734e+01 6.925194e+00 2.004755e+02 8.271050e-01 8.831228e-01 1.090079e+00 1.285577e+00 1.091071e+00 1.286538e+00 1.362391e+00 1.175908e+00 1.074155e+00 9.339896e-01 6.961818e-01 5.823634e-01 1.638122e+00 1.126189e-01 1.407287e-01 1.668255e-01 1.957647e-01 1.873073e-01 2.139526e-01 2.275036e-01 1.997387e-01 1.814794e-01 1.625738e-01 1.196597e-01 1.058911e-01 2.080906e-01
<GCONST> 9.020376e+01
<STATE> 3
<MEAN> 39
 -8.669492e+00 1.096032e+00 -9.420099e-01 -9.941102e-01 1.021021e-01 -1.112666e+00 1.911677e-03 -1.915549e+00 -8.230772e-01 -1.456956e+00 1.589667e-01 -1.012637e-01 2.798392e+01 -6.500878e-02 4.454884e-02 4.399920e-02 7.068431e-02 2.798399e-02 1.169662e-02 -9.300122e-03 -7.519053e-03 -1.292443e-03 4.682922e-03 8.850565e-03 -1.055002e-02 1.455077e-01 -2.003057e-03 -3.901458e-04 -1.536545e-03 -2.213458e-04 -2.605784e-03 -4.126444e-03 4.857761e-03 -7.060116e-03 -1.597399e-03 1.366905e-03 3.653751e-03 1.917609e-03 2.034515e-02
<VARIANCE> 39
 4.404908e+01 2.296710e+01 2.749833e+01 2.880674e+01 2.101454e+01 2.291868e+01 2.217539e+01 2.214500e+01 1.592126e+01 1.590989e+01 1.132044e+01 6.771867e+00 1.612966e+02 9.926562e-01 8.652867e-01 1.096815e+00 1.214537e+00 1.124712e+00 1.254303e+00 1.342473e+00 1.164307e+00 1.021987e+00 9.463006e-01 7.060052e-01 5.776830e-01 2.210202e+00 1.372654e-01 1.511121e-01 1.829584e-01 1.989426e-01 2.063695e-01 2.333117e-01 2.460737e-01 2.103081e-01 1.908399e-01 1.718653e-01 1.295224e-01 1.101154e-01 2.970068e-01
<GCONST> 9.132545e+01
<STATE> 4
<MEAN> 39
 -9.392939e+00 9.927302e-01 -7.801048e-01 -9.521528e-01 -3.616581e-01 -1.663675e+00 -6.168007e-02 -2.247071e+00 -7.954021e-01 -1.807013e+00 7.657150e-04 -1.499827e-01 2.985063e+01 -7.721255e-03 1.155375e-02 2.722143e-02 1.987148e-02 5.649348e-04 -1.430239e-02 8.369552e-04 -1.814221e-02 2.737617e-03 -4.172151e-03 2.703515e-03 -9.115828e-04 7.506866e-02 2.837398e-03 -1.210018e-03 -5.085573e-04 -2.038557e-03 -1.257106e-03 -2.083000e-03 -7.474697e-04 -2.111157e-03 -8.792732e-04 -4.473191e-04 -1.037200e-03 6.159411e-04 -7.365464e-04
<VARIANCE> 39
 3.590187e+01 2.226421e+01 3.227207e+01 2.969454e+01 2.030446e+01 2.633047e+01 2.310052e+01 2.493604e+01 1.705645e+01 1.818331e+01 1.261956e+01 7.925315e+00 1.035253e+02 8.394658e-01 8.291644e-01 1.043781e+00 1.299687e+00 1.151552e+00 1.314411e+00 1.339646e+00 1.217013e+00 1.060656e+00 1.011339e+00 8.025447e-01 6.191084e-01 1.601180e+00 1.195790e-01 1.382274e-01 1.717616e-01 2.120826e-01 2.071268e-01 2.374962e-01 2.421365e-01 2.145594e-01 1.958597e-01 1.807440e-01 1.489803e-01 1.161999e-01 2.033585e-01
<GCONST> 9.115874e+01
<TRANSP> 5
 0.000000e+00 1.000000e+00 0.000000e+00 0.000000e+00 0.000000e+00
 0.000000e+00 8.302476e-01 1.697524e-01 0.000000e+00 0.000000e+00
 0.000000e+00 0.000000e+00 8.302473e-01 1.697527e-01 0.000000e+00
 0.000000e+00 0.000000e+00 0.000000e+00 9.701292e-01 2.987076e-02
 0.000000e+00 0.000000e+00 0.000000e+00 0.000000e+00 0.000000e+00
<ENDHMM>
~h "zobraz"
<BEGINHMM>
<NUMSTATES> 10
<STATE> 2
<MEAN> 39
 -8.737654e+00 2.288282e+00 -1.023993e-01 -3.422129e+00 1.608335e+00 -3.974667e+00 -1.923159e+00 -4.727416e+00 8.865770e-02 -1.565037e+00 -1.561779e+00 -4.988504e-01 3.802180e+01 1.360267e-01 -2.902746e-02 6.809411e-03 -7.118978e-02 -2.676598e-02 -4.455465e-02 4.737267e-02 -1.001264e-01 -1.811258e-02 -4.249909e-02 3.426436e-02 -8.820547e-03 2.854670e-01 1.186818e-02 -3.198741e-03 -1.532468e-03 5.986868e-03 -2.550009e-03 -1.775858e-03 8.247900e-03 6.964489e-03 -1.130807e-03 -4.273976e-03 6.795103e-04 1.033997e-03 -1.963716e-02
<VARIANCE> 39
 5.122807e+01 3.352182e+01 2.192183e+01 3.731940e+01 2.282114e+01 5.183455e+01 4.205808e+01 3.606337e+01 1.842739e+01 1.517897e+01 1.851719e+01 8.298625e+00 1.498882e+02 2.187704e+00 1.627791e+00 1.471707e+00 2.324083e+00 1.490510e+00 1.749779e+00 1.957885e+00 1.512034e+00 1.411552e+00 9.909789e-01 8.264472e-01 6.258773e-01 2.520215e+00 3.136821e-01 2.549492e-01 2.733544e-01 3.605022e-01 2.529801e-01 2.808230e-01 3.013850e-01 2.763005e-01 2.644760e-01 1.771742e-01 1.415379e-01 1.169669e-01 3.315394e-01
<GCONST> 1.028166e+02
<STATE> 3
<MEAN> 39
 -7.785994e+00 2.102971e+00 -1.420139e-01 -3.762120e+00 1.477145e+00 -4.346643e+00 -1.545690e+00 -5.237679e+00 1.972791e-02 -1.854684e+00 -1.492387e+00 -5.179083e-01 3.936979e+01 1.794943e-01 -5.508371e-02 -1.298510e-02 -5.076551e-02 -3.825863e-02 -6.137111e-02 8.679041e-02 -6.788961e-02 -1.252687e-02 -4.937264e-02 2.656308e-02 -2.121444e-03 2.095285e-01 4.989694e-03 -5.701246e-03 -4.076074e-03 2.988265e-03 -1.498428e-03 -5.087083e-03 8.149743e-03 8.011529e-03 1.845075e-03 -6.614187e-04 -2.445796e-03 1.571689e-03 -1.124011e-02
<VARIANCE> 39
 5.583619e+01 3.827457e+01 2.341381e+01 4.095340e+01 2.490217e+01 5.014994e+01 4.496468e+01 3.580544e+01 2.059341e+01 1.692806e+01 1.822289e+01 8.619686e+00 1.387535e+02 2.255011e+00 1.858820e+00 1.599739e+00 2.707674e+00 1.726602e+00 1.943110e+00 2.249693e+00 1.805224e+00 1.585855e+00 1.075446e+00 9.557127e-01 7.004047e-01 2.698668e+00 3.196709e-01 2.802977e-01 2.862021e-01 4.241902e-01 2.874823e-01 3.109260e-01 3.379256e-01 3.332587e-01 2.942048e-01 1.890788e-01 1.622317e-01 1.315097e-01 3.529679e-01
<GCONST> 1.063063e+02
<STATE> 4
<MEAN> 39
 -6.747293e+00 1.729897e+00 -3.229743e-01 -4.039093e+00 1.280881e+00 -4.802028e+00 -9.745541e-01 -5.578111e+00 4.075590e-02 -2.141446e+00 -1.451491e+00 -4.935504e-01 4.040295e+01 1.804595e-01 -9.294308e-02 -4.095823e-02 -4.502464e-02 -4.379403e-02 -8.502430e-02 1.243162e-01 -3.043398e-02 7.844425e-03 -4.588430e-02 1.703706e-02 7.273636e-03 1.651251e-01 -2.721182e-03 -6.762155e-03 -5.699900e-03 -4.268010e-04 9.445811e-04 -5.548718e-03 6.916063e-03 7.151507e-03 4.199158e-03 1.092291e-03 -2.768667e-03 2.026665e-03 -5.621479e-03
<VARIANCE> 39
 5.766426e+01 4.387936e+01 2.504489e+01 4.434084e+01 2.717815e+01 4.867268e+01 4.710733e+01 3.447116e+01 2.252264e+01 1.891655e+01 1.896377e+01 8.986688e+00 1.302629e+02 2.245656e+00 2.039134e+00 1.733593e+00 3.105211e+00 1.985605e+00 2.089553e+00 2.513224e+00 2.110751e+00 1.731078e+00 1.201213e+00 1.085369e+00 7.586192e-01 2.927473e+00 3.164841e-01 2.962724e-01 3.018696e-01 4.986390e-01 3.292042e-01 3.390149e-01 3.793854e-01 3.938174e-01 3.192954e-01 2.103771e-01 1.850586e-01 1.428904e-01 3.908860e-01
<GCONST> 1.094495e+02
<STATE> 5
<MEAN> 39
 -5.813509e+00 1.154112e+00 -6.587076e-01 -4.282532e+00 1.082982e+00 -5.334655e+00 -2.621171e-01 -5.729807e+00 1.847021e-01 -2.372701e+00 -1.409912e+00 -4.318003e-01 4.124242e+01 1.474105e-01 -1.232950e-01 -7.152789e-02 -4.387179e-02 -3.113349e-02 -1.013354e-01 1.453847e-01 1.472935e-03 2.963964e-02 -3.249706e-02 1.321960e-02 1.425844e-02 1.391773e-01 -8.714657e-03 -2.911449e-03 -5.997062e-03 -2.395082e-04 5.177058e-03 -2.499023e-03 2.442406e-03 4.619959e-03 3.291971e-03 2.987278e-03 -1.455206e-03 1.104131e-03 -3.904487e-03
<VARIANCE> 39
 5.766463e+01 4.963688e+01 2.673340e+01 4.768947e+01 2.914226e+01 4.755739e+01 4.793835e+01 3.279929e+01 2.416737e+01 2.115885e+01 2.052256e+01 9.413800e+00 1.231466e+02 2.199210e+00 2.144136e+00 1.871625e+00 3.462667e+00 2.215620e+00 2.179715e+00 2.697647e+00 2.381753e+00 1.828520e+00 1.348677e+00 1.196426e+00 7.959538e-01 3.101000e+00 3.116901e-01 3.012128e-01 3.213171e-01 5.696397e-01 3.688366e-01 3.593759e-01 4.153332e-01 4.505259e-01 3.360698e-01 2.379927e-01 2.053794e-01 1.510709e-01 4.272217e-01
<GCONST> 1.119260e+02
<STATE> 6
<MEAN> 39
 -5.128293e+00 4.673930e-01 -1.133247e+00 -4.479513e+00 9.845607e-01 -5.879966e+00 4.760890e-01 -5.719393e+00 4.109046e-01 -2.482456e+00 -1.333354e+00 -3.604602e-01 4.195705e+01 8.861687e-02 -1.254941e-01 -9.646119e-02 -3.504839e-02 1.234297e-03 -9.805530e-02 1.407144e-01 2.372389e-02 3.869992e-02 -7.625160e-03 1.584378e-02 1.424313e-02 1.170172e-01 -1.335966e-02 3.653056e-03 -4.003032e-03 2.664507e-03 8.032706e-03 2.704677e-03 -2.976042e-03 2.629037e-03 1.541435e-04 4.905796e-03 -1.020920e-05 -5.593238e-04 -5.127011e-03
<VARIANCE> 39
 5.734070e+01 5.374023e+01 2.820536e+01 5.044276e+01 3.056120e+01 4.654410e+01 4.731850e+01 3.129924e+01 2.531543e+01 2.370357e+01 2.238984e+01 9.843355e+00 1.168878e+02 2.144982e+00 2.185448e+00 1.993015e+00 3.711248e+00 2.360747e+00 2.231762e+00 2.786000e+00 2.561975e+00 1.879068e+00 1.489486e+00 1.278377e+00 8.155957e-01 3.151646e+00 3.073619e-01 2.983395e-01 3.403304e-01 6.193271e-01 3.961714e-01 3.713363e-01 4.380290e-01 4.923787e-01 3.438350e-01 2.661675e-01 2.203434e-01 1.569249e-01 4.467000e-01
<GCONST> 1.135186e+02
<STATE> 7
<MEAN> 39
 -4.817904e+00 -1.722319e-01 -1.685491e+00 -4.598980e+00 1.062076e+00 -6.331412e+00 1.128670e+00 -5.577642e+00 6.381031e-01 -2.421648e+00 -1.213495e+00 -3.096861e-01 4.254871e+01 7.448289e-03 -9.659185e-02 -1.041455e-01 -1.521975e-02 4.096341e-02 -6.922783e-02 1.155190e-01 4.150836e-02 3.123459e-02 2.308103e-02 2.028283e-02 8.159772e-03 8.733087e-02 -1.704816e-02 8.327908e-03 3.527176e-04 5.486311e-03 7.332642e-03 8.060335e-03 -6.575414e-03 2.569239e-03 -2.556403e-03 5.356587e-03 7.414785e-04 -1.594856e-03 -7.352448e-03
<VARIANCE> 39
 5.820255e+01 5.472824e+01 2.910487e+01 5.180069e+01 3.162639e+01 4.537843e+01 4.552912e+01 3.006433e+01 2.581914e+01 2.642374e+01 2.392236e+01 1.015272e+01 1.113258e+02 2.088356e+00 2.185282e+00 2.078257e+00 3.798495e+00 2.397285e+00 2.279126e+00 2.790344e+00 2.606394e+00 1.895699e+00 1.590063e+00 1.325959e+00 8.212713e-01 3.049692e+00 3.000075e-01 2.921916e-01 3.542404e-01 6.360064e-01 4.063207e-01 3.800428e-01 4.466080e-01 5.078601e-01 3.445479e-01 2.874627e-01 2.289801e-01 1.608648e-01 4.407109e-01
<GCONST> 1.141439e+02
<STATE> 8
<MEAN> 39
 -4.994533e+00 -6.261976e-01 -2.203847e+00 -4.612608e+00 1.324927e+00 -6.568709e+00 1.634136e+00 -5.309990e+00 7.951970e-01 -2.198671e+00 -1.071753e+00 -2.908743e-01 4.296323e+01 -8.965205e-02 -5.111289e-02 -8.670186e-02 1.167586e-02 7.222225e-02 -1.800872e-02 8.068434e-02 6.199729e-02 1.489000e-02 4.790748e-02 2.331560e-02 1.101064e-03 4.587740e-02 -1.824798e-02 8.840277e-03 5.047694e-03 6.205868e-03 3.959944e-03 1.109569e-02 -7.772122e-03 3.589438e-03 -2.662401e-03 3.613448e-03 1.194763e-03 -1.384553e-03 -8.872193e-03
<VARIANCE> 39
 6.142858e+01 5.267570e+01 2.928675e+01 5.134762e+01 3.267335e+01 4.403984e+01 4.290409e+01 2.898905e+01 2.567199e+01 2.875263e+01 2.450236e+01 1.022712e+01 1.067056e+02 2.015532e+00 2.146368e+00 2.127262e+00 3.711667e+00 2.347998e+00 2.337657e+00 2.738099e+00 2.504670e+00 1.885781e+00 1.625162e+00 1.332976e+00 8.148879e-01 2.802479e+00 2.859437e-01 2.850266e-01 3.625418e-01 6.196536e-01 4.023124e-01 3.907072e-01 4.459238e-01 4.916303e-01 3.401987e-01 2.955616e-01 2.305948e-01 1.627740e-01 4.092551e-01
<GCONST> 1.138215e+02
<STATE> 9
<MEAN> 39
 -8.276280e+00 -1.211915e+00 -2.818198e+00 -3.123924e+00 1.118736e+00 -5.212816e+00 1.751126e+00 -3.694358e+00 1.013511e+00 -1.935727e+00 -6.975703e-01 7.023045e-02 3.855387e+01 -1.728737e-01 2.055588e-02 -1.788980e-04 5.147313e-02 5.364832e-02 7.745891e-02 9.524769e-03 8.514154e-02 -3.332896e-03 4.671077e-02 3.046618e-02 8.178849e-04 -7.969221e-02 -4.496579e-03 3.767082e-03 4.992099e-03 2.329650e-03 3.998323e-05 4.739371e-03 -4.217831e-03 1.238259e-03 -1.811644e-04 -1.071695e-03 7.799898e-04 -6.566064e-07 -7.751310e-03
<VARIANCE> 39
 6.297643e+01 3.775430e+01 2.343782e+01 4.351653e+01 3.229104e+01 3.939468e+01 3.235786e+01 2.500217e+01 2.036304e+01 2.604007e+01 1.949286e+01 8.890797e+00 1.346908e+02 1.371582e+00 1.549071e+00 1.601382e+00 2.584101e+00 1.982616e+00 2.027637e+00 2.084485e+00 1.672492e+00 1.525372e+00 1.251187e+00 1.047206e+00 7.003607e-01 1.558908e+00 1.805257e-01 2.096498e-01 2.768796e-01 4.373397e-01 3.462879e-01 3.533207e-01 3.665935e-01 3.237923e-01 2.773933e-01 2.226390e-01 1.855834e-01 1.439407e-01 2.256402e-01
<GCONST> 1.046351e+02
<TRANSP> 10
 0.000000e+00 1.000000e+00 0.000000e+00 0.000000e+00 0.000000e+00 0.000000e+00 0.000000e+00 0.000000e+00 0.000000e+00 0.000000e+00
 0.000000e+00 8.223957e-01 1.776042e-01 0.000000e+00 0.000000e+00 0.000000e+00 0.000000e+00 0.000000e+00 0.000000e+00 0.000000e+00
 0.000000e+00 0.000000e+00 8.223963e-01 1.776038e-01 0.000000e+00 0.000000e+00 0.000000e+00 0.000000e+00 0.000000e+00 0.000000e+00
 0.000000e+00 0.000000e+00 0.000000e+00 8.223958e-01 1.776042e-01 0.000000e+00 0.000000e+00 0.000000e+00 0.000000e+00 0.000000e+00
 0.000000e+00 0.000000e+00 0.000000e+00 0.000000e+00 8.223958e-01 1.776042e-01 0.000000e+00 0.000000e+00 0.000000e+00 0.000000e+00
 0.000000e+00 0.000000e+00 0.000000e+00 0.000000e+00 0.000000e+00 8.223957e-01 1.776043e-01 0.000000e+00 0.000000e+00 0.000000e+00
 0.000000e+00 0.000000e+00 0.000000e+00 0.000000e+00 0.000000e+00 0.000000e+00 8.223961e-01 1.776039e-01 0.000000e+00 0.000000e+00
 0.000000e+00 0.000000e+00 0.000000e+00 0.000000e+00 0.000000e+00 0.000000e+00 0.000000e+00 8.223959e-01 1.776041e-01 0.000000e+00
 0.000000e+00 0.000000e+00 0.000000e+00 0.000000e+00 0.000000e+00 0.000000e+00 0.000000e+00 0.000000e+00 9.647751e-01 3.522485e-02
 0.000000e+00 0.000000e+00 0.000000e+00 0.000000e+00 0.000000e+00 0.000000e+00 0.000000e+00 0.000000e+00 0.000000e+00 0.000000e+00
<ENDHMM>
~h "v-intervalu"
<BEGINHMM>
<NUMSTATES> 10
<STATE> 2
<MEAN> 39
 -7.615265e+00 -5.314483e-01 -9.950259e-01 -1.802515e+00 -1.597043e+00 -3.423010e+00 -1.558480e-01 -4.345367e+00 -8.520699e-01 -1.970623e+00 6.007146e-01 1.043071e-02 3.351480e+01 6.859533e-02 -2.791901e-02 1.840444e-02 -3.596813e-02 -3.898425e-02 -7.300454e-02 7.312072e-03 -7.521735e-02 -9.771799e-03 -2.000258e-02 6.079027e-03 -1.250626e-04 2.184502e-01 1.041097e-03 -2.775160e-03 1.872951e-04 -1.152099e-03 -1.220063e-04 1.607008e-03 4.706688e-04 1.388769e-03 8.700303e-04 5.793014e-04 -1.089730e-03 -4.716444e-04 -6.940523e-03
<VARIANCE> 39
 3.457478e+01 1.558948e+01 2.466554e+01 3.431685e+01 1.952373e+01 3.346777e+01 2.574817e+01 3.651265e+01 2.150140e+01 2.631826e+01 1.576373e+01 9.008762e+00 1.381516e+02 1.484450e+00 9.980922e-01 1.482167e+00 1.835713e+00 1.605174e+00 2.003350e+00 1.990199e+00 1.803841e+00 1.451361e+00 1.849821e+00 1.358245e+00 7.912031e-01 3.924378e+00 2.439534e-01 1.666099e-01 2.510954e-01 2.865319e-01 3.111991e-01 3.723657e-01 3.329752e-01 2.911940e-01 2.346891e-01 3.096708e-01 2.553047e-01 1.548306e-01 5.255137e-01
<GCONST> 1.037067e+02
<STATE> 3
<MEAN> 39
 -7.184712e+00 -7.556832e-01 -8.726275e-01 -2.042704e+00 -1.837536e+00 -3.836684e+00 -1.043506e-01 -4.763912e+00 -8.867431e-01 -2.084470e+00 5.944306e-01 -1.178736e-02 3.467467e+01 6.997140e-02 -3.669732e-02 1.419230e-02 -4.356610e-02 -3.701781e-02 -6.226506e-02 1.055392e-02 -6.363876e-02 -3.584362e-03 -1.639370e-02 -1.549722e-03 -2.957707e-03 1.832736e-01 -1.284967e-05 -1.098909e-03 -8.504890e-04 -1.440392e-03 3.990016e-04 1.870792e-03 6.281153e-04 1.955779e-03 9.289064e-04 6.280323e-04 -1.156376e-03 -3.736248e-04 -5.477530e-03
<VARIANCE> 39
 3.498193e+01 1.695774e+01 2.645653e+01 3.877588e+01 1.978687e+01 3.445430e+01 2.810074e+01 3.794828e+01 2.429576e+01 2.834116e+01 1.684742e+01 9.735835e+00 1.430460e+02 1.396654e+00 1.050418e+00 1.541190e+00 1.986350e+00 1.668866e+00 2.029771e+00 2.107602e+00 1.863993e+00 1.564184e+00 1.958891e+00 1.409474e+00 8.294433e-01 4.001407e+00 2.326740e-01 1.708261e-01 2.564636e-01 3.050409e-01 3.233133e-01 3.777463e-01 3.490271e-01 2.961811e-01 2.431866e-01 3.240764e-01 2.643648e-01 1.608088e-01 5.443972e-01
<GCONST> 1.053915e+02
<STATE> 4
<MEAN> 39
 -6.753449e+00 -9.961545e-01 -8.038390e-01 -2.342943e+00 -2.037522e+00 -4.165130e+00 -2.721344e-02 -5.094344e+00 -8.851675e-01 -2.184260e+00 5.376721e-01 -5.038141e-02 3.567368e+01 6.912082e-02 -3.781856e-02 4.794215e-03 -5.474921e-02 -3.009429e-02 -4.748353e-02 1.554071e-02 -4.904434e-02 1.689975e-03 -1.391415e-02 -9.036442e-03 -4.782058e-03 1.574661e-01 -2.930286e-04 9.142630e-05 -1.530667e-03 -1.912831e-03 1.128122e-03 2.529671e-03 9.107201e-04 2.366177e-03 7.148866e-04 3.916799e-04 -1.115604e-03 -1.947656e-04 -4.194582e-03
<VARIANCE> 39
 3.539661e+01 1.850940e+01 2.803785e+01 4.300974e+01 1.963489e+01 3.498800e+01 3.029051e+01 3.841045e+01 2.695956e+01 2.928041e+01 1.772195e+01 1.055450e+01 1.486930e+02 1.329079e+00 1.119675e+00 1.590140e+00 2.131220e+00 1.713194e+00 2.021779e+00 2.183932e+00 1.903639e+00 1.662990e+00 2.010189e+00 1.432314e+00 8.663841e-01 4.076530e+00 2.225590e-01 1.776554e-01 2.616338e-01 3.247353e-01 3.314584e-01 3.767390e-01 3.583997e-01 2.998798e-01 2.499863e-01 3.296764e-01 2.673262e-01 1.654878e-01 5.656513e-01
<GCONST> 1.066754e+02
<STATE> 5
<MEAN> 39
 -6.323614e+00 -1.227427e+00 -8.161138e-01 -2.728910e+00 -2.172273e+00 -4.388482e+00 8.745386e-02 -5.335667e+00 -8.528468e-01 -2.271642e+00 4.408343e-01 -8.875219e-02 3.656372e+01 6.797286e-02 -3.480975e-02 -7.924948e-03 -6.905704e-02 -2.000917e-02 -2.987061e-02 2.228648e-02 -3.504443e-02 5.678044e-03 -1.188894e-02 -1.473942e-02 -3.976371e-03 1.389357e-01 -3.458179e-04 7.460246e-04 -1.898409e-03 -2.213697e-03 1.528950e-03 2.921278e-03 1.131876e-03 2.180650e-03 4.797104e-04 3.016499e-04 -8.287738e-04 1.994930e-04 -3.195810e-03
<VARIANCE> 39
 3.583409e+01 2.011033e+01 2.933882e+01 4.676922e+01 1.933945e+01 3.509060e+01 3.225720e+01 3.794810e+01 2.917749e+01 2.901199e+01 1.838501e+01 1.143411e+01 1.534833e+02 1.278723e+00 1.190257e+00 1.620524e+00 2.255383e+00 1.734960e+00 1.981460e+00 2.211905e+00 1.912279e+00 1.736948e+00 1.995247e+00 1.427868e+00 9.003003e-01 4.091359e+00 2.134314e-01 1.843401e-01 2.654202e-01 3.431824e-01 3.345647e-01 3.691003e-01 3.602635e-01 3.003611e-01 2.549927e-01 3.250916e-01 2.643594e-01 1.688843e-01 5.781366e-01
<GCONST> 1.074366e+02
<STATE> 6
<MEAN> 39
 -5.897596e+00 -1.432542e+00 -9.243194e-01 -3.215396e+00 -2.242025e+00 -4.504388e+00 2.445147e-01 -5.509472e+00 -7.963817e-01 -2.338443e+00 3.251519e-01 -1.039570e-01 3.737280e+01 6.622333e-02 -2.881960e-02 -2.189711e-02 -8.417603e-02 -1.059874e-02 -1.222406e-02 2.929724e-02 -2.484296e-02 8.360967e-03 -8.774057e-03 -1.724721e-02 4.523349e-05 1.238197e-01 -4.850451e-04 1.236918e-03 -1.949279e-03 -2.077261e-03 1.373456e-03 2.873156e-03 1.070071e-03 1.572037e-03 2.662404e-04 4.482174e-04 -3.600495e-04 6.345696e-04 -2.832621e-03
<VARIANCE> 39
 3.624314e+01 2.161868e+01 3.024012e+01 4.987304e+01 1.908375e+01 3.482580e+01 3.400124e+01 3.678809e+01 3.063783e+01 2.771616e+01 1.884659e+01 1.229269e+01 1.572729e+02 1.234258e+00 1.248467e+00 1.623839e+00 2.341928e+00 1.732812e+00 1.911816e+00 2.193563e+00 1.882660e+00 1.774047e+00 1.920596e+00 1.400015e+00 9.268690e-01 4.017106e+00 2.041120e-01 1.887527e-01 2.659869e-01 3.567728e-01 3.319571e-01 3.550565e-01 3.552949e-01 2.961147e-01 2.572591e-01 3.115833e-01 2.563926e-01 1.706025e-01 5.756793e-01
<GCONST> 1.075923e+02
<STATE> 7
<MEAN> 39
 -5.485805e+00 -1.591962e+00 -1.125741e+00 -3.793277e+00 -2.267906e+00 -4.519255e+00 4.379461e-01 -5.640964e+00 -7.258873e-01 -2.374531e+00 2.120349e-01 -7.847426e-02 3.809238e+01 6.248764e-02 -1.955363e-02 -3.446938e-02 -9.595163e-02 -4.556805e-03 4.273899e-03 3.465341e-02 -1.827015e-02 9.412830e-03 -4.361411e-03 -1.681623e-02 6.158544e-03 1.060817e-01 -8.404596e-04 1.752194e-03 -1.609280e-03 -1.268245e-03 9.015923e-04 2.647786e-03 7.038556e-04 1.102224e-03 2.436064e-05 6.141305e-04 2.957635e-05 8.685765e-04 -3.429789e-03
<VARIANCE> 39
 3.654393e+01 2.296211e+01 3.060213e+01 5.218997e+01 1.894785e+01 3.428138e+01 3.551907e+01 3.527665e+01 3.115598e+01 2.577448e+01 1.913594e+01 1.302914e+01 1.601443e+02 1.185720e+00 1.285171e+00 1.597128e+00 2.380561e+00 1.709976e+00 1.818565e+00 2.135916e+00 1.814568e+00 1.768312e+00 1.804058e+00 1.355253e+00 9.423634e-01 3.851277e+00 1.935135e-01 1.895921e-01 2.623086e-01 3.627420e-01 3.240389e-01 3.357843e-01 3.447676e-01 2.866474e-01 2.559943e-01 2.921692e-01 2.450481e-01 1.703914e-01 5.565945e-01
<GCONST> 1.071324e+02
<STATE> 8
<MEAN> 39
 -5.108204e+00 -1.682167e+00 -1.397371e+00 -4.423400e+00 -2.276809e+00 -4.437397e+00 6.526710e-01 -5.741471e+00 -6.559097e-01 -2.377392e+00 1.133487e-01 -9.095450e-03 3.867843e+01 5.532306e-02 -6.697601e-03 -4.273794e-02 -9.975103e-02 -2.023285e-03 1.989572e-02 3.694325e-02 -1.262498e-02 8.352503e-03 1.387344e-04 -1.506206e-02 1.209093e-02 8.043096e-02 -1.396653e-03 2.275344e-03 -8.550803e-04 2.061827e-04 5.070352e-04 2.458366e-03 1.334330e-04 1.094953e-03 -2.633419e-04 6.146256e-04 1.623749e-04 7.569009e-04 -4.775964e-03
<VARIANCE> 39
 3.669629e+01 2.417460e+01 3.032636e+01 5.363512e+01 1.896665e+01 3.355462e+01 3.675639e+01 3.377348e+01 3.075373e+01 2.360479e+01 1.928488e+01 1.354412e+01 1.621719e+02 1.128477e+00 1.296779e+00 1.544550e+00 2.370884e+00 1.673131e+00 1.710781e+00 2.048030e+00 1.715545e+00 1.722974e+00 1.668239e+00 1.301077e+00 9.451281e-01 3.603648e+00 1.813168e-01 1.864824e-01 2.546420e-01 3.601879e-01 3.121669e-01 3.134124e-01 3.301153e-01 2.727528e-01 2.511479e-01 2.704840e-01 2.322008e-01 1.683238e-01 5.220770e-01
<GCONST> 1.061230e+02
<STATE> 9
<MEAN> 39
 -6.231686e+00 -1.346697e+00 -2.270904e+00 -4.820228e+00 -2.004037e+00 -2.780538e+00 3.564856e-01 -4.566848e+00 -4.896219e-01 -2.046798e+00 -3.040596e-01 1.700205e-01 3.500773e+01 -1.182067e-03 3.256027e-02 -2.369604e-02 -2.862686e-02 -5.293901e-04 4.572695e-02 1.559068e-02 1.966388e-02 -6.471699e-03 7.021631e-03 -2.511189e-04 8.703488e-03 -3.766513e-02 -2.365847e-03 1.993136e-03 1.536499e-03 3.686342e-03 6.223582e-04 1.064544e-03 -6.677432e-04 1.726569e-03 -5.895387e-04 8.697297e-05 9.522168e-05 -4.214167e-04 -5.393269e-03
<VARIANCE> 39
 3.803154e+01 2.338003e+01 2.405279e+01 4.644258e+01 1.757610e+01 2.901616e+01 3.125098e+01 3.092076e+01 2.195538e+01 1.700187e+01 1.734659e+01 1.142682e+01 1.478237e+02 7.521406e-01 1.013934e+00 1.202177e+00 1.899408e+00 1.368958e+00 1.322998e+00 1.547630e+00 1.281779e+00 1.284033e+00 1.221077e+00 1.084555e+00 8.283961e-01 1.935019e+00 1.168787e-01 1.333380e-01 2.026666e-01 2.806110e-01 2.374330e-01 2.409455e-01 2.613908e-01 2.167202e-01 2.064316e-01 2.090482e-01 1.872685e-01 1.463393e-01 2.726405e-01
<GCONST> 9.683788e+01
<TRANSP> 10
 0.000000e+00 1.000000e+00 0.000000e+00 0.000000e+00 0.000000e+00 0.000000e+00 0.000000e+00 0.000000e+00 0.000000e+00 0.000000e+00
 0.000000e+00 8.402557e-01 1.597443e-01 0.000000e+00 0.000000e+00 0.000000e+00 0.000000e+00 0.000000e+00 0.000000e+00 0.000000e+00
 0.000000e+00 0.000000e+00 8.402556e-01 1.597444e-01 0.000000e+00 0.000000e+00 0.000000e+00 0.000000e+00 0.000000e+00 0.000000e+00
 0.000000e+00 0.000000e+00 0.000000e+00 8.402554e-01 1.597446e-01 0.000000e+00 0.000000e+00 0.000000e+00 0.000000e+00 0.000000e+00
 0.000000e+00 0.000000e+00 0.000000e+00 0.000000e+00 8.402555e-01 1.597445e-01 0.000000e+00 0.000000e+00 0.000000e+00 0.000000e+00
 0.000000e+00 0.000000e+00 0.000000e+00 0.000000e+00 0.000000e+00 8.402556e-01 1.597445e-01 0.000000e+00 0.000000e+00 0.000000e+00
 0.000000e+00 0.000000e+00 0.000000e+00 0.000000e+00 0.000000e+00 0.000000e+00 8.402557e-01 1.597442e-01 0.000000e+00 0.000000e+00
 0.000000e+00 0.000000e+00 0.000000e+00 0.000000e+00 0.000000e+00 0.000000e+00 0.000000e+00 8.402556e-01 1.597444e-01 0.000000e+00
 0.000000e+00 0.000000e+00 0.000000e+00 0.000000e+00 0.000000e+00 0.000000e+00 0.000000e+00 0.000000e+00 9.780853e-01 2.191465e-02
 0.000000e+00 0.000000e+00 0.000000e+00 0.000000e+00 0.000000e+00 0.000000e+00 0.000000e+00 0.000000e+00 0.000000e+00 0.000000e+00
<ENDHMM>
~h "hodin"
<BEGINHMM>
<NUMSTATES> 5
<STATE> 2
<MEAN> 39
 -6.400960e+00 1.701218e+00 1.077999e+00 -3.130288e+00 7.654414e-02 -1.355297e+00 2.410004e+00 -4.468093e+00 -1.429877e+00 -2.367316e+00 -1.925020e-02 -2.863706e-01 3.681156e+01 5.882042e-02 4.468058e-02 1.298867e-01 2.843549e-02 -2.534451e-02 -1.411425e-01 -5.451963e-02 -6.356356e-02 3.433181e-03 -5.840874e-02 -3.089224e-02 -7.093471e-03 2.290501e-01 -2.292294e-03 -4.377427e-04 2.130447e-03 7.062624e-03 -1.110799e-03 -3.081466e-03 -7.124113e-03 1.270257e-03 3.345172e-03 -1.797640e-03 -2.217049e-03 1.088796e-03 -1.723279e-02
<VARIANCE> 39
 2.506731e+01 2.434140e+01 6.524931e+01 4.142796e+01 2.324265e+01 4.187359e+01 5.311241e+01 3.259322e+01 2.051736e+01 2.953848e+01 1.729846e+01 1.031248e+01 1.314553e+02 8.458242e-01 1.597477e+00 2.001036e+00 2.101942e+00 1.705194e+00 1.749320e+00 2.241859e+00 1.880856e+00 1.779740e+00 1.346631e+00 1.089754e+00 8.793002e-01 2.048510e+00 1.313070e-01 2.579017e-01 2.891113e-01 3.411530e-01 2.682875e-01 2.778069e-01 3.290457e-01 3.345600e-01 3.273408e-01 2.188315e-01 1.922994e-01 1.587911e-01 2.735485e-01
<GCONST> 1.046917e+02
<STATE> 3
<MEAN> 39
 -6.116637e+00 1.888417e+00 1.917435e+00 -2.802714e+00 -1.000020e-01 -2.258759e+00 1.903442e+00 -4.829545e+00 -1.332502e+00 -2.809531e+00 -2.798169e-01 -2.970182e-01 3.775857e+01 4.433082e-02 2.919829e-02 1.341851e-01 6.534433e-02 -2.608730e-02 -1.401982e-01 -8.571173e-02 -5.922719e-02 2.087479e-02 -6.806675e-02 -4.327386e-02 -4.409847e-04 1.274967e-01 -2.528547e-03 -2.279412e-03 2.308717e-04 5.548084e-03 4.989660e-04 1.424293e-03 -4.417831e-03 9.613070e-04 2.627387e-03 -1.051767e-03 -1.659032e-03 9.579462e-04 -1.680546e-02
<VARIANCE> 39
 2.547364e+01 2.441583e+01 6.996293e+01 4.399851e+01 2.598134e+01 4.180515e+01 5.241610e+01 3.606280e+01 2.131748e+01 3.212105e+01 1.772588e+01 1.069278e+01 1.292798e+02 8.409982e-01 1.698087e+00 2.138979e+00 2.290594e+00 1.793612e+00 1.855226e+00 2.343832e+00 2.074590e+00 1.910881e+00 1.455552e+00 1.135991e+00 8.949354e-01 2.114666e+00 1.338118e-01 2.796938e-01 3.050165e-01 3.748958e-01 2.704647e-01 2.939894e-01 3.420636e-01 3.653363e-01 3.489664e-01 2.344072e-01 2.001420e-01 1.615556e-01 2.888579e-01
<GCONST> 1.065879e+02
<STATE> 4
<MEAN> 39
 -7.163299e+00 1.324658e+00 2.994293e+00 -1.533700e+00 -4.901685e-01 -2.851634e+00 4.339287e-01 -4.621851e+00 -1.022563e+00 -3.342075e+00 -8.759499e-01 -4.405940e-01 3.471931e+01 -1.852373e-03 -4.658238e-03 2.361728e-02 7.152728e-02 5.802702e-03 -8.720499e-03 -4.328196e-02 -3.341376e-03 7.490328e-03 1.226661e-03 -7.217062e-03 5.229057e-03 -6.765725e-02 -1.794658e-03 6.833498e-04 -2.933360e-03 4.282689e-04 2.217756e-03 5.256765e-03 1.239395e-03 2.582639e-03 3.128287e-05 2.654401e-03 1.387798e-03 -2.572126e-05 -8.084187e-03
<VARIANCE> 39
 2.612057e+01 1.721715e+01 6.987038e+01 4.418452e+01 2.719881e+01 3.377787e+01 3.379248e+01 4.368929e+01 1.933797e+01 3.306511e+01 1.574250e+01 1.166927e+01 1.180184e+02 6.583261e-01 1.321051e+00 1.834214e+00 2.326790e+00 1.735787e+00 1.736047e+00 2.025735e+00 2.238515e+00 1.790825e+00 1.600083e+00 1.069844e+00 9.194758e-01 1.521057e+00 1.025899e-01 2.295592e-01 2.635337e-01 3.684059e-01 2.562353e-01 2.779967e-01 3.154628e-01 3.720172e-01 3.242718e-01 2.512821e-01 1.795674e-01 1.649635e-01 2.024184e-01
<GCONST> 1.032788e+02
<TRANSP> 5
 0.000000e+00 1.000000e+00 0.000000e+00 0.000000e+00 0.000000e+00
 0.000000e+00 8.377668e-01 1.622332e-01 0.000000e+00 0.000000e+00
 0.000000e+00 0.000000e+00 8.377668e-01 1.622332e-01 0.000000e+00
 0.000000e+00 0.000000e+00 0.000000e+00 9.747939e-01 2.520619e-02
 0.000000e+00 0.000000e+00 0.000000e+00 0.000000e+00 0.000000e+00
<ENDHMM>
~h "tesla"
<BEGINHMM>
<NUMSTATES> 10
<STATE> 2
<MEAN> 39
 -1.272806e+01 -3.043619e-01 -2.894824e+00 -1.663430e+00 -3.753054e-01 -2.475550e+00 -4.483328e-01 -2.023168e+00 1.072560e+00 -7.491676e-01 1.971060e-01 -1.648437e-01 3.229865e+01 -2.511284e-02 4.828969e-02 -7.064774e-03 -9.971298e-02 5.237924e-02 -1.111470e-01 4.977787e-02 -6.934994e-02 6.865614e-02 8.334232e-03 -4.161482e-02 -2.011092e-02 5.543899e-01 3.490084e-03 5.005858e-03 5.003220e-04 -6.402947e-03 6.028831e-03 3.386241e-04 3.571107e-03 2.218846e-03 -1.308263e-03 -6.739941e-04 -2.301817e-04 9.599461e-05 -8.604467e-05
<VARIANCE> 39
 2.834070e+01 1.245047e+01 8.890825e+00 1.636221e+01 1.491802e+01 2.532456e+01 1.227948e+01 1.705866e+01 1.422302e+01 1.424326e+01 8.348801e+00 5.284357e+00 1.856135e+02 1.931029e+00 1.006716e+00 9.000689e-01 9.824134e-01 1.211211e+00 1.539925e+00 9.310265e-01 1.237308e+00 9.885339e-01 9.099866e-01 7.836930e-01 4.998817e-01 3.940248e+00 2.521150e-01 1.931266e-01 1.852788e-01 1.528207e-01 2.568190e-01 2.786843e-01 1.938168e-01 2.086050e-01 1.815770e-01 1.496029e-01 1.576804e-01 1.002603e-01 5.384409e-01
<GCONST> 8.895469e+01
<STATE> 3
<MEAN> 39
 -1.284467e+01 8.626841e-03 -2.950088e+00 -2.259053e+00 2.803873e-02 -3.097739e+00 -8.221786e-02 -2.374232e+00 1.416364e+00 -7.625767e-01 -4.469503e-02 -2.448257e-01 3.519165e+01 -1.767629e-02 6.592041e-02 -1.277816e-02 -1.205972e-01 8.745176e-02 -1.042304e-01 7.269724e-02 -5.726206e-02 4.876124e-02 -2.659619e-03 -4.353602e-02 -1.385891e-02 5.105447e-01 2.036997e-03 2.562330e-03 -1.237921e-03 -4.182626e-03 5.935874e-03 2.113539e-03 4.193616e-03 2.488551e-03 -5.073814e-03 -2.168072e-03 8.987364e-05 1.303999e-03 -1.206968e-02
<VARIANCE> 39
 3.624309e+01 1.435816e+01 9.513857e+00 2.205052e+01 1.750794e+01 2.829577e+01 1.448150e+01 1.915205e+01 1.594884e+01 1.727262e+01 1.017039e+01 5.925324e+00 2.035876e+02 2.226651e+00 9.692852e-01 9.433314e-01 1.184525e+00 1.137724e+00 1.652838e+00 1.004260e+00 1.380514e+00 1.049940e+00 1.075900e+00 9.216158e-01 5.423669e-01 3.708658e+00 2.711090e-01 1.801240e-01 1.942133e-01 1.739186e-01 2.315304e-01 2.849299e-01 2.047431e-01 2.274916e-01 1.861955e-01 1.743713e-01 1.845963e-01 1.085567e-01 4.797263e-01
<GCONST> 9.245484e+01
<STATE> 4
<MEAN> 39
 -1.296449e+01 3.475535e-01 -3.044707e+00 -2.946088e+00 5.882049e-01 -3.660088e+00 4.125958e-01 -2.652845e+00 1.582089e+00 -8.723491e-01 -2.930202e-01 -2.654477e-01 3.764028e+01 -8.185688e-03 6.705905e-02 -2.026727e-02 -1.422041e-01 1.121939e-01 -8.880749e-02 9.626434e-02 -4.318898e-02 9.226450e-03 -1.988847e-02 -4.190902e-02 -2.954202e-03 4.067273e-01 3.757441e-03 -4.522153e-04 -1.330505e-03 -4.476230e-03 3.718446e-03 3.544680e-03 4.237416e-03 2.544649e-03 -7.838397e-03 -2.981184e-03 8.082031e-04 1.856729e-03 -2.223799e-02
<VARIANCE> 39
 4.530528e+01 1.678715e+01 1.043044e+01 3.087356e+01 2.060948e+01 3.127202e+01 1.711810e+01 2.042077e+01 1.767981e+01 2.019058e+01 1.210890e+01 6.576454e+00 2.048612e+02 2.459738e+00 9.508035e-01 9.818937e-01 1.461497e+00 1.092962e+00 1.801820e+00 1.075539e+00 1.477671e+00 1.126355e+00 1.234724e+00 1.037101e+00 5.861554e-01 3.170489e+00 2.791744e-01 1.727134e-01 1.996676e-01 2.036218e-01 2.159419e-01 2.983882e-01 2.128101e-01 2.429054e-01 1.983666e-01 1.980758e-01 2.058447e-01 1.165347e-01 3.894789e-01
<GCONST> 9.547714e+01
<STATE> 5
<MEAN> 39
 -1.295733e+01 6.329905e-01 -3.184453e+00 -3.781393e+00 1.228764e+00 -4.140463e+00 1.035260e+00 -2.875088e+00 1.512645e+00 -1.075895e+00 -5.312483e-01 -2.250988e-01 3.943449e+01 3.024751e-02 5.461044e-02 -2.842604e-02 -1.721585e-01 1.228717e-01 -6.996772e-02 1.191636e-01 -3.403129e-02 -3.446722e-02 -3.467356e-02 -3.715020e-02 6.334300e-03 2.730367e-01 8.772978e-03 -2.719946e-03 -1.135623e-03 -4.785747e-03 1.219192e-03 4.260787e-03 3.723013e-03 1.526524e-03 -7.260858e-03 -2.345954e-03 1.282208e-03 1.341008e-03 -2.607252e-02
<VARIANCE> 39
 5.493665e+01 1.991904e+01 1.188743e+01 4.388514e+01 2.392695e+01 3.451751e+01 2.018184e+01 2.096644e+01 1.981748e+01 2.274611e+01 1.419996e+01 7.307199e+00 1.920001e+02 2.618564e+00 9.711402e-01 1.023982e+00 1.809631e+00 1.079039e+00 1.989146e+00 1.153143e+00 1.518944e+00 1.212925e+00 1.381567e+00 1.122138e+00 6.422907e-01 2.513359e+00 2.796800e-01 1.742830e-01 2.018510e-01 2.404329e-01 2.085027e-01 3.188703e-01 2.195503e-01 2.529429e-01 2.156526e-01 2.204809e-01 2.189833e-01 1.261645e-01 2.953096e-01
<GCONST> 9.818874e+01
<STATE> 6
<MEAN> 39
 -1.260628e+01 8.192917e-01 -3.383552e+00 -4.806725e+00 1.894018e+00 -4.529410e+00 1.772453e+00 -3.088911e+00 1.248212e+00 -1.322789e+00 -7.528631e-01 -1.561597e-01 4.055716e+01 9.959598e-02 3.504249e-02 -3.614874e-02 -1.988426e-01 1.243542e-01 -4.730222e-02 1.362856e-01 -3.247910e-02 -6.368935e-02 -4.071950e-02 -3.176525e-02 9.229657e-03 1.429366e-01 1.193713e-02 -3.865374e-03 -2.679920e-04 -1.656950e-03 -4.872844e-04 5.311966e-03 1.860575e-03 5.341637e-04 -3.486297e-03 -9.597757e-04 1.169392e-03 3.127383e-04 -2.458917e-02
<VARIANCE> 39
 6.474704e+01 2.368065e+01 1.409153e+01 6.077312e+01 2.754671e+01 3.839672e+01 2.342262e+01 2.119562e+01 2.265931e+01 2.482729e+01 1.658439e+01 8.206598e+00 1.715581e+02 2.706238e+00 1.028538e+00 1.093584e+00 2.223266e+00 1.107960e+00 2.229325e+00 1.254029e+00 1.526755e+00 1.325914e+00 1.520521e+00 1.187613e+00 7.216294e-01 1.968583e+00 2.773307e-01 1.838767e-01 2.039963e-01 2.829538e-01 2.098061e-01 3.483801e-01 2.293982e-01 2.594483e-01 2.385138e-01 2.426679e-01 2.254555e-01 1.394390e-01 2.220175e-01
<GCONST> 1.009375e+02
<STATE> 7
<MEAN> 39
 -1.181155e+01 8.958885e-01 -3.627996e+00 -5.940906e+00 2.567544e+00 -4.778471e+00 2.566504e+00 -3.315088e+00 9.020914e-01 -1.557156e+00 -9.604063e-01 -1.002765e-01 4.108153e+01 1.685393e-01 1.374573e-02 -3.551839e-02 -1.942913e-01 1.214053e-01 -1.354888e-02 1.376718e-01 -3.123264e-02 -6.725195e-02 -3.902870e-02 -2.799083e-02 6.435299e-03 2.667934e-02 8.869640e-03 -4.187285e-03 1.941513e-03 6.288651e-03 -1.850421e-03 7.086043e-03 -1.661331e-03 1.012651e-03 1.535326e-03 2.104959e-04 6.540005e-04 -2.871382e-04 -2.196769e-02
<VARIANCE> 39
 7.315359e+01 2.768002e+01 1.716212e+01 7.902046e+01 3.161959e+01 4.337412e+01 2.621793e+01 2.145581e+01 2.604883e+01 2.640663e+01 1.931865e+01 9.296297e+00 1.492260e+02 2.721600e+00 1.111331e+00 1.216519e+00 2.690099e+00 1.194776e+00 2.531426e+00 1.392768e+00 1.528868e+00 1.481603e+00 1.654441e+00 1.249220e+00 8.242100e-01 1.652670e+00 2.741068e-01 1.993281e-01 2.101988e-01 3.293627e-01 2.219098e-01 3.898067e-01 2.471581e-01 2.648750e-01 2.681540e-01 2.653183e-01 2.288352e-01 1.565719e-01 1.775268e-01
<GCONST> 1.039200e+02
<STATE> 8
<MEAN> 39
 -1.070893e+01 8.702490e-01 -3.839763e+00 -6.931396e+00 3.239732e+00 -4.791133e+00 3.300445e+00 -3.511986e+00 6.118679e-01 -1.752527e+00 -1.159664e+00 -7.649589e-02 4.104189e+01 1.979230e-01 -6.773312e-03 -1.775211e-02 -1.337797e-01 1.117614e-01 3.399400e-02 1.152626e-01 -2.019441e-02 -4.554549e-02 -3.351788e-02 -2.636272e-02 3.113310e-03 -8.327667e-02 5.324250e-04 -4.054651e-03 4.463623e-03 1.597791e-02 -3.805884e-03 8.082693e-03 -5.724207e-03 2.847614e-03 5.419600e-03 1.074211e-03 2.427488e-04 -4.597257e-05 -2.009971e-02
<VARIANCE> 39
 7.726326e+01 3.124271e+01 2.108609e+01 9.508522e+01 3.576557e+01 4.979169e+01 2.787564e+01 2.187111e+01 2.934376e+01 2.739466e+01 2.220620e+01 1.043714e+01 1.291896e+02 2.664940e+00 1.202217e+00 1.392652e+00 3.180074e+00 1.338495e+00 2.868151e+00 1.563739e+00 1.533731e+00 1.669368e+00 1.777652e+00 1.309929e+00 9.354031e-01 1.533315e+00 2.682696e-01 2.178947e-01 2.214550e-01 3.777702e-01 2.445888e-01 4.415379e-01 2.739318e-01 2.692435e-01 3.030421e-01 2.875215e-01 2.315864e-01 1.754388e-01 1.554182e-01
<GCONST> 1.068962e+02
<STATE> 9
<MEAN> 39
