~o
<STREAMINFO> 1 39
<VECSIZE> 39<NULLD><MFCC_D_A_0><DIAGC>
~h "za-posledni"
<BEGINHMM>
<NUMSTATES> 10
<STATE> 2
<MEAN> 39
 -1.231192e+01 6.423593e+00 -4.524217e-01 -3.799312e+00 5.242512e+00 -5.912310e+00 -2.905844e+00 -6.491631e+00 -5.158920e-01 2.523901e+00 -1.478034e+00 -2.226261e+00 4.349803e+01 2.500466e-01 2.179161e-01 -5.834877e-02 -2.943171e-01 4.574924e-02 -2.850156e-01 -6.020026e-02 -5.282341e-01 1.073458e-01 1.879001e-01 -1.487365e-01 -1.267084e-01 1.527233e+00 1.691157e-01 -8.042602e-02 -6.637230e-02 -5.015264e-02 -1.242632e-01 2.236528e-02 6.673329e-02 -8.405313e-02 6.428806e-02 2.661498e-03 -1.575231e-02 5.203976e-03 8.411878e-02
<VARIANCE> 39
 2.689824e+01 2.061927e+01 1.232419e+01 1.137814e+01 1.650219e+01 1.920199e+01 1.326969e+01 1.870070e+01 8.706712e+00 1.166035e+01 1.005947e+01 7.169397e+00 1.104858e+02 3.503156e+00 1.576363e+00 1.299604e+00 1.608400e+00 1.619716e+00 1.659021e+00 1.597589e+00 1.249596e+00 1.135397e+00 1.361419e+00 1.074491e+00 7.809157e-01 2.812984e+00 5.300705e-01 1.818419e-01 2.511723e-01 3.700280e-01 1.851333e-01 3.170816e-01 3.372962e-01 2.713952e-01 2.498043e-01 2.724690e-01 2.465881e-01 1.526729e-01 4.672081e-01
<GCONST> 9.656583e+01
<STATE> 3
<MEAN> 39
 -4.283824e+00 4.141855e-01 -9.380322e+00 -1.299827e+01 1.195307e+00 -2.473813e+00 3.766244e+00 -1.050762e+01 2.976815e+00 3.009289e+00 1.138576e-01 -1.389098e+00 5.489399e+01 7.596783e-01 4.854676e-02 -4.973373e-01 -7.288247e-01 4.144734e-02 1.216918e-01 1.085613e+00 3.158756e-02 -4.778573e-01 -3.588604e-01 -1.546273e-01 -9.824026e-02 -9.777904e-03 -1.678064e-01 3.468860e-01 3.182861e-01 2.010589e-01 1.890285e-01 -1.563721e-01 -1.385510e-01 2.510646e-01 -1.907326e-01 -2.101480e-01 -1.439840e-01 -9.817225e-02 -4.207898e-01
<VARIANCE> 39
 1.406297e+01 7.326161e+00 2.109660e+01 3.388063e+01 8.578786e+00 3.908422e+00 2.598223e+01 2.580317e+01 1.460261e+01 1.026850e+01 5.159328e+00 6.988903e+00 1.127751e+02 1.518800e+00 1.536488e+00 2.057937e+00 1.246472e+00 1.238398e+00 9.084545e-01 2.038277e+00 2.147425e+00 2.273928e+00 1.423602e+00 1.177802e+00 8.346738e-01 2.005541e+00 3.457460e-01 9.217254e-02 2.346171e-01 1.447763e-01 2.181993e-01 1.354410e-01 2.144175e-01 2.098470e-01 3.145308e-01 2.444349e-01 2.045133e-01 1.337348e-01 3.127851e-01
<GCONST> 9.068446e+01
<STATE> 4
<MEAN> 39
 -7.734786e+00 1.473434e+00 -5.275617e+00 -7.243091e+00 -7.199436e-02 -7.495326e-01 4.279833e+00 -2.197092e+00 -3.258671e-01 7.653238e-01 2.438262e-01 -2.302925e+00 3.157239e+01 -5.670606e-01 -2.479714e-01 5.878916e-01 9.659869e-01 -1.898484e-01 -1.382914e-01 -6.010565e-01 5.248042e-01 1.413869e-01 -2.255858e-01 -5.856549e-02 -1.439734e-02 -1.529482e+00 9.640194e-02 -1.050014e-01 -3.146639e-02 -7.769082e-02 7.774308e-02 -9.563418e-02 -6.027678e-03 -1.571441e-03 9.962974e-02 -9.034624e-02 -4.392250e-02 7.110475e-02 6.549582e-01
<VARIANCE> 39
 2.589021e+01 1.433868e+01 8.164360e+00 3.438600e+01 2.319633e+01 1.049495e+01 3.026216e+01 1.919648e+01 1.236479e+01 1.206037e+01 7.570844e+00 8.084029e+00 8.734483e+01 1.603004e+00 1.868482e+00 1.376673e+00 1.032183e+00 2.024140e+00 1.865042e+00 1.438174e+00 1.809330e+00 1.524492e+00 1.951362e+00 1.552219e+00 8.796886e-01 8.861207e+00 2.855777e-01 3.993081e-01 2.694935e-01 2.760674e-01 4.461861e-01 2.757082e-01 3.276472e-01 2.848648e-01 3.604794e-01 3.731853e-01 2.358325e-01 1.659533e-01 1.039204e+00
<GCONST> 1.015515e+02
<STATE> 5
<MEAN> 39
 -5.955954e+00 -5.502784e-01 -8.582176e-01 -2.285838e+00 -1.114011e-01 -9.900480e+00 5.712610e-01 -1.622990e+00 1.258508e+00 -8.852073e+00 -5.052356e+00 -1.021702e+00 3.660819e+01 9.527038e-01 4.098080e-01 3.973486e-02 -3.299978e-01 1.479959e-01 -6.938041e-01 1.071440e-01 -3.089598e-02 6.907653e-01 -6.857045e-01 -4.750852e-01 -5.688246e-02 1.989421e+00 -1.044261e-01 2.351554e-01 -3.367557e-01 -3.590397e-01 -1.801056e-01 1.329675e-01 -5.844571e-03 -2.981436e-01 1.456103e-01 2.273213e-01 1.828825e-01 3.681940e-02 -2.117743e-01
<VARIANCE> 39
 1.472458e+01 1.217438e+01 1.224557e+01 3.145556e+01 1.949898e+01 4.955582e+01 2.106035e+01 3.178747e+01 2.223659e+01 5.204690e+01 1.837476e+01 4.809517e+00 7.099137e+01 3.217928e+00 2.168066e+00 1.380437e+00 6.665338e+00 2.847853e+00 3.224514e+00 2.514853e+00 4.627897e+00 2.375440e+00 4.053078e+00 1.873627e+00 6.211984e-01 9.220448e+00 5.040072e-01 4.179572e-01 2.230610e-01 1.116660e+00 5.166789e-01 4.745706e-01 5.565237e-01 8.807691e-01 2.415449e-01 6.130996e-01 3.770392e-01 1.352524e-01 8.707358e-01
<GCONST> 1.153786e+02
<STATE> 6
<MEAN> 39
 -4.805439e+00 1.125236e+00 -5.584708e+00 -8.939749e+00 -8.623730e-01 -8.648495e+00 -3.422959e-02 -5.565173e+00 6.769747e+00 -8.365764e+00 -4.281164e+00 -6.732619e-01 4.143124e+01 -1.541004e-01 9.205455e-02 -1.896867e-01 -6.505248e-01 2.151761e-01 2.377804e-01 1.611482e-01 -3.031799e-01 -7.612218e-02 1.454828e-01 -1.917496e-03 1.704447e-01 1.473029e-01 -2.610746e-01 -1.993358e-01 1.500227e-01 4.347884e-01 1.343030e-01 9.604606e-02 1.514249e-02 2.570460e-01 -1.788540e-01 1.093928e-01 7.678188e-02 -1.311647e-03 -2.146791e-01
<VARIANCE> 39
 1.758711e+01 6.319630e+01 1.073195e+01 1.321860e+02 3.171207e+01 3.681336e+01 3.261299e+01 4.466056e+01 2.421099e+01 4.625949e+01 1.577027e+01 1.083173e+01 7.471023e+01 2.157094e+00 4.272785e+00 1.437179e+00 9.214704e+00 2.890745e+00 2.726512e+00 3.179480e+00 3.615986e+00 2.209398e+00 3.116758e+00 1.538054e+00 1.029636e+00 3.083378e+00 4.659545e-01 6.862332e-01 2.101690e-01 1.474400e+00 4.965830e-01 4.416622e-01 5.981677e-01 5.628293e-01 3.969647e-01 6.071503e-01 2.940595e-01 2.146333e-01 4.588719e-01
<GCONST> 1.197137e+02
<STATE> 7
<MEAN> 39
 -1.319163e+01 2.502757e+00 -2.319948e+00 -7.322721e+00 4.386034e+00 -3.851364e+00 -1.090091e-01 -4.458372e+00 9.596071e-01 -1.315608e+00 -5.510062e-01 -1.515145e-01 4.816683e+01 -3.037994e-01 -1.538261e-01 3.056640e-02 3.665273e-01 -1.216718e-01 -1.670669e-01 4.262169e-02 -3.823228e-01 -1.438177e-02 3.656988e-01 2.422482e-01 -5.237774e-02 1.002481e-01 1.016800e-01 -1.559782e-02 -5.139636e-02 -1.103981e-01 -1.292528e-01 -5.039787e-02 -6.656237e-03 -7.184582e-02 1.216059e-01 -2.459510e-02 -1.948613e-02 2.208594e-03 3.921564e-02
<VARIANCE> 39
 5.002420e+01 1.252478e+01 9.795557e+00 3.024347e+01 1.850492e+01 2.852948e+01 1.372824e+01 4.334972e+01 1.987820e+01 1.244126e+01 1.013279e+01 7.286413e+00 1.141370e+02 4.987048e+00 1.534774e+00 1.000704e+00 4.252840e+00 2.062654e+00 1.137893e+00 1.624171e+00 3.074649e+00 1.703848e+00 1.543926e+00 1.244151e+00 7.637620e-01 1.176945e+00 3.976102e-01 2.902756e-01 2.041080e-01 5.732768e-01 3.276854e-01 2.066781e-01 2.541270e-01 4.823395e-01 3.109612e-01 2.759376e-01 2.039720e-01 1.216593e-01 1.499588e-01
<GCONST> 1.008948e+02
<STATE> 8
<MEAN> 39
 -8.798341e+00 -1.186194e+00 -9.085847e-01 -1.864224e+00 -2.177448e+00 -1.017646e+01 5.929576e-01 -7.781225e+00 3.917815e+00 -4.412793e+00 -8.357341e-01 2.895398e-01 4.263506e+01 5.046257e-01 -1.222902e-01 5.686295e-01 2.202106e-01 -3.547040e-01 -2.635553e-01 -2.245455e-02 4.103625e-01 -4.239897e-01 -4.787439e-01 1.720500e-01 1.307912e-01 -3.407701e-01 6.481574e-02 8.156984e-02 5.583079e-02 -3.305621e-02 4.061577e-02 5.122399e-02 2.071532e-02 -2.523790e-02 -1.606726e-01 -7.565565e-03 4.043396e-02 8.228835e-03 -4.308377e-02
<VARIANCE> 39
 9.747103e+01 3.184285e+01 3.033851e+01 4.668373e+01 2.816118e+01 2.759743e+01 4.380132e+01 2.930923e+01 3.666747e+01 4.059693e+01 1.670444e+01 7.924081e+00 7.248186e+01 4.136539e+00 2.613112e+00 1.742675e+00 2.046011e+00 1.882501e+00 2.246155e+00 4.335358e+00 2.457165e+00 3.406389e+00 2.288678e+00 2.226352e+00 9.559814e-01 2.541934e+00 6.201611e-01 4.489163e-01 2.265275e-01 2.129115e-01 3.124128e-01 4.221773e-01 8.280869e-01 5.281815e-01 4.502820e-01 4.204806e-01 3.331361e-01 1.693779e-01 3.466773e-01
<GCONST> 1.157008e+02
<STATE> 9
<MEAN> 39
 -3.591572e+00 5.325767e+00 8.428777e+00 1.299144e+00 -6.808816e-01 -5.253586e+00 -1.394659e+00 -8.225394e+00 -6.617462e+00 -2.682606e+00 2.541308e+00 2.755275e-01 3.632044e+01 -1.398821e-01 1.213662e-01 -8.698963e-02 1.308350e-01 1.522002e-01 3.340503e-01 -8.241713e-02 -8.612129e-03 3.164977e-02 1.944823e-01 -5.479890e-02 -7.991701e-02 -3.393644e-01 -1.426435e-02 -2.655231e-02 -5.262654e-02 -4.618289e-02 -7.778962e-03 -1.632792e-02 -9.943575e-03 3.136767e-02 8.313778e-02 -2.060220e-03 -3.134324e-02 5.692436e-03 4.834864e-03
<VARIANCE> 39
 1.526885e+01 1.430827e+01 1.773368e+01 3.128482e+01 2.008256e+01 2.016725e+01 2.908080e+01 1.761879e+01 3.272612e+01 1.695475e+01 3.229087e+01 8.671283e+00 5.183331e+01 5.276255e-01 9.671375e-01 1.436611e+00 1.980383e+00 1.541224e+00 1.304928e+00 1.618292e+00 1.219560e+00 1.506412e+00 1.206480e+00 1.236613e+00 6.472878e-01 9.920323e-01 7.767736e-02 1.047654e-01 1.917615e-01 2.717447e-01 2.883691e-01 2.236055e-01 2.918797e-01 1.789252e-01 2.284048e-01 2.365650e-01 2.083381e-01 1.198886e-01 9.551479e-02
<GCONST> 9.122955e+01
<TRANSP> 10
 0.000000e+00 1.000000e+00 0.000000e+00 0.000000e+00 0.000000e+00 0.000000e+00 0.000000e+00 0.000000e+00 0.000000e+00 0.000000e+00
 0.000000e+00 9.016433e-01 9.835675e-02 0.000000e+00 0.000000e+00 0.000000e+00 0.000000e+00 0.000000e+00 0.000000e+00 0.000000e+00
 0.000000e+00 0.000000e+00 8.083247e-01 1.916754e-01 0.000000e+00 0.000000e+00 0.000000e+00 0.000000e+00 0.000000e+00 0.000000e+00
 0.000000e+00 0.000000e+00 0.000000e+00 8.528177e-01 1.471823e-01 0.000000e+00 0.000000e+00 0.000000e+00 0.000000e+00 0.000000e+00
 0.000000e+00 0.000000e+00 0.000000e+00 0.000000e+00 8.586531e-01 1.413469e-01 0.000000e+00 0.000000e+00 0.000000e+00 0.000000e+00
 0.000000e+00 0.000000e+00 0.000000e+00 0.000000e+00 0.000000e+00 9.242908e-01 7.570922e-02 0.000000e+00 0.000000e+00 0.000000e+00
 0.000000e+00 0.000000e+00 0.000000e+00 0.000000e+00 0.000000e+00 0.000000e+00 9.406727e-01 5.932731e-02 0.000000e+00 0.000000e+00
 0.000000e+00 0.000000e+00 0.000000e+00 0.000000e+00 0.000000e+00 0.000000e+00 0.000000e+00 9.417836e-01 5.821643e-02 0.000000e+00
 0.000000e+00 0.000000e+00 0.000000e+00 0.000000e+00 0.000000e+00 0.000000e+00 0.000000e+00 0.000000e+00 9.692140e-01 3.078596e-02
 0.000000e+00 0.000000e+00 0.000000e+00 0.000000e+00 0.000000e+00 0.000000e+00 0.000000e+00 0.000000e+00 0.000000e+00 0.000000e+00
<ENDHMM>
~h "apple"
<BEGINHMM>
<NUMSTATES> 10
<STATE> 2
<MEAN> 39
 -8.832444e+00 -6.463565e+00 1.671977e+00 -5.849812e+00 -2.208512e+00 -6.878953e+00 5.164062e+00 -2.186101e+00 -1.881381e+00 -8.457664e+00 -2.809782e+00 -4.370201e-01 3.658854e+01 3.192482e-02 -2.573936e-02 1.567661e-01 6.325277e-02 -1.487346e-01 -5.702229e-02 1.103892e-01 1.471220e-01 4.280272e-02 -1.098949e-01 -1.476117e-01 -7.161364e-02 -3.860712e-02 -4.541026e-02 1.086868e-01 -1.461570e-01 -2.303271e-02 -2.301190e-02 7.584886e-02 -4.456557e-02 -2.050959e-02 7.467090e-02 1.164362e-01 5.008776e-02 4.300961e-02 -1.836216e-01
<VARIANCE> 39
 1.868754e+01 2.940821e+01 1.746647e+01 6.688676e+01 1.896519e+01 2.914454e+01 5.616628e+01 2.839314e+01 1.242025e+01 4.196148e+01 1.849473e+01 1.143467e+01 8.800633e+01 1.484113e+00 3.430554e+00 2.520544e+00 5.031557e+00 1.778195e+00 3.127197e+00 4.910296e+00 3.012101e+00 1.915397e+00 3.517212e+00 1.552242e+00 1.324748e+00 7.786251e+00 2.297926e-01 5.156119e-01 4.238498e-01 8.049750e-01 3.460847e-01 5.044810e-01 9.030669e-01 5.449541e-01 3.994183e-01 5.450541e-01 3.336929e-01 2.591141e-01 7.387088e-01
<GCONST> 1.181468e+02
<STATE> 3
<MEAN> 39
 -1.240987e+01 -8.118268e-01 -3.275396e+00 -8.468443e-01 -1.859217e+00 -6.147734e-01 -1.631192e-01 3.046668e-01 -5.230802e-01 -1.164553e+00 4.351445e-01 5.640392e-01 2.409117e+01 2.225239e-01 9.742658e-02 -2.848398e-01 -2.559558e-01 2.661786e-01 2.378255e-03 -8.604468e-02 -1.229116e-01 3.157033e-01 1.721277e-01 -3.343907e-02 -6.661928e-02 4.449781e-01 2.031020e-01 -9.270202e-02 1.563903e-01 -6.126931e-02 1.326740e-01 -1.668000e-01 4.891125e-02 -3.097336e-02 5.827515e-02 -7.441790e-02 -1.791356e-01 -1.208188e-01 5.807724e-01
<VARIANCE> 39
 3.094592e+00 2.337120e+00 3.861674e+00 8.409705e+00 7.885853e+00 1.000406e+01 8.580549e+00 4.837862e+00 6.516769e+00 5.604169e+00 6.408230e+00 4.572869e+00 2.689716e+00 1.043159e+00 5.757776e-01 9.657004e-01 2.437855e+00 1.698643e+00 1.856238e+00 1.455363e+00 9.479620e-01 1.252791e+00 8.295748e-01 1.643212e+00 1.152161e+00 4.774565e+00 1.794530e-01 1.284418e-01 1.850098e-01 3.884619e-01 3.115752e-01 2.685731e-01 2.606311e-01 1.567023e-01 2.651354e-01 1.796747e-01 2.335022e-01 1.804716e-01 5.859971e-01
<GCONST> 7.842496e+01
<STATE> 4
<MEAN> 39
 -5.325922e+00 -4.334604e+00 -5.338634e+00 -6.609693e+00 3.572967e+00 -6.054240e+00 1.350768e+00 -8.368074e-01 4.233211e+00 1.058228e+00 -3.230545e+00 -3.421165e+00 4.470052e+01 -1.186316e-01 -3.930968e-02 1.583266e-01 2.864849e-01 1.228634e-02 1.647440e-01 -8.965433e-02 4.149523e-02 -1.446001e-02 1.399653e-01 9.238632e-02 2.437845e-03 -3.680155e-01 -4.738348e-02 2.468277e-02 1.293587e-01 1.515512e-01 -4.451401e-02 1.290823e-01 2.292191e-02 -6.334654e-03 -6.821866e-02 -8.620190e-03 1.288181e-01 1.038558e-01 -1.199076e-01
<VARIANCE> 39
 1.631711e+01 1.457874e+01 8.877305e+00 3.119858e+01 1.820481e+01 1.679885e+01 2.012446e+01 1.288378e+01 1.456887e+01 1.195369e+01 1.034615e+01 9.597861e+00 2.060128e+02 1.902409e+00 1.421930e+00 1.560529e+00 1.799354e+00 2.536075e+00 1.395331e+00 1.643301e+00 1.462674e+00 2.223354e+00 8.313247e-01 1.196388e+00 1.046755e+00 1.653349e+01 3.658238e-01 2.509620e-01 3.952407e-01 4.239087e-01 5.827157e-01 2.679783e-01 3.260361e-01 3.142456e-01 5.572916e-01 1.579773e-01 2.702164e-01 2.246052e-01 2.041305e+00
<GCONST> 1.041247e+02
<STATE> 5
<MEAN> 39
 -1.064068e+01 -2.562653e+00 -8.000329e-03 -1.388204e-01 9.366090e-01 -1.330455e+00 8.352536e-01 1.223119e-01 1.441310e+00 -2.093472e-01 6.448001e-01 -1.129480e-01 3.429130e+01 2.379446e+00 3.688557e-02 1.663837e+00 -4.586767e-01 4.452463e-01 1.710778e-01 8.488122e-01 -7.784805e-01 8.219781e-01 -1.771249e-01 3.095068e-01 3.472892e-01 5.796873e+00 8.481220e-01 7.635982e-02 -1.896529e-01 -1.066366e+00 -2.827150e-01 8.957870e-02 -1.457154e-02 -5.386809e-01 3.632652e-01 2.839334e-02 -1.247616e-01 -8.213535e-02 5.188696e-01
<VARIANCE> 39
 7.211111e+00 1.248877e+01 1.253005e+01 5.911582e+00 7.381122e+00 9.031622e+00 6.326176e+00 7.277671e+00 8.874492e+00 6.672420e+00 3.618130e+00 3.684587e+00 1.457192e+02 3.480108e+00 1.643437e+00 1.146217e+00 2.269614e+00 1.512108e+00 1.502091e+00 8.991308e-01 1.450187e+00 4.230927e+00 2.104528e+00 8.319914e-01 4.478256e-01 4.168825e+00 2.187640e-01 7.947035e-01 2.967621e-01 3.926798e-01 2.100001e-01 1.996353e-01 2.621161e-01 3.360884e-01 4.593757e-01 1.827088e-01 1.008343e-01 5.260884e-02 2.718112e+00
<GCONST> 9.036002e+01
<STATE> 6
<MEAN> 39
 1.210528e+00 -2.538600e+00 3.667467e+00 -3.549601e+00 1.987050e-01 2.670514e+00 -4.758221e-01 -4.406340e+00 8.205360e+00 1.143415e+00 -2.718270e-01 2.648577e-01 4.536460e+01 2.661737e+00 -1.299531e+00 -3.953439e-02 -3.980140e+00 -1.113920e+00 4.445900e-01 -7.972075e-01 -2.488695e+00 2.260065e+00 -2.319266e-02 2.576659e-01 2.613360e-01 3.278983e+00 -1.053931e+00 -2.612695e-01 -6.545821e-01 -7.401952e-01 -4.298640e-01 -4.951301e-01 -2.414055e-01 -1.903725e-01 -4.537126e-01 -3.719051e-01 -1.108704e-02 7.649377e-02 -1.343807e+00
<VARIANCE> 39
 1.485538e+01 3.120734e+01 1.774081e+01 2.312494e+01 2.197519e+01 2.609052e+01 2.937671e+01 1.396268e+01 4.531991e+01 2.094272e+01 8.596937e+00 1.019466e+01 3.385252e+01 3.153306e+00 9.348363e+00 1.579288e+00 1.928239e+00 1.413629e+00 2.382415e+00 4.667176e+00 2.138353e+00 5.397332e+00 1.006548e+00 4.702635e-01 3.562064e-01 4.908123e+00 4.146082e-01 7.440822e-01 3.393801e-01 5.306936e-01 4.303306e-01 3.447213e-01 3.997703e-01 2.979389e-01 2.933863e-01 5.761654e-01 1.859549e-01 1.259376e-01 5.061427e-01
<GCONST> 1.074217e+02
<STATE> 7
<MEAN> 39
 1.639072e+00 -3.773795e+00 1.522890e+00 -1.767563e+01 -3.552016e+00 -9.726329e-01 1.621078e+00 -1.054524e+01 6.246695e+00 -2.286478e+00 6.266711e-01 9.657714e-01 5.027224e+01 2.365998e-01 -3.130766e-01 -2.144047e-01 -2.608699e+00 -7.722961e-01 -5.302173e-01 4.090180e-02 -1.333993e+00 5.822175e-02 -4.623518e-01 -2.711242e-01 3.093906e-01 2.161532e-01 -3.580180e-01 1.535608e-01 4.477705e-02 6.725685e-01 3.095381e-01 7.038329e-03 -4.130791e-02 4.924090e-01 -2.343359e-01 1.418141e-01 -2.071765e-01 -1.823732e-02 -5.116307e-01
<VARIANCE> 39
 4.258256e+00 4.517461e+01 7.428526e+00 4.163573e+01 1.743389e+01 1.854072e+01 6.544801e+01 1.382680e+01 9.261412e+01 7.184224e+00 3.545464e+00 3.721363e+00 2.154370e+01 1.685850e+00 2.618575e+00 1.584060e+00 4.648422e+00 1.669267e+00 1.135722e+00 1.756060e+00 9.036207e-01 1.125948e+00 1.647931e+00 9.523133e-01 5.642991e-01 6.635236e-01 2.898139e-01 8.321161e-01 2.193414e-01 4.187172e-01 3.042701e-01 2.174520e-01 3.636296e-01 2.223462e-01 2.841261e-01 2.382576e-01 1.352660e-01 1.019730e-01 3.139658e-01
<GCONST> 9.440149e+01
<STATE> 8
<MEAN> 39
 8.448796e-01 -2.581686e-01 -1.876685e-01 -1.945133e+01 6.936137e-02 1.249230e+00 2.840454e-01 -9.391915e+00 5.982051e+00 -1.517466e+00 -2.060375e+00 2.722150e+00 4.476260e+01 -2.164016e-01 4.559864e-01 -1.110090e-01 7.988057e-01 7.352758e-01 6.099539e-01 -2.789470e-01 4.860750e-01 -2.240357e-01 -3.028714e-01 -1.118596e-01 -1.092761e-01 -9.682229e-01 -2.790460e-02 5.142663e-02 6.025859e-02 3.060504e-01 1.577049e-02 -7.568589e-03 3.852849e-02 4.796983e-02 -1.286820e-01 -4.518348e-02 5.208004e-02 -1.092672e-01 -9.042244e-02
<VARIANCE> 39
 8.127565e+00 5.768382e+01 1.075220e+01 4.742719e+01 4.250412e+01 3.810862e+01 8.143345e+01 1.653304e+01 8.428302e+01 2.122111e+01 1.132989e+01 1.053511e+01 2.482134e+01 4.255750e-01 1.507142e+00 1.207406e+00 2.434900e+00 1.756449e+00 2.842124e+00 2.795973e+00 1.351195e+00 1.308431e+00 1.615103e+00 1.230142e+00 1.010294e+00 5.444734e-01 8.044095e-02 2.679895e-01 2.405540e-01 2.506745e-01 2.817814e-01 7.142406e-01 5.110011e-01 3.143261e-01 2.152375e-01 3.159322e-01 2.053563e-01 1.551282e-01 6.141042e-02
<GCONST> 9.906669e+01
<STATE> 9
<MEAN> 39
 -4.722335e+00 5.316195e+00 4.384111e+00 1.056925e+00 4.669105e+00 2.132033e+00 -1.528106e-01 -2.684458e+00 -3.140472e-01 -3.556633e+00 -1.164867e+00 -1.261491e+00 3.036993e+01 -5.457441e-01 3.297501e-01 3.837869e-01 1.133920e+00 -3.060129e-01 -5.809720e-01 4.084744e-01 4.372602e-01 -4.860657e-01 4.913289e-01 2.072788e-01 -4.012469e-02 -8.046103e-01 -1.766568e-03 -1.145929e-01 -1.033453e-01 -2.680362e-01 -6.538045e-02 2.143377e-02 -3.431974e-02 -2.010524e-02 1.937317e-01 7.046646e-02 3.248237e-03 1.108224e-01 1.025189e-01
<VARIANCE> 39
 1.062696e+01 1.609767e+01 2.693391e+01 2.306582e+01 1.163943e+01 1.808471e+01 1.505397e+01 1.458282e+01 1.327969e+01 1.787918e+01 1.591527e+01 1.380062e+01 9.110617e+00 7.251418e-01 7.144719e-01 1.243065e+00 2.233290e+00 1.974446e+00 1.753635e+00 1.931658e+00 1.296896e+00 2.407134e+00 1.627347e+00 1.581666e+00 1.817602e+00 6.849150e-01 1.027864e-01 1.329019e-01 1.740216e-01 1.604959e-01 4.298314e-01 3.360356e-01 2.689458e-01 2.231918e-01 3.645247e-01 2.968037e-01 3.329813e-01 3.476631e-01 5.036747e-02
<GCONST> 9.164236e+01
<TRANSP> 10
 0.000000e+00 1.000000e+00 0.000000e+00 0.000000e+00 0.000000e+00 0.000000e+00 0.000000e+00 0.000000e+00 0.000000e+00 0.000000e+00
 0.000000e+00 9.146914e-01 8.530859e-02 0.000000e+00 0.000000e+00 0.000000e+00 0.000000e+00 0.000000e+00 0.000000e+00 0.000000e+00
 0.000000e+00 0.000000e+00 8.842508e-01 1.157493e-01 0.000000e+00 0.000000e+00 0.000000e+00 0.000000e+00 0.000000e+00 0.000000e+00
 0.000000e+00 0.000000e+00 0.000000e+00 8.987923e-01 1.012077e-01 0.000000e+00 0.000000e+00 0.000000e+00 0.000000e+00 0.000000e+00
 0.000000e+00 0.000000e+00 0.000000e+00 0.000000e+00 6.463508e-01 3.536492e-01 0.000000e+00 0.000000e+00 0.000000e+00 0.000000e+00
 0.000000e+00 0.000000e+00 0.000000e+00 0.000000e+00 0.000000e+00 4.751183e-01 5.248817e-01 0.000000e+00 0.000000e+00 0.000000e+00
 0.000000e+00 0.000000e+00 0.000000e+00 0.000000e+00 0.000000e+00 0.000000e+00 7.523242e-01 2.476757e-01 0.000000e+00 0.000000e+00
 0.000000e+00 0.000000e+00 0.000000e+00 0.000000e+00 0.000000e+00 0.000000e+00 0.000000e+00 9.264494e-01 7.355063e-02 0.000000e+00
 0.000000e+00 0.000000e+00 0.000000e+00 0.000000e+00 0.000000e+00 0.000000e+00 0.000000e+00 0.000000e+00 9.072962e-01 9.270374e-02
 0.000000e+00 0.000000e+00 0.000000e+00 0.000000e+00 0.000000e+00 0.000000e+00 0.000000e+00 0.000000e+00 0.000000e+00 0.000000e+00
<ENDHMM>
~h "mesic"
<BEGINHMM>
<NUMSTATES> 10
<STATE> 2
<MEAN> 39
 -7.205561e+00 3.952913e+00 2.580537e+00 3.154155e+00 8.618557e-01 -3.405277e+00 -2.386544e+00 -5.672530e+00 -4.765927e+00 -2.793283e+00 -2.872613e-01 -6.341984e-01 2.834078e+01 2.182004e+00 8.515418e-01 1.492820e+00 1.055664e+00 2.129060e-01 -1.774534e+00 -3.140409e-01 -1.793325e+00 -1.412646e+00 5.987229e-02 1.403521e-01 -3.720432e-01 2.049209e+00 1.188356e-01 -2.763570e-01 -2.108099e-01 -8.372632e-02 -1.328749e-01 -2.510599e-01 2.153219e-01 -9.963889e-02 -6.401165e-02 3.442811e-01 2.088054e-01 -2.994430e-03 2.476181e-01
<VARIANCE> 39
 3.017182e+01 1.409275e+01 2.056062e+01 1.325743e+01 1.126730e+01 2.397329e+01 2.339782e+01 3.798621e+01 1.751887e+01 1.217813e+01 1.341027e+01 7.270118e+00 2.005354e+01 1.719593e+00 1.696473e+00 1.685883e+00 1.496997e+00 1.232599e+00 2.510519e+00 2.906036e+00 3.254349e+00 2.982210e+00 2.353968e+00 1.945238e+00 1.025097e+00 1.276116e+00 6.385958e-01 4.420580e-01 5.651202e-01 3.227930e-01 1.926233e-01 5.087413e-01 7.372192e-01 7.630057e-01 5.727837e-01 3.270280e-01 3.008605e-01 1.364156e-01 2.886562e-01
<GCONST> 1.049480e+02
<STATE> 3
<MEAN> 39
 2.412584e+00 4.223292e-01 2.735922e+00 6.598349e+00 1.680630e+00 -1.316507e+01 3.138744e+00 -1.091251e+01 -1.256020e+01 8.462160e-01 4.222282e+00 -9.487542e-01 4.262145e+01 1.379512e-01 -4.679362e-01 -2.934210e-01 2.563935e-01 -3.416268e-01 -2.237836e-01 5.931033e-01 1.176377e-01 -2.765666e-01 2.011291e-01 1.884966e-01 1.016184e-01 5.441142e-01 -1.849949e-01 1.003570e-01 4.747961e-02 -7.602420e-02 3.661169e-02 1.573392e-01 -6.338032e-02 1.035616e-01 9.941058e-02 -1.121583e-01 -4.615601e-02 3.264612e-02 -1.273988e-01
<VARIANCE> 39
 8.547134e+00 8.636227e+00 8.540167e+00 1.455618e+01 2.033966e+01 2.627150e+01 2.168680e+01 1.594326e+01 3.107042e+01 1.694601e+01 1.730563e+01 1.516070e+01 2.144007e+01 4.166705e-01 5.525308e-01 1.126875e+00 1.540232e+00 1.341108e+00 2.711881e+00 2.304850e+00 8.848994e-01 2.649361e+00 2.258444e+00 1.043687e+00 1.007382e+00 4.523110e-01 1.492462e-01 9.235020e-02 2.732063e-01 4.198267e-01 2.636277e-01 6.200656e-01 3.994381e-01 2.237318e-01 6.435508e-01 4.440489e-01 2.139059e-01 2.048304e-01 9.053621e-02
<GCONST> 9.250363e+01
<STATE> 4
<MEAN> 39
 -9.708446e-01 1.163568e+00 2.617549e+00 6.946522e+00 -2.485136e+00 -1.197926e+01 3.967606e+00 -9.214767e+00 -1.248087e+01 1.121884e+00 4.336148e+00 3.371814e-01 4.316788e+01 -2.011941e+00 1.105444e+00 1.261666e+00 -3.029874e+00 1.069036e+00 7.495847e-01 -4.292433e-01 1.032649e-01 7.743667e-01 -7.005649e-01 -4.022905e-01 4.230644e-01 1.231984e+00 -4.335506e-01 2.014953e-01 4.962870e-01 -1.274066e+00 2.252719e-01 7.050660e-01 -2.386648e-01 -1.224401e-01 5.019135e-01 -2.869307e-01 -3.900628e-01 -3.689827e-02 2.739455e-01
<VARIANCE> 39
 2.060736e+01 1.157938e+01 1.507614e+01 3.036339e+01 1.275397e+01 2.084412e+01 1.469945e+01 2.781948e+01 2.264289e+01 1.316086e+01 2.771254e+01 1.017792e+01 5.081810e+01 1.296106e+00 8.235288e-01 1.144890e+00 4.101066e+00 1.879671e+00 2.709749e+00 2.178788e+00 1.013114e+00 9.272389e-01 9.018232e-01 6.406193e-01 6.338775e-01 3.566029e-01 3.083325e-01 2.138629e-01 1.497130e-01 6.452268e-01 4.184828e-01 3.617170e-01 3.722779e-01 1.655664e-01 6.374042e-02 1.901333e-01 1.496114e-01 2.185495e-01 5.358597e-02
<GCONST> 9.157204e+01
<STATE> 5
<MEAN> 39
 -8.820768e+00 3.469526e+00 9.460362e+00 -1.032714e+01 -7.825488e-01 -4.298468e+00 3.495027e+00 -1.048359e+01 -4.986746e+00 -2.684733e+00 -2.293838e-01 3.283423e-01 4.897521e+01 -6.658179e-01 -7.640267e-01 4.873811e-01 -2.094072e+00 -7.767743e-01 8.663700e-01 7.518944e-01 1.066692e-01 1.486632e+00 -6.588900e-01 -8.849786e-01 -7.612674e-01 1.180056e+00 4.473810e-01 -4.506782e-01 -5.384550e-01 9.693730e-01 -3.393309e-01 -6.761584e-01 1.250056e-01 3.460313e-01 -1.685574e-01 1.430295e-02 1.485507e-01 -1.354152e-01 -1.270296e-01
<VARIANCE> 39
 6.628023e+00 6.971615e+00 1.304400e+01 7.439000e+01 4.058142e+01 2.183832e+01 2.324859e+01 5.985860e+01 2.110495e+01 6.144682e+00 3.194939e+01 5.372647e+01 6.193457e+01 1.014350e+00 1.198003e+00 1.501369e+00 9.201563e+00 2.384390e+00 6.651637e+00 1.314843e+00 2.237891e+00 1.015652e+00 8.967261e-01 6.905542e-01 1.290246e+00 1.558797e-01 8.993136e-02 1.230786e-01 7.881094e-02 7.436847e-01 5.853546e-01 8.491120e-01 2.588777e-01 3.115650e-01 1.632445e-01 1.404711e-01 1.418273e-01 2.430362e-01 2.905166e-02
<GCONST> 9.620982e+01
<STATE> 6
<MEAN> 39
 -7.430510e+00 -3.246306e+00 5.159853e+00 -9.794641e+00 -3.786285e+00 -1.006316e+01 6.516644e+00 -6.272833e+00 -8.065913e-01 -7.355237e+00 -3.252110e+00 -3.964883e+00 5.099070e+01 4.519355e-01 -6.176563e-03 -1.264793e+00 1.315748e+00 3.885401e-01 -9.539350e-01 -2.782007e-01 5.802109e-01 3.307447e-02 -5.509087e-01 -2.675714e-01 -4.834048e-02 -1.844542e-01 -2.076853e-01 5.083231e-01 1.967505e-03 2.546592e-01 3.343796e-01 5.575987e-01 -2.102353e-01 -2.851836e-01 -1.818303e-01 2.372544e-01 2.024758e-02 1.534654e-01 -3.229603e-01
<VARIANCE> 39
 7.500933e+00 5.084040e+00 2.735560e+01 9.037096e+01 1.094294e+01 3.578942e+01 3.571240e+01 7.775765e+01 1.448556e+01 4.091366e+01 1.340277e+01 2.591576e+01 6.816900e+01 2.152695e-01 2.066475e+00 3.357132e-01 1.510218e+00 2.065296e+00 2.298413e+00 6.625004e-01 1.437155e+00 1.815961e+00 1.805562e+00 7.786914e-01 1.332633e+00 6.397160e-01 1.661581e-01 1.736136e-01 1.346509e-01 2.209402e-01 1.550939e-01 6.302010e-01 1.168773e-01 1.971418e-01 9.919307e-02 3.064242e-01 7.026753e-02 8.433350e-02 2.961158e-02
<GCONST> 8.898641e+01
<STATE> 7
<MEAN> 39
 -1.827835e+01 -3.060572e-01 -5.175241e+00 2.912840e-01 -6.843880e-01 -1.600405e+00 3.764357e+00 -5.344914e+00 -7.251796e-01 -2.700588e+00 -6.335398e-01 -1.484071e+00 4.107806e+01 -9.526401e-01 5.983443e-01 8.206132e-02 1.807287e-01 -2.208721e-01 5.959418e-01 -4.842536e-01 -1.185864e-01 3.364223e-01 6.144373e-01 1.812265e-01 1.677177e-01 -4.325543e-01 1.041124e-01 -4.172502e-02 2.868699e-01 -3.028877e-01 -1.460415e-01 -2.395365e-01 -8.290868e-02 -8.049591e-02 6.394145e-02 -1.159575e-01 -2.681138e-02 1.980039e-03 1.103528e-01
<VARIANCE> 39
 4.806494e+01 1.699834e+01 3.654900e+01 1.667883e+01 1.616280e+01 2.835030e+01 2.997820e+01 4.181721e+01 2.509169e+01 2.432397e+01 1.354114e+01 6.327996e+00 5.157771e+01 3.400559e+00 2.349584e+00 6.409143e+00 3.228008e+00 1.896156e+00 3.727365e+00 2.510786e+00 2.731944e+00 1.948843e+00 1.975942e+00 1.211285e+00 6.880693e-01 4.003184e-01 4.330082e-01 4.130185e-01 5.614545e-01 2.264743e-01 2.952977e-01 5.233190e-01 4.143453e-01 4.232081e-01 4.835398e-01 2.498824e-01 1.991451e-01 1.302071e-01 6.912866e-02
<GCONST> 1.062747e+02
<STATE> 8
<MEAN> 39
 -1.583046e+01 7.143627e+00 7.701615e+00 -2.398801e+00 -2.696921e+00 -7.535628e+00 1.629739e+00 -4.745793e+00 1.629823e+00 -6.699577e+00 -1.056841e+00 1.525404e+00 4.714416e+01 2.478225e-01 2.715325e-01 8.161188e-01 -2.682370e-01 1.872730e-01 -2.096582e-01 -2.057531e-01 -1.462817e-01 1.097003e-02 -3.330922e-01 2.361161e-02 2.341653e-01 -3.886678e-01 -3.538150e-03 -8.347924e-02 -9.111601e-02 3.163838e-02 8.482359e-02 5.580775e-02 4.749981e-02 9.890857e-02 -2.241428e-02 5.848056e-02 -2.150596e-03 -1.388561e-03 -2.275329e-02
<VARIANCE> 39
 3.433717e+01 2.249487e+01 9.317548e+01 3.216333e+01 2.012733e+01 1.348368e+01 2.061752e+01 3.278282e+01 1.475494e+01 4.902753e+01 5.768066e+00 8.682193e+00 3.178455e+01 2.270092e+00 8.242247e-01 2.625560e+00 1.553272e+00 1.356371e+00 1.337569e+00 1.463786e+00 9.904750e-01 9.137298e-01 2.164031e+00 6.078174e-01 8.051046e-01 3.096696e-01 2.730090e-01 1.653151e-01 3.137481e-01 1.706803e-01 2.327765e-01 2.356054e-01 2.718675e-01 2.241795e-01 1.538553e-01 3.460473e-01 1.129930e-01 1.347660e-01 4.167720e-02
<GCONST> 9.218065e+01
<STATE> 9
<MEAN> 39
 -1.626371e+01 2.990482e+00 2.404050e+00 -2.958280e+00 1.578563e+00 -5.259659e+00 -5.436366e-01 -3.185357e+00 4.293352e-01 -1.740734e+00 -5.541421e-01 5.411280e-01 3.554399e+01 -4.374058e-03 -2.765657e-01 -4.815069e-01 2.562289e-01 6.865042e-02 2.011554e-01 1.630529e-01 2.830103e-01 -3.331372e-02 1.460055e-01 1.145845e-01 -2.654555e-02 -2.810858e-01 8.260144e-03 2.378052e-02 -8.345895e-03 2.099815e-02 -3.927516e-02 2.318072e-02 1.631754e-02 -7.178090e-03 6.154790e-04 -9.046427e-03 1.333063e-03 -1.564881e-02 -8.772908e-03
<VARIANCE> 39
 3.754459e+01 2.013453e+01 8.973749e+01 5.703150e+01 1.910218e+01 2.043757e+01 5.939490e+01 2.436346e+01 1.065944e+01 1.690653e+01 2.093076e+01 1.119121e+01 6.771548e+01 1.480785e+00 1.090765e+00 2.607237e+00 2.319141e+00 1.316786e+00 1.800915e+00 2.554920e+00 1.259494e+00 1.255307e+00 1.525739e+00 1.223865e+00 1.202172e+00 2.505414e+00 1.800164e-01 2.125900e-01 3.413692e-01 3.571281e-01 2.250649e-01 3.094916e-01 3.934222e-01 2.438040e-01 2.329124e-01 3.029481e-01 2.498775e-01 2.394117e-01 3.023465e-01
<GCONST> 1.041817e+02
<TRANSP> 10
 0.000000e+00 1.000000e+00 0.000000e+00 0.000000e+00 0.000000e+00 0.000000e+00 0.000000e+00 0.000000e+00 0.000000e+00 0.000000e+00
 0.000000e+00 8.170301e-01 1.829699e-01 0.000000e+00 0.000000e+00 0.000000e+00 0.000000e+00 0.000000e+00 0.000000e+00 0.000000e+00
 0.000000e+00 0.000000e+00 9.025955e-01 9.740450e-02 0.000000e+00 0.000000e+00 0.000000e+00 0.000000e+00 0.000000e+00 0.000000e+00
 0.000000e+00 0.000000e+00 0.000000e+00 6.822153e-01 3.177847e-01 0.000000e+00 0.000000e+00 0.000000e+00 0.000000e+00 0.000000e+00
 0.000000e+00 0.000000e+00 0.000000e+00 0.000000e+00 8.089672e-01 1.910328e-01 0.000000e+00 0.000000e+00 0.000000e+00 0.000000e+00
 0.000000e+00 0.000000e+00 0.000000e+00 0.000000e+00 0.000000e+00 8.292722e-01 1.707279e-01 0.000000e+00 0.000000e+00 0.000000e+00
 0.000000e+00 0.000000e+00 0.000000e+00 0.000000e+00 0.000000e+00 0.000000e+00 9.037912e-01 9.620878e-02 0.000000e+00 0.000000e+00
 0.000000e+00 0.000000e+00 0.000000e+00 0.000000e+00 0.000000e+00 0.000000e+00 0.000000e+00 9.421589e-01 5.784108e-02 0.000000e+00
 0.000000e+00 0.000000e+00 0.000000e+00 0.000000e+00 0.000000e+00 0.000000e+00 0.000000e+00 0.000000e+00 9.678150e-01 3.218504e-02
 0.000000e+00 0.000000e+00 0.000000e+00 0.000000e+00 0.000000e+00 0.000000e+00 0.000000e+00 0.000000e+00 0.000000e+00 0.000000e+00
<ENDHMM>
~h "mesicu"
<BEGINHMM>
<NUMSTATES> 10
<STATE> 2
<MEAN> 39
 9.073997e-01 4.134608e+00 8.794815e+00 7.077365e+00 -4.137372e+00 -7.896238e+00 1.302738e+00 -3.038764e+00 -5.867418e+00 -5.265003e+00 1.912750e-01 -1.447377e+00 3.806989e+01 4.087767e-01 4.075227e-01 7.069599e-01 -3.308730e-01 -7.821996e-01 -5.633755e-02 -2.112004e-01 -4.287089e-01 -1.258528e-01 -5.748674e-01 -1.200774e-01 8.470577e-02 9.705497e-01 -1.008506e-01 -3.851480e-02 -6.181046e-02 -1.094438e-01 -1.545486e-01 7.985997e-02 3.243434e-02 -5.300292e-02 7.978433e-02 -1.682801e-02 1.567159e-02 4.666558e-02 6.639984e-03
<VARIANCE> 39
 2.480233e+01 1.219533e+01 2.057371e+01 2.571151e+01 4.076103e+01 3.930337e+01 1.452990e+01 9.724528e+00 2.212629e+01 2.066854e+01 1.153588e+01 1.059472e+01 2.893218e+01 3.206270e+00 1.636834e+00 1.830324e+00 3.458284e+00 2.503747e+00 5.984575e+00 1.673255e+00 1.050086e+00 3.628905e+00 9.379830e-01 1.618111e+00 1.167866e+00 1.530181e+00 4.284392e-01 3.176543e-01 3.702070e-01 5.503943e-01 5.138479e-01 1.008858e+00 4.290245e-01 1.724845e-01 7.315031e-01 1.904683e-01 3.326424e-01 2.166375e-01 2.535064e-01
<GCONST> 1.065273e+02
<STATE> 3
<MEAN> 39
 -3.111754e+00 5.397873e+00 9.953111e+00 -2.213845e+00 -1.438750e+01 -4.682159e+00 2.077986e+00 -9.532039e+00 2.323847e+00 -1.054839e+01 4.950370e-01 3.423272e+00 4.950043e+01 -2.911454e-02 -9.214097e-01 -1.310241e+00 1.564474e-01 3.559793e-01 -1.339234e+00 7.225707e-02 -1.232708e-01 1.148661e+00 5.097520e-01 -1.223088e-01 7.487478e-02 1.059735e+00 2.615219e-02 -8.151253e-02 -1.331596e-01 1.951216e-01 4.431202e-01 -1.986028e-01 -1.491410e-01 1.735595e-01 -8.425655e-02 2.202229e-01 -1.641513e-01 -1.320190e-01 -5.603990e-02
<VARIANCE> 39
 2.322548e+00 1.268091e+01 2.474572e+01 8.388374e+00 1.605120e+01 2.524923e+01 1.048889e+01 5.086224e+00 1.543427e+01 9.902159e+00 3.965607e+00 4.604206e+00 1.193007e+01 3.815732e-01 7.141351e-01 9.245006e-01 6.826957e-01 2.948852e+00 1.252187e+00 2.027601e+00 1.035809e+00 6.841260e-01 1.472875e+00 6.400065e-01 8.306630e-01 1.156267e-01 9.074079e-02 2.030098e-01 2.064791e-01 1.886720e-01 2.558341e-01 4.674303e-01 3.206315e-01 1.734141e-01 1.666121e-01 1.792818e-01 1.195203e-01 1.354012e-01 1.874110e-02
<GCONST> 7.443184e+01
<STATE> 4
<MEAN> 39
 -5.981495e+00 1.829953e+00 1.629739e+00 1.527887e+00 -3.577827e+00 -1.108750e+01 -2.639202e-01 -7.376951e+00 6.802219e+00 -3.039122e+00 -3.288216e+00 1.500073e+00 5.410106e+01 -1.856523e+00 6.530443e-01 -4.716191e-01 5.739289e-01 1.988715e+00 1.025167e+00 2.598463e-01 1.078923e+00 -4.751465e-01 8.937404e-01 -3.597839e-03 -1.723596e-01 -4.435700e-01 -5.147151e-01 5.326721e-02 9.050431e-03 -2.797985e-01 -1.637199e-01 4.812995e-01 2.114226e-01 2.000081e-01 -1.943545e-01 -2.091274e-01 4.481633e-01 1.271834e-01 -2.636620e-01
<VARIANCE> 39
 8.203465e+00 4.353878e+00 3.596483e+00 6.385319e+00 1.666459e+01 7.967132e+00 1.769125e+00 1.147089e+01 3.796392e+00 6.486148e+00 7.133718e+00 3.323271e+00 3.294351e+00 1.052298e+00 4.463282e-01 4.171431e-01 1.067460e+00 7.374834e-01 1.632311e+00 5.340006e-01 1.202555e+00 7.107633e-01 3.931839e-01 1.930114e+00 2.777345e-01 4.822462e-01 5.785825e-02 2.801325e-01 1.607997e-01 1.535539e-01 3.057032e-01 2.409188e-01 1.151854e-01 2.924888e-01 1.203166e-01 5.989361e-02 1.741920e-01 8.264394e-02 6.610071e-02
<GCONST> 6.368478e+01
<STATE> 5
<MEAN> 39
 -2.181072e+01 2.651271e+00 -3.400492e+00 -9.462410e-01 1.308235e-01 -4.840793e+00 1.164030e+00 -1.762809e+00 3.026457e+00 -2.789204e+00 -1.372431e-01 1.720364e+00 4.980624e+01 -1.066747e+00 -1.391173e-01 -4.205849e-01 -3.981680e-01 -2.999794e-01 5.674008e-02 -1.528873e-01 2.779421e-01 -3.177060e-01 -1.331577e-01 8.209095e-02 -8.856609e-02 -2.617816e-01 2.723785e-01 1.893961e-03 1.439225e-01 2.683006e-02 -1.301125e-01 -1.654490e-01 -6.103458e-02 -1.427685e-01 4.335673e-02 1.581955e-02 -8.087773e-02 -6.255416e-02 7.087829e-02
<VARIANCE> 39
 8.858032e+00 4.017597e+00 7.489275e+00 3.973102e+00 9.648101e+00 7.912252e+00 1.222207e+01 4.861192e+00 1.010569e+01 3.040832e+00 6.130342e+00 3.772862e+00 1.386074e+00 1.451888e+00 4.143499e-01 8.434682e-01 5.045416e-01 5.109019e-01 9.943719e-01 1.240525e+00 4.838306e-01 7.088255e-01 3.756322e-01 7.148282e-01 3.996706e-01 8.069588e-02 1.056477e-01 1.049386e-01 1.582095e-01 8.916193e-02 1.328103e-01 1.900925e-01 2.867870e-01 1.278600e-01 1.564453e-01 7.888459e-02 1.567684e-01 5.955325e-02 1.308547e-02
<GCONST> 5.715829e+01
<STATE> 6
<MEAN> 39
 -2.378656e+01 2.742579e+00 4.611080e-01 -1.449042e+00 -3.645583e+00 -3.297551e+00 1.682043e+00 -1.880968e+00 1.015153e+00 -3.333668e+00 -7.335287e-01 2.130258e-01 4.894538e+01 8.369421e-01 6.407972e-01 1.779828e+00 3.858446e-01 -1.086826e-01 3.748194e-01 2.437851e-01 -5.327888e-01 -1.979066e-01 -5.731685e-01 -9.145207e-02 1.618456e-01 -2.398396e-02 3.634546e-01 2.476403e-01 2.327087e-01 1.402896e-01 9.335336e-02 -7.378865e-02 -8.465871e-02 -5.941313e-02 -1.009812e-01 -2.336282e-01 1.044473e-02 6.913781e-02 -2.554616e-02
<VARIANCE> 39
 6.431023e+00 5.153224e+00 2.672761e+01 6.110242e+00 5.119164e+00 1.048307e+01 1.285559e+01 1.325482e+01 7.594909e+00 6.602292e+00 5.459463e+00 3.895839e+00 2.081666e+00 1.877542e+00 1.073107e+00 2.158589e+00 7.035352e-01 9.757959e-01 9.369694e-01 1.533321e+00 1.370295e+00 9.621454e-01 1.421089e+00 6.156231e-01 5.927640e-01 1.145584e-01 1.649629e-01 9.804896e-02 2.649057e-01 1.450160e-01 2.007283e-01 2.997820e-01 3.389534e-01 2.872983e-01 1.720010e-01 2.460259e-01 1.560405e-01 1.040597e-01 2.910809e-02
<GCONST> 7.266615e+01
<STATE> 7
<MEAN> 39
 -1.180450e+01 1.296611e+01 1.552073e+01 1.830255e+00 -1.768274e+00 -6.514672e+00 -6.914287e-01 -5.511815e+00 -3.133845e+00 -8.858000e+00 1.412978e+00 1.432352e+00 4.405323e+01 4.326212e-01 2.893804e-01 -4.858670e-02 3.623822e-01 4.184199e-01 -1.714826e-02 -8.621320e-02 -1.299806e-01 -3.460746e-01 4.504281e-02 -6.110334e-02 -1.409238e-01 -9.325153e-01 -1.967176e-01 -2.526024e-01 -3.456212e-01 -7.961313e-02 8.407453e-02 8.775530e-02 6.390872e-02 5.457314e-02 8.608595e-02 1.641690e-01 -8.185526e-02 -8.427163e-02 -1.333765e-01
<VARIANCE> 39
 7.284401e+00 9.063342e+00 1.106663e+01 7.580846e+00 1.964657e+01 7.333130e+00 1.546201e+01 2.506217e+01 1.156183e+01 9.523808e+00 1.161742e+01 4.303504e+00 1.437993e+01 1.359515e+00 1.533960e+00 2.330514e+00 8.671525e-01 2.032376e+00 1.393790e+00 1.584283e+00 2.052029e+00 1.067674e+00 9.907641e-01 1.773530e+00 6.954324e-01 1.277135e+00 2.013956e-01 2.690207e-01 2.324246e-01 2.527126e-01 4.060506e-01 1.555982e-01 2.103949e-01 3.845084e-01 2.144217e-01 1.619827e-01 2.915426e-01 1.488075e-01 2.014292e-01
<GCONST> 8.754884e+01
<STATE> 8
<MEAN> 39
 -2.009361e+01 3.397864e+00 2.425554e+00 -3.631260e+00 1.439954e+00 -2.932941e+00 -4.254059e+00 -4.814673e-01 -3.437584e-01 -1.632958e+00 -1.768037e+00 -1.003098e+00 4.671709e+01 3.583534e-01 -3.718189e-01 -3.325356e-01 -2.493875e-01 -2.137395e-01 1.555160e-01 -3.010278e-01 -2.038240e-01 1.307248e-01 2.007409e-01 1.898777e-01 -1.495396e-01 6.403947e-01 8.009262e-02 1.064701e-01 5.518039e-02 7.929290e-03 -8.497438e-02 -6.312072e-03 4.384697e-02 -8.832540e-02 -7.793352e-02 -7.739815e-02 7.672288e-02 5.608859e-02 8.018065e-02
<VARIANCE> 39
 5.896547e+01 1.290818e+01 1.297491e+01 2.171799e+01 1.164958e+01 1.277203e+01 2.461003e+01 2.546338e+01 1.562002e+01 7.398287e+00 7.301980e+00 7.519668e+00 5.505476e+01 5.476036e+00 9.699674e-01 1.780063e+00 1.843855e+00 1.505036e+00 1.191516e+00 1.488263e+00 3.113757e+00 1.658267e+00 9.786308e-01 6.915908e-01 9.052380e-01 2.340412e+00 5.518188e-01 1.352358e-01 2.506089e-01 2.435719e-01 3.490222e-01 2.211006e-01 3.264834e-01 3.829903e-01 2.655956e-01 1.857634e-01 1.253726e-01 1.916004e-01 4.648787e-01
<GCONST> 9.646576e+01
<STATE> 9
<MEAN> 39
 2.871502e+00 1.339203e+01 -2.446669e+00 -4.106786e+00 -4.629570e+00 5.530106e-01 6.070168e+00 -6.614457e+00 -5.667469e+00 -9.507023e+00 -8.627467e-01 -1.069389e+00 4.165979e+01 -1.831815e-03 1.491482e-01 7.195160e-02 1.637713e-02 2.410123e-02 -5.109778e-02 2.825205e-01 3.224294e-01 -1.714189e-02 -1.023797e-01 -1.621245e-01 2.374758e-02 -5.278738e-01 -8.604057e-02 -4.876448e-02 3.508395e-02 3.463618e-02 4.322015e-02 -1.109563e-02 -6.012089e-02 5.835541e-02 4.862393e-02 5.322981e-02 -1.941888e-02 -1.105615e-02 -1.920135e-02
<VARIANCE> 39
 1.049374e+01 2.064155e+01 1.455080e+01 1.663061e+01 1.498033e+01 1.404932e+01 2.617330e+01 3.156328e+01 1.655898e+01 2.328959e+01 1.293995e+01 7.756186e+00 2.868398e+01 4.707822e-01 8.964002e-01 7.141923e-01 8.269891e-01 8.313594e-01 8.142396e-01 1.970563e+00 1.077346e+00 9.524761e-01 1.104506e+00 5.453659e-01 5.266320e-01 1.711315e-01 4.706355e-02 5.117927e-02 6.864601e-02 1.174480e-01 1.243690e-01 1.492069e-01 2.413865e-01 2.106973e-01 1.491688e-01 1.175200e-01 8.480868e-02 8.440243e-02 1.616197e-02
<GCONST> 7.361822e+01
<TRANSP> 10
 0.000000e+00 1.000000e+00 0.000000e+00 0.000000e+00 0.000000e+00 0.000000e+00 0.000000e+00 0.000000e+00 0.000000e+00 0.000000e+00
 0.000000e+00 9.475720e-01 5.242807e-02 0.000000e+00 0.000000e+00 0.000000e+00 0.000000e+00 0.000000e+00 0.000000e+00 0.000000e+00
 0.000000e+00 0.000000e+00 8.866654e-01 1.133346e-01 0.000000e+00 0.000000e+00 0.000000e+00 0.000000e+00 0.000000e+00 0.000000e+00
 0.000000e+00 0.000000e+00 0.000000e+00 8.080562e-01 1.919438e-01 0.000000e+00 0.000000e+00 0.000000e+00 0.000000e+00 0.000000e+00
 0.000000e+00 0.000000e+00 0.000000e+00 0.000000e+00 9.079674e-01 9.203256e-02 0.000000e+00 0.000000e+00 0.000000e+00 0.000000e+00
 0.000000e+00 0.000000e+00 0.000000e+00 0.000000e+00 0.000000e+00 8.796157e-01 1.203843e-01 0.000000e+00 0.000000e+00 0.000000e+00
 0.000000e+00 0.000000e+00 0.000000e+00 0.000000e+00 0.000000e+00 0.000000e+00 9.342362e-01 6.576383e-02 0.000000e+00 0.000000e+00
 0.000000e+00 0.000000e+00 0.000000e+00 0.000000e+00 0.000000e+00 0.000000e+00 0.000000e+00 9.590898e-01 4.091017e-02 0.000000e+00
 0.000000e+00 0.000000e+00 0.000000e+00 0.000000e+00 0.000000e+00 0.000000e+00 0.000000e+00 0.000000e+00 9.719439e-01 2.805611e-02
 0.000000e+00 0.000000e+00 0.000000e+00 0.000000e+00 0.000000e+00 0.000000e+00 0.000000e+00 0.000000e+00 0.000000e+00 0.000000e+00
<ENDHMM>
~h "tyden"
<BEGINHMM>
<NUMSTATES> 10
<STATE> 2
<MEAN> 39
 -1.273204e+01 2.914152e-01 -2.065620e+00 -1.821128e+00 -7.660897e-01 -6.991836e-01 4.284672e-01 -1.404131e+00 3.645779e-02 -3.970107e-01 6.668690e-01 2.669559e-01 3.391687e+01 3.188533e-01 4.935064e-01 1.105873e+00 2.208465e-01 -9.359074e-02 -3.222800e-01 5.568709e-01 -5.802540e-01 9.328192e-02 -1.257910e-01 -9.911477e-02 -1.984973e-01 3.710199e+00 1.969846e-01 7.785477e-02 4.406300e-01 2.973518e-01 -1.564896e-01 -1.348698e-01 -8.057533e-03 -1.299420e-01 -2.616200e-02 -2.909421e-01 -1.389420e-01 2.220795e-02 2.042846e-01
<VARIANCE> 39
 2.558376e+00 6.219610e+00 7.239330e+00 1.223535e+01 9.353727e+00 7.331967e+00 1.052090e+01 7.351869e+00 3.168732e+00 5.961638e+00 3.847238e+00 3.420458e+00 1.727724e+02 6.529357e-01 1.525905e+00 2.171395e+00 2.757893e+00 1.271244e+00 1.381594e+00 8.219616e-01 9.396514e-01 4.419091e-01 1.005127e+00 6.886389e-01 4.016645e-01 1.170296e+01 1.126028e-01 3.020890e-01 1.939017e-01 3.998643e-01 2.618437e-01 2.738878e-01 3.026814e-01 1.379812e-01 1.130605e-01 3.762306e-01 1.233988e-01 1.170909e-01 3.260258e+00
<GCONST> 8.266501e+01
<STATE> 3
<MEAN> 39
 -8.038952e+00 3.140138e+00 8.736140e+00 2.593582e+00 -4.858394e+00 -4.765506e+00 -1.836425e-01 -5.460645e+00 -4.230789e-01 -8.296527e+00 -1.692426e+00 1.303619e+00 4.686733e+01 6.723641e-01 2.002308e-02 1.363214e+00 2.408224e-01 -5.583334e-01 -4.065683e-01 -9.713631e-01 -2.431881e-01 3.295236e-02 -2.269426e+00 -4.283822e-01 9.285617e-01 -2.136284e-02 -3.599310e-01 -6.125832e-02 -3.908485e-01 -4.180376e-01 2.854730e-01 2.681392e-01 -2.966343e-02 8.233178e-02 4.778020e-04 2.870385e-01 1.456962e-01 1.583182e-02 -2.543662e-01
<VARIANCE> 39
 7.554545e+00 8.779716e+00 4.285336e+01 6.327041e+00 5.922691e+00 1.307496e+01 9.338249e+00 1.749200e+01 4.071074e+00 3.948222e+01 8.176231e+00 7.666003e+00 1.246304e+02 9.628221e-01 9.025995e-01 2.591725e+00 8.289951e-01 1.083415e+00 1.936953e+00 1.047798e+00 8.786030e-01 6.917858e-01 3.040829e+00 7.988504e-01 3.688031e-01 2.391711e-01 1.197839e-01 3.591962e-01 4.003584e-01 1.956731e-01 1.663835e-01 3.455479e-01 3.208564e-01 3.814817e-01 1.685817e-01 6.604611e-01 1.301980e-01 1.579193e-01 4.047914e-01
<GCONST> 8.670375e+01
<STATE> 4
<MEAN> 39
 -8.720312e+00 9.235418e+00 1.462048e+01 3.017520e-01 -4.219889e+00 -7.161373e+00 2.937865e-01 -2.985437e+00 -7.180632e-01 -1.326382e+01 -3.106095e+00 4.666048e+00 4.725011e+01 -9.224500e-02 1.423868e-01 1.425286e-01 -6.607727e-02 7.382221e-02 -1.579920e-01 1.042926e-01 1.839795e-01 -1.027724e-01 9.268261e-02 4.855102e-02 1.175731e-02 -4.940044e-02 3.203739e-02 -7.733110e-02 2.409471e-03 5.292822e-02 -3.422511e-02 -3.941131e-02 -1.154312e-02 -2.914209e-02 -4.604172e-02 4.681617e-02 6.776106e-03 -9.270251e-02 4.746285e-02
<VARIANCE> 39
 2.410779e+00 1.138380e+01 2.058746e+01 3.952360e+00 1.032475e+01 1.382207e+01 1.441661e+01 1.446111e+01 6.761777e+00 2.294097e+01 1.763470e+01 3.485241e+00 3.027188e+01 1.382099e-01 5.992525e-01 4.419753e-01 4.773890e-01 4.348259e-01 6.166964e-01 9.419611e-01 4.718103e-01 5.475808e-01 5.949888e-01 3.252534e-01 2.983586e-01 2.873647e-01 2.610609e-02 7.410233e-02 1.381561e-01 1.126988e-01 8.623403e-02 1.221658e-01 1.749450e-01 1.516670e-01 1.110400e-01 1.310943e-01 5.489973e-02 7.179958e-02 9.989282e-02
<GCONST> 6.072442e+01
<STATE> 5
<MEAN> 39
 -1.131348e+01 1.329708e+00 6.608109e+00 8.937168e-01 -3.111803e+00 -5.101467e+00 -8.962010e-01 -3.314751e+00 -2.342458e+00 -5.257471e+00 -5.192725e-02 2.521169e-01 3.824627e+01 5.174398e-01 -3.807335e-01 1.951385e+00 -2.357334e-01 -9.290562e-01 -1.285817e+00 -3.766404e-01 -1.515118e+00 -3.200362e-01 1.759926e-01 -2.046549e-01 -1.334647e+00 1.394702e+00 2.434348e-01 4.141934e-01 5.897982e-01 -5.713553e-01 -2.775706e-02 -3.844151e-01 -1.011796e-01 -9.797384e-02 3.257649e-01 -7.304146e-02 -2.685151e-01 -4.990789e-02 -2.468494e-01
<VARIANCE> 39
 1.137438e+01 3.512261e+01 6.303282e+01 1.026330e+01 2.007522e+01 2.505935e+01 1.945105e+01 3.432968e+01 1.824493e+01 3.345953e+01 1.200278e+01 9.344469e+00 1.280898e+02 6.063422e-01 1.513669e+00 7.900547e+00 7.177101e+00 4.665895e+00 2.495751e+00 1.841554e+00 6.751963e+00 1.833615e+00 1.981701e+00 8.797942e-01 7.914146e-01 1.084717e+01 5.565160e-02 3.039550e-01 5.230731e-01 1.234829e+00 1.049113e+00 3.907634e-01 4.239425e-01 5.340564e-01 3.018254e-01 2.638398e-01 1.569219e-01 2.187201e-01 1.138959e+00
<GCONST> 1.124248e+02
<STATE> 6
<MEAN> 39
 -1.081233e+01 6.931308e+00 1.927392e+01 -2.006207e+01 -4.407356e+00 -1.036946e+01 -3.539639e+00 -1.151634e+01 3.850137e+00 -6.411365e+00 -4.021732e+00 -4.692897e+00 4.102881e+01 2.110660e-01 3.812086e-01 7.321939e-01 -6.969516e-01 4.720320e-01 7.099639e-02 -5.054324e-01 2.606670e-01 1.912249e-01 7.419232e-02 -5.802006e-01 -1.512907e-02 -2.193046e-01 -3.524865e-02 -8.094731e-02 -3.130633e-01 3.755866e-01 2.531735e-01 2.415263e-01 -5.145416e-02 1.898348e-01 -3.318859e-02 1.390973e-01 4.514278e-02 1.430551e-01 -2.807967e-01
<VARIANCE> 39
 4.068252e+00 1.017684e+01 9.740087e+00 8.346001e+01 2.979478e+01 1.204772e+01 1.454361e+01 2.923318e+01 1.626952e+01 6.681749e+00 9.321556e+00 4.729513e+00 3.429675e+00 3.673967e-01 1.277648e+00 2.955662e+00 6.030310e+00 3.187531e+00 1.746112e+00 1.793980e+00 1.117792e+00 1.080207e+00 1.400920e+00 7.199049e-01 6.096879e-01 2.687108e+00 6.651119e-02 8.131193e-02 3.287463e-01 4.840057e-01 5.673042e-01 1.847026e-01 2.711548e-01 3.276729e-01 1.755190e-01 1.597599e-01 1.644269e-01 1.025166e-01 2.983061e-01
<GCONST> 8.825868e+01
<STATE> 7
<MEAN> 39
 -7.671590e+00 2.361493e+00 1.458969e+01 -7.235074e+00 -2.150584e+00 -7.836202e+00 -7.120487e+00 -3.628095e+00 -1.939337e+00 -2.966740e+00 -3.979874e+00 -1.261189e+00 4.049182e+01 3.598692e-01 -1.124725e+00 -9.357789e-01 -4.346187e-01 -4.999041e-01 -7.058166e-01 2.663360e-01 -3.319401e-01 4.376542e-01 2.215597e-01 6.312903e-01 1.654894e-01 1.352875e+00 -1.348455e-03 -5.848607e-02 -2.355000e-01 -1.999522e-01 -2.332767e-01 -1.241025e-01 2.255991e-01 -1.516092e-01 1.880699e-01 -2.066333e-01 8.768828e-02 -9.337030e-03 3.236573e-01
<VARIANCE> 39
 1.772512e+01 2.993764e+01 2.986793e+01 1.424921e+02 4.040675e+01 3.288827e+01 4.650782e+01 2.255251e+01 1.334403e+01 2.676966e+01 2.929358e+01 1.011093e+01 6.471305e+01 1.115456e+00 2.738326e+00 1.944900e+00 8.148777e+00 4.189669e+00 4.602952e+00 3.906585e+00 2.168676e+00 2.076274e+00 2.119104e+00 2.208565e+00 8.011122e-01 8.650246e+00 2.124198e-01 5.041810e-01 3.624569e-01 1.661791e+00 8.074282e-01 8.519554e-01 3.664457e-01 4.070970e-01 2.974161e-01 4.944775e-01 4.264382e-01 1.513081e-01 1.883450e+00
<GCONST> 1.203376e+02
<STATE> 8
<MEAN> 39
 -5.206684e+00 -5.832426e+00 5.019771e+00 -5.256242e+00 3.116043e-01 -7.684907e+00 6.108999e+00 -1.102837e+00 -2.206303e+00 -1.150485e+01 -1.919709e+00 -2.976586e+00 4.099447e+01 -4.938201e-02 2.099839e-01 -4.632797e-01 5.567365e-01 1.998562e-01 3.183248e-01 -1.238340e-01 1.250834e-01 -2.603304e-02 -7.561041e-02 -1.682048e-01 3.408927e-02 -5.719103e-01 -4.921874e-02 2.233700e-02 4.433857e-03 -3.043323e-02 -1.694208e-02 3.866801e-02 -6.489986e-02 4.745956e-02 -1.405669e-02 1.252398e-01 2.410013e-02 3.793581e-02 -8.216558e-02
<VARIANCE> 39
 7.739529e+00 2.664953e+01 1.059208e+01 9.419907e+01 2.660016e+01 2.705385e+01 4.732046e+01 2.986702e+01 1.876445e+01 2.044235e+01 2.272153e+01 1.492806e+01 4.670337e+01 5.083271e-01 1.606031e+00 1.287343e+00 3.542819e+00 1.762437e+00 1.800648e+00 1.952493e+00 2.301195e+00 1.374012e+00 2.263090e+00 8.443415e-01 8.005125e-01 7.473888e-01 5.158309e-02 2.967734e-01 2.157782e-01 6.713513e-01 2.819397e-01 3.123865e-01 3.358554e-01 3.822060e-01 2.068219e-01 2.553622e-01 1.330611e-01 1.103608e-01 1.171510e-01
<GCONST> 9.788787e+01
<STATE> 9
<MEAN> 39
 6.040387e-03 2.889113e+00 2.651226e-01 -1.003227e+00 3.536341e-01 -5.707891e+00 -9.462420e-01 -7.862029e+00 6.696790e-01 -3.465724e-01 -9.021866e-01 -1.164907e+00 4.523886e+01 -3.335526e-02 2.452046e-01 1.387715e-01 4.046024e-02 1.164646e-01 1.756102e-01 9.685356e-02 5.297922e-02 -1.172809e-01 1.014914e-01 4.803412e-02 -4.339711e-02 -4.495445e-01 -4.588469e-03 1.252872e-03 5.523301e-02 2.523283e-02 2.586851e-02 1.805886e-02 1.032202e-03 1.864988e-02 -3.797968e-02 -2.006755e-02 -6.481858e-03 -6.679008e-04 -2.226047e-03
<VARIANCE> 39
 6.042462e+00 3.314580e+01 4.343497e+01 1.492095e+01 2.096665e+01 3.216217e+01 3.734130e+01 6.380555e+01 4.796228e+01 1.746170e+01 1.124478e+01 6.002045e+00 1.037239e+02 2.897949e-01 5.844872e-01 1.844128e+00 1.221148e+00 1.262530e+00 1.302021e+00 2.487602e+00 3.909426e+00 1.543609e+00 1.284757e+00 7.695935e-01 5.927061e-01 8.195136e-01 5.843204e-02 1.047273e-01 2.792781e-01 2.130509e-01 2.291300e-01 2.224061e-01 4.535003e-01 6.199294e-01 2.145957e-01 2.179583e-01 1.354082e-01 1.023250e-01 1.190228e-01
<GCONST> 9.319979e+01
<TRANSP> 10
 0.000000e+00 1.000000e+00 0.000000e+00 0.000000e+00 0.000000e+00 0.000000e+00 0.000000e+00 0.000000e+00 0.000000e+00 0.000000e+00
 0.000000e+00 7.398717e-01 2.601283e-01 0.000000e+00 0.000000e+00 0.000000e+00 0.000000e+00 0.000000e+00 0.000000e+00 0.000000e+00
 0.000000e+00 0.000000e+00 6.434403e-01 3.565597e-01 0.000000e+00 0.000000e+00 0.000000e+00 0.000000e+00 0.000000e+00 0.000000e+00
 0.000000e+00 0.000000e+00 0.000000e+00 9.190287e-01 8.097129e-02 0.000000e+00 0.000000e+00 0.000000e+00 0.000000e+00 0.000000e+00
 0.000000e+00 0.000000e+00 0.000000e+00 0.000000e+00 6.405029e-01 3.594971e-01 0.000000e+00 0.000000e+00 0.000000e+00 0.000000e+00
 0.000000e+00 0.000000e+00 0.000000e+00 0.000000e+00 0.000000e+00 8.582296e-01 1.417704e-01 0.000000e+00 0.000000e+00 0.000000e+00
 0.000000e+00 0.000000e+00 0.000000e+00 0.000000e+00 0.000000e+00 0.000000e+00 8.942289e-01 1.057710e-01 0.000000e+00 0.000000e+00
 0.000000e+00 0.000000e+00 0.000000e+00 0.000000e+00 0.000000e+00 0.000000e+00 0.000000e+00 9.456509e-01 5.434908e-02 0.000000e+00
 0.000000e+00 0.000000e+00 0.000000e+00 0.000000e+00 0.000000e+00 0.000000e+00 0.000000e+00 0.000000e+00 9.661641e-01 3.383586e-02
 0.000000e+00 0.000000e+00 0.000000e+00 0.000000e+00 0.000000e+00 0.000000e+00 0.000000e+00 0.000000e+00 0.000000e+00 0.000000e+00
<ENDHMM>
~h "dnu"
<BEGINHMM>
<NUMSTATES> 5
<STATE> 2
<MEAN> 39
 -4.739654e+00 1.798677e+00 6.707437e+00 6.171675e+00 2.566885e-01 -4.980251e+00 -4.138949e+00 -5.232041e+00 -2.072515e+00 -4.730494e+00 -1.942029e+00 5.804939e-02 3.535791e+01 5.750038e-01 -1.038617e-01 1.756645e-01 3.340551e-01 -4.323431e-03 -3.864554e-01 -1.290825e-01 -3.362324e-01 -4.790549e-02 -1.122986e-01 -1.131908e-01 -8.321434e-02 7.734390e-01 -2.782820e-02 -4.610348e-02 -1.205542e-01 -2.523605e-02 -1.132429e-03 -1.019276e-02 7.928239e-02 -1.676127e-02 1.587085e-02 3.866689e-02 3.938256e-03 -2.079455e-02 -4.847017e-02
<VARIANCE> 39
 1.670021e+01 4.495805e+01 2.231823e+01 1.412497e+01 3.669183e+01 3.240371e+01 2.500048e+01 1.665490e+01 1.834123e+01 1.261163e+01 9.673418e+00 1.532550e+01 7.006083e+01 1.868730e+00 3.962781e+00 3.320826e+00 1.617731e+00 2.984274e+00 3.520120e+00 3.339100e+00 2.819747e+00 1.978047e+00 1.619865e+00 1.268129e+00 1.413900e+00 3.334162e+00 3.184480e-01 6.763333e-01 4.998052e-01 2.854238e-01 4.522468e-01 7.501066e-01 6.918150e-01 5.348591e-01 3.614198e-01 2.867888e-01 2.472890e-01 2.375829e-01 5.783703e-01
<GCONST> 1.118797e+02
<STATE> 3
<MEAN> 39
 3.222703e+00 -1.931264e+00 -2.176015e+00 8.475131e+00 -4.288180e-01 -9.471305e+00 3.902153e+00 -1.324728e+01 -5.266351e+00 -1.448976e+00 4.562990e-01 -3.586252e+00 4.408495e+01 8.931903e-02 3.535134e-02 -4.289199e-01 -4.769747e-01 -2.454095e-03 -4.368127e-02 8.456962e-01 2.337765e-01 -6.887478e-01 9.094467e-02 1.269097e-01 -2.261929e-02 7.858414e-02 -1.376105e-02 5.012153e-02 8.311415e-02 -6.214264e-02 -8.806557e-02 -3.203412e-03 -3.758331e-02 1.232445e-01 -6.030926e-02 -3.769486e-02 -3.115231e-03 4.775189e-02 -3.410101e-03
<VARIANCE> 39
 1.149324e+01 7.802908e+00 1.379010e+01 2.820618e+01 2.665909e+01 1.142347e+01 2.024785e+01 5.455213e+01 1.892697e+01 7.720019e+00 2.066452e+01 8.547650e+00 1.805314e+01 2.399187e-01 1.390168e+00 5.155004e-01 1.252256e+00 1.716392e+00 1.135968e+00 2.219022e+00 3.216288e+00 2.031153e+00 8.516737e-01 1.785510e+00 8.511764e-01 5.749415e-01 5.146626e-02 2.415412e-01 1.156341e-01 2.752874e-01 2.934721e-01 1.960657e-01 2.621334e-01 4.044439e-01 4.323066e-01 1.474588e-01 3.245552e-01 1.413846e-01 9.322342e-02
<GCONST> 8.828378e+01
<STATE> 4
<MEAN> 39
 3.305099e+00 7.117711e+00 -3.793045e-01 -3.115097e+00 -5.742100e+00 -5.135357e+00 5.740035e+00 -2.945505e+00 -7.129464e+00 -6.661108e+00 -4.363610e+00 -4.462139e+00 3.775051e+01 -1.836550e-01 2.408334e-01 1.687741e-01 -7.394258e-02 -3.299993e-02 1.819807e-01 -1.871773e-01 1.037272e-01 2.306333e-01 -8.030368e-02 -9.657971e-02 1.294363e-02 -3.624814e-01 -3.158655e-02 -3.964280e-02 -1.302855e-02 2.731932e-02 3.093452e-02 3.565400e-02 -2.991419e-02 1.502160e-02 5.220933e-02 3.579883e-02 3.560539e-02 2.489897e-02 -1.087852e-02
<VARIANCE> 39
 3.455298e+01 3.856710e+01 1.258986e+01 2.273234e+01 3.703713e+01 1.570613e+01 4.116391e+01 1.943619e+01 2.729447e+01 1.847779e+01 3.097762e+01 1.723677e+01 2.588469e+01 1.799283e-01 3.758242e-01 3.940986e-01 6.329630e-01 8.497137e-01 6.708967e-01 1.137363e+00 1.231552e+00 1.058707e+00 7.642756e-01 7.140347e-01 6.591672e-01 7.048331e-02 1.058269e-02 3.545779e-02 5.492481e-02 7.507523e-02 1.150819e-01 1.115095e-01 1.760193e-01 1.886384e-01 1.634546e-01 9.593032e-02 9.347785e-02 9.595484e-02 5.757029e-03
<GCONST> 7.024516e+01
<TRANSP> 5
 0.000000e+00 1.000000e+00 0.000000e+00 0.000000e+00 0.000000e+00
 0.000000e+00 9.578021e-01 4.219796e-02 0.000000e+00 0.000000e+00
 0.000000e+00 0.000000e+00 9.276519e-01 7.234808e-02 0.000000e+00
 0.000000e+00 0.000000e+00 0.000000e+00 9.730751e-01 2.692492e-02
 0.000000e+00 0.000000e+00 0.000000e+00 0.000000e+00 0.000000e+00
<ENDHMM>
~h "rok"
<BEGINHMM>
<NUMSTATES> 10
<STATE> 2
<MEAN> 39
 -1.332295e+01 -2.177308e+00 -1.752216e+00 -5.950063e-01 6.414894e-01 -9.477688e-01 -1.292959e+00 -5.436860e-01 1.479033e+00 -7.780674e-01 -3.279974e-01 -4.833592e-01 2.582312e+01 4.111845e-01 3.263166e-01 3.253457e-01 2.064087e-01 5.236810e-01 -1.486360e-01 2.834398e-01 -3.708621e-01 1.407729e-01 -3.121051e-01 -2.031081e-01 -1.341914e-01 4.875210e-01 4.512603e-01 9.842765e-02 -6.812058e-02 -1.504239e-02 3.577517e-02 -1.484698e-01 7.039344e-02 -1.750330e-01 -1.822798e-02 -1.605556e-01 -7.334612e-02 2.921002e-02 3.908424e-01
<VARIANCE> 39
 1.091646e+01 2.688164e+01 1.617151e+01 1.527242e+01 1.531679e+01 1.334888e+01 2.329453e+01 5.681080e+00 1.229423e+01 8.520988e+00 5.098900e+00 4.304481e+00 1.565694e+01 2.183784e+00 4.182260e+00 2.467528e+00 2.304123e+00 2.297892e+00 1.517278e+00 3.507334e+00 9.413243e-01 1.369773e+00 1.729316e+00 6.679905e-01 3.953568e-01 2.860948e+00 6.466115e-01 8.688256e-01 5.671362e-01 5.620978e-01 4.998699e-01 4.921479e-01 7.273740e-01 1.715713e-01 2.522623e-01 3.577769e-01 2.260868e-01 8.680339e-02 8.855045e-01
<GCONST> 9.887946e+01
<STATE> 3
<MEAN> 39
 -8.036783e+00 3.397608e+00 -1.386336e-01 1.050830e+00 2.079978e+00 -2.632223e+00 1.690271e+00 -3.775260e+00 1.396126e-01 -4.947740e+00 -2.145443e+00 -1.366877e+00 2.844186e+01 4.030005e+00 3.780071e-02 -1.009410e+00 -1.053962e+00 3.863068e-01 -2.733121e+00 4.610046e-01 -9.112182e-01 5.674833e-01 -1.738766e+00 -1.116685e+00 1.429306e-01 4.204134e+00 2.768663e-01 -8.989230e-01 -7.782009e-01 -5.893428e-01 -2.257307e-01 -8.712565e-01 1.511065e-01 2.734521e-01 4.025346e-01 2.427240e-01 1.200147e-01 2.381539e-01 7.831280e-01
<VARIANCE> 39
 1.733199e+01 1.646827e+01 8.212635e+00 7.745894e+00 2.426130e+01 1.568756e+01 2.592086e+01 1.227853e+01 2.138468e+01 2.132195e+01 1.430020e+01 4.732458e+00 1.178501e+01 1.879967e+00 1.843379e+00 2.007807e+00 2.026622e+00 1.247798e+00 2.688191e+00 2.103940e+00 1.004294e+00 7.402568e-01 3.082151e+00 4.773817e+00 5.013322e-01 4.900298e-01 4.303620e-01 1.171682e-01 4.933130e-01 2.283129e-01 4.441282e-01 2.444585e-01 7.351611e-01 1.314192e-01 4.952152e-01 2.523261e-01 2.211725e-01 9.241269e-02 2.306480e-01
<GCONST> 9.441624e+01
<STATE> 4
<MEAN> 39
 5.657303e+00 -7.857248e-01 -1.130585e+01 -2.756718e+00 2.295521e+00 -1.248512e+01 2.613952e+00 -5.303179e+00 3.013706e+00 -1.725275e+00 1.637227e+00 -8.405466e-01 4.374487e+01 1.268034e+00 -1.582547e+00 -1.291569e+00 -4.507262e-01 -3.844907e-01 -2.331964e+00 6.820761e-01 -6.230311e-01 5.910074e-01 4.926062e-02 3.235210e-02 4.459108e-01 3.080363e+00 -9.672356e-01 -1.064123e-01 6.172651e-01 1.676071e-01 -7.698556e-02 6.204437e-01 5.703544e-02 8.124159e-02 1.018704e-01 8.274996e-02 3.130737e-02 7.178868e-02 -5.195075e-01
<VARIANCE> 39
 2.209302e+01 1.315189e+01 1.586610e+01 1.114711e+01 6.873404e+00 3.047883e+01 1.819174e+01 1.612317e+01 1.995988e+01 3.708016e+01 3.598966e+01 5.550930e+00 1.942015e+01 3.508774e+00 1.192225e+00 3.673641e+00 2.190278e+00 1.428913e+00 3.177319e+00 2.124665e+00 1.504799e+00 2.247026e+00 2.007694e+00 1.402798e+00 5.443521e-01 1.772508e+00 3.851845e-01 3.575983e-01 2.955888e-01 4.611852e-01 2.439619e-01 5.427715e-01 4.786916e-01 3.273607e-01 2.488703e-01 4.745051e-01 4.129315e-01 9.822204e-02 8.771064e-02
<GCONST> 1.007961e+02
<STATE> 5
<MEAN> 39
 4.842988e+00 -7.062792e+00 -8.858217e+00 -2.185991e+00 -5.540569e-02 -1.132673e+01 -9.134589e-01 -5.769834e+00 2.793924e+00 -7.242606e-01 1.865749e+00 -2.655510e-01 5.170093e+01 -2.599039e-02 -6.981855e-01 2.898511e-01 -2.379426e-01 9.048140e-02 1.972539e-01 -4.543223e-01 6.802331e-01 -3.477309e-01 -1.038283e-01 -5.002374e-02 2.342115e-01 4.765718e-01 -1.219682e-01 1.141644e-01 4.051136e-02 -1.105963e-01 1.959099e-02 1.322379e-01 -5.371296e-02 2.032053e-01 -1.512955e-01 1.155179e-02 1.689755e-01 -1.638449e-02 -1.650637e-01
<VARIANCE> 39
 1.787606e+01 8.725523e+00 1.483048e+01 1.464119e+01 9.230361e+00 1.031370e+01 3.019489e+01 2.821292e+01 3.412573e+01 1.742239e+01 2.144242e+01 6.965083e+00 2.567508e+01 7.810242e-01 9.608703e-01 1.319924e+00 1.999300e+00 1.153766e+00 1.948096e+00 4.104108e+00 2.889977e+00 2.117002e+00 7.545347e-01 8.851743e-01 8.599586e-01 2.450334e+00 2.188980e-01 1.056051e-01 3.100179e-01 3.156755e-01 2.684769e-01 4.174866e-01 4.612145e-01 3.904991e-01 1.945195e-01 2.743825e-01 2.667964e-01 1.472207e-01 3.434587e-01
<GCONST> 9.587831e+01
<STATE> 6
<MEAN> 39
 -9.984730e-01 -1.228367e+01 -1.407906e+00 -2.575601e+00 -3.935761e+00 -1.416107e+01 3.158182e+00 -1.534363e+00 3.416774e+00 -4.800126e+00 -3.966787e+00 1.094736e+00 4.493476e+01 1.199444e-01 -4.277726e-01 -1.471016e-02 -5.463478e-01 -2.342979e-01 1.918983e-01 2.844962e-01 -3.750272e-01 -1.723363e-01 1.131203e+00 7.909843e-02 -1.043980e-01 5.549216e-01 -5.192785e-02 2.334888e-01 -1.239874e-01 -1.216045e-01 8.331796e-02 1.422207e-01 8.213731e-02 -2.458731e-01 -8.460435e-02 7.850890e-02 -8.604489e-02 -4.507077e-02 -1.239495e-01
<VARIANCE> 39
 1.860595e+01 9.436979e+00 1.276854e+01 3.510221e+01 3.721193e+01 2.197682e+01 4.614064e+01 2.134492e+01 2.378650e+01 3.001874e+01 1.995075e+01 8.017586e+00 2.265869e+01 1.097308e+00 8.727499e-01 7.037917e-01 6.891279e+00 4.684374e+00 1.876057e+00 4.437305e+00 2.566671e+00 2.230295e+00 1.742564e+00 2.070910e+00 8.839540e-01 1.406169e+00 2.084695e-01 9.685063e-02 7.742871e-02 1.293568e+00 7.210354e-01 4.425907e-01 1.065507e+00 4.992581e-01 5.146118e-01 4.608614e-01 3.161458e-01 2.036392e-01 4.562027e-01
<GCONST> 1.068172e+02
<STATE> 7
<MEAN> 39
 -4.886739e-01 -4.723406e+00 -7.207335e+00 -1.521199e+01 1.004426e+00 -9.660528e+00 6.253237e+00 -5.675926e+00 -2.356153e+00 5.893810e-01 -1.709253e+00 2.039520e-01 5.001677e+01 -4.048055e-01 1.710081e+00 -3.750266e-01 -6.292018e-01 3.157735e-01 5.609601e-01 2.775408e-01 -7.342088e-02 -6.563287e-01 -2.884049e-01 2.544075e-01 -4.481658e-01 -7.823495e-01 2.727581e-02 5.529944e-02 5.950971e-03 4.683056e-01 -8.885767e-02 1.753487e-01 -2.700875e-01 2.349487e-01 -2.950152e-02 -8.514841e-02 6.908709e-02 -5.710122e-02 -4.060774e-01
<VARIANCE> 39
 4.360973e+00 3.881099e+01 3.831201e+00 3.844073e+01 1.048843e+01 1.451490e+01 1.802343e+01 7.794233e+01 3.586834e+01 5.091422e+01 7.490087e+01 1.126023e+01 4.857202e+01 4.549559e-01 5.549830e-01 6.501260e-01 4.167809e+00 7.864627e-01 1.183625e+00 2.048659e+00 1.947788e+00 8.733125e-01 2.302179e+00 1.238629e+00 9.934775e-01 1.216872e+00 8.425141e-02 1.296070e-01 9.881119e-02 3.397199e-01 1.957100e-01 3.267152e-01 1.971881e-01 2.874941e-01 2.022606e-01 2.817454e-01 2.383916e-01 2.174744e-01 7.579800e-02
<GCONST> 9.230384e+01
<STATE> 8
<MEAN> 39
 -6.780100e+00 3.033803e-01 -8.340139e+00 -8.108879e+00 1.848050e+00 3.768809e-01 9.115546e-01 -1.163987e-01 -3.630293e+00 -2.530625e-01 8.504080e-01 -5.765406e-01 3.379323e+01 -7.217315e-01 -7.152066e-01 8.329655e-02 9.175712e-01 2.591497e-01 4.404680e-01 -9.910653e-01 4.039488e-01 3.624769e-01 5.895402e-01 1.499399e-02 7.745045e-02 -7.419508e-01 1.786109e-02 -8.262239e-02 1.118066e-01 -7.671547e-02 1.928067e-02 -1.746531e-01 1.252889e-01 -3.899061e-02 5.193120e-02 8.622193e-02 -4.751665e-02 3.821265e-02 2.578176e-01
<VARIANCE> 39
 1.708922e+01 3.917708e+01 1.228366e+01 2.123304e+01 3.113288e+01 2.522878e+01 3.788071e+01 3.288484e+01 2.356405e+01 2.526353e+01 1.513564e+01 9.271039e+00 8.203112e+01 1.460643e+00 2.369125e+00 1.520501e+00 1.542268e+00 3.328125e+00 4.094605e+00 2.153148e+00 3.453721e+00 2.415205e+00 1.526034e+00 1.785035e+00 1.199835e+00 1.076620e+01 2.031527e-01 6.328177e-01 3.420460e-01 2.600361e-01 5.484291e-01 5.874582e-01 4.848434e-01 5.133826e-01 5.080445e-01 2.030039e-01 2.308430e-01 2.451672e-01 9.999811e-01
<GCONST> 1.122980e+02
<STATE> 9
<MEAN> 39
 -9.362893e+00 -6.024687e+00 -4.780493e+00 2.736323e+00 6.190538e+00 -5.091327e+00 -4.385757e+00 -1.152260e+00 3.150555e+00 2.042205e+00 -1.294564e+00 -1.761662e+00 3.325349e+01 1.287462e-01 1.226297e-01 3.804647e-01 3.454548e-01 -4.817535e-02 -3.075809e-02 9.807512e-02 -3.538643e-02 1.478502e-01 -1.676506e-01 -1.741026e-02 -1.556985e-02 -2.720893e-01 2.169058e-02 2.028760e-02 -4.509646e-02 -6.261969e-02 -4.445814e-02 4.307334e-02 2.607220e-02 -7.930260e-02 -3.467229e-02 -3.315198e-02 3.032690e-02 3.500293e-03 -3.819991e-02
<VARIANCE> 39
 2.361887e+01 3.021217e+01 2.927430e+01 2.486170e+01 3.349667e+01 2.833565e+01 1.858334e+01 1.824849e+01 3.427439e+01 2.015523e+01 7.052767e+00 7.288034e+00 9.560194e+01 6.645246e-01 2.153996e+00 2.859845e+00 1.551167e+00 3.041045e+00 2.029767e+00 1.610655e+00 2.304733e+00 2.760002e+00 7.039201e-01 6.593300e-01 7.295886e-01 1.148970e+00 1.237291e-01 2.580666e-01 5.533586e-01 2.120043e-01 5.627347e-01 2.860611e-01 3.103058e-01 4.730047e-01 5.113402e-01 1.308580e-01 1.254543e-01 1.571624e-01 1.712546e-01
<GCONST> 9.988081e+01
<TRANSP> 10
 0.000000e+00 1.000000e+00 0.000000e+00 0.000000e+00 0.000000e+00 0.000000e+00 0.000000e+00 0.000000e+00 0.000000e+00 0.000000e+00
 0.000000e+00 8.074571e-01 1.925428e-01 0.000000e+00 0.000000e+00 0.000000e+00 0.000000e+00 0.000000e+00 0.000000e+00 0.000000e+00
 0.000000e+00 0.000000e+00 5.006416e-01 4.993583e-01 0.000000e+00 0.000000e+00 0.000000e+00 0.000000e+00 0.000000e+00 0.000000e+00
 0.000000e+00 0.000000e+00 0.000000e+00 6.616086e-01 3.383914e-01 0.000000e+00 0.000000e+00 0.000000e+00 0.000000e+00 0.000000e+00
 0.000000e+00 0.000000e+00 0.000000e+00 0.000000e+00 8.495287e-01 1.504714e-01 0.000000e+00 0.000000e+00 0.000000e+00 0.000000e+00
 0.000000e+00 0.000000e+00 0.000000e+00 0.000000e+00 0.000000e+00 8.601465e-01 1.398536e-01 0.000000e+00 0.000000e+00 0.000000e+00
 0.000000e+00 0.000000e+00 0.000000e+00 0.000000e+00 0.000000e+00 0.000000e+00 8.868346e-01 1.131654e-01 0.000000e+00 0.000000e+00
 0.000000e+00 0.000000e+00 0.000000e+00 0.000000e+00 0.000000e+00 0.000000e+00 0.000000e+00 9.073250e-01 9.267500e-02 0.000000e+00
 0.000000e+00 0.000000e+00 0.000000e+00 0.000000e+00 0.000000e+00 0.000000e+00 0.000000e+00 0.000000e+00 9.478397e-01 5.216038e-02
 0.000000e+00 0.000000e+00 0.000000e+00 0.000000e+00 0.000000e+00 0.000000e+00 0.000000e+00 0.000000e+00 0.000000e+00 0.000000e+00
<ENDHMM>
~h "sil"
<BEGINHMM>
<NUMSTATES> 5
<STATE> 2
<MEAN> 39
 -1.207578e+01 -1.345803e-01 -3.248886e+00 -4.188356e-01 -1.151909e+00 2.931240e-01 -1.210394e+00 -1.009772e-01 -6.295401e-01 -7.875147e-01 8.416787e-01 3.459548e-01 2.234517e+01 -1.047866e-02 -1.120753e-03 -4.988522e-03 -3.072153e-03 -9.157019e-03 1.404128e-02 4.669222e-03 1.335700e-02 9.592259e-03 1.618214e-02 1.757219e-02 3.083821e-03 -1.540925e-02 5.578090e-03 2.633792e-03 1.115795e-02 6.767866e-03 1.199537e-02 -2.025551e-03 4.842566e-03 -8.532954e-03 -2.737228e-03 -7.890042e-03 -5.837477e-03 -3.111792e-03 1.211061e-02
<VARIANCE> 39
 8.957141e+00 2.488571e+00 4.598473e+00 3.157010e+00 4.556266e+00 4.743043e+00 5.966548e+00 4.681109e+00 4.648629e+00 4.446535e+00 3.939655e+00 3.519384e+00 2.552490e+01 1.294526e-01 2.012031e-01 3.223467e-01 3.409623e-01 4.716597e-01 5.598441e-01 5.885863e-01 5.192648e-01 5.265230e-01 4.924809e-01 4.400228e-01 3.953416e-01 1.333531e-01 2.582283e-02 4.030937e-02 6.493576e-02 6.815409e-02 9.613401e-02 1.146044e-01 1.200788e-01 1.069388e-01 1.084525e-01 1.022321e-01 8.830476e-02 8.108909e-02 2.556533e-02
<GCONST> 4.501192e+01
<STATE> 3
<MEAN> 39
 -8.054130e+00 2.252090e+00 8.849316e-01 1.205178e+00 1.090286e+00 1.996915e-01 2.642171e-01 -9.161011e-01 -1.613812e-01 -1.053043e+00 4.531079e-01 -2.066926e-01 2.252782e+01 -5.979421e-01 -1.550219e-02 -8.094522e-02 7.535058e-02 7.705616e-02 1.154371e-01 -5.123894e-02 9.103596e-03 1.430811e-01 3.854209e-02 7.534616e-02 5.284863e-02 9.258492e-01 1.222454e-02 -1.530116e-02 -5.453390e-02 -3.567094e-02 -4.212818e-02 -4.572897e-02 -1.677764e-02 -1.592145e-02 -4.319630e-02 -4.566232e-03 -1.331743e-02 -3.343238e-03 8.051657e-03
<VARIANCE> 39
 3.346770e+01 2.120718e+01 2.678877e+01 1.389828e+01 1.590517e+01 1.336677e+01 1.652162e+01 1.513547e+01 1.096317e+01 7.289152e+00 6.968999e+00 4.967349e+00 1.222909e+02 1.778592e+00 1.032545e+00 1.388360e+00 1.074395e+00 1.273651e+00 1.247027e+00 1.501698e+00 1.145088e+00 9.065900e-01 6.740840e-01 6.066757e-01 4.268424e-01 6.475129e+00 2.500643e-01 1.624071e-01 2.254576e-01 1.876630e-01 2.334622e-01 2.200161e-01 2.640119e-01 1.997215e-01 1.625170e-01 1.256421e-01 1.108318e-01 8.877742e-02 1.050069e+00
<GCONST> 8.906994e+01
<STATE> 4
<MEAN> 39
 -1.185695e+01 5.298696e-01 -2.054065e+00 3.266989e-01 -2.736002e-01 5.414019e-01 -4.061885e-01 -1.022224e-01 -2.220349e-01 -6.360606e-01 7.957395e-01 3.400931e-01 2.418463e+01 -1.287553e-02 -2.890018e-02 -3.131039e-02 -2.972432e-02 -2.178771e-02 -1.691833e-02 -1.855673e-02 -3.633405e-02 -4.651164e-02 -1.626437e-02 -1.122664e-02 3.351169e-03 -5.820162e-03 2.142117e-02 1.524297e-02 2.650022e-02 7.661089e-03 1.311730e-02 -1.857045e-02 3.110894e-03 -1.810581e-02 -1.177659e-02 -2.320541e-02 -1.527266e-02 -7.101602e-03 2.427859e-02
<VARIANCE> 39
 5.180285e+00 5.110088e+00 1.143010e+01 6.597878e+00 9.445312e+00 7.292543e+00 9.477487e+00 6.844884e+00 6.055892e+00 5.323502e+00 4.755487e+00 4.182704e+00 5.465577e+00 1.458668e-01 2.448148e-01 4.233662e-01 3.929275e-01 5.774462e-01 6.658607e-01 7.556626e-01 6.681854e-01 5.982136e-01 5.640593e-01 5.149114e-01 4.514992e-01 1.542608e-01 3.925823e-02 5.577318e-02 8.824805e-02 8.270827e-02 1.139830e-01 1.350664e-01 1.506547e-01 1.364705e-01 1.264313e-01 1.230389e-01 1.073273e-01 9.054191e-02 3.392056e-02
<GCONST> 5.338033e+01
<TRANSP> 5
 0.000000e+00 1.000000e+00 0.000000e+00 0.000000e+00 0.000000e+00
 0.000000e+00 9.577736e-01 4.222646e-02 0.000000e+00 0.000000e+00
 0.000000e+00 0.000000e+00 6.884745e-01 3.115256e-01 0.000000e+00
 0.000000e+00 0.000000e+00 0.000000e+00 9.046478e-01 9.535222e-02
 0.000000e+00 0.000000e+00 0.000000e+00 0.000000e+00 0.000000e+00
<ENDHMM>
~h "zobraz"
<BEGINHMM>
<NUMSTATES> 10
<STATE> 2
<MEAN> 39
 -1.297096e+01 5.777375e+00 4.434005e+00 -4.331876e+00 4.112925e+00 -2.302791e+00 -7.527930e+00 -4.060397e+00 -5.025581e-01 1.491846e-01 -1.156046e+00 -2.408592e+00 4.658728e+01 3.093233e-02 1.291025e-01 1.972221e-01 -3.704172e-01 1.747452e-01 -1.263488e-02 -2.801138e-01 -2.695946e-01 -1.295949e-01 -3.750905e-02 6.732050e-02 1.131826e-02 8.689898e-01 1.112951e-01 -1.021040e-02 -5.432391e-02 -1.510872e-02 -6.235314e-02 -1.262802e-02 1.739768e-02 -4.619075e-02 -3.213020e-02 1.260439e-02 2.662204e-02 2.193777e-02 7.358227e-03
<VARIANCE> 39
 3.216053e+01 1.818501e+01 1.442391e+01 1.937580e+01 1.479734e+01 3.886985e+01 3.339890e+01 3.030525e+01 1.362806e+01 5.970344e+00 6.596294e+00 4.952051e+00 8.069741e+01 3.257407e+00 1.262075e+00 1.732690e+00 9.955153e-01 8.971866e-01 1.401907e+00 1.105563e+00 7.470006e-01 1.123872e+00 7.010684e-01 3.972075e-01 3.268212e-01 2.471692e+00 5.343543e-01 2.660836e-01 3.645390e-01 1.778913e-01 1.492656e-01 2.548998e-01 1.995834e-01 1.403864e-01 2.364337e-01 1.223412e-01 7.838193e-02 5.402876e-02 3.752756e-01
<GCONST> 8.833603e+01
<STATE> 3
<MEAN> 39
 -1.116108e+01 4.346997e+00 -1.529881e+00 -3.915383e+00 2.370994e+00 -4.652088e+00 -7.661905e-01 -7.316113e+00 -2.892201e-01 -2.486280e+00 -5.321870e-01 -5.225495e-01 3.782952e+01 1.974601e+00 3.107805e-01 -6.475114e-01 -3.997476e-01 -5.299932e-01 -1.534152e+00 6.470326e-01 -1.301503e+00 -2.855708e-01 -1.861408e-01 -7.426260e-01 -1.443196e-01 1.304145e+00 1.991563e-01 -8.996074e-02 -1.231613e-01 -1.450742e-01 -1.812733e-01 -1.522142e-01 2.795607e-01 9.043176e-02 2.522359e-01 6.016910e-02 -1.923810e-01 1.304668e-01 1.320924e-01
<VARIANCE> 39
 4.394057e+01 7.027775e+00 2.258888e+01 2.176031e+01 1.670370e+01 4.555568e+01 6.960148e+01 2.131083e+01 3.654887e+01 1.079840e+01 2.105161e+01 5.671353e+00 1.546900e+02 4.172452e+00 1.500314e+00 1.692208e+00 1.038424e+00 2.367342e+00 2.616834e+00 4.382635e+00 2.529690e+00 1.966108e+00 1.169152e+00 1.412309e+00 9.222785e-01 9.304200e-01 4.371542e-01 1.459262e-01 1.645953e-01 1.787569e-01 2.851877e-01 3.208690e-01 5.837418e-01 5.525123e-01 3.909452e-01 1.529020e-01 1.963013e-01 1.646082e-01 1.415067e-01
<GCONST> 1.029920e+02
<STATE> 4
<MEAN> 39
 -6.275077e+00 7.665091e+00 -2.868595e+00 3.457934e-01 5.198827e+00 -1.589262e+01 2.572699e-01 -8.019328e+00 2.379316e+00 -4.729613e+00 -7.299779e+00 2.408386e-01 4.044872e+01 2.868592e-01 -3.195643e-01 -3.909877e-01 -6.737683e-01 1.293161e-02 -5.259577e-01 5.111848e-01 -4.036173e-01 5.224745e-01 -4.449436e-02 -1.439750e-04 4.749179e-01 8.687103e-01 -7.842971e-02 -2.190778e-01 8.256534e-02 -2.667768e-01 -3.231554e-02 1.586231e-01 5.408669e-02 1.172557e-01 1.262555e-02 -1.097610e-01 7.506703e-02 3.561505e-02 -1.153037e-01
<VARIANCE> 39
 2.760845e+01 2.265244e+01 1.332387e+01 4.496719e+01 1.992347e+01 3.991548e+01 1.899772e+01 2.126135e+01 2.407814e+01 2.307208e+01 2.014647e+01 7.952054e+00 3.462359e+01 3.921704e+00 2.982960e+00 1.944032e+00 4.706686e+00 1.948838e+00 1.702488e+00 4.136643e+00 1.518995e+00 2.818156e+00 2.482228e+00 8.378098e-01 8.933878e-01 7.911935e-01 5.626552e-01 3.413227e-01 4.081270e-01 3.844001e-01 2.080959e-01 4.357086e-01 5.697456e-01 2.744971e-01 5.246265e-01 5.035968e-01 2.225177e-01 1.400098e-01 1.419117e-01
<GCONST> 1.067531e+02
<STATE> 5
<MEAN> 39
 2.012681e-01 -9.094834e-03 -3.859180e+00 -1.293707e+01 2.196018e+00 -9.241281e+00 9.944677e-01 -1.194420e+01 8.378291e-01 -4.845773e+00 -5.744664e+00 1.543516e-01 4.613640e+01 6.350992e-01 2.216222e-01 1.581959e-01 4.241697e-01 -1.588729e-01 7.126291e-01 1.249391e-01 -1.645336e-01 -4.626318e-01 2.442209e-02 -3.768691e-02 -4.700710e-01 -9.527919e-01 -2.110100e-01 3.237398e-01 2.133375e-01 6.407914e-01 2.174828e-01 1.603859e-01 -3.251141e-01 1.469222e-01 -1.727731e-01 8.288959e-02 7.202342e-02 -2.057171e-01 -3.960840e-01
<VARIANCE> 39
 4.979631e+00 2.042306e+01 6.361712e+00 3.370619e+01 4.307574e+01 4.599572e+01 4.747332e+01 1.299981e+01 3.570787e+01 1.716743e+01 1.375623e+01 1.677444e+01 3.847596e+01 5.338345e-01 1.901665e+00 1.140885e+00 5.018930e+00 1.163565e+00 2.131678e+00 3.163812e+00 1.035511e+00 1.667426e+00 9.388118e-01 1.021830e+00 7.619633e-01 1.389414e+00 8.713464e-02 1.654299e-01 2.037833e-01 3.941253e-01 3.117469e-01 2.402601e-01 4.115137e-01 2.607644e-01 2.045753e-01 1.339617e-01 8.940129e-02 2.066068e-01 1.356400e-01
<GCONST> 9.440424e+01
<STATE> 6
<MEAN> 39
 -3.639651e-01 7.669891e+00 4.087156e+00 3.370550e-01 2.749661e+00 -1.719486e+00 -6.134343e-01 -8.132586e+00 -4.434943e+00 -4.224144e+00 -2.296830e+00 -2.884683e+00 3.440030e+01 -5.547091e-01 -4.351255e-01 6.289328e-01 5.457462e-01 3.129556e-01 -1.009484e-01 -2.286821e-01 6.811044e-01 2.831876e-01 -1.470567e-01 8.281679e-02 4.838679e-02 -2.246042e-01 4.740084e-02 -4.915019e-01 -4.054147e-01 -6.506965e-01 -2.025245e-01 -3.502394e-01 1.941556e-01 -1.333049e-01 3.757932e-01 5.773151e-02 -2.714051e-02 2.457089e-01 7.821776e-01
<VARIANCE> 39
 7.363573e+00 1.317696e+01 1.735266e+01 2.554382e+01 1.148898e+01 1.459058e+01 4.516972e+01 2.862651e+01 1.327760e+01 1.716175e+01 1.285684e+01 6.923001e+00 1.818021e+01 5.447058e-01 4.670155e+00 2.884229e+00 5.529540e+00 1.929907e+00 2.586241e+00 2.291000e+00 2.476802e+00 2.383605e+00 1.573422e+00 1.854288e+00 1.126672e+00 7.129409e+00 1.894952e-01 4.023996e-01 3.683145e-01 3.884195e-01 2.183418e-01 3.243102e-01 2.759361e-01 3.703409e-01 3.250251e-01 2.869914e-01 2.769200e-01 1.260975e-01 3.713986e-01
<GCONST> 1.023560e+02
<STATE> 7
<MEAN> 39
 6.988460e-01 -6.703050e+00 -1.065549e+00 -5.088233e+00 -3.313099e+00 -9.590100e+00 6.031816e-02 -5.147636e+00 3.936812e+00 -4.042226e+00 1.188497e-01 5.455886e-01 4.754864e+01 6.654729e-01 -1.399749e+00 -5.588666e-01 1.576764e-02 -1.311823e+00 -5.203606e-01 -2.518471e-01 5.713149e-01 1.994993e-01 2.048435e-01 7.765197e-01 3.363905e-02 1.102548e+00 -4.525026e-02 2.944007e-01 2.400042e-01 2.161422e-01 1.744723e-01 2.289935e-01 -7.318543e-02 6.580613e-02 -3.182756e-01 3.661630e-02 -4.757174e-02 -1.557346e-01 -4.500622e-01
<VARIANCE> 39
 1.343682e+01 1.912813e+01 2.060667e+01 4.395641e+01 3.103419e+01 2.582693e+01 2.474646e+01 4.213286e+01 2.350821e+01 2.384801e+01 3.337949e+01 5.099211e+00 2.277555e+01 1.828999e+00 1.390993e+00 3.330255e+00 7.096434e+00 2.519323e+00 2.992495e+00 2.909414e+00 6.077581e+00 3.983222e+00 3.430475e+00 2.091794e+00 1.066594e+00 5.301904e+00 4.529928e-01 2.419336e-01 5.533643e-01 1.787655e+00 8.377099e-01 4.523836e-01 6.241226e-01 1.364657e+00 6.879576e-01 5.483218e-01 5.338680e-01 1.699041e-01 8.573594e-01
<GCONST> 1.194558e+02
<STATE> 8
<MEAN> 39
 2.527208e-01 -5.361206e+00 -5.438437e+00 -8.008712e+00 4.673389e-01 -7.432180e+00 3.098310e+00 -5.204265e+00 2.435685e-01 2.065687e+00 1.805599e+00 -1.704837e+00 5.182333e+01 -8.437431e-01 6.176025e-01 9.202193e-02 -6.214819e-01 1.091463e+00 1.590460e-01 6.850907e-01 -1.612794e-01 2.586042e-01 -2.940084e-01 -4.785968e-01 1.563384e-01 4.149362e-02 -1.766421e-01 9.244610e-02 5.431755e-03 1.715787e-01 6.435111e-02 -5.609818e-03 2.194507e-02 -1.131848e-02 4.223799e-02 -1.284018e-01 1.051548e-02 4.931100e-02 -3.720980e-02
<VARIANCE> 39
 1.595665e+01 4.342175e+01 4.329956e+01 2.732804e+01 4.236845e+01 3.879670e+01 3.941837e+01 2.014469e+01 1.963158e+01 3.081578e+01 1.997528e+01 1.056923e+01 2.383184e+01 1.183290e+00 1.639922e+00 3.422851e+00 3.196669e+00 2.828554e+00 2.748112e+00 4.402473e+00 1.967924e+00 1.292921e+00 1.330134e+00 9.714514e-01 7.601858e-01 1.122642e+00 2.186281e-01 3.068872e-01 5.011632e-01 4.138608e-01 5.427902e-01 5.283664e-01 6.896589e-01 3.012825e-01 2.334616e-01 2.625901e-01 2.169144e-01 1.805110e-01 1.839987e-01
<GCONST> 1.071048e+02
<STATE> 9
<MEAN> 39
 -1.390118e+01 -1.662785e+00 -2.576079e+00 -3.201716e+00 3.704619e+00 -5.591329e+00 3.909023e+00 -2.273123e+00 1.978793e+00 -2.117987e+00 -1.274097e+00 7.048497e-01 4.172274e+01 -2.332594e-01 1.528592e-01 -1.249047e-02 2.770990e-01 1.786687e-02 2.241321e-01 -1.150505e-01 9.756418e-02 -1.080770e-01 1.365528e-01 6.990933e-02 -3.045111e-02 -5.112616e-01 6.376895e-02 -3.473548e-03 1.053738e-02 -2.314275e-02 -4.079248e-02 1.544923e-02 -1.862471e-02 -1.255192e-02 -1.460991e-02 2.320834e-02 3.987839e-04 -8.394286e-03 -1.804117e-02
<VARIANCE> 39
 4.618331e+01 3.455793e+01 1.557912e+01 4.322879e+01 3.813034e+01 3.224917e+01 2.643332e+01 1.595217e+01 1.549349e+01 2.523241e+01 1.819254e+01 8.346836e+00 7.408548e+01 1.386801e+00 1.017854e+00 8.704568e-01 1.500690e+00 1.860211e+00 2.179293e+00 1.571945e+00 1.417617e+00 1.190711e+00 1.016365e+00 9.344548e-01 6.589491e-01 5.639188e-01 1.440707e-01 1.783512e-01 1.922665e-01 2.740209e-01 3.434266e-01 4.054254e-01 3.466744e-01 2.893454e-01 2.195079e-01 1.788834e-01 1.760555e-01 1.353236e-01 6.451225e-02
<GCONST> 9.537489e+01
<TRANSP> 10
 0.000000e+00 1.000000e+00 0.000000e+00 0.000000e+00 0.000000e+00 0.000000e+00 0.000000e+00 0.000000e+00 0.000000e+00 0.000000e+00
 0.000000e+00 9.231374e-01 7.686266e-02 0.000000e+00 0.000000e+00 0.000000e+00 0.000000e+00 0.000000e+00 0.000000e+00 0.000000e+00
 0.000000e+00 0.000000e+00 6.967996e-01 3.032004e-01 0.000000e+00 0.000000e+00 0.000000e+00 0.000000e+00 0.000000e+00 0.000000e+00
 0.000000e+00 0.000000e+00 0.000000e+00 8.365991e-01 1.634009e-01 0.000000e+00 0.000000e+00 0.000000e+00 0.000000e+00 0.000000e+00
 0.000000e+00 0.000000e+00 0.000000e+00 0.000000e+00 8.761082e-01 1.238919e-01 0.000000e+00 0.000000e+00 0.000000e+00 0.000000e+00
 0.000000e+00 0.000000e+00 0.000000e+00 0.000000e+00 0.000000e+00 8.830630e-01 1.169369e-01 0.000000e+00 0.000000e+00 0.000000e+00
 0.000000e+00 0.000000e+00 0.000000e+00 0.000000e+00 0.000000e+00 0.000000e+00 8.743402e-01 1.256598e-01 0.000000e+00 0.000000e+00
 0.000000e+00 0.000000e+00 0.000000e+00 0.000000e+00 0.000000e+00 0.000000e+00 0.000000e+00 9.051952e-01 9.480476e-02 0.000000e+00
 0.000000e+00 0.000000e+00 0.000000e+00 0.000000e+00 0.000000e+00 0.000000e+00 0.000000e+00 0.000000e+00 9.681422e-01 3.185788e-02
 0.000000e+00 0.000000e+00 0.000000e+00 0.000000e+00 0.000000e+00 0.000000e+00 0.000000e+00 0.000000e+00 0.000000e+00 0.000000e+00
<ENDHMM>
~h "v-intervalu"
<BEGINHMM>
<NUMSTATES> 10
<STATE> 2
<MEAN> 39
 -6.904310e+00 1.920221e+00 -4.563615e-01 -2.135331e-01 2.672469e+00 -3.565896e-01 1.321984e+00 -3.255390e+00 -1.313365e+00 -2.074257e+00 -2.098590e-01 -4.600830e-01 3.566280e+01 4.895327e-01 1.628945e-01 2.275864e-01 -4.899745e-02 6.645945e-02 -5.671906e-01 4.940670e-02 -5.171152e-01 -7.298545e-02 1.238351e-01 9.001373e-02 8.652217e-02 1.092946e+00 1.022444e-01 -6.362415e-02 -4.981725e-02 -8.672639e-02 -1.160773e-01 -1.634091e-01 -5.731247e-02 -1.115485e-01 3.489211e-02 7.297071e-02 9.253424e-02 4.728478e-02 3.028700e-02
<VARIANCE> 39
 4.486678e+01 1.611614e+01 1.793924e+01 1.156741e+01 1.299571e+01 1.802018e+01 1.335956e+01 1.867044e+01 1.308145e+01 1.150868e+01 1.249306e+01 7.422498e+00 9.121776e+01 3.939764e+00 1.623523e+00 2.052915e+00 1.571514e+00 1.585410e+00 2.327979e+00 1.909207e+00 2.555811e+00 1.276338e+00 1.666967e+00 1.716679e+00 9.246929e-01 1.506359e+00 6.068267e-01 2.942705e-01 3.819308e-01 3.074094e-01 3.195471e-01 4.105013e-01 3.014927e-01 4.641999e-01 2.586755e-01 3.157799e-01 2.581397e-01 1.763035e-01 2.792042e-01
<GCONST> 1.014401e+02
<STATE> 3
<MEAN> 39
 -3.993674e+00 -7.025723e-01 -3.353459e+00 -5.590242e+00 1.418641e-02 -5.612480e+00 -6.584530e-01 -9.043919e+00 4.010968e-02 1.226694e+00 1.067060e+00 7.697598e-01 3.941530e+01 1.855392e-01 -5.634952e-01 -4.096027e-01 -5.361866e-01 -9.215728e-01 -1.011595e+00 -1.245785e-01 -6.895176e-02 3.155792e-01 3.651914e-01 3.368994e-01 3.817559e-01 -1.817381e-01 -1.444964e-01 3.828384e-02 5.834568e-03 5.365786e-02 -9.454694e-02 2.342795e-01 -2.359560e-01 2.603543e-01 9.544846e-02 3.800768e-02 1.940819e-03 -6.118283e-02 -3.282599e-01
<VARIANCE> 39
 3.551617e+01 6.566323e+00 9.698612e+00 2.803856e+01 1.233583e+01 2.622004e+01 6.042416e+01 6.173343e+01 1.410776e+01 7.973196e+00 1.208600e+01 7.916329e+00 1.483771e+02 9.434395e-01 5.808377e-01 8.685465e-01 1.693285e+00 1.508067e+00 2.383105e+00 2.616722e+00 2.321732e+00 8.908279e-01 1.089787e+00 1.432425e+00 9.725950e-01 1.855338e+00 1.916232e-01 1.013428e-01 1.620282e-01 1.895732e-01 2.637875e-01 2.692899e-01 4.828881e-01 4.044240e-01 1.426288e-01 1.701288e-01 2.599328e-01 1.828960e-01 2.310039e-01
<GCONST> 9.487675e+01
<STATE> 4
<MEAN> 39
 -8.302389e+00 -1.848091e+00 -3.453393e+00 -3.648263e+00 -5.537854e+00 -7.876275e+00 -2.914277e+00 -4.189618e+00 1.048212e+00 1.889340e+00 2.816486e+00 2.151948e+00 3.011529e+01 -2.525926e-01 6.843312e-02 5.785574e-01 3.770313e-01 -4.988432e-02 4.767879e-01 -2.513078e-01 3.633596e-01 -6.407678e-02 -8.981454e-01 -3.369619e-01 -2.937439e-01 -3.359332e-01 5.978885e-02 -3.903606e-02 4.185800e-01 -1.799863e-01 1.116589e-01 -8.975562e-03 2.366870e-01 -2.137674e-01 -9.694321e-02 -3.170722e-01 -1.361640e-01 -1.416857e-01 6.474321e-01
<VARIANCE> 39
 2.288217e+01 9.529063e+00 9.023168e+00 2.448364e+01 2.465320e+01 5.541511e+01 1.994458e+01 5.171178e+01 1.287229e+01 4.270268e+01 2.598443e+01 1.103482e+01 6.020587e+01 2.306096e+00 1.173029e+00 2.191537e+00 2.942778e+00 4.393664e+00 5.390255e+00 2.780766e+00 2.435760e+00 1.622308e+00 4.848863e+00 2.988652e+00 1.787418e+00 9.312667e+00 4.361029e-01 2.625759e-01 3.332943e-01 7.546906e-01 9.524637e-01 1.337499e+00 5.405688e-01 3.307668e-01 3.069355e-01 8.043973e-01 7.246071e-01 3.834601e-01 1.099365e+00
<GCONST> 1.189789e+02
<STATE> 5
<MEAN> 39
 -5.912416e+00 -3.162925e+00 7.567550e+00 -2.869453e+00 -6.840388e+00 -9.267387e+00 7.027479e-01 -3.932474e+00 -5.591826e-01 -1.061611e+01 7.408212e-01 -1.080619e+00 4.630398e+01 5.532097e-01 5.824732e-02 1.033171e+00 -8.753681e-01 2.711980e-01 -1.016588e-01 1.279473e+00 -7.896392e-01 -9.483048e-01 -4.390919e-01 -3.486255e-01 -4.948918e-01 1.715344e+00 8.030783e-03 1.880574e-01 -3.778625e-01 2.429770e-01 2.162353e-01 2.680503e-01 5.595087e-02 -1.427540e-01 -1.866996e-01 4.793861e-01 2.731416e-02 3.940851e-02 -6.303796e-01
<VARIANCE> 39
 2.313383e+01 1.116722e+01 2.952095e+01 1.019277e+02 1.452239e+01 1.723263e+01 5.700806e+01 1.811928e+01 1.387951e+01 2.191132e+01 2.228682e+01 9.257281e+00 7.985557e+01 6.382858e-01 1.588807e+00 5.178115e+00 7.583951e+00 1.350698e+00 2.564735e+00 3.068297e+00 2.964399e+00 1.859582e+00 3.242754e+00 1.244818e+00 6.719714e-01 8.519779e+00 1.747336e-01 2.748254e-01 5.489962e-01 7.672885e-01 2.344306e-01 4.771831e-01 4.319729e-01 5.076866e-01 2.126282e-01 2.702204e-01 1.384466e-01 1.488590e-01 7.102118e-01
<GCONST> 1.093366e+02
<STATE> 6
<MEAN> 39
 -5.429029e+00 1.923621e+00 4.862327e+00 -1.386352e+00 -7.544408e-01 -3.578963e+00 1.587049e+00 -9.203419e+00 -6.351414e+00 -3.435134e+00 -4.010246e-01 -2.386997e+00 3.550537e+01 -3.535022e-01 -7.500218e-02 -5.756963e-01 2.570848e-01 7.328413e-02 -2.628569e-02 -4.164954e-01 2.972539e-01 4.259184e-01 1.242313e-01 1.121523e-01 1.608014e-01 -1.150477e-01 4.453907e-02 -7.520148e-02 -2.139953e-02 -6.469005e-02 -1.149555e-01 -1.528797e-01 -7.520915e-02 1.034586e-01 1.388220e-01 -1.034026e-01 -3.223086e-03 6.199406e-02 2.438195e-01
<VARIANCE> 39
 3.335539e+01 1.902003e+01 2.582774e+01 7.983112e+01 1.271835e+01 1.529397e+01 4.504377e+01 3.944077e+01 3.066758e+01 1.461908e+01 2.244188e+01 7.125460e+00 5.187364e+01 2.019154e+00 2.112336e+00 1.806955e+00 3.314101e+00 1.815732e+00 2.341696e+00 3.473233e+00 3.128375e+00 2.524835e+00 2.373373e+00 2.266576e+00 7.797814e-01 6.657979e+00 3.550065e-01 2.688938e-01 3.916792e-01 5.111043e-01 3.289194e-01 3.195811e-01 5.507085e-01 4.445567e-01 3.468744e-01 3.872455e-01 4.365708e-01 1.639541e-01 8.421237e-01
<GCONST> 1.125385e+02
<STATE> 7
<MEAN> 39
 -5.878717e+00 -7.696866e+00 1.753109e+00 -6.535408e+00 -5.758017e+00 -1.051373e+01 2.400831e+00 -3.012087e+00 2.851857e+00 -7.319680e+00 -2.730817e+00 2.501394e+00 4.264964e+01 9.032689e-01 -2.694782e-01 -1.868162e-01 1.108936e-01 -3.540384e-01 -3.392501e-02 -2.429369e-01 -2.034919e-01 2.376599e-01 2.819449e-01 -1.564164e-01 -2.444328e-01 4.130183e-01 -5.768882e-02 8.261362e-02 -1.456412e-01 1.253610e-01 2.005122e-01 1.236590e-01 -6.683882e-02 -6.392011e-02 -2.542627e-02 1.834014e-01 2.801024e-02 -1.536115e-01 -3.747465e-01
<VARIANCE> 39
 9.032111e+00 2.355511e+01 1.290678e+01 3.591131e+01 2.478614e+01 3.980605e+01 3.872136e+01 3.186241e+01 6.094191e+00 2.456006e+01 7.232800e+00 1.288203e+01 4.202348e+01 1.681010e+00 1.239163e+00 1.962029e+00 3.792070e+00 2.662343e+00 2.559700e+00 2.114336e+00 1.217834e+00 1.121614e+00 1.435061e+00 8.614774e-01 1.169701e+00 2.900601e+00 3.132855e-01 2.277854e-01 2.994282e-01 4.463491e-01 5.381587e-01 4.360948e-01 3.426344e-01 2.538788e-01 1.276810e-01 3.184458e-01 1.115286e-01 1.425961e-01 3.666847e-01
<GCONST> 1.007326e+02
<STATE> 8
<MEAN> 39
 3.896398e-01 -4.442148e+00 -5.155106e+00 -5.728477e+00 -1.294851e+00 -8.221322e+00 -6.142884e-01 -6.360361e+00 2.089435e+00 -1.302417e+00 1.438162e+00 -2.733161e-01 4.899980e+01 8.767587e-02 1.356616e-01 -3.436163e-01 -6.041859e-01 3.439512e-01 2.708122e-01 2.967476e-01 -2.105215e-01 -1.445047e-01 1.567731e-01 -8.625355e-02 2.246413e-01 -3.845236e-02 -8.848476e-02 -2.987308e-02 8.054392e-02 -2.569180e-02 -9.568982e-03 9.627744e-02 6.603408e-02 2.587792e-02 -5.357059e-02 -3.350653e-02 -2.928846e-02 5.786451e-02 1.474768e-02
<VARIANCE> 39
 1.023201e+01 1.889265e+01 7.877481e+00 2.863928e+01 1.418290e+01 1.520021e+01 3.467963e+01 1.186740e+01 2.426860e+01 1.527010e+01 1.959350e+01 2.017528e+01 1.151438e+02 5.525874e-01 2.097637e+00 1.017969e+00 2.084608e+00 1.732745e+00 8.232554e-01 1.151090e+00 1.262748e+00 1.780490e+00 1.376718e+00 8.857401e-01 1.186844e+00 3.109195e+00 1.129121e-01 2.335192e-01 2.278388e-01 4.107717e-01 2.302049e-01 1.585032e-01 1.832884e-01 1.975672e-01 3.237334e-01 1.531307e-01 1.584912e-01 2.088973e-01 4.988459e-01
<GCONST> 9.436337e+01
<STATE> 9
<MEAN> 39
 -1.097135e+00 4.466414e-01 -4.352315e+00 -1.058205e+01 -3.389118e+00 -9.355421e-01 2.385541e+00 -8.368023e+00 -1.480350e+00 -1.835011e+00 -1.565196e+00 2.921425e-01 4.139954e+01 -1.867872e-01 2.495396e-01 2.434975e-01 3.040268e-01 1.292984e-02 1.252507e-01 3.204646e-03 1.745578e-01 -1.580686e-01 -1.124030e-01 4.076709e-02 -6.905364e-02 -5.162415e-01 -2.323593e-02 -8.208595e-03 9.108815e-03 3.794798e-02 -3.768450e-03 -1.137987e-02 -1.031257e-02 2.939145e-02 1.463694e-02 2.988130e-03 4.141231e-02 1.454010e-02 -4.949280e-02
<VARIANCE> 39
 1.093668e+01 3.944676e+01 1.503621e+01 3.399378e+01 2.341219e+01 1.586621e+01 4.016444e+01 2.252553e+01 3.267242e+01 1.544370e+01 2.312978e+01 1.267866e+01 1.169452e+02 5.320379e-01 8.621142e-01 9.797179e-01 1.240694e+00 1.531720e+00 1.268503e+00 1.324032e+00 1.226081e+00 1.606324e+00 1.173789e+00 1.320071e+00 8.512906e-01 4.223222e-01 5.893497e-02 9.416678e-02 1.668936e-01 1.842637e-01 2.408670e-01 2.374057e-01 2.404925e-01 2.024125e-01 2.813137e-01 2.071737e-01 1.949446e-01 1.364679e-01 3.262162e-02
<GCONST> 8.937408e+01
<TRANSP> 10
 0.000000e+00 1.000000e+00 0.000000e+00 0.000000e+00 0.000000e+00 0.000000e+00 0.000000e+00 0.000000e+00 0.000000e+00 0.000000e+00
 0.000000e+00 8.921276e-01 1.078724e-01 0.000000e+00 0.000000e+00 0.000000e+00 0.000000e+00 0.000000e+00 0.000000e+00 0.000000e+00
 0.000000e+00 0.000000e+00 8.121006e-01 1.878994e-01 0.000000e+00 0.000000e+00 0.000000e+00 0.000000e+00 0.000000e+00 0.000000e+00
 0.000000e+00 0.000000e+00 0.000000e+00 8.735225e-01 1.264776e-01 0.000000e+00 0.000000e+00 0.000000e+00 0.000000e+00 0.000000e+00
 0.000000e+00 0.000000e+00 0.000000e+00 0.000000e+00 8.446216e-01 1.553783e-01 0.000000e+00 0.000000e+00 0.000000e+00 0.000000e+00
 0.000000e+00 0.000000e+00 0.000000e+00 0.000000e+00 0.000000e+00 9.428667e-01 5.713328e-02 0.000000e+00 0.000000e+00 0.000000e+00
 0.000000e+00 0.000000e+00 0.000000e+00 0.000000e+00 0.000000e+00 0.000000e+00 9.071493e-01 9.285069e-02 0.000000e+00 0.000000e+00
 0.000000e+00 0.000000e+00 0.000000e+00 0.000000e+00 0.000000e+00 0.000000e+00 0.000000e+00 9.362854e-01 6.371459e-02 0.000000e+00
 0.000000e+00 0.000000e+00 0.000000e+00 0.000000e+00 0.000000e+00 0.000000e+00 0.000000e+00 0.000000e+00 9.698407e-01 3.015929e-02
 0.000000e+00 0.000000e+00 0.000000e+00 0.000000e+00 0.000000e+00 0.000000e+00 0.000000e+00 0.000000e+00 0.000000e+00 0.000000e+00
<ENDHMM>
~h "hodin"
<BEGINHMM>
<NUMSTATES> 5
<STATE> 2
<MEAN> 39
 -3.202919e+00 3.307896e+00 -3.591445e+00 -7.861985e+00 1.239759e+00 4.216764e+00 1.060800e+01 -5.498865e+00 -3.930023e+00 5.634247e-01 2.324611e+00 -3.267177e-01 4.389005e+01 3.503656e-01 1.060308e-01 -7.357609e-02 -5.385095e-02 3.014652e-02 -3.341298e-01 -2.824455e-03 -2.812813e-01 -5.993789e-02 -2.895992e-02 1.578080e-01 -7.185837e-02 9.347038e-01 -9.165240e-03 -3.713265e-02 4.447399e-02 7.816412e-02 -2.577836e-03 -8.939162e-02 -1.496187e-01 1.809246e-02 9.960539e-02 -3.920105e-02 -2.160124e-02 -1.323176e-02 -1.243647e-02
<VARIANCE> 39
 1.353499e+01 4.375202e+01 1.757179e+01 2.183039e+01 1.883892e+01 3.076398e+01 3.686479e+01 1.727383e+01 1.245570e+01 1.583491e+01 1.297845e+01 8.570519e+00 7.201133e+01 9.130890e-01 1.828103e+00 1.146557e+00 1.465096e+00 1.949297e+00 1.824627e+00 3.222129e+00 1.395560e+00 1.399518e+00 1.036574e+00 1.038677e+00 8.329706e-01 6.130908e-01 1.580509e-01 1.942814e-01 2.461141e-01 2.097597e-01 3.729166e-01 2.557788e-01 4.128163e-01 2.912950e-01 2.859898e-01 1.798512e-01 2.266086e-01 1.450258e-01 9.699416e-02
<GCONST> 9.501244e+01
<STATE> 3
<MEAN> 39
 -4.798369e+00 1.861874e+00 4.072164e+00 -1.300120e+00 3.597125e+00 -6.659258e+00 -2.616781e+00 -6.269494e+00 1.478490e+00 -7.064018e+00 -3.891520e+00 -1.355292e+00 3.977456e+01 -8.923917e-02 3.060721e-01 1.227481e+00 -5.373143e-02 -3.262822e-01 -1.823151e-01 -3.141427e-01 7.102787e-03 1.025715e-01 -3.326200e-01 -2.186146e-01 1.287668e-01 8.701997e-02 1.492791e-02 1.997481e-02 -1.660083e-02 -1.396148e-02 -1.428656e-01 2.043496e-02 1.186074e-01 -6.198026e-03 -4.994139e-02 6.546007e-02 9.076248e-02 5.705191e-02 -4.301172e-02
<VARIANCE> 39
 2.193152e+01 3.243336e+01 1.004888e+02 2.990828e+01 3.484655e+01 3.618772e+01 2.853833e+01 3.655072e+01 4.024759e+01 1.446494e+01 2.053184e+01 1.299307e+01 6.399125e+01 2.184819e+00 3.271578e+00 4.391017e+00 4.425179e+00 4.345750e+00 3.709822e+00 2.653976e+00 3.588398e+00 4.440077e+00 2.020098e+00 1.687185e+00 1.503795e+00 5.580002e+00 3.318013e-01 6.298906e-01 7.316757e-01 7.390518e-01 5.837732e-01 5.702606e-01 3.842337e-01 5.827823e-01 7.414656e-01 3.299436e-01 2.396391e-01 2.493293e-01 7.693893e-01
<GCONST> 1.220014e+02
<STATE> 4
<MEAN> 39
 -3.880275e+00 2.325875e+00 8.546381e+00 -5.750548e-01 -5.243084e-01 -4.154354e+00 1.286878e+00 -7.719178e+00 -1.708433e+00 -4.355783e+00 -1.760286e+00 -1.111746e+00 3.931343e+01 -2.321098e-02 -2.540086e-02 -3.258251e-01 1.565112e-01 1.805844e-01 2.034596e-01 1.021289e-01 1.067771e-01 -2.574834e-02 1.259491e-01 8.846129e-03 -6.357420e-02 -3.760563e-01 -3.828182e-02 -3.915133e-03 -2.255467e-02 -2.336616e-02 2.462272e-02 1.872697e-02 -1.675343e-03 3.642082e-02 1.484463e-02 2.635984e-02 2.215710e-03 1.188141e-02 -1.178615e-02
<VARIANCE> 39
 1.483056e+01 1.877596e+01 4.628956e+01 7.433267e+01 4.496164e+01 3.825729e+01 3.449301e+01 5.653420e+01 2.000784e+01 4.736523e+01 1.474507e+01 1.484323e+01 7.330510e+01 4.717068e-01 1.216728e+00 1.488096e+00 2.782598e+00 1.630360e+00 1.987246e+00 2.611749e+00 3.346469e+00 1.804485e+00 2.363221e+00 1.237530e+00 9.939288e-01 9.283431e-01 5.682566e-02 2.091594e-01 2.351680e-01 4.297557e-01 2.451230e-01 3.340571e-01 4.158743e-01 5.315437e-01 3.257880e-01 3.499396e-01 1.978636e-01 1.614373e-01 1.114906e-01
<GCONST> 1.042596e+02
<TRANSP> 5
 0.000000e+00 1.000000e+00 0.000000e+00 0.000000e+00 0.000000e+00
 0.000000e+00 9.384447e-01 6.155527e-02 0.000000e+00 0.000000e+00
 0.000000e+00 0.000000e+00 9.437666e-01 5.623344e-02 0.000000e+00
 0.000000e+00 0.000000e+00 0.000000e+00 9.755271e-01 2.447287e-02
 0.000000e+00 0.000000e+00 0.000000e+00 0.000000e+00 0.000000e+00
<ENDHMM>
~h "tesla"
<BEGINHMM>
<NUMSTATES> 10
<STATE> 2
<MEAN> 39
 -1.262428e+01 1.444926e-01 -3.173110e+00 -3.929736e-01 -1.599283e+00 -7.182772e-02 -1.072856e+00 -9.502471e-01 -1.418203e+00 -4.399257e-01 3.182240e-01 1.041507e+00 2.334509e+01 -2.483023e-01 -2.646101e-02 -4.726012e-02 -1.473855e-01 -1.310813e-01 -8.596652e-02 8.071233e-02 6.640310e-02 1.243284e-01 5.517597e-02 2.782433e-02 -3.367121e-01 3.230868e-02 -1.386231e-01 -2.696445e-01 1.541290e-01 -6.266066e-02 1.086603e-01 -2.725449e-01 2.599216e-01 -5.534288e-02 2.334043e-01 -9.001025e-02 3.366736e-02 -8.130842e-02 6.754802e-01
<VARIANCE> 39
 1.212612e+00 1.413833e+00 4.408260e+00 2.315634e+00 3.810619e+00 2.264256e+00 6.612491e+00 2.911477e+00 3.843123e+00 4.332606e+00 4.497474e+00 4.748283e+00 1.244692e+00 1.703799e-01 2.234373e-01 4.546388e-01 1.939763e-01 1.193368e+00 4.142615e-01 7.796825e-01 5.674863e-01 4.059634e-01 3.625506e-01 3.785906e-01 8.624101e-01 3.228220e-01 9.004167e-02 1.581077e-01 1.312182e-01 1.387654e-01 3.603733e-01 2.082435e-01 1.329881e-01 9.706655e-02 1.507131e-01 8.322296e-02 1.546615e-01 1.147657e-01 3.930208e-01
<GCONST> 4.982097e+01
<STATE> 3
<MEAN> 39
 -1.452052e+01 -2.452222e+00 -1.618894e+00 -6.967807e-01 4.975052e-01 -2.699562e+00 -4.786454e-01 -2.159425e+00 7.860796e-01 -6.897790e-01 2.644022e-01 -1.866254e-01 3.209844e+01 4.498544e-01 -2.851128e-02 3.184527e-02 -3.087788e-01 8.456258e-02 -5.865756e-01 4.577473e-02 -5.052634e-01 4.889119e-01 1.441757e-01 5.683805e-02 -1.875083e-01 2.524041e+00 3.318045e-01 5.468734e-02 -4.638140e-02 -3.425610e-02 -8.290754e-02 -9.002690e-02 -9.442136e-02 -1.607162e-01 1.145499e-01 8.474191e-02 -5.076044e-03 -2.970890e-02 1.697351e-01
<VARIANCE> 39
 1.878149e+01 2.217238e+01 1.639005e+01 1.017657e+01 2.618499e+01 2.165583e+01 7.653130e+00 9.555347e+00 7.193089e+00 3.993594e+00 3.189694e+00 4.078876e+00 1.280361e+02 3.817919e+00 3.440790e+00 1.846222e+00 1.106190e+00 3.945026e+00 3.051560e+00 1.168434e+00 1.667005e+00 1.614421e+00 7.815230e-01 4.987285e-01 5.170439e-01 1.228215e+01 4.329744e-01 6.168804e-01 3.652507e-01 2.418662e-01 9.602693e-01 7.473493e-01 2.433886e-01 3.001470e-01 2.803985e-01 1.621879e-01 8.150513e-02 1.314896e-01 1.980671e+00
<GCONST> 9.842574e+01
<STATE> 4
<MEAN> 39
 -4.078937e+00 -5.171883e-01 -4.743100e+00 -4.286024e+00 -1.846498e+00 -6.008137e+00 -1.899011e+00 -9.007741e+00 7.008026e+00 3.473050e+00 -1.483083e-01 -3.146203e+00 5.296392e+01 2.406399e-01 1.019467e-01 2.490164e-02 -1.329147e-01 5.834095e-01 -1.200076e-01 5.431134e-01 -4.884714e-01 4.605064e-01 2.991116e-01 -9.944887e-01 -9.412012e-02 7.554530e-01 -5.551087e-01 1.482283e-01 3.739599e-01 4.381976e-02 2.818257e-01 1.030824e-01 2.722698e-01 5.320406e-01 -3.026516e-01 -3.128316e-01 -1.366050e-01 2.827502e-01 -3.879209e-01
<VARIANCE> 39
 1.441237e+01 7.317194e+00 7.287347e+00 1.336299e+01 1.049038e+01 1.197564e+01 1.076425e+01 2.862466e+01 1.528275e+01 7.542559e+00 9.642367e+00 1.665244e+00 1.432277e+02 2.114420e+00 1.477904e+00 1.635860e+00 9.814187e-01 2.389824e+00 2.792645e+00 1.644695e+00 3.090781e+00 1.450538e+00 9.965373e-01 9.736888e-01 4.925435e-01 2.142238e+00 3.561208e-01 2.584502e-01 2.705156e-01 2.253841e-01 3.473294e-01 4.316949e-01 2.778839e-01 2.535586e-01 2.420596e-01 1.125343e-01 2.224880e-01 8.373455e-02 6.810576e-01
<GCONST> 9.179503e+01
<STATE> 5
<MEAN> 39
 -1.975238e+01 4.193742e+00 -1.659385e+00 -3.461988e+00 5.879244e+00 -3.421041e+00 3.907740e-01 -1.336834e+00 2.404148e+00 2.932255e-01 -7.990837e-01 -1.175067e+00 5.268098e+01 -5.118770e-01 -6.121989e-02 1.934232e-01 -7.177020e-02 1.176296e-01 -4.498420e-02 2.238348e-02 2.354219e-01 -2.673918e-01 -2.978484e-01 1.660714e-01 1.435758e-01 2.403296e-02 2.201176e-01 -6.487294e-02 -5.607749e-02 -8.207811e-02 -1.363529e-01 -7.025462e-02 -2.033871e-02 -8.907647e-02 4.977756e-02 -1.845230e-02 3.555075e-02 -2.246471e-03 4.877090e-02
<VARIANCE> 39
 3.159761e+01 6.739607e+00 6.792179e+00 5.199736e+00 6.710978e+00 8.566496e+00 7.743539e+00 9.608967e+00 1.011966e+01 8.620237e+00 9.657458e+00 4.449049e+00 2.586333e+01 2.957601e+00 6.191908e-01 1.336673e+00 8.281142e-01 7.541733e-01 1.953329e+00 8.516066e-01 1.674002e+00 7.633208e-01 8.781881e-01 1.167798e+00 4.691990e-01 1.328043e+00 2.414631e-01 1.170469e-01 2.581111e-01 1.647879e-01 1.546461e-01 2.291631e-01 1.756629e-01 2.486363e-01 1.411453e-01 1.484790e-01 3.009217e-01 9.078228e-02 4.633901e-02
<GCONST> 7.744460e+01
<STATE> 6
<MEAN> 39
 -1.363031e+01 6.472272e-01 2.490328e-01 -3.195050e+00 2.323941e+00 -3.789127e+00 2.702027e+00 -2.310548e+00 1.768856e+00 -5.797747e-01 -3.526523e-01 -6.423162e-02 4.479860e+01 2.769545e+00 1.838928e-01 4.913463e-01 -2.394106e+00 -1.168374e+00 -1.814455e+00 6.149895e-01 -7.157153e-01 3.584482e-01 -8.827907e-01 -4.359097e-02 9.268621e-01 1.484668e+00 5.272338e-01 2.961376e-01 -2.317009e-01 -1.145073e+00 -5.580127e-02 -2.147167e-01 2.904163e-02 -3.470943e-01 -3.307462e-01 -1.877725e-01 -1.190809e-01 8.516099e-02 1.077107e-01
<VARIANCE> 39
 1.036596e+01 7.399426e+00 3.167150e+00 6.683688e+00 1.492379e+01 4.086493e+01 1.871585e+01 1.901503e+01 8.720791e+00 1.946501e+01 1.271562e+01 8.931225e+00 7.943884e+01 1.119481e+00 1.766786e+00 9.514697e-01 2.217856e+00 1.028643e+00 7.237495e+00 4.652235e-01 1.528352e+00 1.968748e+00 2.542463e+00 6.004673e-01 6.055068e-01 7.833734e+00 1.615794e-01 3.982791e-01 1.181889e-01 2.065288e-01 2.844092e-01 5.758255e-01 1.682810e-01 5.162149e-01 2.238077e-01 5.896286e-01 4.038946e-01 2.099476e-01 2.271635e-01
<GCONST> 9.466811e+01
<STATE> 7
<MEAN> 39
 -1.163527e+01 -3.217331e+00 -1.356665e+00 -7.339941e+00 -1.241813e+00 -1.290849e+01 5.704754e+00 -5.473318e+00 4.389492e+00 -7.558575e+00 -1.063886e+00 2.354755e+00 4.327450e+01 3.626577e-01 2.532760e-01 -3.947164e-01 -4.959711e-01 2.216986e-01 -1.510703e-01 3.794052e-01 -4.600193e-01 -1.678284e-01 -1.760100e-01 -2.818294e-01 -1.361306e-01 1.709247e-01 -1.529751e-01 1.284455e-01 -1.640995e-01 2.274417e-01 1.308586e-01 2.127425e-01 -9.344989e-03 1.609984e-02 -1.362983e-01 2.617867e-01 -5.544078e-02 -1.279599e-01 -3.180916e-01
<VARIANCE> 39
 7.280190e+01 3.030121e+01 1.932926e+01 7.091945e+01 1.330184e+01 7.260732e+01 1.326274e+01 1.275837e+01 1.794677e+01 4.633950e+01 8.167159e+00 6.460956e+00 2.742228e+01 5.755471e+00 2.333981e+00 1.090732e+00 6.197867e+00 1.122429e+00 3.068478e+00 1.014799e+00 1.713812e+00 1.771090e+00 3.588245e+00 1.376354e+00 7.883562e-01 2.149145e+00 5.040649e-01 2.727595e-01 2.306654e-01 4.160349e-01 2.826831e-01 5.996702e-01 1.472110e-01 2.333368e-01 2.420747e-01 3.851075e-01 2.074553e-01 1.295439e-01 2.835379e-01
<GCONST> 1.048752e+02
<STATE> 8
<MEAN> 39
 4.405137e-01 6.796185e+00 -7.533271e+00 -2.292062e+01 8.623305e+00 -7.179772e+00 9.618295e+00 -4.213064e+00 -6.779961e+00 1.325526e+00 1.006577e+00 -2.669990e+00 4.874052e+01 7.382114e-02 -6.098052e-02 -4.808943e-01 -1.764109e-01 7.506346e-01 1.954951e-01 3.700437e-01 1.927840e-01 -3.529745e-02 9.012075e-02 2.135027e-01 -3.600356e-01 -3.652675e-01 -3.003629e-01 -1.564600e-01 2.397466e-01 3.319019e-01 -5.992391e-02 3.673859e-01 -1.942743e-01 7.517033e-02 2.413800e-01 -6.819430e-02 -3.356732e-02 1.232211e-01 -9.461881e-02
<VARIANCE> 39
 1.328007e+01 2.132525e+01 2.135071e+01 4.036992e+01 3.337912e+01 2.382475e+01 1.422516e+01 1.821437e+01 1.496315e+01 1.640957e+01 2.172596e+01 1.543624e+01 9.631020e+00 1.562851e+00 8.305026e-01 2.238429e+00 2.418136e+00 1.062858e+00 3.093704e+00 1.388672e+00 1.658291e+00 1.863980e+00 7.916135e-01 1.651010e+00 1.053322e+00 4.553367e-01 1.695575e-01 2.656343e-01 3.889289e-01 2.152984e-01 2.354840e-01 3.921543e-01 2.386190e-01 3.205022e-01 2.716507e-01 1.825370e-01 2.357801e-01 2.006049e-01 7.315282e-02
<GCONST> 9.482799e+01
<STATE> 9
<MEAN> 39
