~o
<STREAMINFO> 1 39
<VECSIZE> 39<NULLD><MFCC_D_A_0><DIAGC>
~h "za-posledni"
<BEGINHMM>
<NUMSTATES> 10
<STATE> 2
<MEAN> 39
 -1.229416e+01 6.222348e+00 -3.918764e-01 -3.616621e+00 5.154172e+00 -5.671456e+00 -2.746792e+00 -6.262559e+00 -5.404813e-01 2.413324e+00 -1.411037e+00 -2.119027e+00 4.293049e+01 3.074871e-01 2.623729e-01 5.023669e-03 -3.071169e-01 8.135632e-02 -3.707472e-01 -1.289643e-01 -5.838017e-01 6.374480e-02 1.356918e-01 -2.215529e-01 -1.445041e-01 1.560692e+00 1.759721e-01 -8.170550e-02 -7.880357e-02 -7.257701e-02 -1.388486e-01 -1.924014e-02 5.483177e-02 -7.336457e-02 6.605136e-02 -2.244862e-02 -2.809651e-02 3.168667e-04 9.352179e-02
<VARIANCE> 39
 2.617165e+01 2.139121e+01 1.247672e+01 1.264737e+01 1.730260e+01 2.051616e+01 1.410209e+01 2.033438e+01 8.515776e+00 1.248147e+01 1.010219e+01 7.415384e+00 1.162743e+02 3.487949e+00 1.505832e+00 1.340755e+00 1.599536e+00 1.529826e+00 1.807047e+00 1.663376e+00 1.308204e+00 1.170997e+00 1.541799e+00 1.191482e+00 7.865472e-01 2.732059e+00 5.331329e-01 1.748293e-01 2.526230e-01 3.746486e-01 2.001342e-01 3.571657e-01 3.357160e-01 2.603861e-01 2.416801e-01 2.808864e-01 2.485559e-01 1.493618e-01 4.735388e-01
<GCONST> 9.754536e+01
<STATE> 3
<MEAN> 39
 -4.070736e+00 7.140123e-01 -9.377171e+00 -1.286059e+01 1.284295e+00 -2.750362e+00 3.348883e+00 -1.063252e+01 2.816636e+00 2.919485e+00 -1.623374e-01 -1.660403e+00 5.477573e+01 8.547434e-01 -2.052541e-02 -5.245338e-01 -7.010968e-01 -6.785989e-05 1.962632e-02 1.157933e+00 5.760521e-02 -4.231878e-01 -4.232245e-01 -1.727500e-01 -1.092860e-01 1.102877e-01 -2.251818e-01 2.919077e-01 2.921278e-01 1.892847e-01 1.795121e-01 -1.207907e-01 -5.712202e-02 2.977581e-01 -1.580651e-01 -1.958561e-01 -8.827744e-02 -6.668930e-02 -4.125112e-01
<VARIANCE> 39
 1.303086e+01 8.156282e+00 2.304206e+01 3.533829e+01 8.598639e+00 5.425707e+00 2.810082e+01 2.255844e+01 1.699331e+01 1.255693e+01 6.103080e+00 6.309578e+00 1.086599e+02 1.919810e+00 1.641126e+00 2.299525e+00 1.284480e+00 1.438804e+00 1.498718e+00 1.814450e+00 1.925509e+00 2.270889e+00 1.744372e+00 1.381197e+00 8.569093e-01 2.307089e+00 3.128736e-01 1.340464e-01 2.493899e-01 1.302840e-01 2.272392e-01 1.064771e-01 2.968858e-01 2.216069e-01 3.775208e-01 2.355502e-01 1.909482e-01 1.362371e-01 2.374515e-01
<GCONST> 9.312559e+01
<STATE> 4
<MEAN> 39
 -7.180043e+00 1.542192e+00 -5.209407e+00 -7.582176e+00 8.336067e-02 -1.107122e+00 4.267091e+00 -2.475078e+00 -3.611834e-01 3.525875e-01 -3.703356e-02 -2.182197e+00 3.261829e+01 -5.665100e-01 -2.420073e-01 5.211724e-01 9.133969e-01 -2.448581e-01 -1.546597e-01 -5.192015e-01 6.198015e-01 1.767364e-01 -2.355934e-01 -3.408679e-02 -2.313335e-02 -1.698059e+00 2.781870e-02 -1.167717e-01 -5.560046e-02 -2.540928e-02 6.171821e-02 -4.523256e-02 -1.545545e-03 1.124759e-02 1.108144e-01 -1.458229e-02 -5.953461e-03 5.743001e-02 5.326533e-01
<VARIANCE> 39
 2.434329e+01 1.446881e+01 8.826955e+00 3.314171e+01 2.184667e+01 1.533757e+01 3.521254e+01 2.193935e+01 1.214869e+01 1.726250e+01 9.717865e+00 8.321064e+00 1.022818e+02 1.527517e+00 1.867543e+00 1.215617e+00 9.818271e-01 1.895110e+00 1.939523e+00 1.625746e+00 1.630929e+00 1.510393e+00 1.940910e+00 1.458023e+00 8.778552e-01 7.934912e+00 2.713847e-01 4.117968e-01 2.683736e-01 2.840437e-01 4.033971e-01 2.669030e-01 3.454924e-01 3.188933e-01 3.314861e-01 3.549924e-01 2.372447e-01 1.688667e-01 1.086416e+00
<GCONST> 1.024719e+02
<STATE> 5
<MEAN> 39
 -6.446108e+00 -1.227768e+00 -1.873420e+00 -2.719607e+00 -5.681256e-01 -9.273090e+00 7.599308e-01 -1.278746e+00 2.349452e+00 -8.759995e+00 -4.581686e+00 -1.262906e+00 3.661267e+01 7.425232e-01 2.515188e-01 1.034495e-01 -3.241959e-01 1.436965e-01 -3.820289e-01 1.015611e-01 1.005187e-01 5.019238e-01 -4.482116e-01 -3.378756e-01 -1.417168e-02 1.765058e+00 2.688244e-03 2.212585e-01 -2.635441e-01 -3.703382e-01 -1.352568e-01 9.146022e-02 -3.998490e-02 -2.847604e-01 9.256617e-02 1.567785e-01 1.048519e-01 3.551134e-02 -1.105478e-01
<VARIANCE> 39
 1.593597e+01 1.451294e+01 1.528009e+01 3.471005e+01 2.128720e+01 5.061275e+01 1.977483e+01 3.176597e+01 2.822477e+01 5.866551e+01 1.818058e+01 4.886100e+00 7.489011e+01 2.849692e+00 2.253386e+00 1.346394e+00 6.114053e+00 2.432431e+00 2.488121e+00 2.495803e+00 4.076928e+00 2.396896e+00 3.950420e+00 1.496508e+00 5.984015e-01 9.683267e+00 4.903406e-01 4.163581e-01 2.455361e-01 1.132189e+00 5.430498e-01 4.237107e-01 5.325417e-01 7.446812e-01 2.834037e-01 6.651594e-01 3.456536e-01 1.164655e-01 1.018857e+00
<GCONST> 1.154049e+02
<STATE> 6
<MEAN> 39
 -4.685654e+00 1.456267e+00 -5.053962e+00 -8.137074e+00 -1.272237e+00 -8.423577e+00 -2.874599e-02 -4.983894e+00 6.364546e+00 -8.274821e+00 -4.059837e+00 -4.255506e-01 4.145320e+01 -3.283567e-02 4.625941e-02 -3.225189e-01 -9.229424e-01 1.678007e-01 2.364622e-01 6.685562e-02 -5.316212e-01 1.450254e-01 1.670236e-01 -5.176622e-02 2.058715e-01 3.072216e-01 -2.577713e-01 -1.705955e-01 1.209033e-01 3.862574e-01 1.781771e-01 9.466621e-02 -1.968837e-02 2.174276e-01 -1.565250e-01 6.592669e-02 6.141827e-02 -5.532309e-03 -2.407713e-01
<VARIANCE> 39
 1.880492e+01 6.417923e+01 1.275701e+01 1.408943e+02 2.838330e+01 3.351337e+01 3.199523e+01 4.025584e+01 2.517445e+01 4.674437e+01 1.608998e+01 1.036730e+01 7.653481e+01 2.266048e+00 4.625364e+00 1.417325e+00 9.505413e+00 2.966602e+00 2.931252e+00 2.797557e+00 3.914444e+00 2.153841e+00 3.110927e+00 1.627551e+00 1.073537e+00 3.298333e+00 4.761738e-01 7.338184e-01 2.354577e-01 1.582277e+00 5.193827e-01 4.832560e-01 5.888008e-01 6.604072e-01 3.799512e-01 5.813775e-01 3.166874e-01 2.213934e-01 4.865430e-01
<GCONST> 1.207171e+02
<STATE> 7
<MEAN> 39
 -1.250439e+01 2.066330e+00 -3.006787e+00 -8.037757e+00 4.718931e+00 -4.517223e+00 1.055539e-03 -4.725163e+00 1.817193e+00 -1.964960e+00 -1.324021e+00 -3.577155e-01 4.662357e+01 -6.408194e-01 -6.660908e-02 9.261023e-02 5.690753e-01 7.295211e-02 -2.119557e-01 3.352221e-02 -1.851304e-01 -1.028963e-01 3.148059e-01 2.854540e-01 -7.694928e-02 6.943600e-02 4.627558e-02 -2.107119e-02 -2.307761e-02 -4.858520e-02 -1.491250e-01 -3.909521e-02 2.449399e-02 -4.412512e-02 5.957161e-02 1.954313e-02 8.073426e-03 1.030416e-02 2.645330e-02
<VARIANCE> 39
 4.848137e+01 1.409480e+01 1.109704e+01 3.750519e+01 1.921898e+01 3.695848e+01 1.491858e+01 4.637378e+01 2.322546e+01 1.588145e+01 1.362642e+01 8.149626e+00 1.187024e+02 4.622852e+00 1.644327e+00 1.083491e+00 4.639999e+00 2.455026e+00 1.340753e+00 1.822375e+00 3.214820e+00 1.874006e+00 1.739057e+00 1.338877e+00 7.814234e-01 1.422667e+00 4.382585e-01 3.128215e-01 2.243097e-01 6.753803e-01 3.532628e-01 2.351705e-01 2.651464e-01 4.989388e-01 3.503574e-01 3.374755e-01 2.344731e-01 1.391044e-01 1.806616e-01
<GCONST> 1.052649e+02
<STATE> 8
<MEAN> 39
 -1.060477e+01 2.815640e-02 -1.799655e+00 -2.661742e+00 -6.880000e-01 -8.455120e+00 1.677490e-01 -8.073997e+00 3.851440e+00 -2.736257e+00 -8.960501e-01 4.485788e-02 4.472837e+01 5.809436e-01 -1.641627e-01 3.954508e-01 2.263743e-01 -3.042321e-01 -2.616628e-01 -9.640555e-02 2.719913e-01 -8.254673e-02 -4.550133e-01 -8.773657e-02 1.136061e-01 -2.794941e-01 8.796829e-02 3.703424e-02 4.671189e-02 -6.944843e-02 6.911594e-03 1.446643e-02 8.047423e-02 1.675778e-02 -1.225480e-01 -9.049427e-02 4.665220e-02 1.920728e-02 -3.060568e-02
<VARIANCE> 39
 9.850766e+01 2.585236e+01 2.353398e+01 4.142645e+01 3.056692e+01 3.216614e+01 4.180235e+01 3.358259e+01 2.326392e+01 3.414318e+01 1.459773e+01 7.040544e+00 9.343613e+01 4.391389e+00 2.204639e+00 1.463455e+00 2.522428e+00 1.755918e+00 2.117939e+00 3.945608e+00 2.861546e+00 2.839743e+00 1.941961e+00 1.667753e+00 9.266999e-01 2.058653e+00 6.138186e-01 3.988908e-01 2.177550e-01 2.414470e-01 3.162359e-01 3.587131e-01 7.127986e-01 5.321882e-01 4.280836e-01 3.510594e-01 3.033649e-01 1.615052e-01 2.655367e-01
<GCONST> 1.128300e+02
<STATE> 9
<MEAN> 39
 -3.486809e+00 4.690388e+00 8.139503e+00 8.810290e-01 -1.042384e+00 -5.958941e+00 -1.066043e+00 -7.948072e+00 -6.153436e+00 -3.313221e+00 2.427217e+00 3.924454e-01 3.685179e+01 -8.865644e-02 1.324341e-01 1.006866e-02 1.284260e-01 7.123025e-02 3.153140e-01 3.145486e-03 -1.925338e-02 -1.475265e-01 1.973412e-01 8.316229e-02 -7.282247e-02 -3.363489e-01 -2.081203e-02 -1.393212e-02 -5.506884e-02 -2.290149e-02 -4.308321e-03 1.748879e-03 -4.570876e-02 7.336088e-03 8.035712e-02 4.625469e-02 -3.073248e-02 -2.299648e-03 -2.563341e-03
<VARIANCE> 39
 1.545537e+01 2.330724e+01 1.804635e+01 3.782032e+01 2.105113e+01 2.475441e+01 2.951521e+01 1.795576e+01 4.022050e+01 2.085682e+01 3.138819e+01 8.971639e+00 5.026616e+01 6.966032e-01 1.174779e+00 1.583972e+00 1.890267e+00 1.650613e+00 1.316715e+00 1.876458e+00 1.219156e+00 1.856765e+00 1.383388e+00 1.493173e+00 6.620913e-01 1.153837e+00 9.861425e-02 1.430013e-01 1.872514e-01 2.756195e-01 2.829243e-01 2.486912e-01 3.426120e-01 1.964181e-01 2.478483e-01 2.630167e-01 2.162760e-01 1.236087e-01 1.289056e-01
<GCONST> 9.550417e+01
<TRANSP> 10
 0.000000e+00 1.000000e+00 0.000000e+00 0.000000e+00 0.000000e+00 0.000000e+00 0.000000e+00 0.000000e+00 0.000000e+00 0.000000e+00
 0.000000e+00 9.046320e-01 9.536796e-02 0.000000e+00 0.000000e+00 0.000000e+00 0.000000e+00 0.000000e+00 0.000000e+00 0.000000e+00
 0.000000e+00 0.000000e+00 8.046412e-01 1.953588e-01 0.000000e+00 0.000000e+00 0.000000e+00 0.000000e+00 0.000000e+00 0.000000e+00
 0.000000e+00 0.000000e+00 0.000000e+00 8.506231e-01 1.493768e-01 0.000000e+00 0.000000e+00 0.000000e+00 0.000000e+00 0.000000e+00
 0.000000e+00 0.000000e+00 0.000000e+00 0.000000e+00 8.633996e-01 1.366004e-01 0.000000e+00 0.000000e+00 0.000000e+00 0.000000e+00
 0.000000e+00 0.000000e+00 0.000000e+00 0.000000e+00 0.000000e+00 9.134815e-01 8.651847e-02 0.000000e+00 0.000000e+00 0.000000e+00
 0.000000e+00 0.000000e+00 0.000000e+00 0.000000e+00 0.000000e+00 0.000000e+00 9.319053e-01 6.809472e-02 0.000000e+00 0.000000e+00
 0.000000e+00 0.000000e+00 0.000000e+00 0.000000e+00 0.000000e+00 0.000000e+00 0.000000e+00 9.433363e-01 5.666365e-02 0.000000e+00
 0.000000e+00 0.000000e+00 0.000000e+00 0.000000e+00 0.000000e+00 0.000000e+00 0.000000e+00 0.000000e+00 9.716086e-01 2.839134e-02
 0.000000e+00 0.000000e+00 0.000000e+00 0.000000e+00 0.000000e+00 0.000000e+00 0.000000e+00 0.000000e+00 0.000000e+00 0.000000e+00
<ENDHMM>
~h "apple"
<BEGINHMM>
<NUMSTATES> 10
<STATE> 2
<MEAN> 39
 -9.123675e+00 -5.730131e+00 9.782712e-01 -5.269468e+00 -2.197356e+00 -6.066203e+00 4.961973e+00 -1.998082e+00 -1.694589e+00 -7.743135e+00 -2.497831e+00 -2.898433e-01 3.504953e+01 -5.533260e-02 -4.528454e-02 1.103777e-01 1.116587e-01 -5.320562e-02 3.096473e-02 6.139210e-02 1.594889e-01 7.953504e-02 -2.774737e-02 -2.861631e-02 1.213429e-02 -1.076280e-01 -4.407103e-02 6.174399e-02 -6.852166e-02 1.578367e-02 -4.421305e-03 4.871516e-02 -7.618457e-02 -2.075657e-02 2.391978e-02 8.099858e-02 1.196069e-02 3.010178e-03 -1.111236e-01
<VARIANCE> 39
 1.602675e+01 2.783581e+01 1.669913e+01 6.197880e+01 1.701105e+01 3.116918e+01 4.974239e+01 2.430536e+01 1.191419e+01 4.074666e+01 1.814903e+01 1.100925e+01 9.390950e+01 1.305733e+00 2.881184e+00 2.100034e+00 4.493229e+00 1.607812e+00 2.922669e+00 4.668130e+00 2.780932e+00 1.817574e+00 3.324608e+00 1.642699e+00 1.331250e+00 6.900045e+00 1.839864e-01 4.316822e-01 3.435678e-01 7.416167e-01 3.159196e-01 4.791977e-01 8.706575e-01 4.814072e-01 3.784704e-01 5.208896e-01 3.299933e-01 2.581773e-01 6.714553e-01
<GCONST> 1.151662e+02
<STATE> 3
<MEAN> 39
 -1.253150e+01 -8.907367e-01 -3.231600e+00 -1.099660e+00 -1.960270e+00 -9.169267e-01 -1.083098e+00 5.351701e-01 -4.516217e-01 -9.384921e-01 2.877029e-01 2.351106e-01 2.425839e+01 4.416365e-01 1.487374e-01 -2.384817e-01 -4.122443e-01 2.465246e-01 -1.914697e-01 -9.516075e-03 -2.070372e-01 3.288819e-01 1.080555e-01 -2.350538e-01 -2.545299e-01 7.588504e-01 2.666413e-01 -5.893584e-02 1.077695e-01 -1.033138e-01 1.748047e-01 -1.486646e-01 1.512083e-01 -3.980749e-02 1.522881e-01 -2.991441e-02 -1.243547e-01 -4.128632e-02 6.473820e-01
<VARIANCE> 39
 6.650439e+00 6.493413e+00 9.733187e+00 1.289522e+01 1.066665e+01 1.238343e+01 7.213868e+00 7.270374e+00 8.065266e+00 6.386159e+00 8.171354e+00 7.216945e+00 6.350935e+00 1.124873e+00 9.455801e-01 1.483163e+00 2.720924e+00 2.233600e+00 1.953081e+00 1.149260e+00 8.919095e-01 1.290388e+00 6.342880e-01 1.450301e+00 1.123896e+00 5.629161e+00 2.624273e-01 2.209779e-01 3.520670e-01 4.767717e-01 4.331554e-01 2.918614e-01 1.693900e-01 1.900595e-01 3.194245e-01 1.666951e-01 2.813048e-01 2.305387e-01 7.406790e-01
<GCONST> 8.785168e+01
<STATE> 4
<MEAN> 39
 -5.392429e+00 -4.386729e+00 -5.234085e+00 -6.407505e+00 3.693756e+00 -5.940440e+00 1.454225e+00 -8.573291e-01 4.211525e+00 1.155243e+00 -3.009204e+00 -3.227384e+00 4.471046e+01 -9.525014e-02 -3.483586e-02 1.745865e-01 2.969240e-01 -1.364166e-02 1.899614e-01 -7.492375e-02 5.226983e-02 1.125734e-02 1.491544e-01 1.122517e-01 5.245475e-02 -3.428982e-01 -3.533731e-02 2.654792e-02 1.168470e-01 1.136881e-01 -7.187973e-02 1.199149e-01 9.735223e-03 -1.383408e-02 -5.460145e-02 -1.890002e-02 1.074554e-01 8.130197e-02 -1.073483e-01
<VARIANCE> 39
 1.646765e+01 1.433303e+01 8.503227e+00 3.071789e+01 1.561355e+01 1.694477e+01 1.942575e+01 1.302086e+01 1.393029e+01 1.163195e+01 1.003402e+01 8.661737e+00 2.068570e+02 2.048254e+00 1.448392e+00 1.633976e+00 1.782536e+00 2.426275e+00 1.326554e+00 1.674868e+00 1.438450e+00 2.337227e+00 8.951603e-01 1.208608e+00 9.767932e-01 1.668667e+01 3.710379e-01 2.498509e-01 3.788338e-01 3.849277e-01 5.137464e-01 2.616574e-01 3.131986e-01 3.274184e-01 5.428088e-01 1.539942e-01 2.425691e-01 1.907893e-01 2.109496e+00
<GCONST> 1.032297e+02
<STATE> 5
<MEAN> 39
 -1.054223e+01 -2.519973e+00 2.315086e-01 -6.054640e-02 1.184911e+00 -1.360949e+00 9.284642e-01 1.309164e-01 1.460656e+00 -1.706042e-01 5.640842e-01 -1.722033e-01 3.448603e+01 2.397747e+00 -4.968329e-02 1.715925e+00 -4.065130e-01 4.512934e-01 2.342592e-01 7.612296e-01 -8.565966e-01 7.564960e-01 -2.492329e-01 2.985470e-01 3.211424e-01 6.033480e+00 8.322988e-01 6.737168e-02 -2.418908e-01 -1.089125e+00 -3.286930e-01 8.634464e-02 -5.034675e-02 -5.433936e-01 3.399251e-01 -7.694140e-03 -1.334417e-01 -1.078348e-01 4.804084e-01
<VARIANCE> 39
 7.544440e+00 1.329892e+01 1.257617e+01 6.473020e+00 6.582638e+00 9.745174e+00 6.428792e+00 7.099384e+00 8.885826e+00 6.622444e+00 3.465344e+00 4.123699e+00 1.369244e+02 3.561843e+00 1.527943e+00 1.033074e+00 2.114466e+00 1.398504e+00 1.626221e+00 9.346943e-01 1.489000e+00 4.485319e+00 1.908044e+00 8.092400e-01 4.720726e-01 4.259508e+00 2.330632e-01 8.550038e-01 2.766706e-01 3.613502e-01 1.822883e-01 2.017519e-01 2.730985e-01 3.104866e-01 4.153761e-01 1.787777e-01 1.086597e-01 5.143245e-02 2.485634e+00
<GCONST> 9.001958e+01
<STATE> 6
<MEAN> 39
 4.089963e-01 -2.119253e+00 3.466013e+00 -3.212931e+00 8.762680e-01 2.046800e+00 1.670196e-01 -3.843706e+00 7.022426e+00 5.339986e-01 -5.373984e-01 -3.263719e-02 4.592906e+01 3.000890e+00 -8.691523e-01 8.773352e-02 -3.917348e+00 -1.028573e+00 4.891714e-01 -4.764341e-01 -2.395954e+00 2.045332e+00 -2.965438e-02 2.789798e-01 1.994293e-01 3.463168e+00 -9.210213e-01 -2.879980e-01 -6.556789e-01 -8.872530e-01 -5.167806e-01 -4.202784e-01 -2.842868e-01 -2.736787e-01 -3.856944e-01 -2.908010e-01 2.193348e-02 8.760469e-02 -1.387511e+00
<VARIANCE> 39
 1.897351e+01 2.791830e+01 1.840199e+01 2.348475e+01 1.996856e+01 2.601304e+01 2.678703e+01 1.375727e+01 4.080286e+01 2.092496e+01 7.883118e+00 9.575932e+00 4.000460e+01 2.231596e+00 9.349303e+00 1.382603e+00 2.090605e+00 1.319298e+00 2.412070e+00 4.808616e+00 2.092270e+00 5.854555e+00 1.133896e+00 4.790107e-01 3.517483e-01 5.110595e+00 5.663478e-01 7.270173e-01 3.587664e-01 5.358769e-01 3.647159e-01 3.508605e-01 3.636748e-01 2.821971e-01 2.956396e-01 6.149424e-01 1.707888e-01 1.240831e-01 5.683365e-01
<GCONST> 1.072593e+02
<STATE> 7
<MEAN> 39
 1.760257e+00 -3.937965e+00 1.710158e+00 -1.701712e+01 -3.533839e+00 -5.636348e-01 1.315912e+00 -1.023873e+01 6.606502e+00 -1.852928e+00 7.368456e-01 1.065012e+00 5.006782e+01 2.168141e-01 -5.333785e-01 -2.422897e-01 -2.761948e+00 -9.334815e-01 -5.098034e-01 -7.386450e-02 -1.467369e+00 1.816187e-01 -5.177141e-01 -2.420815e-01 3.377327e-01 3.485469e-01 -4.369018e-01 1.710069e-01 1.552398e-02 6.782388e-01 2.992825e-01 -5.071720e-02 -8.622877e-03 4.736129e-01 -2.597419e-01 8.363628e-02 -2.104698e-01 -3.325008e-02 -5.796884e-01
<VARIANCE> 39
 4.323777e+00 4.523030e+01 7.706779e+00 4.440732e+01 1.713144e+01 2.065461e+01 6.505246e+01 1.327298e+01 9.377398e+01 9.122804e+00 3.616506e+00 3.961608e+00 2.173103e+01 1.741460e+00 3.134219e+00 1.634700e+00 4.671110e+00 1.575078e+00 1.138007e+00 2.046979e+00 9.803748e-01 1.476175e+00 1.622606e+00 9.620401e-01 5.626028e-01 8.004492e-01 3.203540e-01 8.749744e-01 2.348221e-01 4.103907e-01 3.106546e-01 2.474704e-01 3.796271e-01 2.225349e-01 3.106000e-01 2.623013e-01 1.330963e-01 9.764569e-02 3.554668e-01
<GCONST> 9.642490e+01
<STATE> 8
<MEAN> 39
 8.443574e-01 -9.105206e-04 -1.738412e-01 -1.960626e+01 1.556629e-01 1.112785e+00 7.931263e-01 -9.570302e+00 5.501550e+00 -1.408746e+00 -2.013843e+00 2.753104e+00 4.488331e+01 -2.354164e-01 4.605601e-01 -7.044052e-02 7.494489e-01 6.908008e-01 5.195119e-01 -2.871022e-01 4.608736e-01 -2.056122e-01 -2.634974e-01 -9.017245e-02 -8.063437e-02 -9.606177e-01 -1.827047e-02 4.706813e-02 6.625916e-02 2.938726e-01 -8.394034e-03 -8.475665e-03 2.015623e-02 8.385593e-02 -1.046828e-01 -3.320429e-02 5.902101e-02 -9.094742e-02 -8.028201e-02
<VARIANCE> 39
 8.394689e+00 5.811370e+01 1.096015e+01 4.890673e+01 4.418707e+01 3.922514e+01 7.939257e+01 1.738722e+01 8.313673e+01 2.098362e+01 1.162528e+01 1.089323e+01 2.717277e+01 4.486309e-01 1.560152e+00 1.360996e+00 2.643858e+00 1.714978e+00 3.024958e+00 3.032104e+00 1.357687e+00 1.356017e+00 1.683146e+00 1.193023e+00 9.926878e-01 5.654364e-01 8.271832e-02 2.854959e-01 2.449038e-01 2.608396e-01 2.953067e-01 7.393892e-01 5.145248e-01 3.235806e-01 2.011968e-01 3.248377e-01 2.082308e-01 1.603311e-01 6.250063e-02
<GCONST> 1.001451e+02
<STATE> 9
<MEAN> 39
 -4.856586e+00 3.066930e+00 2.666198e+00 -1.005415e+00 4.568834e+00 3.313505e+00 -6.997256e-01 -2.482143e+00 1.185236e+00 -4.020711e+00 -1.540067e+00 -1.558177e+00 3.111725e+01 -6.735560e-01 4.143436e-01 4.070870e-01 1.461072e+00 -2.128525e-01 -5.429278e-01 5.562261e-01 6.572320e-01 -6.609131e-01 4.997154e-01 1.848735e-01 -1.279611e-01 -1.049837e+00 -8.009221e-03 -1.107082e-01 -1.254812e-01 -2.755927e-01 -5.124028e-02 1.416668e-02 -2.169941e-02 -6.466644e-02 1.980582e-01 1.076109e-01 4.454553e-04 1.147318e-01 9.952946e-02
<VARIANCE> 39
 1.360751e+01 1.745470e+01 2.314663e+01 3.307790e+01 1.417170e+01 1.437841e+01 2.258417e+01 1.574209e+01 3.118394e+01 1.971273e+01 1.730923e+01 1.477589e+01 1.998478e+01 7.640915e-01 7.622027e-01 1.344975e+00 2.143368e+00 2.435662e+00 2.138758e+00 1.807371e+00 1.340689e+00 2.676489e+00 1.844834e+00 1.792245e+00 2.068328e+00 5.890970e-01 1.228525e-01 1.387175e-01 2.049355e-01 2.130475e-01 4.615570e-01 3.706076e-01 3.220840e-01 2.521940e-01 4.735368e-01 3.283660e-01 3.524934e-01 3.761143e-01 6.794579e-02
<GCONST> 9.732021e+01
<TRANSP> 10
 0.000000e+00 1.000000e+00 0.000000e+00 0.000000e+00 0.000000e+00 0.000000e+00 0.000000e+00 0.000000e+00 0.000000e+00 0.000000e+00
 0.000000e+00 9.248135e-01 7.518649e-02 0.000000e+00 0.000000e+00 0.000000e+00 0.000000e+00 0.000000e+00 0.000000e+00 0.000000e+00
 0.000000e+00 0.000000e+00 8.639445e-01 1.360555e-01 0.000000e+00 0.000000e+00 0.000000e+00 0.000000e+00 0.000000e+00 0.000000e+00
 0.000000e+00 0.000000e+00 0.000000e+00 8.984712e-01 1.015287e-01 0.000000e+00 0.000000e+00 0.000000e+00 0.000000e+00 0.000000e+00
 0.000000e+00 0.000000e+00 0.000000e+00 0.000000e+00 5.938443e-01 4.061557e-01 0.000000e+00 0.000000e+00 0.000000e+00 0.000000e+00
 0.000000e+00 0.000000e+00 0.000000e+00 0.000000e+00 0.000000e+00 4.581562e-01 5.418438e-01 0.000000e+00 0.000000e+00 0.000000e+00
 0.000000e+00 0.000000e+00 0.000000e+00 0.000000e+00 0.000000e+00 0.000000e+00 7.447606e-01 2.552395e-01 0.000000e+00 0.000000e+00
 0.000000e+00 0.000000e+00 0.000000e+00 0.000000e+00 0.000000e+00 0.000000e+00 0.000000e+00 9.254681e-01 7.453189e-02 0.000000e+00
 0.000000e+00 0.000000e+00 0.000000e+00 0.000000e+00 0.000000e+00 0.000000e+00 0.000000e+00 0.000000e+00 8.835864e-01 1.164136e-01
 0.000000e+00 0.000000e+00 0.000000e+00 0.000000e+00 0.000000e+00 0.000000e+00 0.000000e+00 0.000000e+00 0.000000e+00 0.000000e+00
<ENDHMM>
~h "mesic"
<BEGINHMM>
<NUMSTATES> 10
<STATE> 2
<MEAN> 39
 -6.864394e+00 3.869521e+00 2.563161e+00 3.315278e+00 1.114203e+00 -3.646670e+00 -2.212857e+00 -6.031259e+00 -5.235452e+00 -2.520101e+00 -1.629579e-02 -6.880951e-01 2.877882e+01 2.180032e+00 7.706205e-01 1.369113e+00 1.069829e+00 1.920044e-01 -1.796186e+00 -3.069160e-01 -1.817983e+00 -1.470521e+00 6.211238e-02 1.657990e-01 -4.008259e-01 2.096564e+00 8.644841e-02 -2.738098e-01 -2.189900e-01 -9.072565e-02 -1.534098e-01 -2.197317e-01 2.156888e-01 -5.002232e-02 -1.132566e-03 3.199533e-01 1.814352e-01 1.374258e-03 2.147308e-01
<VARIANCE> 39
 3.201933e+01 1.345439e+01 1.963612e+01 1.348637e+01 1.143010e+01 2.625581e+01 2.415998e+01 4.157021e+01 2.164068e+01 1.421430e+01 1.485076e+01 7.587443e+00 2.434053e+01 1.731787e+00 1.903533e+00 2.116406e+00 1.378174e+00 1.182364e+00 2.471449e+00 2.879131e+00 3.170076e+00 2.945917e+00 2.367355e+00 1.954896e+00 9.811200e-01 1.207446e+00 6.537274e-01 4.310037e-01 5.500699e-01 3.153345e-01 1.903611e-01 5.512412e-01 7.356401e-01 8.093151e-01 6.393656e-01 3.514285e-01 3.183179e-01 1.331362e-01 3.241713e-01
<GCONST> 1.063404e+02
<STATE> 3
<MEAN> 39
 2.335325e+00 6.020501e-01 2.640534e+00 6.597995e+00 1.743595e+00 -1.321932e+01 3.023870e+00 -1.088219e+01 -1.234235e+01 7.743357e-01 4.048561e+00 -1.076398e+00 4.239714e+01 1.133497e-01 -4.254622e-01 -2.472509e-01 2.282611e-01 -3.481269e-01 -1.788681e-01 5.895840e-01 1.208243e-01 -1.994192e-01 1.378089e-01 1.872444e-01 1.158370e-01 5.275927e-01 -1.882903e-01 1.028485e-01 7.318564e-02 -1.058765e-01 3.817309e-02 1.756809e-01 -7.771496e-02 9.307295e-02 8.698009e-02 -1.122886e-01 -4.446612e-02 5.157965e-02 -1.128471e-01
<VARIANCE> 39
 9.037899e+00 8.420980e+00 8.400795e+00 1.459555e+01 1.994104e+01 2.506617e+01 2.227265e+01 1.596459e+01 3.131698e+01 1.598666e+01 1.800443e+01 1.498447e+01 2.263261e+01 4.015189e-01 5.437934e-01 1.008080e+00 1.554762e+00 1.247169e+00 2.303461e+00 2.214468e+00 8.583080e-01 2.388871e+00 2.139632e+00 1.034687e+00 9.554124e-01 3.927471e-01 1.541085e-01 1.040717e-01 2.652889e-01 4.659217e-01 2.475411e-01 5.360313e-01 3.801973e-01 2.041891e-01 5.618390e-01 4.105765e-01 2.161061e-01 2.014590e-01 8.569979e-02
<GCONST> 9.129317e+01
<STATE> 4
<MEAN> 39
 -6.444799e-01 8.770639e-01 3.075047e+00 6.598197e+00 -2.362819e+00 -1.182698e+01 3.852434e+00 -8.968399e+00 -1.273916e+01 8.721219e-01 4.624249e+00 8.087404e-01 4.388560e+01 -1.719519e+00 9.063067e-01 1.104625e+00 -2.597350e+00 7.868884e-01 7.188786e-01 -3.692139e-01 1.599361e-01 5.784211e-01 -4.011457e-01 -3.879416e-01 4.769084e-01 1.095293e+00 -3.224071e-01 1.451136e-01 3.458540e-01 -9.697593e-01 1.955694e-01 5.100247e-01 -1.517677e-01 -1.291614e-01 4.021245e-01 -2.173609e-01 -3.018843e-01 -8.202115e-02 2.071347e-01
<VARIANCE> 39
 2.177319e+01 1.442363e+01 1.537902e+01 3.014915e+01 1.367694e+01 2.500280e+01 1.569684e+01 2.347983e+01 2.433324e+01 1.623549e+01 2.455501e+01 1.074860e+01 4.850370e+01 1.701494e+00 1.084966e+00 1.571391e+00 5.038697e+00 2.304305e+00 4.197455e+00 2.636069e+00 9.732202e-01 1.950548e+00 1.668206e+00 7.224258e-01 8.195831e-01 4.733165e-01 3.251337e-01 2.104070e-01 2.867166e-01 9.685689e-01 4.704639e-01 7.244201e-01 4.593868e-01 1.507095e-01 3.241571e-01 3.240923e-01 1.776704e-01 2.135577e-01 6.838772e-02
<GCONST> 1.006303e+02
<STATE> 5
<MEAN> 39
 -8.647757e+00 3.153389e+00 8.924266e+00 -9.174716e+00 -1.534358e+00 -5.137274e+00 3.409810e+00 -9.755575e+00 -4.771374e+00 -2.606660e+00 3.625311e-02 8.468143e-01 4.985147e+01 -5.994850e-01 -8.034467e-01 3.526793e-01 -1.952691e+00 -5.588564e-01 5.647394e-01 7.250661e-01 2.971623e-01 1.581685e+00 -6.196778e-01 -8.773981e-01 -8.640283e-01 1.166975e+00 4.139616e-01 -3.867381e-01 -5.038953e-01 8.309845e-01 -2.584412e-01 -5.470978e-01 8.598409e-02 2.948600e-01 -1.557078e-01 3.102909e-02 1.276111e-01 -1.605763e-01 -1.320016e-01
<VARIANCE> 39
 6.697278e+00 7.948363e+00 1.394275e+01 7.027655e+01 4.322548e+01 2.480763e+01 2.107262e+01 5.867594e+01 1.880707e+01 5.969408e+00 2.912874e+01 4.719456e+01 6.644507e+01 1.024200e+00 1.044697e+00 1.713114e+00 9.462777e+00 2.623372e+00 7.040692e+00 1.190925e+00 2.562738e+00 8.261679e-01 8.029876e-01 6.805953e-01 1.130831e+00 1.594002e-01 9.186468e-02 1.646040e-01 9.219860e-02 8.512309e-01 6.311170e-01 9.244474e-01 2.570786e-01 3.381456e-01 1.485572e-01 1.343916e-01 1.423583e-01 2.159775e-01 3.007161e-02
<GCONST> 9.653892e+01
<STATE> 6
<MEAN> 39
 -7.602577e+00 -3.159021e+00 5.701587e+00 -1.114853e+01 -3.187018e+00 -9.278772e+00 6.912918e+00 -7.050001e+00 -7.568470e-01 -7.733814e+00 -3.800681e+00 -4.803313e+00 4.980246e+01 4.110560e-01 -3.226012e-03 -1.237492e+00 1.374036e+00 2.611374e-01 -7.903950e-01 -2.408611e-01 4.431579e-01 -1.310887e-01 -5.955375e-01 -1.890146e-01 1.947149e-02 -2.214043e-01 -2.208148e-01 4.650899e-01 -3.293191e-02 3.480292e-01 2.958400e-01 4.893876e-01 -2.123191e-01 -2.329946e-01 -1.914411e-01 2.313002e-01 4.016861e-02 1.832231e-01 -3.109595e-01
<VARIANCE> 39
 7.800981e+00 5.973226e+00 2.986188e+01 9.252702e+01 1.087850e+01 4.059664e+01 3.592104e+01 8.442720e+01 1.511780e+01 3.907795e+01 1.187834e+01 2.419325e+01 6.714054e+01 2.931247e-01 2.075165e+00 3.719261e-01 1.747498e+00 2.282977e+00 2.397400e+00 7.782009e-01 1.179383e+00 1.668373e+00 1.965895e+00 7.733004e-01 1.228275e+00 6.178260e-01 1.805586e-01 2.320344e-01 1.539176e-01 2.545039e-01 1.626248e-01 7.990021e-01 1.165409e-01 2.345539e-01 1.198957e-01 3.172274e-01 7.339496e-02 9.679575e-02 3.631899e-02
<GCONST> 9.155602e+01
<STATE> 7
<MEAN> 39
 -1.786214e+01 -6.432323e-01 -5.318553e+00 3.976643e-01 -6.434906e-01 -1.995199e+00 3.772346e+00 -5.553712e+00 -7.649300e-01 -2.854655e+00 -9.662645e-01 -1.531558e+00 4.141697e+01 -1.047732e+00 5.079404e-01 -9.518024e-02 2.078014e-01 -1.019731e-01 6.743284e-01 -3.404354e-01 4.560908e-02 3.869934e-01 7.121341e-01 1.978634e-01 1.682353e-01 -4.551083e-01 4.278544e-02 -2.515421e-02 2.917556e-01 -2.928427e-01 -1.587276e-01 -1.951805e-01 -2.898380e-02 -7.706168e-02 5.211217e-02 -1.067324e-01 -1.409383e-03 -1.315656e-02 8.164628e-02
<VARIANCE> 39
 5.000142e+01 1.644653e+01 4.121185e+01 1.852728e+01 1.694967e+01 3.159154e+01 3.130375e+01 4.361666e+01 2.575398e+01 2.593680e+01 1.568743e+01 6.840039e+00 5.322248e+01 2.833086e+00 2.230417e+00 5.714911e+00 3.259523e+00 2.093921e+00 3.495321e+00 1.898445e+00 2.393213e+00 2.013707e+00 1.890645e+00 1.252981e+00 7.325681e-01 4.073706e-01 4.023794e-01 4.279174e-01 5.944448e-01 2.384555e-01 3.001480e-01 5.037036e-01 3.969783e-01 4.296228e-01 5.002366e-01 2.772502e-01 2.169549e-01 1.148000e-01 7.318269e-02
<GCONST> 1.066558e+02
<STATE> 8
<MEAN> 39
 -1.639477e+01 6.930333e+00 7.210621e+00 -2.670716e+00 -2.754992e+00 -7.241123e+00 1.592962e+00 -4.705969e+00 1.559095e+00 -6.226993e+00 -1.219804e+00 1.145365e+00 4.686370e+01 2.460729e-01 3.332572e-01 8.884755e-01 -3.803226e-01 1.665110e-01 -2.532185e-01 -2.725767e-01 -1.781148e-01 5.598418e-02 -3.661290e-01 9.037739e-03 2.376884e-01 -3.667895e-01 4.007956e-02 -7.374984e-02 -7.742581e-02 2.240643e-02 8.642751e-02 2.032499e-02 1.808402e-02 7.616927e-02 -2.391967e-02 5.335763e-02 1.176498e-02 2.419497e-02 -1.050745e-02
<VARIANCE> 39
 3.479812e+01 2.201227e+01 9.162074e+01 3.456737e+01 1.940723e+01 1.644263e+01 2.063398e+01 3.401675e+01 1.450659e+01 4.678551e+01 7.684834e+00 1.035118e+01 3.492960e+01 2.559807e+00 1.067397e+00 3.031022e+00 1.535598e+00 1.523376e+00 1.443257e+00 1.848663e+00 1.262587e+00 9.058014e-01 2.082519e+00 6.346886e-01 8.387749e-01 3.043657e-01 3.064978e-01 1.736286e-01 3.111003e-01 1.825709e-01 2.403414e-01 2.676315e-01 2.917060e-01 2.343831e-01 1.573339e-01 3.383303e-01 1.163784e-01 1.526691e-01 4.219692e-02
<GCONST> 9.478403e+01
<STATE> 9
<MEAN> 39
 -1.610863e+01 3.034518e+00 2.434630e+00 -2.752634e+00 1.647551e+00 -5.200930e+00 -4.979965e-01 -3.135857e+00 4.451672e-01 -1.846428e+00 -3.403897e-01 7.220670e-01 3.550166e+01 7.381335e-03 -2.751200e-01 -4.828219e-01 3.124089e-01 3.829158e-02 2.143386e-01 1.559428e-01 2.494696e-01 -6.465144e-02 1.543171e-01 1.143634e-01 -3.012209e-02 -2.868282e-01 5.848977e-03 1.968969e-02 -4.509626e-03 1.534201e-02 -4.263476e-02 2.167823e-02 1.587336e-02 -1.607380e-03 4.877053e-03 -1.444980e-02 -1.603648e-02 -2.510816e-02 -6.167638e-03
<VARIANCE> 39
 3.773341e+01 2.071727e+01 9.072141e+01 5.466911e+01 1.864245e+01 2.012985e+01 5.947000e+01 2.317830e+01 1.075086e+01 1.905687e+01 1.911058e+01 1.027711e+01 6.760514e+01 1.463285e+00 1.048502e+00 2.566556e+00 2.220227e+00 1.197067e+00 1.796988e+00 2.566816e+00 1.265427e+00 1.245299e+00 1.541208e+00 1.208184e+00 1.177777e+00 2.514914e+00 1.734653e-01 2.077574e-01 3.377933e-01 3.515400e-01 2.184430e-01 3.114915e-01 3.931974e-01 2.416996e-01 2.315878e-01 2.986349e-01 2.433809e-01 2.331224e-01 3.045558e-01
<GCONST> 1.036350e+02
<TRANSP> 10
 0.000000e+00 1.000000e+00 0.000000e+00 0.000000e+00 0.000000e+00 0.000000e+00 0.000000e+00 0.000000e+00 0.000000e+00 0.000000e+00
 0.000000e+00 8.187632e-01 1.812368e-01 0.000000e+00 0.000000e+00 0.000000e+00 0.000000e+00 0.000000e+00 0.000000e+00 0.000000e+00
 0.000000e+00 0.000000e+00 8.970447e-01 1.029552e-01 0.000000e+00 0.000000e+00 0.000000e+00 0.000000e+00 0.000000e+00 0.000000e+00
 0.000000e+00 0.000000e+00 0.000000e+00 7.280988e-01 2.719012e-01 0.000000e+00 0.000000e+00 0.000000e+00 0.000000e+00 0.000000e+00
 0.000000e+00 0.000000e+00 0.000000e+00 0.000000e+00 8.129337e-01 1.870663e-01 0.000000e+00 0.000000e+00 0.000000e+00 0.000000e+00
 0.000000e+00 0.000000e+00 0.000000e+00 0.000000e+00 0.000000e+00 8.229625e-01 1.770374e-01 0.000000e+00 0.000000e+00 0.000000e+00
 0.000000e+00 0.000000e+00 0.000000e+00 0.000000e+00 0.000000e+00 0.000000e+00 8.975270e-01 1.024730e-01 0.000000e+00 0.000000e+00
 0.000000e+00 0.000000e+00 0.000000e+00 0.000000e+00 0.000000e+00 0.000000e+00 0.000000e+00 9.444681e-01 5.553181e-02 0.000000e+00
 0.000000e+00 0.000000e+00 0.000000e+00 0.000000e+00 0.000000e+00 0.000000e+00 0.000000e+00 0.000000e+00 9.677300e-01 3.226994e-02
 0.000000e+00 0.000000e+00 0.000000e+00 0.000000e+00 0.000000e+00 0.000000e+00 0.000000e+00 0.000000e+00 0.000000e+00 0.000000e+00
<ENDHMM>
~h "mesicu"
<BEGINHMM>
<NUMSTATES> 10
<STATE> 2
<MEAN> 39
 9.212915e-01 4.272505e+00 8.979999e+00 6.904505e+00 -4.377861e+00 -7.770322e+00 1.263312e+00 -3.142379e+00 -5.803927e+00 -5.394511e+00 1.784998e-01 -1.426240e+00 3.825924e+01 3.807151e-01 3.967540e-01 6.858364e-01 -3.461937e-01 -8.225101e-01 -6.738052e-02 -1.761387e-01 -4.472230e-01 -1.106914e-01 -5.850376e-01 -1.145090e-01 1.057950e-01 9.756233e-01 -9.869828e-02 -5.107708e-02 -7.204733e-02 -1.006534e-01 -1.452778e-01 6.208656e-02 4.451392e-02 -4.399732e-02 7.611164e-02 -1.766082e-02 1.633174e-02 5.099743e-02 4.495880e-03
<VARIANCE> 39
 2.375914e+01 1.239712e+01 2.107190e+01 2.738325e+01 4.264672e+01 4.002615e+01 1.459134e+01 1.011757e+01 2.214509e+01 2.064548e+01 1.144651e+01 1.074225e+01 2.850637e+01 3.200666e+00 1.621012e+00 1.817524e+00 3.380883e+00 2.483416e+00 5.901146e+00 1.746173e+00 1.048717e+00 3.598435e+00 9.509390e-01 1.600043e+00 1.175613e+00 1.512465e+00 4.223891e-01 3.146862e-01 3.668763e-01 5.500799e-01 5.138679e-01 1.021844e+00 4.313841e-01 1.739474e-01 7.233033e-01 1.888269e-01 3.317266e-01 2.180861e-01 2.497805e-01
<GCONST> 1.066156e+02
<STATE> 3
<MEAN> 39
 -3.150291e+00 5.108689e+00 9.586294e+00 -2.063677e+00 -1.430404e+01 -5.095047e+00 2.190363e+00 -9.566636e+00 2.525402e+00 -1.054125e+01 5.192678e-01 3.561389e+00 4.983241e+01 -7.758647e-03 -9.627730e-01 -1.357467e+00 1.978268e-01 4.605897e-01 -1.365806e+00 -2.722046e-02 -7.273045e-02 1.155827e+00 5.848760e-01 -1.422879e-01 2.522504e-02 1.052770e+00 9.373240e-03 -4.917234e-02 -1.134080e-01 1.662443e-01 4.535518e-01 -1.415898e-01 -1.790138e-01 1.591860e-01 -7.963930e-02 2.318401e-01 -1.713810e-01 -1.441219e-01 -6.363948e-02
<VARIANCE> 39
 2.212194e+00 1.301699e+01 2.413239e+01 8.815735e+00 1.615634e+01 2.584232e+01 1.001792e+01 5.055609e+00 1.533914e+01 1.001581e+01 3.857857e+00 3.636748e+00 1.135920e+01 3.400529e-01 6.517624e-01 8.739619e-01 6.914678e-01 2.696815e+00 1.241880e+00 1.872696e+00 9.991354e-01 6.933253e-01 1.356472e+00 6.607007e-01 7.982212e-01 1.117368e-01 9.276558e-02 2.150272e-01 2.098479e-01 1.843358e-01 2.589643e-01 4.538721e-01 2.967803e-01 1.776939e-01 1.680378e-01 1.773146e-01 1.132745e-01 1.251557e-01 2.042236e-02
<GCONST> 7.348341e+01
<STATE> 4
<MEAN> 39
 -5.983682e+00 1.897746e+00 1.586822e+00 1.456170e+00 -3.459020e+00 -1.105799e+01 -3.227952e-01 -7.410638e+00 6.868150e+00 -2.929290e+00 -3.455735e+00 1.474482e+00 5.407288e+01 -1.866110e+00 6.878541e-01 -4.602880e-01 5.647034e-01 2.045650e+00 1.022087e+00 2.673492e-01 1.093363e+00 -5.074483e-01 8.874209e-01 1.584099e-02 -1.673436e-01 -4.676155e-01 -5.173633e-01 3.955887e-02 1.124757e-02 -2.735873e-01 -1.801283e-01 4.802093e-01 2.272100e-01 2.153450e-01 -1.971278e-01 -2.102255e-01 4.681872e-01 1.288196e-01 -2.657790e-01
<VARIANCE> 39
 7.886913e+00 4.073874e+00 3.670771e+00 6.699671e+00 1.568628e+01 7.047471e+00 1.738390e+00 1.178998e+01 3.851325e+00 6.104868e+00 6.569052e+00 3.381670e+00 3.268302e+00 1.053214e+00 4.257607e-01 4.309505e-01 1.050915e+00 6.579990e-01 1.665635e+00 5.317849e-01 1.230573e+00 6.981757e-01 3.991704e-01 1.956904e+00 2.855964e-01 4.558626e-01 5.977867e-02 2.614430e-01 1.570306e-01 1.635538e-01 2.882375e-01 2.279224e-01 1.118540e-01 2.961466e-01 1.237175e-01 6.193144e-02 1.690494e-01 8.535396e-02 6.454085e-02
<GCONST> 6.314491e+01
<STATE> 5
<MEAN> 39
 -2.170275e+01 2.694939e+00 -3.223142e+00 -8.448743e-01 2.317546e-01 -4.803130e+00 1.404097e+00 -1.814734e+00 3.249373e+00 -2.708946e+00 -1.421664e-01 1.766329e+00 4.986441e+01 -1.109453e+00 -1.380285e-01 -4.463398e-01 -4.159441e-01 -2.649819e-01 1.282847e-01 -1.416798e-01 2.843926e-01 -3.705181e-01 -1.565149e-01 7.523338e-02 -5.674277e-02 -2.797392e-01 2.825882e-01 -3.695070e-03 1.234893e-01 2.198030e-02 -1.375627e-01 -1.813044e-01 -8.219599e-02 -1.306524e-01 4.044289e-02 4.073516e-03 -8.053686e-02 -6.031017e-02 7.218680e-02
<VARIANCE> 39
 9.774391e+00 3.988581e+00 7.696878e+00 4.029921e+00 9.610778e+00 8.144633e+00 1.145222e+01 5.142308e+00 9.420850e+00 3.167608e+00 5.979705e+00 3.754160e+00 1.418102e+00 1.492164e+00 4.245512e-01 8.414578e-01 4.889981e-01 4.895060e-01 1.007371e+00 1.253687e+00 5.154467e-01 6.619112e-01 3.763032e-01 7.375406e-01 3.812237e-01 7.859977e-02 1.069823e-01 1.102603e-01 1.648350e-01 9.298317e-02 1.364470e-01 1.904666e-01 2.846798e-01 1.307263e-01 1.619997e-01 8.345577e-02 1.594527e-01 6.204542e-02 1.387080e-02
<GCONST> 5.762029e+01
<STATE> 6
<MEAN> 39
 -2.155329e+01 3.838733e+00 2.165219e+00 -1.324992e+00 -3.933881e+00 -4.172122e+00 1.827534e+00 -2.751940e+00 7.967045e-01 -4.396760e+00 2.578225e-01 3.069713e-01 4.888614e+01 6.610556e-01 5.265338e-01 1.425690e+00 2.207979e-01 -8.468039e-02 1.749744e-01 1.912682e-01 -2.374929e-01 -1.891789e-01 -3.388789e-01 1.159096e-01 2.161171e-02 -8.460347e-02 2.294391e-01 1.608921e-01 1.706833e-01 1.244229e-01 7.797764e-02 -2.465737e-02 -6.447086e-02 -2.130359e-02 -1.004212e-01 -1.365997e-01 -1.803404e-02 4.395614e-02 -1.781970e-02
<VARIANCE> 39
 2.868056e+01 1.086172e+01 4.401242e+01 5.788384e+00 5.408285e+00 1.136788e+01 1.284525e+01 1.721314e+01 6.688859e+00 1.090642e+01 1.058047e+01 3.722489e+00 2.068413e+00 1.574939e+00 8.716658e-01 2.098800e+00 6.981685e-01 9.101782e-01 1.009353e+00 1.395948e+00 1.631286e+00 8.686908e-01 1.225147e+00 8.539677e-01 5.712765e-01 1.362679e-01 2.221069e-01 1.159818e-01 2.554457e-01 1.421296e-01 1.752570e-01 2.577243e-01 3.095348e-01 2.956204e-01 1.396148e-01 2.569166e-01 1.701389e-01 9.773251e-02 2.936449e-02
<GCONST> 7.653893e+01
<STATE> 7
<MEAN> 39
 -1.203988e+01 1.331942e+01 1.620481e+01 1.891166e+00 -1.581543e+00 -6.516491e+00 -1.372807e+00 -5.054300e+00 -3.498977e+00 -8.875732e+00 1.117579e+00 1.564070e+00 4.392301e+01 4.514448e-01 4.524443e-01 9.989449e-02 4.669809e-01 3.304566e-01 -8.202545e-03 -2.293722e-01 -3.111183e-01 -4.092127e-01 -7.132384e-02 -1.531312e-01 -4.243883e-02 -8.766854e-01 -1.514809e-01 -2.378377e-01 -3.741567e-01 -5.971015e-02 1.209869e-01 1.022136e-01 1.012428e-01 -1.619665e-02 1.090585e-01 1.504620e-01 -8.839104e-02 -8.579702e-02 -1.746502e-01
<VARIANCE> 39
 8.293863e+00 8.552199e+00 1.014053e+01 6.680574e+00 1.831912e+01 7.709928e+00 1.425819e+01 2.608575e+01 1.103687e+01 1.040057e+01 1.005140e+01 4.469785e+00 9.405726e+00 1.574515e+00 1.431443e+00 2.386795e+00 8.920364e-01 2.081228e+00 1.464975e+00 1.337502e+00 1.868861e+00 1.098438e+00 1.156851e+00 1.715526e+00 6.955347e-01 1.162811e+00 1.982401e-01 3.004707e-01 2.513292e-01 2.478827e-01 4.489644e-01 1.620899e-01 2.151699e-01 3.740869e-01 2.435440e-01 1.664723e-01 3.080148e-01 1.575834e-01 2.163739e-01
<GCONST> 8.748160e+01
<STATE> 8
<MEAN> 39
 -2.095216e+01 3.813806e+00 2.582346e+00 -3.545141e+00 1.712738e+00 -3.179101e+00 -3.824413e+00 -1.448859e-01 -4.533596e-01 -1.857950e+00 -2.027194e+00 -7.210783e-01 4.609007e+01 1.818955e-01 -4.788970e-01 -3.538029e-01 -2.693327e-01 -6.041589e-02 1.623746e-01 -3.265790e-01 2.183354e-02 2.827635e-01 2.746557e-01 9.900114e-02 -1.868322e-01 5.683967e-01 1.311550e-01 7.944847e-02 7.801018e-02 1.537338e-02 -1.046038e-01 -2.027239e-02 4.872844e-03 -1.004406e-01 -7.276098e-02 -4.869537e-02 8.321144e-02 3.343974e-02 1.036702e-01
<VARIANCE> 39
 4.325617e+01 1.709501e+01 1.547083e+01 2.469548e+01 1.182277e+01 1.177998e+01 2.434670e+01 2.227458e+01 1.651298e+01 8.580763e+00 6.470069e+00 7.072605e+00 5.931933e+01 5.036479e+00 1.068956e+00 1.982600e+00 1.854324e+00 1.668529e+00 1.154225e+00 1.609589e+00 2.593198e+00 1.445204e+00 9.732481e-01 7.115574e-01 9.501293e-01 2.844378e+00 5.026558e-01 1.524991e-01 2.468381e-01 2.548908e-01 3.626179e-01 2.193675e-01 3.231979e-01 3.768698e-01 2.726145e-01 1.861414e-01 1.246424e-01 1.998903e-01 4.807555e-01
<GCONST> 9.700878e+01
<STATE> 9
<MEAN> 39
 2.548358e+00 1.288409e+01 -2.102739e+00 -3.909815e+00 -4.424551e+00 5.731039e-01 5.418768e+00 -6.659420e+00 -5.434659e+00 -9.105667e+00 -7.836252e-01 -1.224640e+00 4.199033e+01 1.260092e-01 1.502994e-01 2.178193e-02 4.648207e-02 -1.604202e-02 -2.814604e-02 3.075661e-01 1.487496e-01 -8.799920e-02 -1.197414e-01 -1.127098e-01 2.530848e-02 -5.122728e-01 -1.257453e-01 -3.726856e-02 1.508988e-02 1.116061e-02 4.066832e-02 -1.063949e-02 -3.785013e-02 7.285561e-02 4.523253e-02 3.613306e-02 -1.486829e-02 5.587487e-03 -2.644783e-02
<VARIANCE> 39
 1.303535e+01 2.485767e+01 1.609493e+01 1.665768e+01 1.518647e+01 1.381499e+01 3.420544e+01 3.160319e+01 1.709507e+01 2.530425e+01 1.291625e+01 7.886918e+00 3.159862e+01 9.592862e-01 8.719291e-01 7.582164e-01 8.546446e-01 9.263011e-01 8.610436e-01 1.955563e+00 1.629563e+00 1.066535e+00 1.077060e+00 5.808299e-01 5.349988e-01 1.925913e-01 8.546464e-02 5.550323e-02 7.681879e-02 1.245007e-01 1.238196e-01 1.529512e-01 2.453447e-01 2.261172e-01 1.465129e-01 1.215585e-01 8.574852e-02 8.616710e-02 1.770929e-02
<GCONST> 7.734227e+01
<TRANSP> 10
 0.000000e+00 1.000000e+00 0.000000e+00 0.000000e+00 0.000000e+00 0.000000e+00 0.000000e+00 0.000000e+00 0.000000e+00 0.000000e+00
 0.000000e+00 9.482937e-01 5.170621e-02 0.000000e+00 0.000000e+00 0.000000e+00 0.000000e+00 0.000000e+00 0.000000e+00 0.000000e+00
 0.000000e+00 0.000000e+00 8.832560e-01 1.167441e-01 0.000000e+00 0.000000e+00 0.000000e+00 0.000000e+00 0.000000e+00 0.000000e+00
 0.000000e+00 0.000000e+00 0.000000e+00 8.008656e-01 1.991345e-01 0.000000e+00 0.000000e+00 0.000000e+00 0.000000e+00 0.000000e+00
 0.000000e+00 0.000000e+00 0.000000e+00 0.000000e+00 9.049619e-01 9.503807e-02 0.000000e+00 0.000000e+00 0.000000e+00 0.000000e+00
 0.000000e+00 0.000000e+00 0.000000e+00 0.000000e+00 0.000000e+00 9.044168e-01 9.558316e-02 0.000000e+00 0.000000e+00 0.000000e+00
 0.000000e+00 0.000000e+00 0.000000e+00 0.000000e+00 0.000000e+00 0.000000e+00 9.214848e-01 7.851528e-02 0.000000e+00 0.000000e+00
 0.000000e+00 0.000000e+00 0.000000e+00 0.000000e+00 0.000000e+00 0.000000e+00 0.000000e+00 9.574374e-01 4.256259e-02 0.000000e+00
 0.000000e+00 0.000000e+00 0.000000e+00 0.000000e+00 0.000000e+00 0.000000e+00 0.000000e+00 0.000000e+00 9.733998e-01 2.660019e-02
 0.000000e+00 0.000000e+00 0.000000e+00 0.000000e+00 0.000000e+00 0.000000e+00 0.000000e+00 0.000000e+00 0.000000e+00 0.000000e+00
<ENDHMM>
~h "tyden"
<BEGINHMM>
<NUMSTATES> 10
<STATE> 2
<MEAN> 39
 -1.260908e+01 3.269642e-01 -2.088618e+00 -1.766123e+00 -7.939144e-01 -5.955250e-01 4.511533e-01 -1.268665e+00 3.771429e-02 -4.613704e-01 8.056744e-01 3.029072e-01 3.396492e+01 3.311441e-01 5.121477e-01 1.126066e+00 2.302599e-01 -8.931631e-02 -3.305002e-01 5.360469e-01 -6.128917e-01 1.171809e-01 -1.283463e-01 -1.098983e-01 -2.146831e-01 3.698009e+00 1.824316e-01 7.228316e-02 4.581384e-01 2.799472e-01 -1.634793e-01 -1.474463e-01 -2.498531e-02 -1.802945e-01 -2.456727e-02 -3.022802e-01 -1.384413e-01 8.523799e-03 2.325831e-01
<VARIANCE> 39
 2.453566e+00 6.298802e+00 7.358159e+00 1.229254e+01 9.325687e+00 7.697860e+00 1.012720e+01 7.874777e+00 3.209614e+00 6.144761e+00 4.187243e+00 3.619126e+00 1.714333e+02 6.625096e-01 1.489531e+00 2.124715e+00 2.733496e+00 1.327076e+00 1.374043e+00 7.616416e-01 8.627384e-01 4.484235e-01 1.004909e+00 6.933476e-01 3.771963e-01 1.164065e+01 1.206604e-01 3.046562e-01 2.001917e-01 4.077578e-01 2.715836e-01 2.860385e-01 3.101321e-01 1.712237e-01 1.156320e-01 3.668159e-01 1.254616e-01 1.179588e-01 3.272946e+00
<GCONST> 8.317242e+01
<STATE> 3
<MEAN> 39
 -8.033395e+00 3.053598e+00 8.845636e+00 2.521776e+00 -4.624354e+00 -4.913221e+00 -6.135885e-02 -5.305345e+00 -4.585422e-01 -8.154192e+00 -1.913737e+00 1.399945e+00 4.695533e+01 5.755829e-01 -5.494782e-02 1.432811e+00 1.899875e-01 -5.383145e-01 -3.640475e-01 -9.722700e-01 -2.731507e-01 8.524752e-02 -2.217942e+00 -3.835311e-01 9.432812e-01 5.548523e-02 -3.470542e-01 -4.260127e-02 -3.540714e-01 -4.437985e-01 2.434779e-01 2.303789e-01 -4.602751e-02 3.276239e-02 -1.383554e-02 2.496518e-01 1.505588e-01 5.486826e-03 -1.987249e-01
<VARIANCE> 39
 7.349272e+00 9.195298e+00 4.307821e+01 6.272410e+00 7.216744e+00 1.136817e+01 9.650319e+00 1.838840e+01 4.081013e+00 4.215380e+01 7.261212e+00 6.595385e+00 1.197140e+02 1.080699e+00 1.049178e+00 2.463166e+00 8.147584e-01 1.107289e+00 2.003478e+00 1.083983e+00 9.709018e-01 7.511745e-01 3.174937e+00 9.391552e-01 3.340361e-01 4.880749e-01 1.264583e-01 3.449290e-01 4.889865e-01 1.977387e-01 1.926878e-01 3.591599e-01 3.123612e-01 4.830126e-01 1.615514e-01 6.882177e-01 1.208175e-01 1.566754e-01 5.040626e-01
<GCONST> 8.866084e+01
<STATE> 4
<MEAN> 39
 -8.728519e+00 9.249904e+00 1.463636e+01 3.221391e-01 -4.221450e+00 -7.168936e+00 2.401824e-01 -3.079945e+00 -6.571006e-01 -1.324634e+01 -3.100139e+00 4.622397e+00 4.726359e+01 -9.153964e-02 1.342710e-01 1.746074e-01 -7.432731e-02 6.846105e-02 -1.856047e-01 9.066357e-02 1.115559e-01 -8.955859e-02 7.445244e-02 4.319694e-02 6.040279e-03 3.773421e-04 3.818598e-02 -6.846173e-02 9.944627e-03 3.674622e-02 -4.713978e-02 -4.559432e-02 -4.339703e-03 -2.789130e-02 -4.776873e-02 3.971909e-02 1.767411e-03 -8.859123e-02 5.200641e-02
<VARIANCE> 39
 2.466845e+00 1.102684e+01 1.919207e+01 3.985821e+00 1.033782e+01 1.332193e+01 1.421867e+01 1.414330e+01 6.755678e+00 2.267105e+01 1.764363e+01 3.749212e+00 3.023888e+01 1.402850e-01 6.081977e-01 5.546993e-01 4.837145e-01 4.741860e-01 6.719096e-01 9.708550e-01 6.730605e-01 5.609998e-01 6.310201e-01 3.228483e-01 2.842830e-01 4.862469e-01 2.582669e-02 8.024303e-02 1.546452e-01 1.392084e-01 9.295126e-02 1.306984e-01 1.731163e-01 1.416626e-01 1.100030e-01 1.284832e-01 5.621869e-02 6.627934e-02 1.039869e-01
<GCONST> 6.243403e+01
<STATE> 5
<MEAN> 39
 -1.092184e+01 2.108742e+00 8.065020e+00 1.027538e+00 -3.454479e+00 -5.260927e+00 -2.893468e-01 -1.932309e+00 -2.106923e+00 -6.368427e+00 1.638494e-01 1.674027e+00 3.977897e+01 4.796044e-01 -5.582796e-01 1.287610e+00 3.727522e-01 -8.223059e-01 -9.717003e-01 -3.967870e-01 -1.087575e+00 -7.310054e-01 3.276755e-01 -1.762893e-01 -1.419610e+00 9.687446e-01 2.648178e-01 3.835376e-01 5.659982e-01 -4.260933e-01 -1.570296e-03 -4.121138e-01 -1.366763e-01 -1.394198e-01 2.205923e-01 3.714992e-02 -2.773785e-01 -1.569164e-01 -3.257252e-01
<VARIANCE> 39
 1.170679e+01 3.886896e+01 6.912812e+01 8.235822e+00 1.887767e+01 2.867233e+01 1.446705e+01 1.598293e+01 1.561612e+01 4.110952e+01 1.529669e+01 8.899588e+00 1.386040e+02 5.443841e-01 1.195464e+00 6.516314e+00 4.540293e+00 3.216952e+00 1.710396e+00 1.642771e+00 7.697081e+00 1.633823e+00 1.664730e+00 9.315526e-01 6.256600e-01 9.509658e+00 5.538894e-02 2.715964e-01 6.155239e-01 1.320804e+00 1.141023e+00 3.667012e-01 3.597232e-01 3.026466e-01 2.487685e-01 2.736961e-01 1.490027e-01 2.399824e-01 1.112891e+00
<GCONST> 1.086986e+02
<STATE> 6
<MEAN> 39
 -1.054838e+01 6.427795e+00 1.795852e+01 -1.656210e+01 -4.108105e+00 -1.027136e+01 -3.111367e+00 -1.066158e+01 2.779880e+00 -6.426581e+00 -3.396577e+00 -4.265183e+00 4.062949e+01 2.890955e-01 4.459903e-01 9.493631e-01 -8.153068e-01 4.070894e-01 -1.254976e-01 -5.274411e-01 3.651861e-02 3.239327e-01 1.624791e-02 -6.142198e-01 -1.550416e-01 -1.633317e-01 -5.376367e-02 -5.353115e-02 -2.967463e-01 1.886815e-01 2.300798e-01 2.556888e-01 -1.755642e-02 1.978069e-01 3.960513e-02 1.036181e-01 -2.288432e-02 1.505574e-01 -2.272872e-01
<VARIANCE> 39
 6.684624e+00 1.594737e+01 2.283011e+01 1.462936e+02 3.564787e+01 1.262215e+01 1.546293e+01 4.228378e+01 2.438955e+01 1.177816e+01 7.223155e+00 5.953799e+00 8.618870e+00 4.225309e-01 1.376726e+00 4.500367e+00 7.360168e+00 4.369607e+00 2.608747e+00 1.913711e+00 1.859603e+00 1.069123e+00 1.458420e+00 7.442964e-01 8.550736e-01 4.647974e+00 7.673518e-02 1.447903e-01 3.542799e-01 7.645807e-01 6.886975e-01 2.234883e-01 3.170921e-01 3.709961e-01 2.375840e-01 2.178553e-01 1.509307e-01 1.144334e-01 4.986657e-01
<GCONST> 9.928471e+01
<STATE> 7
<MEAN> 39
 -8.176470e+00 2.516196e+00 1.513238e+01 -9.120229e+00 -2.270955e+00 -7.606969e+00 -7.072521e+00 -4.228944e+00 -1.660632e+00 -2.888807e+00 -4.269882e+00 -1.676806e+00 4.045831e+01 3.091871e-01 -1.156477e+00 -8.603030e-01 -4.358348e-01 -5.303900e-01 -6.361461e-01 3.456231e-01 -2.173662e-01 2.418174e-01 2.593383e-01 6.503591e-01 1.585091e-01 1.411351e+00 3.901776e-02 -5.059849e-02 -2.076581e-01 -1.172192e-01 -2.280308e-01 -1.726994e-01 1.763405e-01 -1.331589e-01 1.737826e-01 -1.940538e-01 1.137853e-01 6.808456e-03 2.808616e-01
<VARIANCE> 39
 1.668746e+01 2.981388e+01 2.901470e+01 1.422930e+02 3.651475e+01 3.349027e+01 4.874812e+01 2.356350e+01 1.438597e+01 2.368351e+01 3.177265e+01 1.011401e+01 5.803027e+01 1.049982e+00 2.591779e+00 1.774945e+00 7.747196e+00 3.710428e+00 4.356642e+00 3.810759e+00 2.056220e+00 1.833535e+00 2.180215e+00 2.104980e+00 7.928817e-01 8.075065e+00 1.991869e-01 4.998412e-01 3.491586e-01 1.628089e+00 7.268729e-01 7.991326e-01 3.681684e-01 4.120280e-01 2.986830e-01 4.658926e-01 4.497021e-01 1.448410e-01 1.760355e+00
<GCONST> 1.190440e+02
<STATE> 8
<MEAN> 39
 -4.296236e+00 -5.023384e+00 4.125798e+00 -4.684794e+00 1.050795e-01 -7.334841e+00 4.444126e+00 -2.124924e+00 -9.225445e-01 -1.013563e+01 -1.482271e+00 -2.404878e+00 4.239960e+01 -2.124050e-02 2.467860e-01 -3.918956e-01 4.332072e-01 1.927197e-01 2.994425e-01 -9.712148e-02 8.298574e-02 -8.072041e-03 -5.019066e-02 -1.272650e-01 -1.121156e-03 -5.505793e-01 -5.339146e-02 2.697812e-02 2.326972e-02 -1.567130e-02 7.395066e-03 4.756556e-02 -3.549699e-02 5.079887e-02 -3.076470e-02 1.096505e-01 1.424941e-02 1.848604e-02 -9.239510e-02
<VARIANCE> 39
 1.069831e+01 2.858013e+01 1.855111e+01 8.353056e+01 2.978133e+01 2.903549e+01 6.059294e+01 4.109956e+01 3.091025e+01 2.861634e+01 2.162087e+01 1.497263e+01 5.598325e+01 5.282267e-01 1.477688e+00 1.597548e+00 3.494698e+00 1.907330e+00 1.836410e+00 2.319589e+00 3.058681e+00 1.704402e+00 2.061763e+00 8.624294e-01 7.204533e-01 8.546141e-01 6.244547e-02 2.694103e-01 2.537184e-01 6.410897e-01 3.238815e-01 3.217981e-01 4.281476e-01 5.000556e-01 2.363155e-01 2.552932e-01 1.367025e-01 1.076039e-01 1.538059e-01
<GCONST> 1.026241e+02
<STATE> 9
<MEAN> 39
 8.238965e-02 2.650932e+00 -3.656942e-01 -1.268848e+00 3.530142e-01 -5.992661e+00 -3.698380e-01 -8.236013e+00 1.083052e-01 1.829529e-01 -1.316944e+00 -1.354677e+00 4.605002e+01 -3.639308e-03 2.277897e-01 1.103373e-01 2.180731e-02 9.224211e-02 1.826634e-01 1.026179e-01 8.472924e-02 -1.035478e-01 1.225604e-01 5.008509e-02 -3.097160e-02 -4.518341e-01 -2.207475e-03 -2.708882e-04 5.598781e-02 3.058035e-02 1.817676e-02 1.119088e-02 -3.226881e-03 1.479958e-02 -3.602142e-02 -2.951243e-02 -1.387702e-03 7.122288e-03 1.708133e-03
<VARIANCE> 39
 6.705720e+00 3.124098e+01 4.192238e+01 1.121550e+01 1.829738e+01 3.401716e+01 3.821027e+01 6.731185e+01 4.819553e+01 1.811463e+01 1.133159e+01 6.194333e+00 1.016418e+02 2.743837e-01 5.897934e-01 1.861099e+00 1.005787e+00 1.133190e+00 1.316092e+00 2.432180e+00 3.806612e+00 1.484316e+00 1.379618e+00 7.926004e-01 6.365584e-01 8.217154e-01 5.465638e-02 1.083139e-01 2.761893e-01 1.882167e-01 1.972131e-01 2.203174e-01 4.261684e-01 5.900913e-01 1.968983e-01 2.236139e-01 1.364587e-01 1.072915e-01 1.129666e-01
<GCONST> 9.224267e+01
<TRANSP> 10
 0.000000e+00 1.000000e+00 0.000000e+00 0.000000e+00 0.000000e+00 0.000000e+00 0.000000e+00 0.000000e+00 0.000000e+00 0.000000e+00
 0.000000e+00 7.415131e-01 2.584869e-01 0.000000e+00 0.000000e+00 0.000000e+00 0.000000e+00 0.000000e+00 0.000000e+00 0.000000e+00
 0.000000e+00 0.000000e+00 6.461460e-01 3.538540e-01 0.000000e+00 0.000000e+00 0.000000e+00 0.000000e+00 0.000000e+00 0.000000e+00
 0.000000e+00 0.000000e+00 0.000000e+00 9.184145e-01 8.158552e-02 0.000000e+00 0.000000e+00 0.000000e+00 0.000000e+00 0.000000e+00
 0.000000e+00 0.000000e+00 0.000000e+00 0.000000e+00 4.817971e-01 5.182029e-01 0.000000e+00 0.000000e+00 0.000000e+00 0.000000e+00
 0.000000e+00 0.000000e+00 0.000000e+00 0.000000e+00 0.000000e+00 8.677178e-01 1.322822e-01 0.000000e+00 0.000000e+00 0.000000e+00
 0.000000e+00 0.000000e+00 0.000000e+00 0.000000e+00 0.000000e+00 0.000000e+00 8.939488e-01 1.060512e-01 0.000000e+00 0.000000e+00
 0.000000e+00 0.000000e+00 0.000000e+00 0.000000e+00 0.000000e+00 0.000000e+00 0.000000e+00 9.544050e-01 4.559501e-02 0.000000e+00
 0.000000e+00 0.000000e+00 0.000000e+00 0.000000e+00 0.000000e+00 0.000000e+00 0.000000e+00 0.000000e+00 9.578764e-01 4.212357e-02
 0.000000e+00 0.000000e+00 0.000000e+00 0.000000e+00 0.000000e+00 0.000000e+00 0.000000e+00 0.000000e+00 0.000000e+00 0.000000e+00
<ENDHMM>
~h "dnu"
<BEGINHMM>
<NUMSTATES> 5
<STATE> 2
<MEAN> 39
 -4.636869e+00 1.739327e+00 6.695277e+00 6.259218e+00 2.374863e-01 -5.051273e+00 -4.123807e+00 -5.292627e+00 -2.033912e+00 -4.749262e+00 -1.984913e+00 4.978979e-02 3.550477e+01 5.707644e-01 -9.686269e-02 1.540910e-01 3.351427e-01 2.261333e-03 -4.012175e-01 -1.035650e-01 -3.566417e-01 -5.086085e-02 -1.148780e-01 -1.122079e-01 -8.193174e-02 7.590706e-01 -3.534326e-02 -4.129121e-02 -1.203130e-01 -3.413489e-02 1.607463e-06 -7.439716e-03 8.320638e-02 -1.766632e-02 9.767622e-03 4.429342e-02 1.070695e-02 -2.239743e-02 -5.104785e-02
<VARIANCE> 39
 1.709620e+01 4.549461e+01 2.231104e+01 1.425227e+01 3.670768e+01 3.253146e+01 2.499922e+01 1.679934e+01 1.858060e+01 1.247884e+01 9.637397e+00 1.526530e+01 7.050383e+01 1.865559e+00 3.972259e+00 3.332215e+00 1.608086e+00 2.992706e+00 3.507866e+00 3.443212e+00 2.882260e+00 1.977104e+00 1.607329e+00 1.265710e+00 1.402382e+00 3.356005e+00 3.182904e-01 6.788239e-01 4.976586e-01 2.876972e-01 4.510866e-01 7.473919e-01 6.887028e-01 5.318298e-01 3.684431e-01 2.848852e-01 2.497846e-01 2.359582e-01 5.758193e-01
<GCONST> 1.119777e+02
<STATE> 3
<MEAN> 39
 3.281656e+00 -1.814579e+00 -2.161658e+00 8.694835e+00 -5.293026e-01 -9.399974e+00 3.796370e+00 -1.357009e+01 -5.225880e+00 -1.440089e+00 6.307897e-01 -3.591722e+00 4.411810e+01 8.638664e-02 -1.582541e-03 -4.163363e-01 -4.978786e-01 -1.473935e-02 -5.331427e-03 7.777722e-01 2.898080e-01 -6.726927e-01 8.226301e-02 1.455959e-01 -2.511263e-02 1.071065e-01 -7.279335e-03 3.492613e-02 7.423879e-02 -6.621402e-02 -7.974263e-02 -1.483832e-02 -2.964490e-02 1.423341e-01 -6.797684e-02 -3.766747e-02 -5.822347e-03 5.070272e-02 -4.603665e-04
<VARIANCE> 39
 1.079070e+01 7.600897e+00 1.404433e+01 2.576950e+01 2.537870e+01 1.155204e+01 2.036152e+01 5.368068e+01 1.725464e+01 7.763757e+00 2.007874e+01 8.670068e+00 1.820662e+01 2.474578e-01 1.400915e+00 4.981845e-01 1.256448e+00 1.729100e+00 1.146121e+00 2.150889e+00 3.154943e+00 2.071797e+00 8.659143e-01 1.834533e+00 8.803307e-01 5.701280e-01 4.686508e-02 2.395611e-01 1.135562e-01 2.669411e-01 2.947507e-01 2.006214e-01 2.649838e-01 4.073931e-01 4.171716e-01 1.502685e-01 3.278779e-01 1.437115e-01 9.587829e-02
<GCONST> 8.797578e+01
<STATE> 4
<MEAN> 39
 3.301768e+00 7.041959e+00 -3.920129e-01 -3.110577e+00 -5.638597e+00 -5.180905e+00 5.783168e+00 -2.942325e+00 -7.154603e+00 -6.590726e+00 -4.346910e+00 -4.443683e+00 3.779374e+01 -1.810431e-01 2.419380e-01 1.658130e-01 -7.356864e-02 -3.330249e-02 1.765078e-01 -1.599443e-01 1.033941e-01 2.145409e-01 -7.377133e-02 -1.023260e-01 9.423465e-03 -3.613960e-01 -3.312834e-02 -3.853849e-02 -1.014214e-02 3.395945e-02 2.786536e-02 3.955480e-02 -3.464194e-02 1.362646e-02 6.123568e-02 3.198252e-02 3.300849e-02 2.521018e-02 -1.279783e-02
<VARIANCE> 39
 3.424709e+01 3.938952e+01 1.263523e+01 2.275610e+01 3.807753e+01 1.596175e+01 4.064112e+01 1.930263e+01 2.722355e+01 1.868186e+01 3.082111e+01 1.710347e+01 2.549966e+01 1.807165e-01 3.743839e-01 3.933278e-01 6.407301e-01 8.502940e-01 6.729490e-01 1.176220e+00 1.226074e+00 1.079719e+00 7.630562e-01 7.148886e-01 6.597661e-01 6.977912e-02 1.170144e-02 3.599967e-02 5.528734e-02 7.888517e-02 1.192663e-01 1.110672e-01 1.760314e-01 1.883749e-01 1.666738e-01 9.628025e-02 9.382052e-02 9.580995e-02 6.197240e-03
<GCONST> 7.062161e+01
<TRANSP> 5
 0.000000e+00 1.000000e+00 0.000000e+00 0.000000e+00 0.000000e+00
 0.000000e+00 9.579042e-01 4.209580e-02 0.000000e+00 0.000000e+00
 0.000000e+00 0.000000e+00 9.244677e-01 7.553229e-02 0.000000e+00
 0.000000e+00 0.000000e+00 0.000000e+00 9.734821e-01 2.651789e-02
 0.000000e+00 0.000000e+00 0.000000e+00 0.000000e+00 0.000000e+00
<ENDHMM>
~h "rok"
<BEGINHMM>
<NUMSTATES> 10
<STATE> 2
<MEAN> 39
 -1.334222e+01 -2.230471e+00 -1.652754e+00 -6.205034e-01 7.290110e-01 -8.624803e-01 -1.407143e+00 -5.602503e-01 1.469681e+00 -7.466709e-01 -4.286813e-01 -4.280009e-01 2.587918e+01 4.145752e-01 2.960263e-01 2.767505e-01 1.714199e-01 5.117313e-01 -1.491341e-01 2.466374e-01 -3.368595e-01 1.294008e-01 -2.807789e-01 -1.975833e-01 -1.452468e-01 4.737514e-01 4.290700e-01 8.936928e-02 -8.564908e-02 -1.316113e-02 2.494172e-02 -1.452932e-01 8.104789e-02 -1.570600e-01 -1.345773e-02 -1.590497e-01 -6.629744e-02 2.244451e-02 3.698566e-01
<VARIANCE> 39
 1.142614e+01 2.817543e+01 1.647485e+01 1.569036e+01 1.436296e+01 1.369884e+01 2.348160e+01 5.684207e+00 1.174039e+01 8.700926e+00 4.817549e+00 4.174032e+00 1.620685e+01 2.314717e+00 4.258349e+00 2.509559e+00 2.344073e+00 2.363156e+00 1.550506e+00 3.511173e+00 8.967823e-01 1.319262e+00 1.772626e+00 6.787357e-01 3.641152e-01 3.006870e+00 6.490325e-01 9.135296e-01 5.930161e-01 5.738414e-01 4.902046e-01 4.878038e-01 7.315041e-01 1.715725e-01 2.552651e-01 3.603895e-01 2.165599e-01 8.221183e-02 9.089147e-01
<GCONST> 9.903704e+01
<STATE> 3
<MEAN> 39
 -6.755189e+00 3.391197e+00 -1.404429e+00 5.774939e-01 2.706629e+00 -2.065048e+00 1.679586e+00 -3.320891e+00 1.114531e+00 -3.479049e+00 -9.329925e-01 -1.310927e+00 2.937289e+01 4.084934e+00 1.321176e-01 -1.274528e+00 -9.388778e-01 1.994598e-01 -2.588721e+00 3.565533e-01 -9.009835e-01 4.354115e-01 -1.381217e+00 -6.061256e-01 1.203736e-01 4.085746e+00 2.342348e-01 -8.539968e-01 -6.907104e-01 -4.703831e-01 -2.663286e-01 -9.226947e-01 7.361735e-02 1.575421e-01 2.568779e-01 1.864135e-01 5.387978e-02 1.987056e-01 7.210293e-01
<VARIANCE> 39
 4.549250e+01 1.655574e+01 2.067628e+01 1.156758e+01 2.235991e+01 1.236284e+01 2.671804e+01 1.351795e+01 1.884558e+01 1.648568e+01 1.002693e+01 4.768957e+00 2.485375e+01 2.018993e+00 2.251951e+00 3.543580e+00 2.477070e+00 1.406774e+00 2.970946e+00 2.431576e+00 1.159451e+00 8.319027e-01 3.352825e+00 4.293401e+00 4.909295e-01 7.917142e-01 7.592254e-01 1.662767e-01 5.582920e-01 3.812991e-01 4.452717e-01 1.958394e-01 7.252416e-01 2.466882e-01 4.689477e-01 2.488047e-01 2.224871e-01 8.341905e-02 3.774054e-01
<GCONST> 1.009137e+02
<STATE> 4
<MEAN> 39
 5.029590e+00 -9.216480e-01 -1.083484e+01 -2.464900e+00 1.574308e+00 -1.277400e+01 2.754965e+00 -6.153199e+00 3.415881e+00 -1.489650e+00 1.954536e+00 -1.284006e+00 4.426686e+01 9.599454e-01 -1.445051e+00 -8.774502e-01 -3.755992e-01 -3.431313e-01 -1.981703e+00 5.934860e-01 -6.719187e-01 5.515492e-01 -1.442033e-01 -1.776432e-01 3.530619e-01 2.865623e+00 -7.888081e-01 -6.456603e-02 5.393746e-01 1.081914e-01 -1.177035e-02 5.925087e-01 3.370342e-02 1.479414e-01 1.037286e-01 4.008858e-02 -4.866902e-03 8.190073e-02 -4.481830e-01
<VARIANCE> 39
 2.401078e+01 1.176107e+01 1.967354e+01 1.055875e+01 8.074364e+00 2.444959e+01 1.737026e+01 1.707242e+01 3.032957e+01 3.309046e+01 3.110298e+01 4.528932e+00 3.690712e+01 2.938035e+00 1.076092e+00 3.081666e+00 1.978232e+00 1.381230e+00 3.976041e+00 1.997337e+00 1.507160e+00 1.915316e+00 2.320361e+00 1.979662e+00 4.441554e-01 1.688967e+00 4.676563e-01 3.493051e-01 3.654719e-01 4.293674e-01 2.298980e-01 4.953294e-01 4.917956e-01 2.750870e-01 3.026812e-01 4.149347e-01 3.216576e-01 1.116713e-01 1.484459e-01
<GCONST> 1.016074e+02
<STATE> 5
<MEAN> 39
 4.279701e+00 -7.020518e+00 -8.483375e+00 -2.241517e+00 2.938333e-02 -1.140680e+01 -6.740311e-01 -5.660117e+00 2.795049e+00 -1.681519e+00 1.135343e+00 7.347256e-03 5.099125e+01 1.054763e-01 -8.050098e-01 2.289163e-01 -1.963105e-01 1.357562e-01 -4.574180e-02 -2.198542e-01 5.548148e-01 -1.823409e-01 -4.296729e-02 -1.390767e-01 2.988624e-01 5.770524e-01 -1.604883e-01 9.894201e-02 4.996058e-02 -6.422556e-02 -1.866560e-03 1.626836e-01 -7.940514e-02 2.221509e-01 -1.517834e-01 7.408372e-02 2.160065e-01 -4.233822e-02 -2.140829e-01
<VARIANCE> 39
 2.161953e+01 8.149280e+00 1.666688e+01 1.441766e+01 9.380400e+00 1.149789e+01 3.117528e+01 2.673490e+01 3.042092e+01 2.596565e+01 2.944092e+01 7.446585e+00 3.382261e+01 7.817182e-01 1.058225e+00 1.334470e+00 1.883546e+00 1.213690e+00 2.235875e+00 3.795264e+00 2.447488e+00 2.439024e+00 7.021351e-01 9.041209e-01 9.050896e-01 2.822403e+00 2.427205e-01 1.086484e-01 3.206866e-01 3.129703e-01 2.767100e-01 4.315701e-01 4.326617e-01 3.639135e-01 2.240208e-01 2.791912e-01 2.977248e-01 1.476392e-01 3.472387e-01
<GCONST> 9.779202e+01
<STATE> 6
<MEAN> 39
 -5.315885e-01 -1.226850e+01 -1.858896e+00 -2.613218e+00 -3.702994e+00 -1.401268e+01 2.889918e+00 -1.788219e+00 3.147165e+00 -4.097049e+00 -3.818135e+00 9.439957e-01 4.530164e+01 7.875147e-02 -3.509344e-01 -1.906580e-02 -5.779989e-01 -1.609924e-01 2.550995e-01 1.664374e-01 -2.758051e-01 -2.808720e-01 1.047703e+00 6.815288e-02 -1.087540e-01 4.926910e-01 -5.685664e-02 2.271948e-01 -1.070389e-01 -1.587557e-01 6.684887e-02 1.399693e-01 1.007904e-01 -2.325162e-01 -7.267676e-02 4.740253e-02 -5.859648e-02 -2.321275e-02 -8.256502e-02
<VARIANCE> 39
 2.138678e+01 8.988916e+00 1.560046e+01 3.450651e+01 3.683088e+01 2.076520e+01 4.599530e+01 2.206496e+01 2.499541e+01 3.143455e+01 2.069759e+01 8.168420e+00 2.332244e+01 1.111130e+00 8.826079e-01 7.257290e-01 6.651365e+00 4.440385e+00 1.779789e+00 4.959208e+00 3.185137e+00 2.168580e+00 1.872268e+00 1.987267e+00 8.821446e-01 1.470313e+00 2.038679e-01 9.918578e-02 7.908136e-02 1.241400e+00 6.982418e-01 4.339755e-01 1.060641e+00 5.113125e-01 4.821295e-01 4.761379e-01 3.320181e-01 2.096523e-01 4.373138e-01
<GCONST> 1.074711e+02
<STATE> 7
<MEAN> 39
 -4.832908e-01 -5.057891e+00 -7.157547e+00 -1.503044e+01 1.215753e+00 -9.709888e+00 6.068624e+00 -6.003928e+00 -2.353227e+00 9.205520e-01 -1.902121e+00 4.431072e-01 4.975803e+01 -4.797653e-01 1.660339e+00 -3.185660e-01 -7.568011e-01 2.347272e-01 5.835506e-01 1.870703e-01 2.223507e-03 -6.125350e-01 -4.008518e-01 3.267840e-01 -4.497792e-01 -7.465521e-01 2.430509e-02 5.616519e-02 -1.693949e-02 4.780132e-01 -9.774373e-02 1.253607e-01 -2.531373e-01 2.289680e-01 8.147351e-03 -8.709916e-02 6.356806e-02 -9.139001e-02 -3.885819e-01
<VARIANCE> 39
 4.515495e+00 3.244567e+01 3.634389e+00 3.826992e+01 1.024723e+01 1.384506e+01 1.998640e+01 7.918761e+01 3.435152e+01 5.062478e+01 7.590574e+01 9.944276e+00 5.332808e+01 4.719304e-01 5.557013e-01 6.497643e-01 4.049874e+00 8.889012e-01 1.309410e+00 2.320807e+00 2.107948e+00 8.907952e-01 2.398903e+00 1.327292e+00 9.853685e-01 1.318881e+00 8.619600e-02 1.401998e-01 9.681995e-02 3.482194e-01 1.955732e-01 2.902248e-01 2.032695e-01 2.993351e-01 2.044258e-01 2.887112e-01 2.419767e-01 1.789799e-01 6.728601e-02
<GCONST> 9.251630e+01
<STATE> 8
<MEAN> 39
 -6.543655e+00 5.960698e-01 -8.472161e+00 -8.628368e+00 1.882093e+00 2.047569e-01 1.080699e+00 1.772205e-01 -3.865652e+00 -4.464704e-01 1.018003e+00 -7.763901e-01 3.481453e+01 -6.342513e-01 -6.013699e-01 5.375143e-02 9.391920e-01 3.014121e-01 4.340419e-01 -9.050550e-01 3.322842e-01 3.207488e-01 6.294475e-01 -2.434701e-02 4.513064e-02 -7.483724e-01 2.236085e-02 -9.254491e-02 1.325097e-01 -5.333490e-02 1.738138e-02 -1.269126e-01 1.095662e-01 -2.641834e-02 4.454168e-02 7.803223e-02 -3.787375e-02 7.264558e-02 2.055666e-01
<VARIANCE> 39
 1.781286e+01 4.013173e+01 1.241865e+01 2.608020e+01 3.285369e+01 2.620175e+01 3.991558e+01 3.145752e+01 2.326327e+01 2.783379e+01 1.510469e+01 9.944301e+00 9.431271e+01 1.509701e+00 2.726828e+00 1.601935e+00 1.586290e+00 3.262458e+00 3.948236e+00 2.107801e+00 3.290695e+00 2.452896e+00 1.409563e+00 1.700859e+00 1.207128e+00 1.055034e+01 2.003631e-01 6.116445e-01 3.566960e-01 2.695286e-01 5.465600e-01 6.365379e-01 4.901595e-01 4.978043e-01 4.982348e-01 2.056519e-01 2.122644e-01 2.598295e-01 1.027787e+00
<GCONST> 1.130549e+02
<STATE> 9
<MEAN> 39
 -9.183245e+00 -5.906643e+00 -4.716798e+00 2.744240e+00 6.174159e+00 -4.921822e+00 -4.331837e+00 -1.328469e+00 3.095819e+00 2.018137e+00 -1.206442e+00 -1.767512e+00 3.317112e+01 6.069489e-02 1.482559e-01 3.885097e-01 3.498843e-01 -4.165419e-02 1.469870e-02 1.334074e-01 -1.367539e-03 1.303158e-01 -1.878841e-01 1.093059e-02 2.537223e-03 -3.324752e-01 8.789798e-03 2.137550e-02 -4.448874e-02 -7.668215e-02 -5.227696e-02 2.981047e-02 3.430746e-02 -6.642764e-02 -3.612064e-02 -3.026321e-02 1.322703e-02 6.081408e-03 -3.197045e-02
<VARIANCE> 39
 2.448054e+01 3.039456e+01 2.836310e+01 2.417264e+01 3.337749e+01 2.946353e+01 1.822140e+01 1.835329e+01 3.397375e+01 1.923807e+01 7.078445e+00 7.387224e+00 9.321543e+01 7.572381e-01 2.150473e+00 2.788031e+00 1.558642e+00 2.971184e+00 2.091527e+00 1.644071e+00 2.326328e+00 2.749431e+00 6.975333e-01 6.851610e-01 7.424740e-01 1.236204e+00 1.278435e-01 2.564822e-01 5.297024e-01 2.032872e-01 5.622818e-01 3.013937e-01 3.102977e-01 4.806312e-01 5.059121e-01 1.288150e-01 1.326075e-01 1.576706e-01 1.705969e-01
<GCONST> 1.001187e+02
<TRANSP> 10
 0.000000e+00 1.000000e+00 0.000000e+00 0.000000e+00 0.000000e+00 0.000000e+00 0.000000e+00 0.000000e+00 0.000000e+00 0.000000e+00
 0.000000e+00 7.975842e-01 2.024158e-01 0.000000e+00 0.000000e+00 0.000000e+00 0.000000e+00 0.000000e+00 0.000000e+00 0.000000e+00
 0.000000e+00 0.000000e+00 5.203231e-01 4.796769e-01 0.000000e+00 0.000000e+00 0.000000e+00 0.000000e+00 0.000000e+00 0.000000e+00
 0.000000e+00 0.000000e+00 0.000000e+00 6.724796e-01 3.275204e-01 0.000000e+00 0.000000e+00 0.000000e+00 0.000000e+00 0.000000e+00
 0.000000e+00 0.000000e+00 0.000000e+00 0.000000e+00 8.415844e-01 1.584157e-01 0.000000e+00 0.000000e+00 0.000000e+00 0.000000e+00
 0.000000e+00 0.000000e+00 0.000000e+00 0.000000e+00 0.000000e+00 8.675426e-01 1.324575e-01 0.000000e+00 0.000000e+00 0.000000e+00
 0.000000e+00 0.000000e+00 0.000000e+00 0.000000e+00 0.000000e+00 0.000000e+00 8.805265e-01 1.194735e-01 0.000000e+00 0.000000e+00
 0.000000e+00 0.000000e+00 0.000000e+00 0.000000e+00 0.000000e+00 0.000000e+00 0.000000e+00 9.091547e-01 9.084528e-02 0.000000e+00
 0.000000e+00 0.000000e+00 0.000000e+00 0.000000e+00 0.000000e+00 0.000000e+00 0.000000e+00 0.000000e+00 9.490581e-01 5.094190e-02
 0.000000e+00 0.000000e+00 0.000000e+00 0.000000e+00 0.000000e+00 0.000000e+00 0.000000e+00 0.000000e+00 0.000000e+00 0.000000e+00
<ENDHMM>
~h "sil"
<BEGINHMM>
<NUMSTATES> 5
<STATE> 2
<MEAN> 39
 -1.204238e+01 -1.252330e-01 -3.227813e+00 -4.048061e-01 -1.124404e+00 2.970335e-01 -1.189744e+00 -9.901989e-02 -6.205887e-01 -7.807012e-01 8.381521e-01 3.523152e-01 2.232588e+01 -1.387773e-02 -2.227837e-03 -7.229984e-03 -4.149874e-03 -1.258017e-02 1.265597e-02 1.873259e-03 1.329633e-02 7.282835e-03 1.646099e-02 1.804888e-02 3.620003e-03 -1.837369e-02 4.678709e-03 2.060394e-03 9.505245e-03 5.444949e-03 1.122919e-02 -1.901632e-03 3.354576e-03 -7.708560e-03 -2.449130e-03 -8.367642e-03 -6.143471e-03 -4.012943e-03 1.307996e-02
<VARIANCE> 39
 9.193403e+00 2.498899e+00 4.632288e+00 3.172215e+00 4.614673e+00 4.745492e+00 6.008045e+00 4.693400e+00 4.664197e+00 4.423872e+00 3.928778e+00 3.506282e+00 2.645162e+01 1.322772e-01 2.018538e-01 3.234549e-01 3.421441e-01 4.753962e-01 5.562308e-01 5.902027e-01 5.223768e-01 5.308174e-01 4.892787e-01 4.400750e-01 3.934705e-01 1.333832e-01 2.615328e-02 4.021510e-02 6.498017e-02 6.792720e-02 9.633324e-02 1.149706e-01 1.191909e-01 1.072841e-01 1.091525e-01 1.016395e-01 8.825168e-02 8.056557e-02 2.589028e-02
<GCONST> 4.515840e+01
<STATE> 3
<MEAN> 39
 -8.582037e+00 1.661489e+00 1.366014e-01 7.473199e-01 7.262551e-01 1.236011e-01 1.851885e-01 -6.609122e-01 -1.954976e-01 -9.884694e-01 5.682567e-01 -1.546139e-01 2.219436e+01 -6.716367e-01 -3.759162e-02 -1.077029e-01 1.066274e-01 8.557838e-02 1.274241e-01 -3.628878e-02 9.545295e-03 1.422095e-01 2.712849e-02 6.688686e-02 5.596510e-02 1.002566e+00 3.335585e-02 1.924518e-03 -3.189105e-02 -2.024303e-02 -1.359797e-02 -3.048125e-02 -8.023693e-03 -2.199513e-02 -3.694420e-02 -8.247825e-03 -1.931429e-02 -3.787084e-03 8.969198e-03
<VARIANCE> 39
 3.411197e+01 1.759430e+01 2.230082e+01 1.211082e+01 1.489692e+01 1.196149e+01 1.498921e+01 1.382445e+01 1.074786e+01 7.023907e+00 6.820931e+00 4.890755e+00 1.214342e+02 1.848432e+00 1.057192e+00 1.426339e+00 1.088143e+00 1.271927e+00 1.207880e+00 1.406446e+00 1.080886e+00 8.709610e-01 6.690551e-01 5.943916e-01 3.939255e-01 6.934273e+00 2.658105e-01 1.642371e-01 2.333328e-01 1.914709e-01 2.335270e-01 2.024691e-01 2.568158e-01 1.932248e-01 1.531391e-01 1.194940e-01 1.096992e-01 8.301041e-02 1.154345e+00
<GCONST> 8.787209e+01
<STATE> 4
<MEAN> 39
 -1.146378e+01 9.710841e-01 -1.467946e+00 6.017110e-01 -4.979110e-02 4.742733e-01 -3.971589e-01 -2.971301e-01 -2.582448e-01 -7.378554e-01 7.500664e-01 2.864791e-01 2.447334e+01 -7.316627e-03 -2.179154e-02 -2.065788e-02 -2.738258e-02 -1.788741e-02 -2.070909e-02 -1.380909e-02 -3.395747e-02 -3.424503e-02 -9.354736e-03 -8.472565e-03 4.307177e-03 2.479644e-03 2.306005e-02 1.280791e-02 2.350561e-02 3.255798e-03 9.298238e-03 -2.145060e-02 1.078552e-03 -2.020513e-02 -1.442651e-02 -2.164450e-02 -1.355529e-02 -6.909649e-03 2.820998e-02
<VARIANCE> 39
 8.294054e+00 8.888761e+00 1.762184e+01 8.072278e+00 1.077966e+01 8.008852e+00 9.618780e+00 7.596884e+00 6.233319e+00 5.586100e+00 4.869668e+00 4.298852e+00 6.781048e+00 1.498985e-01 2.558978e-01 4.395746e-01 4.091842e-01 6.026820e-01 6.909663e-01 7.830523e-01 6.914858e-01 6.118643e-01 5.828102e-01 5.265563e-01 4.720777e-01 1.675581e-01 4.005275e-02 5.709249e-02 8.986931e-02 8.368252e-02 1.184035e-01 1.394860e-01 1.532155e-01 1.405962e-01 1.289753e-01 1.277446e-01 1.099356e-01 9.589621e-02 3.316171e-02
<GCONST> 5.653854e+01
<TRANSP> 5
 0.000000e+00 1.000000e+00 0.000000e+00 0.000000e+00 0.000000e+00
 0.000000e+00 9.582200e-01 4.177998e-02 0.000000e+00 0.000000e+00
 0.000000e+00 0.000000e+00 6.547482e-01 3.452517e-01 0.000000e+00
 0.000000e+00 0.000000e+00 0.000000e+00 9.087217e-01 9.127831e-02
 0.000000e+00 0.000000e+00 0.000000e+00 0.000000e+00 0.000000e+00
<ENDHMM>
~h "zobraz"
<BEGINHMM>
<NUMSTATES> 10
<STATE> 2
<MEAN> 39
 -1.297724e+01 6.048837e+00 4.453025e+00 -4.257085e+00 4.014542e+00 -2.083129e+00 -7.760231e+00 -4.353878e+00 -3.315822e-01 1.866237e-01 -1.230180e+00 -2.419717e+00 4.660773e+01 5.981927e-02 1.004897e-01 1.811619e-01 -3.742897e-01 1.869858e-01 -2.990746e-02 -3.288568e-01 -3.160443e-01 -1.886330e-01 3.051060e-03 3.606539e-02 -3.703285e-02 9.399711e-01 1.060870e-01 -3.885886e-02 -5.997202e-02 -5.554377e-03 -5.991649e-02 -1.462273e-02 4.764321e-02 -2.984752e-02 -2.594211e-02 -3.290649e-03 2.857736e-02 2.429742e-02 -2.125949e-02
<VARIANCE> 39
 3.152412e+01 2.010292e+01 1.433615e+01 1.903396e+01 1.487105e+01 3.997792e+01 3.386521e+01 3.224527e+01 1.438515e+01 5.983243e+00 6.558022e+00 4.872605e+00 7.758588e+01 3.216012e+00 1.345135e+00 1.743513e+00 1.005430e+00 8.765607e-01 1.384665e+00 1.275312e+00 8.161873e-01 1.235167e+00 8.511180e-01 4.195200e-01 3.931609e-01 2.594138e+00 5.288318e-01 3.068726e-01 3.746026e-01 1.785181e-01 1.460375e-01 2.500857e-01 2.312212e-01 1.395250e-01 2.567238e-01 1.397593e-01 7.769209e-02 5.477114e-02 3.938273e-01
<GCONST> 8.986690e+01
<STATE> 3
<MEAN> 39
 -1.143166e+01 4.345009e+00 -1.364085e+00 -3.820657e+00 3.111280e+00 -5.101657e+00 -6.122241e-01 -7.099700e+00 2.353288e-01 -2.690562e+00 -9.541514e-01 -3.052492e-01 3.771740e+01 1.703791e+00 4.241370e-01 -6.972203e-01 -2.681228e-01 -3.803430e-01 -1.386867e+00 4.393912e-01 -1.136796e+00 -2.247431e-01 -4.617202e-02 -6.637052e-01 -2.129594e-01 1.204164e+00 2.324147e-01 -8.378203e-02 -1.677867e-01 -1.182930e-01 -2.750851e-01 -1.093219e-01 2.434481e-01 8.825506e-02 1.740829e-01 1.147452e-01 -1.779722e-01 8.823040e-02 1.238255e-01
<VARIANCE> 39
 4.213969e+01 6.454870e+00 2.420172e+01 2.052027e+01 1.890652e+01 5.570672e+01 7.234830e+01 2.139571e+01 3.542568e+01 8.870099e+00 2.771986e+01 5.568467e+00 1.450173e+02 4.436292e+00 1.401361e+00 1.519677e+00 9.859194e-01 1.836249e+00 2.273629e+00 3.966743e+00 2.358116e+00 1.990706e+00 1.095630e+00 1.495216e+00 7.010891e-01 7.921584e-01 3.701769e-01 1.291383e-01 1.711832e-01 1.794457e-01 3.162515e-01 3.359561e-01 5.465105e-01 5.802449e-01 4.120215e-01 1.395120e-01 1.895993e-01 1.457303e-01 1.302338e-01
<GCONST> 1.016543e+02
<STATE> 4
<MEAN> 39
 -6.341176e+00 7.645258e+00 -2.665104e+00 2.483416e-02 4.550586e+00 -1.467339e+01 1.545098e-01 -8.237374e+00 1.671287e+00 -4.383209e+00 -6.755021e+00 -1.070872e-02 4.078202e+01 4.081112e-01 -2.060603e-01 -4.769409e-01 -5.230987e-01 -1.018760e-01 -6.818551e-01 7.700472e-01 -6.035153e-01 4.039623e-01 -1.570562e-02 -9.802094e-02 4.372678e-01 8.580955e-01 -5.959472e-02 -2.120353e-01 6.846553e-02 -2.766791e-01 -5.688309e-03 1.040406e-01 5.661708e-02 1.285146e-01 7.595513e-02 -1.244465e-01 7.154012e-02 7.962164e-02 -1.023041e-01
<VARIANCE> 39
 3.059711e+01 2.295120e+01 1.358192e+01 5.051552e+01 2.179519e+01 5.074034e+01 2.243122e+01 2.088944e+01 2.618043e+01 2.464419e+01 2.343237e+01 7.792170e+00 4.631732e+01 4.295940e+00 2.474384e+00 1.981921e+00 3.674947e+00 2.374646e+00 2.118494e+00 4.395127e+00 1.546156e+00 2.809918e+00 2.392330e+00 9.133884e-01 8.427209e-01 9.183028e-01 5.623365e-01 3.514964e-01 3.991706e-01 3.872848e-01 1.744969e-01 4.106266e-01 5.893903e-01 2.783940e-01 5.283052e-01 4.979585e-01 2.293241e-01 1.451588e-01 1.468568e-01
<GCONST> 1.082849e+02
<STATE> 5
<MEAN> 39
 -3.414749e-01 1.586969e+00 -2.323450e+00 -9.410391e+00 3.272018e+00 -8.646583e+00 -1.465059e+00 -1.202483e+01 9.411313e-02 -4.379815e+00 -4.596224e+00 -4.522337e-01 4.296877e+01 4.568167e-01 2.373034e-01 3.806335e-01 3.026838e-01 -2.991600e-01 5.652878e-01 1.936555e-03 -1.453000e-01 -4.168404e-01 8.724441e-02 2.193827e-01 -2.966101e-01 -7.096087e-01 -1.714774e-01 1.585035e-01 1.056801e-01 3.410023e-01 1.260301e-01 4.138446e-02 -1.163685e-01 1.196700e-01 -4.175853e-02 5.009666e-02 -3.475861e-02 -1.364588e-01 -2.092999e-01
<VARIANCE> 39
 4.737026e+00 2.851492e+01 1.687690e+01 6.212341e+01 2.963033e+01 4.832454e+01 4.172335e+01 1.191143e+01 3.661387e+01 1.663598e+01 1.908074e+01 1.776085e+01 5.660086e+01 7.150060e-01 2.198763e+00 1.258042e+00 5.110830e+00 8.375699e-01 2.053853e+00 2.594024e+00 1.038887e+00 1.918579e+00 9.938954e-01 1.016944e+00 9.706731e-01 1.229681e+00 9.287840e-02 2.508076e-01 2.265856e-01 5.891842e-01 2.445303e-01 2.518440e-01 3.722144e-01 2.057959e-01 3.142830e-01 1.369722e-01 1.189571e-01 2.193667e-01 2.008981e-01
<GCONST> 9.844743e+01
<STATE> 6
<MEAN> 39
 4.189622e-02 7.248479e+00 3.491965e+00 -1.442429e+00 1.590300e+00 -1.650346e+00 2.282393e+00 -7.122737e+00 -4.125302e+00 -4.849244e+00 -3.248241e+00 -2.558385e+00 3.614162e+01 -4.794158e-01 -7.326416e-01 4.649097e-01 5.139233e-01 6.401816e-01 -5.459263e-02 -2.080156e-01 9.274352e-01 4.701913e-01 -3.697729e-01 -2.301506e-01 -3.345311e-06 -3.194528e-01 1.798161e-02 -4.550566e-01 -3.670185e-01 -5.307312e-01 -1.601588e-01 -2.632879e-01 5.806518e-02 -1.563161e-01 2.921371e-01 8.935875e-02 9.428652e-02 2.343040e-01 7.630365e-01
<VARIANCE> 39
 9.515304e+00 1.631201e+01 2.361648e+01 4.886971e+01 2.104044e+01 1.703140e+01 4.480628e+01 2.746170e+01 1.653787e+01 1.767373e+01 1.047766e+01 6.647200e+00 3.983374e+01 8.459960e-01 4.907144e+00 3.148089e+00 6.696631e+00 2.107192e+00 2.823787e+00 2.758914e+00 2.529778e+00 2.251601e+00 1.564642e+00 1.857317e+00 1.221143e+00 8.787427e+00 2.442587e-01 5.069227e-01 4.750313e-01 6.439000e-01 3.461389e-01 4.577023e-01 4.685155e-01 4.604826e-01 3.232540e-01 3.178427e-01 2.760916e-01 1.350027e-01 6.003312e-01
<GCONST> 1.101005e+02
<STATE> 7
<MEAN> 39
 6.514517e-01 -6.472181e+00 -1.111510e+00 -4.934342e+00 -2.996754e+00 -9.478718e+00 6.342614e-02 -5.244433e+00 3.911828e+00 -3.951425e+00 1.380965e-01 4.673403e-01 4.746339e+01 6.474729e-01 -1.403464e+00 -5.679923e-01 -1.998795e-02 -1.277706e+00 -5.725245e-01 -2.515470e-01 5.491059e-01 2.184187e-01 2.091227e-01 8.006052e-01 4.035287e-02 1.154062e+00 -2.177547e-02 2.896815e-01 2.325842e-01 2.438519e-01 1.174227e-01 2.381256e-01 -8.166442e-02 5.803604e-02 -3.225500e-01 4.086006e-02 -2.238591e-02 -1.492191e-01 -4.408672e-01
<VARIANCE> 39
 1.360809e+01 1.946674e+01 2.092337e+01 4.564958e+01 3.001298e+01 2.681508e+01 2.458299e+01 4.218067e+01 2.392232e+01 2.333178e+01 3.321536e+01 5.482995e+00 2.365829e+01 1.870873e+00 1.468775e+00 3.367820e+00 7.088317e+00 2.707783e+00 2.968707e+00 2.983134e+00 6.206025e+00 3.925733e+00 3.455647e+00 2.122935e+00 1.069725e+00 5.485543e+00 4.614400e-01 2.453860e-01 5.663350e-01 1.735878e+00 8.180711e-01 4.358176e-01 6.083543e-01 1.403786e+00 6.867269e-01 5.429602e-01 5.274079e-01 1.801908e-01 8.886086e-01
<GCONST> 1.199195e+02
<STATE> 8
<MEAN> 39
 -3.169757e-02 -5.427871e+00 -4.782754e+00 -7.349399e+00 3.978542e-01 -7.569377e+00 2.820621e+00 -4.402933e+00 6.923428e-01 8.118926e-01 8.670160e-01 -1.345181e+00 5.016233e+01 -8.140584e-01 4.674502e-01 -5.533586e-02 -4.522828e-01 8.546900e-01 2.532800e-01 6.304362e-01 -1.788319e-01 1.861082e-01 -1.674299e-01 -4.665486e-01 1.004606e-01 1.185928e-02 -1.862871e-01 9.587426e-02 -1.887892e-02 1.112868e-01 8.057885e-02 -1.211712e-02 5.502276e-02 -1.489350e-02 3.423562e-02 -1.024936e-01 9.336895e-03 5.095277e-02 -3.052902e-02
<VARIANCE> 39
 1.868438e+01 4.093136e+01 4.260836e+01 2.944998e+01 4.598381e+01 3.990298e+01 4.002495e+01 1.804102e+01 2.440002e+01 4.314955e+01 2.449213e+01 1.170033e+01 3.518954e+01 1.485249e+00 1.621309e+00 3.302514e+00 3.476230e+00 3.564993e+00 2.909420e+00 4.707405e+00 2.071727e+00 1.380422e+00 1.532149e+00 9.501663e-01 8.539055e-01 1.153114e+00 2.445982e-01 2.887858e-01 4.867626e-01 4.725620e-01 6.294082e-01 5.609083e-01 7.622973e-01 3.373433e-01 2.331854e-01 2.840627e-01 2.273625e-01 2.010003e-01 1.862116e-01
<GCONST> 1.103449e+02
<STATE> 9
<MEAN> 39
 -1.378157e+01 -1.786775e+00 -2.792127e+00 -3.454127e+00 3.587851e+00 -5.657159e+00 4.081106e+00 -2.533123e+00 1.876025e+00 -1.784505e+00 -9.828106e-01 6.254938e-01 4.226134e+01 -2.320808e-01 1.913077e-01 2.958043e-02 2.417666e-01 6.977451e-02 2.078967e-01 -1.066202e-01 1.174572e-01 -8.588648e-02 9.582475e-02 7.774475e-02 -2.843726e-03 -5.045036e-01 6.501342e-02 -1.466665e-04 1.935752e-02 -1.266980e-02 -3.392424e-02 2.147667e-02 -2.589422e-02 -1.834441e-02 -1.717545e-02 1.221803e-02 -7.220574e-03 -7.297494e-03 -2.338122e-02
<VARIANCE> 39
 4.863518e+01 3.560217e+01 1.687583e+01 4.476879e+01 3.843760e+01 3.176655e+01 2.609409e+01 1.818292e+01 1.434088e+01 2.438124e+01 1.850834e+01 8.399099e+00 8.024730e+01 1.317212e+00 1.084108e+00 9.057968e-01 1.509933e+00 1.744197e+00 2.140545e+00 1.471135e+00 1.373722e+00 1.178904e+00 9.861378e-01 9.534897e-01 6.214625e-01 5.646991e-01 1.360777e-01 1.850714e-01 1.974173e-01 2.805145e-01 3.260303e-01 3.973995e-01 3.271303e-01 2.708272e-01 2.208668e-01 1.767479e-01 1.770815e-01 1.265548e-01 6.448024e-02
<GCONST> 9.524036e+01
<TRANSP> 10
 0.000000e+00 1.000000e+00 0.000000e+00 0.000000e+00 0.000000e+00 0.000000e+00 0.000000e+00 0.000000e+00 0.000000e+00 0.000000e+00
 0.000000e+00 9.248012e-01 7.519876e-02 0.000000e+00 0.000000e+00 0.000000e+00 0.000000e+00 0.000000e+00 0.000000e+00 0.000000e+00
 0.000000e+00 0.000000e+00 6.664001e-01 3.336000e-01 0.000000e+00 0.000000e+00 0.000000e+00 0.000000e+00 0.000000e+00 0.000000e+00
 0.000000e+00 0.000000e+00 0.000000e+00 8.380004e-01 1.619997e-01 0.000000e+00 0.000000e+00 0.000000e+00 0.000000e+00 0.000000e+00
 0.000000e+00 0.000000e+00 0.000000e+00 0.000000e+00 8.977152e-01 1.022848e-01 0.000000e+00 0.000000e+00 0.000000e+00 0.000000e+00
 0.000000e+00 0.000000e+00 0.000000e+00 0.000000e+00 0.000000e+00 8.582659e-01 1.417341e-01 0.000000e+00 0.000000e+00 0.000000e+00
 0.000000e+00 0.000000e+00 0.000000e+00 0.000000e+00 0.000000e+00 0.000000e+00 8.719362e-01 1.280638e-01 0.000000e+00 0.000000e+00
 0.000000e+00 0.000000e+00 0.000000e+00 0.000000e+00 0.000000e+00 0.000000e+00 0.000000e+00 9.072591e-01 9.274088e-02 0.000000e+00
 0.000000e+00 0.000000e+00 0.000000e+00 0.000000e+00 0.000000e+00 0.000000e+00 0.000000e+00 0.000000e+00 9.674311e-01 3.256886e-02
 0.000000e+00 0.000000e+00 0.000000e+00 0.000000e+00 0.000000e+00 0.000000e+00 0.000000e+00 0.000000e+00 0.000000e+00 0.000000e+00
<ENDHMM>
~h "v-intervalu"
<BEGINHMM>
<NUMSTATES> 10
<STATE> 2
<MEAN> 39
 -6.958822e+00 1.763192e+00 -7.350818e-01 -4.967138e-01 2.484047e+00 -2.739339e-01 1.471172e+00 -3.039223e+00 -1.164461e+00 -2.024979e+00 2.662817e-02 -2.002755e-01 3.567303e+01 4.871573e-01 1.407788e-01 2.326693e-01 -2.927964e-02 1.556849e-02 -5.804466e-01 9.440765e-02 -4.785184e-01 -8.757387e-02 4.904816e-02 6.717487e-02 1.120517e-01 1.095851e+00 8.901785e-02 -4.965707e-02 -1.645158e-02 -5.807890e-02 -1.077254e-01 -1.617448e-01 -5.176111e-02 -1.119266e-01 2.897523e-02 7.851172e-02 7.330602e-02 2.081707e-02 2.473362e-02
<VARIANCE> 39
 4.530812e+01 1.646307e+01 1.730573e+01 1.119818e+01 1.322572e+01 1.797680e+01 1.263638e+01 1.860554e+01 1.228732e+01 1.097094e+01 1.171310e+01 6.343601e+00 9.308382e+01 3.986408e+00 1.672692e+00 2.030554e+00 1.556535e+00 1.674717e+00 2.380941e+00 1.883911e+00 2.684659e+00 1.290261e+00 1.675384e+00 1.629751e+00 9.302839e-01 1.518092e+00 6.127201e-01 3.012819e-01 3.814576e-01 3.367825e-01 3.025962e-01 4.246996e-01 2.973393e-01 4.615835e-01 2.557596e-01 3.112705e-01 2.500242e-01 1.668446e-01 2.842306e-01
<GCONST> 1.011472e+02
<STATE> 3
<MEAN> 39
 -5.373522e+00 -5.036569e-01 -2.871727e+00 -4.127817e+00 -2.967769e-01 -5.160861e+00 -1.179551e+00 -6.904387e+00 6.731170e-02 4.284493e-01 5.778912e-01 7.590687e-01 3.608853e+01 1.388029e-01 -4.402975e-01 -2.835809e-01 -4.696622e-01 -6.966069e-01 -6.828706e-01 2.336453e-02 -3.072965e-02 1.899512e-01 2.142666e-01 1.527297e-01 3.294353e-01 -1.445799e-01 -9.883381e-02 1.486843e-02 1.790744e-02 2.474256e-03 -4.704081e-02 2.221197e-01 -1.884172e-01 9.367949e-02 5.428585e-02 -1.976991e-02 -1.705681e-02 -9.180475e-02 -1.412364e-01
<VARIANCE> 39
 3.673627e+01 8.366735e+00 1.412474e+01 2.986221e+01 1.893072e+01 3.104508e+01 5.496478e+01 6.028992e+01 1.536048e+01 9.696547e+00 1.377062e+01 1.269587e+01 1.357622e+02 1.119850e+00 6.596116e-01 9.964921e-01 1.809618e+00 1.938854e+00 3.229592e+00 2.247911e+00 2.390842e+00 8.532807e-01 1.080210e+00 1.466364e+00 1.230706e+00 2.151355e+00 2.262634e-01 1.072598e-01 2.390843e-01 2.562667e-01 3.443176e-01 4.295275e-01 4.650909e-01 5.019797e-01 1.709657e-01 1.905943e-01 2.757797e-01 2.467782e-01 2.787743e-01
<GCONST> 1.008222e+02
<STATE> 4
<MEAN> 39
 -7.041906e+00 -2.079001e+00 -2.906028e+00 -4.016415e+00 -5.641648e+00 -8.751537e+00 -2.904060e+00 -5.765714e+00 9.249508e-01 1.616836e+00 3.103496e+00 1.984174e+00 3.321205e+01 -1.895874e-01 5.925624e-02 5.878755e-01 4.553905e-01 -1.635766e-01 3.574398e-01 -4.909950e-01 3.626032e-01 8.124593e-02 -8.555117e-01 -1.200483e-01 -2.975345e-01 -1.641985e-01 -2.110407e-03 6.311813e-03 3.200998e-01 -1.326832e-01 1.186046e-01 4.124913e-02 1.951854e-01 -1.061824e-01 -8.240750e-02 -2.191144e-01 -1.010714e-01 -1.112442e-01 4.451066e-01
<VARIANCE> 39
 2.592708e+01 9.681748e+00 1.532607e+01 2.976070e+01 2.488573e+01 4.929595e+01 2.214009e+01 5.730240e+01 1.333595e+01 5.547543e+01 2.550483e+01 9.945999e+00 1.005646e+02 2.345091e+00 1.175704e+00 2.349225e+00 2.404128e+00 4.383296e+00 5.288264e+00 2.735146e+00 2.181480e+00 1.737778e+00 5.532423e+00 3.201154e+00 1.655779e+00 1.077758e+01 4.491642e-01 2.654791e-01 3.781005e-01 6.487518e-01 9.487497e-01 1.262993e+00 5.739116e-01 3.090261e-01 3.051656e-01 9.219229e-01 7.265624e-01 3.595037e-01 1.358222e+00
<GCONST> 1.209349e+02
<STATE> 5
<MEAN> 39
 -5.317088e+00 -2.313356e+00 6.344887e+00 6.819797e-02 -7.061415e+00 -8.893555e+00 -7.240058e-01 -3.583435e+00 -5.254000e-01 -1.033013e+01 1.872125e+00 -8.623816e-01 4.613067e+01 4.879749e-01 1.795912e-01 7.611687e-01 -6.060789e-01 2.941697e-01 8.993962e-03 1.265886e+00 -9.131513e-01 -1.084258e+00 -1.556791e-01 -3.051949e-01 -3.999459e-01 1.193247e+00 6.536856e-02 7.131957e-02 -1.946852e-01 5.102187e-03 1.407419e-01 4.575636e-02 1.869518e-01 -2.347882e-01 -2.032038e-01 3.495321e-01 -4.207199e-02 6.308775e-02 -3.759180e-01
<VARIANCE> 39
 2.515966e+01 1.017646e+01 3.419207e+01 5.681100e+01 1.447846e+01 2.126915e+01 3.695359e+01 2.299876e+01 1.664048e+01 2.791291e+01 1.736667e+01 8.305264e+00 1.090005e+02 6.393489e-01 1.454369e+00 5.251026e+00 6.921872e+00 1.285514e+00 2.400220e+00 3.015869e+00 3.293394e+00 1.641436e+00 3.198937e+00 1.254906e+00 7.649441e-01 7.455987e+00 1.710364e-01 2.599377e-01 5.929815e-01 7.012891e-01 2.483281e-01 4.707872e-01 3.809217e-01 5.107400e-01 2.439885e-01 3.672059e-01 1.650198e-01 1.492804e-01 8.711441e-01
<GCONST> 1.096143e+02
<STATE> 6
<MEAN> 39
 -5.683785e+00 1.556369e+00 5.316807e+00 -2.108773e+00 -8.094234e-01 -4.107638e+00 1.999622e+00 -9.375568e+00 -6.282000e+00 -3.708418e+00 -5.742081e-01 -2.297015e+00 3.619637e+01 -3.014548e-01 -1.490229e-01 -3.639196e-01 -2.429739e-02 1.150763e-01 -1.210745e-01 -2.579981e-01 2.489624e-01 3.998322e-01 7.642178e-02 4.588656e-03 7.740368e-02 1.374030e-01 4.932643e-02 -4.165512e-02 -6.058738e-02 9.631608e-03 -8.571126e-02 -9.565146e-02 -9.923154e-02 1.067873e-01 1.321800e-01 -4.688914e-02 2.223219e-02 5.315509e-02 1.564292e-01
<VARIANCE> 39
 3.476804e+01 2.156194e+01 2.622055e+01 9.378127e+01 1.328231e+01 1.595093e+01 5.313700e+01 3.885164e+01 3.164766e+01 1.708694e+01 2.333344e+01 7.155823e+00 5.507800e+01 2.111869e+00 2.162102e+00 2.365021e+00 4.278142e+00 1.769913e+00 2.406579e+00 4.012748e+00 3.295295e+00 2.702294e+00 2.516427e+00 2.377299e+00 8.348523e-01 7.634209e+00 3.519886e-01 3.038308e-01 4.199324e-01 6.155313e-01 3.297107e-01 3.503572e-01 6.008492e-01 4.719194e-01 3.445646e-01 4.175594e-01 4.286132e-01 1.693004e-01 9.777330e-01
<GCONST> 1.154199e+02
<STATE> 7
<MEAN> 39
 -6.226425e+00 -5.933413e+00 1.773350e+00 -6.257549e+00 -5.135073e+00 -9.275033e+00 2.062847e+00 -3.650155e+00 2.216842e+00 -6.148130e+00 -2.354483e+00 9.872506e-01 4.181884e+01 8.197232e-01 -2.612860e-01 -2.951979e-01 3.022818e-02 -4.112846e-01 -4.586974e-02 -2.271763e-01 -2.110495e-01 3.102056e-01 1.358401e-01 -9.137329e-02 -7.556121e-02 4.347890e-01 -7.587180e-02 1.078276e-02 -1.129022e-01 8.520341e-02 1.551783e-01 1.340340e-01 -2.664077e-02 1.616979e-02 -1.921518e-02 1.057487e-01 -6.681273e-03 -8.101609e-02 -3.322727e-01
<VARIANCE> 39
 9.159294e+00 3.039640e+01 1.974540e+01 3.997076e+01 2.334477e+01 5.041683e+01 3.562192e+01 2.941392e+01 1.256437e+01 2.818246e+01 7.884988e+00 1.657001e+01 6.706141e+01 1.780303e+00 1.479146e+00 1.884498e+00 3.629029e+00 2.363933e+00 2.736828e+00 2.065982e+00 1.169260e+00 1.266806e+00 1.431460e+00 9.303222e-01 1.107672e+00 3.044299e+00 3.242304e-01 2.208702e-01 3.214307e-01 4.333998e-01 4.509790e-01 5.014738e-01 3.329559e-01 2.593388e-01 1.526538e-01 3.244029e-01 1.480152e-01 1.564976e-01 4.435596e-01
<GCONST> 1.042018e+02
<STATE> 8
<MEAN> 39
 8.081365e-02 -5.363642e+00 -4.275463e+00 -5.993692e+00 -1.938226e+00 -8.684872e+00 -2.333868e-02 -5.568470e+00 2.189512e+00 -2.341272e+00 1.073862e+00 3.530264e-01 4.873437e+01 1.226526e-01 1.885128e-01 -3.160027e-01 -3.663524e-01 3.440347e-01 2.795053e-01 2.399168e-01 -1.644614e-01 -2.403567e-01 1.787800e-01 -5.113708e-02 1.235713e-01 -1.465592e-01 -7.445446e-02 3.130242e-02 3.238872e-02 -8.410603e-03 1.967782e-02 8.472303e-02 1.275681e-02 -1.972918e-02 -4.783608e-02 9.673560e-03 2.566176e-04 2.478883e-02 3.084751e-03
<VARIANCE> 39
 1.197240e+01 2.206715e+01 1.135760e+01 2.865889e+01 1.798434e+01 1.483767e+01 3.607671e+01 1.582658e+01 2.208223e+01 2.037334e+01 2.138515e+01 2.232299e+01 1.018340e+02 5.633652e-01 1.826212e+00 1.160712e+00 2.589970e+00 1.839329e+00 7.418971e-01 1.212647e+00 1.277946e+00 1.548493e+00 1.389441e+00 7.943274e-01 1.290404e+00 2.973002e+00 1.111560e-01 2.341527e-01 2.477668e-01 4.586546e-01 3.050452e-01 1.551003e-01 1.882909e-01 1.987729e-01 3.049884e-01 1.610969e-01 1.487029e-01 2.121987e-01 4.860677e-01
<GCONST> 9.628201e+01
<STATE> 9
<MEAN> 39
 -1.016151e+00 3.755985e-01 -4.452541e+00 -1.045019e+01 -3.268705e+00 -1.055142e+00 2.256451e+00 -8.401154e+00 -1.452952e+00 -1.791329e+00 -1.572120e+00 3.045703e-01 4.143321e+01 -1.713406e-01 2.403857e-01 2.189609e-01 2.674404e-01 3.752092e-02 1.538495e-01 9.848794e-03 1.464560e-01 -1.441448e-01 -9.271069e-02 1.869252e-02 -6.666024e-02 -4.903019e-01 -2.718291e-02 -1.830841e-02 1.625945e-02 4.264130e-02 -1.040490e-02 -1.178854e-02 -2.753252e-03 2.944052e-02 1.562456e-02 1.215236e-05 3.598795e-02 1.529831e-02 -4.831122e-02
<VARIANCE> 39
 1.023596e+01 3.911928e+01 1.498134e+01 3.468778e+01 2.330914e+01 1.585725e+01 4.052723e+01 2.146162e+01 3.205684e+01 1.499117e+01 2.283444e+01 1.244150e+01 1.151936e+02 5.196514e-01 9.189383e-01 9.959931e-01 1.265747e+00 1.573473e+00 1.271251e+00 1.300954e+00 1.213630e+00 1.597739e+00 1.169769e+00 1.330006e+00 8.429708e-01 4.966333e-01 6.042202e-02 9.793172e-02 1.676227e-01 1.827621e-01 2.433028e-01 2.349300e-01 2.353092e-01 1.980762e-01 2.789154e-01 2.049377e-01 1.939790e-01 1.337387e-01 3.745210e-02
<GCONST> 8.951507e+01
<TRANSP> 10
 0.000000e+00 1.000000e+00 0.000000e+00 0.000000e+00 0.000000e+00 0.000000e+00 0.000000e+00 0.000000e+00 0.000000e+00 0.000000e+00
 0.000000e+00 8.906074e-01 1.093926e-01 0.000000e+00 0.000000e+00 0.000000e+00 0.000000e+00 0.000000e+00 0.000000e+00 0.000000e+00
 0.000000e+00 0.000000e+00 8.310627e-01 1.689373e-01 0.000000e+00 0.000000e+00 0.000000e+00 0.000000e+00 0.000000e+00 0.000000e+00
 0.000000e+00 0.000000e+00 0.000000e+00 8.688109e-01 1.311891e-01 0.000000e+00 0.000000e+00 0.000000e+00 0.000000e+00 0.000000e+00
 0.000000e+00 0.000000e+00 0.000000e+00 0.000000e+00 8.100838e-01 1.899162e-01 0.000000e+00 0.000000e+00 0.000000e+00 0.000000e+00
 0.000000e+00 0.000000e+00 0.000000e+00 0.000000e+00 0.000000e+00 9.417008e-01 5.829924e-02 0.000000e+00 0.000000e+00 0.000000e+00
 0.000000e+00 0.000000e+00 0.000000e+00 0.000000e+00 0.000000e+00 0.000000e+00 9.069796e-01 9.302045e-02 0.000000e+00 0.000000e+00
 0.000000e+00 0.000000e+00 0.000000e+00 0.000000e+00 0.000000e+00 0.000000e+00 0.000000e+00 9.369391e-01 6.306098e-02 0.000000e+00
 0.000000e+00 0.000000e+00 0.000000e+00 0.000000e+00 0.000000e+00 0.000000e+00 0.000000e+00 0.000000e+00 9.708455e-01 2.915453e-02
 0.000000e+00 0.000000e+00 0.000000e+00 0.000000e+00 0.000000e+00 0.000000e+00 0.000000e+00 0.000000e+00 0.000000e+00 0.000000e+00
<ENDHMM>
~h "hodin"
<BEGINHMM>
<NUMSTATES> 5
<STATE> 2
<MEAN> 39
 -3.203852e+00 3.361210e+00 -3.506949e+00 -7.918610e+00 1.325777e+00 4.344840e+00 1.073737e+01 -5.441778e+00 -3.918586e+00 5.443250e-01 2.185426e+00 -3.944840e-01 4.379922e+01 3.690778e-01 1.520372e-01 -9.702712e-02 -1.012415e-01 2.131780e-02 -3.104308e-01 6.094092e-02 -3.020154e-01 -9.191757e-02 -2.936507e-02 1.433188e-01 -7.379108e-02 9.557458e-01 -8.472916e-03 -3.885143e-02 1.871864e-02 7.663374e-02 -4.953403e-03 -9.284703e-02 -1.513433e-01 2.170795e-03 1.032661e-01 -3.020395e-02 -4.488891e-03 -5.321968e-03 -4.864905e-03
<VARIANCE> 39
 1.309695e+01 4.439150e+01 1.754907e+01 2.216152e+01 1.918643e+01 2.940997e+01 3.688114e+01 1.686940e+01 1.274769e+01 1.630706e+01 1.336198e+01 8.704852e+00 6.929588e+01 9.513648e-01 1.796803e+00 1.137075e+00 1.368844e+00 1.992698e+00 1.802110e+00 2.996725e+00 1.455071e+00 1.322426e+00 1.057204e+00 1.084365e+00 8.348578e-01 6.252947e-01 1.612784e-01 1.971030e-01 2.338287e-01 2.141392e-01 3.749484e-01 2.584306e-01 4.164019e-01 2.870173e-01 2.926868e-01 1.780863e-01 2.157060e-01 1.473973e-01 9.811777e-02
<GCONST> 9.497644e+01
<STATE> 3
<MEAN> 39
 -4.529759e+00 1.726234e+00 3.771133e+00 -1.600448e+00 3.346755e+00 -6.818110e+00 -2.598754e+00 -6.557968e+00 1.722574e+00 -6.946049e+00 -3.642127e+00 -1.213107e+00 4.062295e+01 -8.932495e-02 2.299121e-01 1.258416e+00 4.445648e-02 -3.615806e-01 -2.170541e-01 -3.647400e-01 1.027360e-01 1.213848e-01 -4.018864e-01 -2.288099e-01 1.682369e-01 7.689182e-02 4.992561e-03 2.616603e-02 -4.731346e-03 1.008433e-02 -1.178863e-01 4.847266e-02 1.134094e-01 2.989041e-02 -7.929490e-02 5.939905e-02 7.245965e-02 5.241840e-02 -7.503765e-02
<VARIANCE> 39
 2.206969e+01 3.278511e+01 1.067133e+02 2.960812e+01 3.609294e+01 3.674572e+01 3.031672e+01 3.801122e+01 4.144482e+01 1.523780e+01 2.343493e+01 1.277692e+01 6.367936e+01 2.201196e+00 3.438019e+00 4.352775e+00 4.479285e+00 4.087755e+00 3.751156e+00 3.060756e+00 3.467998e+00 4.673939e+00 1.935556e+00 1.693310e+00 1.447964e+00 5.719634e+00 3.365804e-01 6.439971e-01 7.554960e-01 7.450454e-01 5.748199e-01 5.817465e-01 3.926049e-01 5.914570e-01 7.640157e-01 3.377595e-01 2.669393e-01 2.500274e-01 7.925622e-01
<GCONST> 1.228396e+02
<STATE> 4
<MEAN> 39
 -3.926556e+00 2.041990e+00 8.424609e+00 -8.654197e-01 -7.473351e-01 -4.496978e+00 1.249587e+00 -7.799172e+00 -1.798041e+00 -4.528401e+00 -1.921520e+00 -1.231321e+00 3.959795e+01 -2.155766e-02 -4.170500e-04 -3.082434e-01 1.421907e-01 1.831566e-01 1.869821e-01 6.213414e-02 7.560806e-02 -3.225006e-03 1.526826e-01 2.227020e-02 -6.766260e-02 -3.759376e-01 -3.992243e-02 -5.237421e-03 -1.950108e-02 -3.130300e-02 1.183789e-02 8.415933e-03 2.882107e-03 3.211919e-02 2.641461e-02 3.155662e-02 5.614306e-03 1.393587e-02 -7.074232e-03
<VARIANCE> 39
 1.555592e+01 1.686902e+01 4.712372e+01 7.411845e+01 4.407450e+01 3.700408e+01 3.548586e+01 5.768088e+01 1.993131e+01 4.856200e+01 1.497384e+01 1.533767e+01 7.257065e+01 4.987673e-01 1.279324e+00 1.647890e+00 2.966262e+00 1.844760e+00 2.109298e+00 2.635641e+00 3.518727e+00 1.815065e+00 2.402089e+00 1.270173e+00 1.023269e+00 9.969719e-01 6.033967e-02 2.194487e-01 2.511711e-01 4.511787e-01 2.696798e-01 3.455867e-01 4.295143e-01 5.518330e-01 3.250483e-01 3.485087e-01 2.013152e-01 1.628314e-01 1.183600e-01
<GCONST> 1.054335e+02
<TRANSP> 5
 0.000000e+00 1.000000e+00 0.000000e+00 0.000000e+00 0.000000e+00
 0.000000e+00 9.371725e-01 6.282751e-02 0.000000e+00 0.000000e+00
 0.000000e+00 0.000000e+00 9.410528e-01 5.894722e-02 0.000000e+00
 0.000000e+00 0.000000e+00 0.000000e+00 9.748399e-01 2.516007e-02
 0.000000e+00 0.000000e+00 0.000000e+00 0.000000e+00 0.000000e+00
<ENDHMM>
~h "tesla"
<BEGINHMM>
<NUMSTATES> 10
<STATE> 2
<MEAN> 39
 -1.283639e+01 1.440205e-01 -2.886127e+00 -3.737093e-01 -1.664413e+00 -2.729651e-01 -9.439197e-01 -9.266931e-01 -1.157054e+00 -3.349800e-01 2.632301e-01 7.040539e-01 2.344078e+01 -2.782155e-01 1.231313e-02 -3.130219e-02 -1.977276e-01 -1.023920e-01 -2.893707e-02 1.253777e-01 5.918330e-02 1.973055e-01 -2.437917e-02 6.758443e-02 -3.002150e-01 1.889569e-01 -1.132490e-01 -2.496257e-01 1.205677e-01 -6.664618e-02 1.691313e-01 -2.583176e-01 2.384807e-01 -5.835681e-02 2.531987e-01 -8.979827e-02 4.030412e-02 -4.570723e-02 7.910455e-01
<VARIANCE> 39
 2.106225e+00 1.774703e+00 4.296335e+00 2.670929e+00 6.088531e+00 3.431957e+00 6.826303e+00 3.038721e+00 4.208261e+00 4.637014e+00 4.460910e+00 4.586262e+00 1.665782e+00 2.377521e-01 3.807060e-01 5.394449e-01 2.442766e-01 1.209562e+00 5.191492e-01 9.195095e-01 6.065769e-01 5.053378e-01 3.380656e-01 4.207877e-01 7.667276e-01 7.629123e-01 1.124278e-01 1.785458e-01 1.512012e-01 1.455301e-01 3.607220e-01 2.449683e-01 1.504590e-01 9.820044e-02 1.518547e-01 9.753408e-02 1.474750e-01 1.032114e-01 4.741807e-01
<GCONST> 5.585096e+01
<STATE> 3
<MEAN> 39
 -1.419614e+01 -2.363912e+00 -1.644513e+00 -7.247638e-01 3.843784e-01 -2.830566e+00 -5.244260e-01 -2.229689e+00 8.779733e-01 -6.162926e-01 3.349844e-01 -2.721256e-01 3.272340e+01 5.386934e-01 -5.235762e-02 -1.598507e-03 -3.026413e-01 4.610942e-02 -6.279143e-01 -9.545937e-03 -5.754703e-01 5.024248e-01 1.634627e-01 3.502092e-02 -2.258018e-01 2.513622e+00 3.073781e-01 4.112625e-02 -5.396353e-02 -4.786905e-02 -8.261320e-02 -8.379411e-02 -8.581391e-02 -1.558009e-01 1.129278e-01 7.962088e-02 -1.492128e-02 -1.801888e-02 1.080000e-01
<VARIANCE> 39
 2.131207e+01 2.256173e+01 1.621349e+01 1.042919e+01 2.563664e+01 2.166886e+01 7.978662e+00 9.913921e+00 7.757404e+00 4.266784e+00 3.411097e+00 4.247281e+00 1.379727e+02 3.908576e+00 3.374217e+00 1.842069e+00 1.129732e+00 3.993945e+00 3.096976e+00 1.244098e+00 1.812145e+00 1.606537e+00 8.422176e-01 4.820690e-01 5.477976e-01 1.212364e+01 4.575911e-01 6.209478e-01 3.568462e-01 2.432875e-01 9.578708e-01 7.489962e-01 2.435096e-01 2.972305e-01 2.846034e-01 1.660545e-01 8.692002e-02 1.322262e-01 1.981660e+00
<GCONST> 9.938570e+01
<STATE> 4
<MEAN> 39
 -4.079127e+00 -9.376966e-01 -4.854378e+00 -4.314127e+00 -2.225132e+00 -6.113536e+00 -2.029130e+00 -9.197173e+00 7.065040e+00 3.261784e+00 8.048964e-02 -3.076705e+00 5.253383e+01 2.790479e-01 -5.115803e-03 -1.038500e-01 -2.300689e-01 5.678107e-01 -2.851757e-01 5.780432e-01 -6.132580e-01 5.422611e-01 2.682306e-01 -1.022157e+00 -9.288155e-02 8.749995e-01 -5.316988e-01 2.018313e-01 3.878853e-01 3.551587e-02 3.421789e-01 9.581184e-02 3.188034e-01 5.520420e-01 -2.924386e-01 -3.122887e-01 -1.976881e-01 2.962375e-01 -3.449622e-01
<VARIANCE> 39
 1.710949e+01 6.807792e+00 7.757413e+00 1.295078e+01 1.008454e+01 1.348643e+01 1.104886e+01 2.972490e+01 1.636310e+01 8.664809e+00 8.115456e+00 2.529971e+00 1.555139e+02 1.721674e+00 1.400740e+00 1.411100e+00 9.726911e-01 2.372203e+00 2.860866e+00 1.379768e+00 2.380125e+00 1.349963e+00 1.155056e+00 9.820697e-01 4.059333e-01 2.132539e+00 4.062628e-01 2.469399e-01 2.578954e-01 2.465344e-01 3.396623e-01 4.831161e-01 2.790948e-01 2.675281e-01 2.501724e-01 1.032137e-01 1.643360e-01 9.247818e-02 6.738160e-01
<GCONST> 9.166277e+01
<STATE> 5
<MEAN> 39
 -1.936949e+01 4.149142e+00 -1.741829e+00 -3.494473e+00 5.754278e+00 -3.526224e+00 3.702414e-01 -1.614560e+00 2.597661e+00 4.462203e-01 -9.096480e-01 -1.247530e+00 5.283017e+01 -5.669603e-01 -5.831271e-03 2.158272e-01 -7.078628e-02 1.612402e-01 -1.169237e-02 4.744849e-02 3.040388e-01 -2.861725e-01 -2.910477e-01 1.479363e-01 1.790470e-01 1.142204e-02 1.876539e-01 -7.517186e-02 -4.154713e-02 -6.565221e-02 -1.348768e-01 -6.356522e-02 -2.648033e-02 -5.880869e-02 3.554307e-02 -3.271448e-02 5.104993e-02 -2.257980e-03 3.653300e-02
<VARIANCE> 39
 3.699867e+01 6.853445e+00 6.979864e+00 5.600643e+00 6.901113e+00 9.000681e+00 7.779648e+00 1.205199e+01 1.051948e+01 9.283434e+00 9.959011e+00 4.196652e+00 2.534614e+01 2.901179e+00 6.868110e-01 1.375459e+00 8.359398e-01 8.257453e-01 1.982819e+00 9.129210e-01 1.747009e+00 7.894092e-01 8.835136e-01 1.210636e+00 4.523027e-01 1.350593e+00 2.505565e-01 1.104540e-01 2.720004e-01 1.638409e-01 1.520840e-01 2.406984e-01 1.773019e-01 2.635309e-01 1.477755e-01 1.527717e-01 3.129208e-01 8.665605e-02 5.516866e-02
<GCONST> 7.885726e+01
<STATE> 6
<MEAN> 39
 -1.387594e+01 3.551157e-01 -1.930429e-01 -3.508627e+00 2.155554e+00 -4.698778e+00 2.317916e+00 -2.274828e+00 1.670628e+00 -1.344819e+00 -5.469356e-01 -2.224621e-01 4.567885e+01 2.523335e+00 -1.087231e-01 6.482759e-01 -1.888179e+00 -1.186257e+00 -1.504802e+00 5.424517e-01 -4.656512e-01 5.875986e-01 -9.168362e-01 2.302296e-02 7.336116e-01 1.393811e+00 4.935834e-01 3.278123e-01 -1.575768e-01 -1.032557e+00 -4.894616e-02 -8.376576e-02 2.793072e-02 -2.922119e-01 -2.634729e-01 -9.485739e-02 -3.054362e-02 1.350728e-01 1.594178e-02
<VARIANCE> 39
 1.748920e+01 6.866189e+00 2.274174e+00 6.959942e+00 2.414841e+01 5.100976e+01 1.474512e+01 1.509693e+01 9.991507e+00 2.624378e+01 1.150485e+01 9.257228e+00 7.414445e+01 7.961578e-01 1.385641e+00 9.616905e-01 2.593489e+00 8.853594e-01 7.193211e+00 4.518775e-01 2.156682e+00 1.756234e+00 2.348862e+00 6.661235e-01 9.303520e-01 7.538237e+00 2.487711e-01 3.512693e-01 1.186214e-01 3.016599e-01 2.943537e-01 5.913894e-01 1.523450e-01 4.682674e-01 1.795316e-01 5.623724e-01 3.805076e-01 1.995377e-01 2.582859e-01
<GCONST> 9.570757e+01
<STATE> 7
<MEAN> 39
 -1.183477e+01 -2.872597e+00 -9.518462e-01 -7.388502e+00 -1.079330e+00 -1.191994e+01 5.424768e+00 -5.133353e+00 4.213431e+00 -6.715124e+00 -8.507583e-01 2.543541e+00 4.351949e+01 4.871184e-01 2.311004e-01 -3.269109e-01 -6.834055e-01 1.603235e-01 -1.892103e-01 3.899365e-01 -4.874501e-01 -1.819805e-01 -2.583163e-01 -2.907999e-01 -6.497756e-02 2.258675e-01 -1.108850e-01 1.298643e-01 -2.018154e-01 2.023554e-01 1.673765e-01 1.494984e-01 1.422761e-02 -2.995420e-02 -1.576821e-01 2.215379e-01 -6.910114e-02 -1.622030e-01 -2.989081e-01
<VARIANCE> 39
 7.056968e+01 2.975112e+01 1.829018e+01 7.007971e+01 1.317566e+01 7.709666e+01 1.368295e+01 1.288065e+01 1.757585e+01 4.504835e+01 7.602001e+00 5.455470e+00 2.917283e+01 5.949011e+00 2.411653e+00 1.079363e+00 6.158718e+00 1.081774e+00 3.358947e+00 1.078050e+00 1.562113e+00 1.566032e+00 3.561368e+00 1.326595e+00 7.581182e-01 2.237978e+00 4.871615e-01 2.822410e-01 2.324411e-01 5.094084e-01 2.531856e-01 6.113552e-01 1.440925e-01 2.576921e-01 2.468390e-01 4.085713e-01 2.184683e-01 1.248601e-01 2.997759e-01
<GCONST> 1.048724e+02
<STATE> 8
<MEAN> 39
 5.166602e-01 6.660954e+00 -7.343234e+00 -2.285328e+01 8.174155e+00 -7.507570e+00 9.552808e+00 -4.229932e+00 -6.669443e+00 1.101850e+00 8.187889e-01 -2.422331e+00 4.883184e+01 2.367476e-01 -1.074299e-03 -6.921468e-01 -3.035172e-01 8.538936e-01 -6.938601e-02 4.472634e-01 2.038109e-01 -1.860354e-01 8.940855e-02 2.910838e-01 -4.717554e-01 -2.859012e-01 -3.021522e-01 -1.379271e-01 2.004113e-01 3.169554e-01 -1.881257e-02 3.291610e-01 -1.397608e-01 6.237730e-02 2.299349e-01 -3.000580e-02 -1.938842e-02 8.890370e-02 -8.395802e-02
<VARIANCE> 39
 1.349446e+01 2.290082e+01 2.326205e+01 3.974590e+01 2.907640e+01 2.477929e+01 1.491300e+01 1.701042e+01 1.862611e+01 1.815316e+01 2.182979e+01 1.556438e+01 9.136864e+00 1.840204e+00 9.686735e-01 1.686496e+00 2.849605e+00 9.381495e-01 2.367725e+00 1.363247e+00 1.636362e+00 1.537055e+00 8.338908e-01 1.622223e+00 9.824272e-01 4.121124e-01 1.882271e-01 2.522153e-01 3.757390e-01 2.000265e-01 2.074316e-01 3.559579e-01 2.123297e-01 3.268196e-01 2.647326e-01 1.831344e-01 2.314445e-01 1.904602e-01 6.998155e-02
<GCONST> 9.407868e+01
<STATE> 9
<MEAN> 39
