~o
<STREAMINFO> 1 39
<VECSIZE> 39<NULLD><MFCC_D_A_0><DIAGC>
~h "proto-3s-39f"
<BEGINHMM>
<NUMSTATES> 5
<STATE> 2
<MEAN> 39
 -1.522650e+01 -2.874913e+00 -6.262381e+00 -4.464604e+00 -7.799488e+00 -4.605474e+00 -5.390208e+00 -3.868974e+00 -3.669471e+00 -3.301443e+00 -3.277881e+00 -2.236609e+00 5.147204e+01 1.527328e-04 -1.401642e-03 5.255073e-04 -7.035780e-05 7.811705e-04 -1.771062e-03 -7.221902e-04 5.636005e-04 -1.446354e-03 -4.217406e-04 -1.674113e-03 1.423296e-03 -2.930644e-04 -4.434260e-04 -3.702513e-04 1.582553e-04 -2.122966e-04 5.459932e-05 -2.661930e-05 -8.657150e-05 -1.928509e-04 -3.414271e-04 -3.301007e-04 4.034072e-04 1.523694e-04 -2.129735e-04
<VARIANCE> 39
 7.397107e+01 4.192506e+01 5.149786e+01 5.238083e+01 4.769966e+01 6.464014e+01 4.817065e+01 4.672866e+01 4.131538e+01 3.163200e+01 3.633781e+01 2.474414e+01 2.166450e+02 1.221777e+00 1.119647e+00 1.172100e+00 1.492830e+00 1.740950e+00 1.797650e+00 1.938718e+00 1.976749e+00 1.875941e+00 1.824841e+00 1.734464e+00 1.511892e+00 1.564201e+00 1.606500e-01 1.760968e-01 1.877749e-01 2.522887e-01 3.016455e-01 3.231140e-01 3.522785e-01 3.656641e-01 3.465787e-01 3.460980e-01 3.243511e-01 2.920266e-01 1.951133e-01
<GCONST> 1.116198e+02
<STATE> 3
<MEAN> 39
 -1.522650e+01 -2.874913e+00 -6.262381e+00 -4.464604e+00 -7.799488e+00 -4.605474e+00 -5.390208e+00 -3.868974e+00 -3.669471e+00 -3.301443e+00 -3.277881e+00 -2.236609e+00 5.147204e+01 1.527328e-04 -1.401642e-03 5.255073e-04 -7.035780e-05 7.811705e-04 -1.771062e-03 -7.221902e-04 5.636005e-04 -1.446354e-03 -4.217406e-04 -1.674113e-03 1.423296e-03 -2.930644e-04 -4.434260e-04 -3.702513e-04 1.582553e-04 -2.122966e-04 5.459932e-05 -2.661930e-05 -8.657150e-05 -1.928509e-04 -3.414271e-04 -3.301007e-04 4.034072e-04 1.523694e-04 -2.129735e-04
<VARIANCE> 39
 7.397107e+01 4.192506e+01 5.149786e+01 5.238083e+01 4.769966e+01 6.464014e+01 4.817065e+01 4.672866e+01 4.131538e+01 3.163200e+01 3.633781e+01 2.474414e+01 2.166450e+02 1.221777e+00 1.119647e+00 1.172100e+00 1.492830e+00 1.740950e+00 1.797650e+00 1.938718e+00 1.976749e+00 1.875941e+00 1.824841e+00 1.734464e+00 1.511892e+00 1.564201e+00 1.606500e-01 1.760968e-01 1.877749e-01 2.522887e-01 3.016455e-01 3.231140e-01 3.522785e-01 3.656641e-01 3.465787e-01 3.460980e-01 3.243511e-01 2.920266e-01 1.951133e-01
<GCONST> 1.116198e+02
<STATE> 4
<MEAN> 39
 -1.522650e+01 -2.874913e+00 -6.262381e+00 -4.464604e+00 -7.799488e+00 -4.605474e+00 -5.390208e+00 -3.868974e+00 -3.669471e+00 -3.301443e+00 -3.277881e+00 -2.236609e+00 5.147204e+01 1.527328e-04 -1.401642e-03 5.255073e-04 -7.035780e-05 7.811705e-04 -1.771062e-03 -7.221902e-04 5.636005e-04 -1.446354e-03 -4.217406e-04 -1.674113e-03 1.423296e-03 -2.930644e-04 -4.434260e-04 -3.702513e-04 1.582553e-04 -2.122966e-04 5.459932e-05 -2.661930e-05 -8.657150e-05 -1.928509e-04 -3.414271e-04 -3.301007e-04 4.034072e-04 1.523694e-04 -2.129735e-04
<VARIANCE> 39
 7.397107e+01 4.192506e+01 5.149786e+01 5.238083e+01 4.769966e+01 6.464014e+01 4.817065e+01 4.672866e+01 4.131538e+01 3.163200e+01 3.633781e+01 2.474414e+01 2.166450e+02 1.221777e+00 1.119647e+00 1.172100e+00 1.492830e+00 1.740950e+00 1.797650e+00 1.938718e+00 1.976749e+00 1.875941e+00 1.824841e+00 1.734464e+00 1.511892e+00 1.564201e+00 1.606500e-01 1.760968e-01 1.877749e-01 2.522887e-01 3.016455e-01 3.231140e-01 3.522785e-01 3.656641e-01 3.465787e-01 3.460980e-01 3.243511e-01 2.920266e-01 1.951133e-01
<GCONST> 1.116198e+02
<TRANSP> 5
 0.000000e+00 1.000000e+00 0.000000e+00 0.000000e+00 0.000000e+00
 0.000000e+00 6.000000e-01 4.000000e-01 0.000000e+00 0.000000e+00
 0.000000e+00 0.000000e+00 6.000000e-01 4.000000e-01 0.000000e+00
 0.000000e+00 0.000000e+00 0.000000e+00 7.000000e-01 3.000000e-01
 0.000000e+00 0.000000e+00 0.000000e+00 0.000000e+00 0.000000e+00
<ENDHMM>
