~o
<STREAMINFO> 1 39
<VECSIZE> 39<NULLD><MFCC_D_A_0><DIAGC>
~h "proto-3s-39f"
<BEGINHMM>
<NUMSTATES> 5
<STATE> 2
<MEAN> 39
 -8.695636e+00 7.676156e-01 -7.546659e-01 -1.894031e+00 -3.777558e-01 -2.601578e+00 2.068275e-01 -2.897763e+00 -5.838010e-01 -2.108819e+00 -2.468049e-01 -1.688519e-01 3.253391e+01 -1.250731e-03 1.917825e-02 1.909646e-02 9.484873e-03 1.071332e-02 2.213786e-03 1.243749e-03 -6.471120e-03 9.954003e-05 -2.622077e-03 -6.402303e-05 -2.858838e-03 5.835332e-02 -4.994451e-05 -4.364375e-04 2.380521e-05 9.738068e-04 3.651144e-05 -4.076963e-04 3.092639e-06 -1.199737e-03 -6.802579e-04 4.567206e-04 1.947191e-04 8.087473e-04 -8.219619e-04
<VARIANCE> 39
 4.627928e+01 2.677628e+01 3.776575e+01 4.160764e+01 2.289308e+01 3.163942e+01 2.736764e+01 2.919531e+01 2.219910e+01 2.175679e+01 1.473092e+01 9.017849e+00 1.474261e+02 1.114454e+00 1.048877e+00 1.266787e+00 1.761619e+00 1.339478e+00 1.532984e+00 1.567441e+00 1.450581e+00 1.269887e+00 1.174024e+00 9.032103e-01 6.887084e-01 2.042561e+00 1.536180e-01 1.703950e-01 2.012935e-01 2.738464e-01 2.388105e-01 2.706070e-01 2.733134e-01 2.519945e-01 2.247567e-01 2.038963e-01 1.635543e-01 1.282010e-01 2.614041e-01
<GCONST> 9.838363e+01
<STATE> 3
<MEAN> 39
 -8.695636e+00 7.676156e-01 -7.546659e-01 -1.894031e+00 -3.777558e-01 -2.601578e+00 2.068275e-01 -2.897763e+00 -5.838010e-01 -2.108819e+00 -2.468049e-01 -1.688519e-01 3.253391e+01 -1.250731e-03 1.917825e-02 1.909646e-02 9.484873e-03 1.071332e-02 2.213786e-03 1.243749e-03 -6.471120e-03 9.954003e-05 -2.622077e-03 -6.402303e-05 -2.858838e-03 5.835332e-02 -4.994451e-05 -4.364375e-04 2.380521e-05 9.738068e-04 3.651144e-05 -4.076963e-04 3.092639e-06 -1.199737e-03 -6.802579e-04 4.567206e-04 1.947191e-04 8.087473e-04 -8.219619e-04
<VARIANCE> 39
 4.627928e+01 2.677628e+01 3.776575e+01 4.160764e+01 2.289308e+01 3.163942e+01 2.736764e+01 2.919531e+01 2.219910e+01 2.175679e+01 1.473092e+01 9.017849e+00 1.474261e+02 1.114454e+00 1.048877e+00 1.266787e+00 1.761619e+00 1.339478e+00 1.532984e+00 1.567441e+00 1.450581e+00 1.269887e+00 1.174024e+00 9.032103e-01 6.887084e-01 2.042561e+00 1.536180e-01 1.703950e-01 2.012935e-01 2.738464e-01 2.388105e-01 2.706070e-01 2.733134e-01 2.519945e-01 2.247567e-01 2.038963e-01 1.635543e-01 1.282010e-01 2.614041e-01
<GCONST> 9.838363e+01
<STATE> 4
<MEAN> 39
 -8.695636e+00 7.676156e-01 -7.546659e-01 -1.894031e+00 -3.777558e-01 -2.601578e+00 2.068275e-01 -2.897763e+00 -5.838010e-01 -2.108819e+00 -2.468049e-01 -1.688519e-01 3.253391e+01 -1.250731e-03 1.917825e-02 1.909646e-02 9.484873e-03 1.071332e-02 2.213786e-03 1.243749e-03 -6.471120e-03 9.954003e-05 -2.622077e-03 -6.402303e-05 -2.858838e-03 5.835332e-02 -4.994451e-05 -4.364375e-04 2.380521e-05 9.738068e-04 3.651144e-05 -4.076963e-04 3.092639e-06 -1.199737e-03 -6.802579e-04 4.567206e-04 1.947191e-04 8.087473e-04 -8.219619e-04
<VARIANCE> 39
 4.627928e+01 2.677628e+01 3.776575e+01 4.160764e+01 2.289308e+01 3.163942e+01 2.736764e+01 2.919531e+01 2.219910e+01 2.175679e+01 1.473092e+01 9.017849e+00 1.474261e+02 1.114454e+00 1.048877e+00 1.266787e+00 1.761619e+00 1.339478e+00 1.532984e+00 1.567441e+00 1.450581e+00 1.269887e+00 1.174024e+00 9.032103e-01 6.887084e-01 2.042561e+00 1.536180e-01 1.703950e-01 2.012935e-01 2.738464e-01 2.388105e-01 2.706070e-01 2.733134e-01 2.519945e-01 2.247567e-01 2.038963e-01 1.635543e-01 1.282010e-01 2.614041e-01
<GCONST> 9.838363e+01
<TRANSP> 5
 0.000000e+00 1.000000e+00 0.000000e+00 0.000000e+00 0.000000e+00
 0.000000e+00 6.000000e-01 4.000000e-01 0.000000e+00 0.000000e+00
 0.000000e+00 0.000000e+00 6.000000e-01 4.000000e-01 0.000000e+00
 0.000000e+00 0.000000e+00 0.000000e+00 7.000000e-01 3.000000e-01
 0.000000e+00 0.000000e+00 0.000000e+00 0.000000e+00 0.000000e+00
<ENDHMM>
