~o
<STREAMINFO> 1 16
<VECSIZE> 16<NULLD><FBANK><DIAGC>
~h "proto-3s-16f"
<BEGINHMM>
<NUMSTATES> 5
<STATE> 2
<MEAN> 16
 5.809126e+00 6.153680e+00 6.525147e+00 6.786564e+00 6.844571e+00 6.934548e+00 7.095867e+00 7.318569e+00 7.668570e+00 7.667596e+00 7.823357e+00 8.040783e+00 8.318963e+00 8.242071e+00 8.079517e+00 8.160125e+00
<VARIANCE> 16
 2.729836e-01 7.578926e-01 1.520435e+00 1.818302e+00 1.524357e+00 1.216621e+00 1.215843e+00 1.317623e+00 1.316986e+00 1.601578e+00 1.664452e+00 1.773178e+00 2.015854e+00 1.368187e+00 4.732208e-01 2.500610e-01
<GCONST> 3.064518e+01
<STATE> 3
<MEAN> 16
 5.809126e+00 6.153680e+00 6.525147e+00 6.786564e+00 6.844571e+00 6.934548e+00 7.095867e+00 7.318569e+00 7.668570e+00 7.667596e+00 7.823357e+00 8.040783e+00 8.318963e+00 8.242071e+00 8.079517e+00 8.160125e+00
<VARIANCE> 16
 2.729836e-01 7.578926e-01 1.520435e+00 1.818302e+00 1.524357e+00 1.216621e+00 1.215843e+00 1.317623e+00 1.316986e+00 1.601578e+00 1.664452e+00 1.773178e+00 2.015854e+00 1.368187e+00 4.732208e-01 2.500610e-01
<GCONST> 3.064518e+01
<STATE> 4
<MEAN> 16
 5.809126e+00 6.153680e+00 6.525147e+00 6.786564e+00 6.844571e+00 6.934548e+00 7.095867e+00 7.318569e+00 7.668570e+00 7.667596e+00 7.823357e+00 8.040783e+00 8.318963e+00 8.242071e+00 8.079517e+00 8.160125e+00
<VARIANCE> 16
 2.729836e-01 7.578926e-01 1.520435e+00 1.818302e+00 1.524357e+00 1.216621e+00 1.215843e+00 1.317623e+00 1.316986e+00 1.601578e+00 1.664452e+00 1.773178e+00 2.015854e+00 1.368187e+00 4.732208e-01 2.500610e-01
<GCONST> 3.064518e+01
<TRANSP> 5
 0.000000e+00 1.000000e+00 0.000000e+00 0.000000e+00 0.000000e+00
 0.000000e+00 6.000000e-01 4.000000e-01 0.000000e+00 0.000000e+00
 0.000000e+00 0.000000e+00 6.000000e-01 4.000000e-01 0.000000e+00
 0.000000e+00 0.000000e+00 0.000000e+00 7.000000e-01 3.000000e-01
 0.000000e+00 0.000000e+00 0.000000e+00 0.000000e+00 0.000000e+00
<ENDHMM>
