~o
<STREAMINFO> 1 39
<VECSIZE> 39<NULLD><MFCC_D_A_0><DIAGC>
~h "proto-3s-39f"
<BEGINHMM>
<NUMSTATES> 5
<STATE> 2
<MEAN> 39
 -9.048091e+00 1.966806e+00 1.384723e-01 -1.923663e+00 -9.256902e-01 -4.927423e+00 2.915461e+00 -7.067426e+00 -1.696000e+00 -3.406289e+00 -3.283429e-01 -5.632780e-01 4.114232e+01 1.742216e-02 1.481524e-02 5.575726e-02 1.834320e-02 4.258285e-03 -2.292579e-02 1.891701e-02 2.759623e-05 -5.821092e-03 -7.181556e-03 1.341402e-02 7.991256e-03 6.900430e-02 -2.501976e-03 1.742605e-03 -1.785372e-03 -2.016964e-04 -2.833117e-03 3.703650e-03 -5.361067e-03 -6.562488e-04 3.078590e-03 -4.634661e-03 2.050859e-03 6.629756e-03 -8.186905e-03
<VARIANCE> 39
 8.773999e+01 4.533205e+01 7.449053e+01 7.666373e+01 6.149461e+01 6.716392e+01 6.314677e+01 9.302283e+01 5.036362e+01 4.691509e+01 2.726057e+01 2.482029e+01 2.056886e+02 1.614774e+00 1.349329e+00 2.051054e+00 2.455280e+00 2.688194e+00 2.814550e+00 2.653293e+00 3.000436e+00 2.619702e+00 2.326499e+00 1.923182e+00 1.844365e+00 2.808002e+00 2.000217e-01 2.129667e-01 3.096860e-01 3.675739e-01 4.587290e-01 5.026078e-01 4.340954e-01 4.731744e-01 4.476558e-01 4.275388e-01 3.520232e-01 3.467853e-01 3.289244e-01
<GCONST> 1.225833e+02
<STATE> 3
<MEAN> 39
 -9.048091e+00 1.966806e+00 1.384723e-01 -1.923663e+00 -9.256902e-01 -4.927423e+00 2.915461e+00 -7.067426e+00 -1.696000e+00 -3.406289e+00 -3.283429e-01 -5.632780e-01 4.114232e+01 1.742216e-02 1.481524e-02 5.575726e-02 1.834320e-02 4.258285e-03 -2.292579e-02 1.891701e-02 2.759623e-05 -5.821092e-03 -7.181556e-03 1.341402e-02 7.991256e-03 6.900430e-02 -2.501976e-03 1.742605e-03 -1.785372e-03 -2.016964e-04 -2.833117e-03 3.703650e-03 -5.361067e-03 -6.562488e-04 3.078590e-03 -4.634661e-03 2.050859e-03 6.629756e-03 -8.186905e-03
<VARIANCE> 39
 8.773999e+01 4.533205e+01 7.449053e+01 7.666373e+01 6.149461e+01 6.716392e+01 6.314677e+01 9.302283e+01 5.036362e+01 4.691509e+01 2.726057e+01 2.482029e+01 2.056886e+02 1.614774e+00 1.349329e+00 2.051054e+00 2.455280e+00 2.688194e+00 2.814550e+00 2.653293e+00 3.000436e+00 2.619702e+00 2.326499e+00 1.923182e+00 1.844365e+00 2.808002e+00 2.000217e-01 2.129667e-01 3.096860e-01 3.675739e-01 4.587290e-01 5.026078e-01 4.340954e-01 4.731744e-01 4.476558e-01 4.275388e-01 3.520232e-01 3.467853e-01 3.289244e-01
<GCONST> 1.225833e+02
<STATE> 4
<MEAN> 39
 -9.048091e+00 1.966806e+00 1.384723e-01 -1.923663e+00 -9.256902e-01 -4.927423e+00 2.915461e+00 -7.067426e+00 -1.696000e+00 -3.406289e+00 -3.283429e-01 -5.632780e-01 4.114232e+01 1.742216e-02 1.481524e-02 5.575726e-02 1.834320e-02 4.258285e-03 -2.292579e-02 1.891701e-02 2.759623e-05 -5.821092e-03 -7.181556e-03 1.341402e-02 7.991256e-03 6.900430e-02 -2.501976e-03 1.742605e-03 -1.785372e-03 -2.016964e-04 -2.833117e-03 3.703650e-03 -5.361067e-03 -6.562488e-04 3.078590e-03 -4.634661e-03 2.050859e-03 6.629756e-03 -8.186905e-03
<VARIANCE> 39
 8.773999e+01 4.533205e+01 7.449053e+01 7.666373e+01 6.149461e+01 6.716392e+01 6.314677e+01 9.302283e+01 5.036362e+01 4.691509e+01 2.726057e+01 2.482029e+01 2.056886e+02 1.614774e+00 1.349329e+00 2.051054e+00 2.455280e+00 2.688194e+00 2.814550e+00 2.653293e+00 3.000436e+00 2.619702e+00 2.326499e+00 1.923182e+00 1.844365e+00 2.808002e+00 2.000217e-01 2.129667e-01 3.096860e-01 3.675739e-01 4.587290e-01 5.026078e-01 4.340954e-01 4.731744e-01 4.476558e-01 4.275388e-01 3.520232e-01 3.467853e-01 3.289244e-01
<GCONST> 1.225833e+02
<TRANSP> 5
 0.000000e+00 1.000000e+00 0.000000e+00 0.000000e+00 0.000000e+00
 0.000000e+00 6.000000e-01 4.000000e-01 0.000000e+00 0.000000e+00
 0.000000e+00 0.000000e+00 6.000000e-01 4.000000e-01 0.000000e+00
 0.000000e+00 0.000000e+00 0.000000e+00 7.000000e-01 3.000000e-01
 0.000000e+00 0.000000e+00 0.000000e+00 0.000000e+00 0.000000e+00
<ENDHMM>
