~o
<STREAMINFO> 1 39
<VECSIZE> 39<NULLD><MFCC_D_A_0><DIAGC>
~h "za-posledni"
<BEGINHMM>
<NUMSTATES> 10
<STATE> 2
<MEAN> 39
 -1.150371e+01 5.801303e+00 -1.303201e+00 -4.573384e+00 4.807653e+00 -5.828679e+00 -2.284941e+00 -6.850261e+00 -5.636024e-02 2.209794e+00 -1.356216e+00 -2.121876e+00 4.438628e+01 3.076943e-01 2.979170e-01 -5.792148e-02 -3.585377e-01 1.535063e-01 -3.502523e-01 -2.881811e-02 -5.634809e-01 4.525546e-02 7.590698e-02 -2.785027e-01 -1.486216e-01 1.531121e+00 9.715743e-02 -4.808155e-02 -3.741841e-02 -2.909291e-02 -7.457526e-02 1.820178e-03 2.994237e-02 -1.565790e-03 3.544158e-02 -4.329018e-02 -1.524845e-02 1.138125e-02 2.766985e-02
<VARIANCE> 39
 3.149222e+01 2.284104e+01 1.906627e+01 2.287506e+01 1.854077e+01 2.014379e+01 1.488395e+01 2.002094e+01 1.154975e+01 1.462591e+01 9.415722e+00 6.880061e+00 1.241034e+02 3.306088e+00 1.361097e+00 1.400568e+00 1.688838e+00 1.352893e+00 1.972517e+00 1.802419e+00 1.402204e+00 1.283235e+00 1.619075e+00 1.139465e+00 7.578795e-01 2.807442e+00 5.235775e-01 1.677782e-01 2.291561e-01 3.591311e-01 1.891911e-01 3.255764e-01 3.345044e-01 2.710008e-01 2.396168e-01 2.828376e-01 2.285482e-01 1.394999e-01 4.475859e-01
<GCONST> 9.890685e+01
<STATE> 3
<MEAN> 39
 -6.132033e+00 1.998220e+00 -6.256174e+00 -9.218168e+00 1.676260e+00 -3.732204e+00 2.232366e+00 -7.810169e+00 9.486428e-01 1.175738e+00 -1.165718e+00 -2.051991e+00 4.679470e+01 5.445452e-01 -2.039535e-01 -2.145079e-01 -2.010943e-01 -1.840566e-01 -1.469105e-01 4.946827e-01 -4.478535e-04 1.290187e-03 -3.438454e-01 -1.527622e-01 -3.338143e-02 -7.956074e-02 -6.727887e-02 5.104323e-02 6.829126e-02 3.962780e-02 6.628384e-02 -1.947305e-02 1.108971e-02 1.267189e-01 1.034900e-02 -6.061669e-02 -2.389376e-02 7.753615e-03 -1.254640e-01
<VARIANCE> 39
 2.667413e+01 1.642436e+01 2.775708e+01 4.451252e+01 1.828540e+01 2.569130e+01 3.809948e+01 3.071326e+01 1.762295e+01 3.328720e+01 1.274514e+01 7.178551e+00 1.813246e+02 2.804332e+00 1.985046e+00 1.928749e+00 1.618428e+00 1.740390e+00 1.972750e+00 2.624958e+00 1.819133e+00 2.008793e+00 2.075641e+00 1.520948e+00 8.601002e-01 5.021288e+00 4.126148e-01 3.088757e-01 2.797395e-01 2.262427e-01 2.962309e-01 2.538604e-01 4.098080e-01 2.832955e-01 3.703062e-01 3.644259e-01 2.339277e-01 1.535314e-01 4.776488e-01
<GCONST> 1.075199e+02
<STATE> 4
<MEAN> 39
 -6.135360e+00 1.119115e+00 -5.485892e+00 -7.937355e+00 3.887178e-01 -3.673429e+00 4.005627e+00 -4.235296e+00 6.734102e-01 -1.272121e+00 -1.202539e+00 -1.805757e+00 3.750027e+01 -1.523067e-01 -1.498724e-01 3.939444e-01 4.431822e-01 -7.343047e-02 -1.497052e-01 -1.044432e-01 5.668048e-01 8.440650e-02 -3.804885e-01 -1.140728e-01 -1.015901e-02 -9.822000e-01 -2.888719e-02 2.981267e-03 5.076965e-04 1.290951e-02 2.723153e-02 -2.762497e-03 -3.945158e-02 4.731463e-02 6.815982e-02 2.303861e-02 3.181727e-02 1.803648e-02 1.847639e-01
<VARIANCE> 39
 2.293034e+01 1.576241e+01 1.798269e+01 4.149200e+01 1.965391e+01 4.049054e+01 3.470742e+01 3.464072e+01 1.742762e+01 4.210054e+01 1.560042e+01 8.031668e+00 1.563667e+02 1.964778e+00 1.973987e+00 1.376951e+00 1.936305e+00 1.723864e+00 1.656323e+00 2.229802e+00 1.860573e+00 1.961492e+00 2.130686e+00 1.389381e+00 8.647711e-01 8.554160e+00 3.061011e-01 4.182663e-01 2.941397e-01 3.687916e-01 3.603917e-01 2.602917e-01 3.696057e-01 3.558736e-01 3.618074e-01 3.998619e-01 2.355632e-01 1.673703e-01 9.892383e-01
<GCONST> 1.091536e+02
<STATE> 5
<MEAN> 39
 -6.956128e+00 -4.328942e-01 -3.196235e+00 -4.659668e+00 -7.023268e-01 -7.326200e+00 1.071175e+00 -2.122635e+00 2.966481e+00 -6.341910e+00 -3.354930e+00 -8.965501e-01 3.674376e+01 3.262619e-01 2.548737e-01 7.024407e-02 -2.161838e-01 -6.667019e-02 -1.419692e-01 6.670453e-02 1.526577e-01 2.122301e-01 -1.460418e-01 -1.164613e-01 1.147753e-02 1.040580e+00 3.300267e-02 1.278395e-01 -9.283459e-02 -1.839255e-01 -4.761859e-02 6.180590e-02 2.936382e-02 -1.234992e-01 8.328281e-03 3.082486e-02 4.426086e-02 3.702978e-02 1.079765e-01
<VARIANCE> 39
 2.068775e+01 2.948877e+01 1.387531e+01 6.149890e+01 2.023353e+01 4.367451e+01 2.379173e+01 2.954951e+01 2.646366e+01 5.835543e+01 1.819303e+01 7.355972e+00 9.481359e+01 2.902790e+00 2.929184e+00 1.501292e+00 6.381958e+00 2.544302e+00 2.228908e+00 2.105874e+00 3.522794e+00 2.062451e+00 3.293504e+00 1.448276e+00 6.736451e-01 1.054884e+01 4.835494e-01 5.163131e-01 2.970606e-01 1.139947e+00 5.559205e-01 3.449296e-01 3.927832e-01 6.367664e-01 2.971555e-01 5.549017e-01 2.981947e-01 1.220595e-01 1.280105e+00
<GCONST> 1.169803e+02
<STATE> 6
<MEAN> 39
 -7.131580e+00 1.125764e+00 -4.019591e+00 -6.980793e+00 6.124258e-03 -6.792819e+00 2.041870e-01 -2.970507e+00 4.018553e+00 -6.597260e+00 -3.202483e+00 -6.861575e-01 4.187292e+01 -1.061076e-01 9.062046e-02 -1.475620e-01 -4.422571e-01 1.976897e-01 5.615423e-02 -6.510632e-03 -3.145638e-01 1.272492e-01 1.093060e-01 2.045415e-02 8.250852e-02 5.035627e-01 -1.100044e-01 -6.044632e-02 -5.642006e-03 6.032192e-02 5.129388e-02 4.045505e-02 -2.634227e-02 -7.915041e-03 -2.667756e-02 4.220944e-02 3.195262e-02 3.502000e-03 -1.357733e-01
<VARIANCE> 39
 3.618598e+01 4.578279e+01 1.548382e+01 1.030529e+02 3.191964e+01 3.695178e+01 2.426692e+01 4.018555e+01 2.909817e+01 5.085049e+01 1.735750e+01 9.141646e+00 1.089335e+02 3.213411e+00 3.603796e+00 1.390728e+00 8.705613e+00 2.918576e+00 2.338466e+00 2.288256e+00 3.929116e+00 2.028158e+00 2.803436e+00 1.590230e+00 8.760816e-01 4.201070e+00 4.724390e-01 5.934517e-01 2.720705e-01 1.416954e+00 5.210601e-01 3.962786e-01 4.509677e-01 6.923356e-01 3.372771e-01 5.009825e-01 3.064558e-01 1.710924e-01 5.684256e-01
<GCONST> 1.197847e+02
<STATE> 7
<MEAN> 39
 -1.065713e+01 1.480010e+00 -3.656326e+00 -7.207547e+00 2.693386e+00 -6.481538e+00 3.833007e-01 -5.310834e+00 3.625566e+00 -3.781239e+00 -2.089867e+00 -2.402534e-01 4.364476e+01 -4.086790e-01 -1.283174e-01 -2.800483e-02 1.781283e-01 2.008199e-01 -6.901553e-02 -3.443898e-02 -1.421009e-01 7.560365e-03 1.629595e-01 1.218790e-01 2.690355e-02 1.067255e-01 1.292146e-03 -2.024620e-02 1.863925e-02 4.469086e-02 -4.185411e-02 -2.124816e-02 2.771416e-03 1.958132e-02 -1.089498e-02 8.863467e-03 2.460622e-03 -7.291643e-03 -5.056319e-02
<VARIANCE> 39
 5.986825e+01 2.727330e+01 1.269479e+01 7.019202e+01 2.976319e+01 4.364953e+01 2.352987e+01 4.200869e+01 2.597822e+01 3.256904e+01 1.607981e+01 8.210954e+00 1.085009e+02 4.119996e+00 2.293520e+00 1.208186e+00 6.094654e+00 2.701230e+00 2.154499e+00 2.309550e+00 3.656026e+00 2.196509e+00 2.388875e+00 1.592238e+00 9.345013e-01 2.228238e+00 4.885280e-01 4.284728e-01 2.351249e-01 9.635562e-01 4.637036e-01 3.515606e-01 4.195920e-01 6.407880e-01 3.904731e-01 4.450882e-01 2.875438e-01 1.785834e-01 2.949342e-01
<GCONST> 1.151211e+02
<STATE> 8
<MEAN> 39
 -1.033441e+01 9.535407e-01 -2.239961e+00 -4.137044e+00 7.289547e-01 -7.966274e+00 4.776435e-01 -7.865698e+00 3.323867e+00 -2.520251e+00 -1.389858e+00 -5.224146e-02 4.471936e+01 4.260635e-01 -4.255630e-02 3.267357e-01 3.060813e-01 -2.920120e-01 -1.743377e-01 -1.235311e-01 1.015102e-01 -8.385772e-02 -2.989425e-01 6.158382e-03 5.690888e-02 -3.044940e-01 3.036433e-02 -2.288151e-03 3.361079e-02 -1.352697e-02 -1.947595e-02 1.587039e-02 5.000901e-02 2.565557e-02 -7.127105e-02 -2.159022e-02 6.674553e-02 2.354491e-02 -2.365848e-02
<VARIANCE> 39
 9.262032e+01 2.375350e+01 2.163981e+01 4.639127e+01 3.237904e+01 3.180517e+01 3.635624e+01 3.630879e+01 2.774184e+01 3.394878e+01 1.739393e+01 7.101994e+00 8.878938e+01 4.969662e+00 2.290664e+00 1.480681e+00 3.327404e+00 1.855600e+00 2.129156e+00 3.558789e+00 3.214614e+00 2.834957e+00 2.367300e+00 1.921403e+00 8.750989e-01 2.265913e+00 5.933732e-01 4.026355e-01 2.389742e-01 4.151164e-01 3.207407e-01 3.758878e-01 6.533503e-01 5.743026e-01 4.667831e-01 3.973865e-01 3.237948e-01 1.591547e-01 2.690867e-01
<GCONST> 1.148365e+02
<STATE> 9
<MEAN> 39
 -3.706280e+00 2.492377e+00 5.149986e+00 3.234804e-01 -2.359269e+00 -7.834457e+00 1.099616e+00 -8.064972e+00 -5.739600e+00 -3.607911e+00 4.063596e+00 7.680482e-01 4.214108e+01 4.870752e-02 1.880508e-01 3.319676e-01 2.084628e-01 5.229869e-02 2.162288e-01 2.461623e-02 -3.788741e-02 -2.745451e-01 1.686024e-01 1.342053e-01 -5.406260e-02 -2.897227e-01 -4.673353e-03 3.938909e-02 -4.867767e-02 6.924440e-03 4.746104e-02 2.643670e-02 -3.753141e-02 -9.054310e-03 5.689294e-02 4.789233e-02 -7.192750e-02 -2.314467e-02 -1.275249e-02
<VARIANCE> 39
 4.346627e+01 3.515568e+01 2.647799e+01 5.527207e+01 2.441161e+01 2.464561e+01 2.358150e+01 2.516734e+01 7.243250e+01 2.522427e+01 2.970136e+01 8.757172e+00 6.278391e+01 1.485088e+00 1.774128e+00 1.565190e+00 2.124601e+00 1.892589e+00 1.670224e+00 2.751751e+00 1.605016e+00 2.608792e+00 1.694092e+00 1.782621e+00 7.861452e-01 1.681967e+00 2.386952e-01 2.528342e-01 2.140492e-01 2.955238e-01 3.119007e-01 2.807052e-01 5.077309e-01 2.680260e-01 3.448746e-01 3.480499e-01 2.474889e-01 1.394976e-01 2.035443e-01
<GCONST> 1.063685e+02
<TRANSP> 10
 0.000000e+00 1.000000e+00 0.000000e+00 0.000000e+00 0.000000e+00 0.000000e+00 0.000000e+00 0.000000e+00 0.000000e+00 0.000000e+00
 0.000000e+00 9.011431e-01 9.885686e-02 0.000000e+00 0.000000e+00 0.000000e+00 0.000000e+00 0.000000e+00 0.000000e+00 0.000000e+00
 0.000000e+00 0.000000e+00 8.320842e-01 1.679158e-01 0.000000e+00 0.000000e+00 0.000000e+00 0.000000e+00 0.000000e+00 0.000000e+00
 0.000000e+00 0.000000e+00 0.000000e+00 8.457100e-01 1.542900e-01 0.000000e+00 0.000000e+00 0.000000e+00 0.000000e+00 0.000000e+00
 0.000000e+00 0.000000e+00 0.000000e+00 0.000000e+00 8.201723e-01 1.798277e-01 0.000000e+00 0.000000e+00 0.000000e+00 0.000000e+00
 0.000000e+00 0.000000e+00 0.000000e+00 0.000000e+00 0.000000e+00 9.161429e-01 8.385714e-02 0.000000e+00 0.000000e+00 0.000000e+00
 0.000000e+00 0.000000e+00 0.000000e+00 0.000000e+00 0.000000e+00 0.000000e+00 9.170086e-01 8.299136e-02 0.000000e+00 0.000000e+00
 0.000000e+00 0.000000e+00 0.000000e+00 0.000000e+00 0.000000e+00 0.000000e+00 0.000000e+00 9.377957e-01 6.220427e-02 0.000000e+00
 0.000000e+00 0.000000e+00 0.000000e+00 0.000000e+00 0.000000e+00 0.000000e+00 0.000000e+00 0.000000e+00 9.573597e-01 4.264037e-02
 0.000000e+00 0.000000e+00 0.000000e+00 0.000000e+00 0.000000e+00 0.000000e+00 0.000000e+00 0.000000e+00 0.000000e+00 0.000000e+00
<ENDHMM>
~h "apple"
<BEGINHMM>
<NUMSTATES> 10
<STATE> 2
<MEAN> 39
 -9.900250e+00 -4.628095e+00 -1.039734e-01 -4.258894e+00 -2.087875e+00 -4.729601e+00 3.659134e+00 -1.489002e+00 -1.446092e+00 -6.330409e+00 -1.853401e+00 -1.221693e-02 3.249273e+01 -5.985349e-04 3.960535e-02 7.346755e-02 6.812399e-02 -4.637906e-02 8.096503e-02 -1.400444e-02 5.697093e-02 5.176913e-02 8.270353e-03 -2.965347e-02 -2.015197e-02 -1.012283e-01 1.823317e-03 4.944627e-02 -2.731512e-02 -4.090514e-03 1.040283e-02 -1.625216e-03 -3.170081e-02 -2.897867e-02 2.992048e-02 4.895482e-02 -1.672829e-02 -7.749580e-03 -2.146295e-02
<VARIANCE> 39
 1.491742e+01 2.668546e+01 1.692889e+01 5.358102e+01 1.356001e+01 3.190488e+01 4.624474e+01 2.042227e+01 1.038411e+01 3.991594e+01 1.622854e+01 9.806978e+00 9.798779e+01 1.082596e+00 2.245767e+00 1.698101e+00 3.741608e+00 1.372255e+00 2.404235e+00 3.766421e+00 2.206459e+00 1.586453e+00 2.671969e+00 1.504982e+00 1.195382e+00 5.495401e+00 1.760428e-01 3.463450e-01 2.813549e-01 6.308023e-01 2.752122e-01 4.122921e-01 7.108819e-01 3.903888e-01 3.358551e-01 4.301216e-01 2.989677e-01 2.486130e-01 6.239455e-01
<GCONST> 1.098703e+02
<STATE> 3
<MEAN> 39
 -1.139838e+01 -1.569112e+00 -2.584529e+00 -2.455371e+00 -2.054424e+00 -2.445320e+00 -4.982868e-01 6.638609e-01 -2.231877e-01 -1.286436e+00 -9.623944e-01 -6.747010e-01 2.758540e+01 6.388545e-01 7.727530e-03 -1.996660e-01 -4.874475e-01 5.674227e-01 -4.563917e-01 3.567298e-02 -2.180599e-01 5.505267e-01 3.067198e-01 -3.731994e-01 -3.550753e-01 1.469895e+00 3.470099e-01 -7.202531e-02 1.211255e-01 -5.850626e-02 2.512150e-01 -7.849330e-02 1.742375e-01 -8.135701e-02 3.056388e-01 6.438604e-02 -2.533402e-02 4.086345e-02 7.985763e-01
<VARIANCE> 39
 1.697998e+01 1.214609e+01 1.968427e+01 2.154884e+01 2.073774e+01 2.206542e+01 1.536361e+01 1.100348e+01 1.390338e+01 1.420932e+01 1.438419e+01 9.989917e+00 6.823560e+01 2.029570e+00 1.810046e+00 2.530674e+00 3.902869e+00 3.575010e+00 2.558879e+00 1.595526e+00 1.351946e+00 1.660053e+00 8.691738e-01 1.979623e+00 1.712900e+00 9.444674e+00 4.427041e-01 3.688282e-01 5.574399e-01 6.626912e-01 7.071048e-01 4.168484e-01 2.534481e-01 2.797155e-01 4.571821e-01 2.473677e-01 3.592446e-01 2.676271e-01 1.233112e+00
<GCONST> 1.082079e+02
<STATE> 4
<MEAN> 39
 -6.363462e+00 -3.931822e+00 -4.697856e+00 -5.559661e+00 3.072673e+00 -5.314238e+00 1.196996e+00 -5.898935e-01 3.713767e+00 9.953731e-01 -2.462552e+00 -2.808469e+00 4.219831e+01 1.237151e-01 -6.069572e-02 1.865853e-01 1.466730e-01 1.124254e-01 7.375154e-02 5.552137e-02 -3.649531e-02 1.541678e-01 1.142289e-01 7.214376e-02 3.855794e-02 3.190916e-01 5.332833e-02 1.601014e-02 8.883321e-02 2.959646e-02 -5.530102e-02 9.025787e-02 2.403844e-02 -5.130416e-02 -8.447904e-03 -2.802993e-02 6.994864e-02 5.696016e-02 7.029810e-02
<VARIANCE> 39
 2.112154e+01 1.501917e+01 1.172584e+01 3.263584e+01 1.882007e+01 1.952773e+01 1.821524e+01 1.241800e+01 1.481711e+01 1.081981e+01 1.119740e+01 9.700722e+00 2.194053e+02 2.348746e+00 1.567266e+00 1.992116e+00 2.293672e+00 2.643788e+00 1.660600e+00 1.643940e+00 1.451522e+00 2.466874e+00 9.814886e-01 1.304920e+00 9.972851e-01 1.868150e+01 4.250578e-01 3.019156e-01 4.194889e-01 4.903858e-01 5.424876e-01 2.991168e-01 2.863481e-01 3.399262e-01 5.437309e-01 1.697229e-01 2.569990e-01 1.911069e-01 2.210527e+00
<GCONST> 1.067293e+02
<STATE> 5
<MEAN> 39
 -7.792102e+00 -3.278211e+00 -1.167655e+00 -2.556382e+00 2.091889e+00 -2.549541e+00 7.844636e-01 -5.276549e-01 3.005783e+00 5.896142e-01 -8.522958e-01 -1.150070e+00 3.864533e+01 1.640271e+00 -1.365590e-02 1.066271e+00 -5.054085e-01 9.342629e-02 3.866785e-01 3.765090e-01 -7.286350e-01 6.999486e-01 -9.985928e-02 2.000604e-01 1.947835e-01 3.347708e+00 3.648508e-01 -1.979011e-02 -1.754792e-01 -7.170929e-01 -2.586487e-01 3.678809e-02 -5.734482e-02 -3.537731e-01 1.365385e-01 -7.229272e-02 -2.717637e-02 -4.168793e-02 1.495141e-01
<VARIANCE> 39
 2.183079e+01 1.703727e+01 1.934750e+01 2.882788e+01 1.154938e+01 1.646686e+01 1.256238e+01 1.157169e+01 1.643599e+01 1.225383e+01 9.003537e+00 8.645211e+00 1.706200e+02 5.201627e+00 2.039488e+00 1.955898e+00 3.368263e+00 1.635972e+00 1.863714e+00 1.818558e+00 2.171869e+00 4.878445e+00 1.558935e+00 8.204803e-01 6.293572e-01 1.822043e+01 5.560410e-01 6.723605e-01 3.811276e-01 6.931381e-01 3.307343e-01 2.351957e-01 3.750438e-01 3.668940e-01 4.718852e-01 2.336261e-01 1.757547e-01 1.069486e-01 2.289991e+00
<GCONST> 1.077495e+02
<STATE> 6
<MEAN> 39
 -7.728744e-01 -1.979491e+00 2.888072e+00 -4.820783e+00 5.156814e-01 5.583709e-01 1.240089e+00 -4.254919e+00 5.722687e+00 -1.622560e-01 2.554417e-03 -1.080419e-01 4.652531e+01 2.711188e+00 -4.606441e-01 2.027490e-01 -3.652939e+00 -9.540861e-01 3.776485e-01 -1.118628e-01 -2.173986e+00 1.449975e+00 -2.134463e-01 2.432999e-01 1.936249e-01 3.269192e+00 -6.685045e-01 -2.084206e-01 -5.050279e-01 -7.325174e-01 -4.100608e-01 -2.388829e-01 -2.327069e-01 -1.602775e-01 -2.724561e-01 -1.601243e-01 -6.037308e-02 6.045648e-02 -1.246846e+00
<VARIANCE> 39
 2.714743e+01 3.097442e+01 1.607996e+01 4.880312e+01 1.653664e+01 2.760159e+01 2.988108e+01 1.629680e+01 4.877416e+01 1.742036e+01 6.197648e+00 7.211664e+00 5.276426e+01 2.823287e+00 8.233271e+00 1.579450e+00 3.692840e+00 1.372627e+00 2.081503e+00 4.428606e+00 1.839350e+00 5.651229e+00 1.482512e+00 5.897433e-01 4.678276e-01 6.419847e+00 7.634256e-01 8.910236e-01 4.023889e-01 9.219639e-01 3.472599e-01 3.675678e-01 4.045194e-01 3.407023e-01 3.617050e-01 4.869987e-01 1.522892e-01 1.077020e-01 8.400078e-01
<GCONST> 1.112150e+02
<STATE> 7
<MEAN> 39
 1.752844e+00 -3.474005e+00 1.778785e+00 -1.562539e+01 -2.842533e+00 -1.706866e-01 1.221458e+00 -9.284767e+00 6.877419e+00 -1.281972e+00 6.639946e-01 8.380597e-01 4.964561e+01 4.663733e-01 -7.049788e-01 -2.605452e-01 -3.038182e+00 -1.092941e+00 -3.562265e-01 -2.382170e-01 -1.557021e+00 2.930207e-01 -4.156867e-01 -1.716708e-01 3.828715e-01 6.455991e-01 -6.002675e-01 5.421518e-02 -5.846611e-02 5.715438e-01 1.587846e-01 -1.327112e-01 -3.414905e-02 3.685155e-01 -3.062376e-01 -8.739561e-03 -1.851149e-01 5.414717e-03 -6.933409e-01
<VARIANCE> 39
 5.901360e+00 4.567577e+01 9.691788e+00 5.759954e+01 1.810594e+01 2.842345e+01 6.326240e+01 1.462141e+01 8.997636e+01 1.094001e+01 4.799441e+00 4.615096e+00 2.190520e+01 2.125734e+00 4.213095e+00 1.465951e+00 4.850007e+00 1.510806e+00 1.257145e+00 2.672509e+00 1.428492e+00 2.143482e+00 1.517661e+00 9.148402e-01 4.956785e-01 1.602770e+00 3.859185e-01 8.684726e-01 3.019105e-01 5.758640e-01 3.376435e-01 3.587353e-01 3.870249e-01 2.858008e-01 3.413816e-01 3.280002e-01 1.534302e-01 9.351825e-02 4.569338e-01
<GCONST> 1.023718e+02
<STATE> 8
<MEAN> 39
 8.410635e-01 5.718549e-01 -1.403849e-01 -1.869818e+01 6.925672e-01 1.352929e+00 1.738856e+00 -9.084011e+00 4.177046e+00 -1.702998e+00 -2.113183e+00 2.046658e+00 4.461919e+01 -3.325797e-01 4.192514e-01 3.592528e-02 7.361595e-01 5.151579e-01 3.465421e-01 -1.871049e-01 3.101305e-01 -3.278337e-01 -1.750250e-01 -6.280404e-02 -8.741657e-02 -1.003354e+00 -6.086991e-02 5.264448e-02 7.663792e-02 2.718287e-01 -4.921318e-03 -4.291715e-02 -4.560510e-03 1.326722e-01 -5.074001e-02 2.833472e-02 6.490044e-02 -3.038124e-02 -1.004835e-01
<VARIANCE> 39
 9.205376e+00 5.469753e+01 1.339616e+01 6.850137e+01 4.713012e+01 3.903962e+01 6.990940e+01 1.839778e+01 7.877930e+01 2.291353e+01 1.294692e+01 1.591793e+01 4.045238e+01 6.332718e-01 1.767627e+00 1.631764e+00 3.510192e+00 2.106637e+00 3.366575e+00 3.290183e+00 1.751547e+00 1.982165e+00 1.985420e+00 1.269983e+00 1.201514e+00 7.099884e-01 1.091040e-01 3.622678e-01 2.693112e-01 3.162917e-01 3.594974e-01 7.172655e-01 5.472707e-01 3.772860e-01 3.115020e-01 3.618307e-01 2.241327e-01 2.292130e-01 8.578822e-02
<GCONST> 1.067089e+02
<STATE> 9
<MEAN> 39
 -3.964672e+00 -1.016566e-01 1.879885e+00 -5.052589e+00 2.279175e+00 3.211550e+00 -3.031455e+00 -4.659559e+00 5.113115e+00 -3.788965e+00 -1.105911e+00 -2.471201e-01 3.414020e+01 -5.087537e-01 4.485829e-01 2.721872e-01 1.135518e+00 -1.694234e-02 -3.509756e-01 3.981842e-01 7.476299e-01 -5.209307e-01 2.336607e-01 1.601942e-01 -6.891710e-02 -9.147967e-01 2.654044e-02 -2.235107e-02 -1.003340e-01 -8.375074e-02 2.248417e-02 2.786309e-02 5.439216e-02 -5.374508e-02 7.046275e-02 5.071582e-02 -7.674014e-02 4.188213e-04 5.341872e-02
<VARIANCE> 39
 1.557031e+01 3.032920e+01 1.354048e+01 5.671543e+01 2.367395e+01 1.355266e+01 3.229706e+01 3.309661e+01 5.726107e+01 1.773350e+01 1.462884e+01 1.409288e+01 4.584431e+01 7.033104e-01 6.451709e-01 1.111925e+00 2.218218e+00 2.208633e+00 1.992980e+00 1.359143e+00 1.039653e+00 1.929470e+00 1.802060e+00 1.718967e+00 1.843549e+00 5.216449e-01 1.098974e-01 1.263873e-01 1.639275e-01 2.371061e-01 4.054528e-01 3.698373e-01 2.733020e-01 1.987134e-01 4.051196e-01 2.953646e-01 3.095062e-01 2.783839e-01 7.507323e-02
<GCONST> 9.749129e+01
<TRANSP> 10
 0.000000e+00 1.000000e+00 0.000000e+00 0.000000e+00 0.000000e+00 0.000000e+00 0.000000e+00 0.000000e+00 0.000000e+00 0.000000e+00
 0.000000e+00 9.401464e-01 5.985354e-02 0.000000e+00 0.000000e+00 0.000000e+00 0.000000e+00 0.000000e+00 0.000000e+00 0.000000e+00
 0.000000e+00 0.000000e+00 6.581451e-01 3.418550e-01 0.000000e+00 0.000000e+00 0.000000e+00 0.000000e+00 0.000000e+00 0.000000e+00
 0.000000e+00 0.000000e+00 0.000000e+00 9.024273e-01 9.757269e-02 0.000000e+00 0.000000e+00 0.000000e+00 0.000000e+00 0.000000e+00
 0.000000e+00 0.000000e+00 0.000000e+00 0.000000e+00 6.397427e-01 3.602573e-01 0.000000e+00 0.000000e+00 0.000000e+00 0.000000e+00
 0.000000e+00 0.000000e+00 0.000000e+00 0.000000e+00 0.000000e+00 4.671418e-01 5.328583e-01 0.000000e+00 0.000000e+00 0.000000e+00
 0.000000e+00 0.000000e+00 0.000000e+00 0.000000e+00 0.000000e+00 0.000000e+00 6.171831e-01 3.828169e-01 0.000000e+00 0.000000e+00
 0.000000e+00 0.000000e+00 0.000000e+00 0.000000e+00 0.000000e+00 0.000000e+00 0.000000e+00 9.292288e-01 7.077121e-02 0.000000e+00
 0.000000e+00 0.000000e+00 0.000000e+00 0.000000e+00 0.000000e+00 0.000000e+00 0.000000e+00 0.000000e+00 8.601144e-01 1.398856e-01
 0.000000e+00 0.000000e+00 0.000000e+00 0.000000e+00 0.000000e+00 0.000000e+00 0.000000e+00 0.000000e+00 0.000000e+00 0.000000e+00
<ENDHMM>
~h "mesic"
<BEGINHMM>
<NUMSTATES> 10
<STATE> 2
<MEAN> 39
 -3.624773e+00 3.077727e+00 2.304070e+00 4.354726e+00 1.899179e+00 -6.662534e+00 2.064835e-01 -8.011396e+00 -7.279250e+00 -7.596602e-01 1.737281e+00 -9.833971e-01 3.309965e+01 1.610815e+00 2.679203e-01 7.789645e-01 7.250170e-01 1.915083e-01 -1.308492e+00 6.106517e-02 -1.284032e+00 -1.111571e+00 5.922678e-02 6.282353e-02 -2.859399e-01 1.734619e+00 -1.601185e-02 -1.303836e-01 -9.765709e-02 -7.253939e-02 -1.002963e-01 -4.356444e-02 2.500500e-02 -2.651796e-02 3.418519e-02 1.003426e-01 5.662923e-02 1.473751e-03 7.431287e-02
<VARIANCE> 39
 4.333336e+01 9.797768e+00 1.418437e+01 1.420495e+01 1.213996e+01 4.169068e+01 2.935219e+01 4.553893e+01 3.483493e+01 1.615202e+01 1.749619e+01 1.009673e+01 5.499497e+01 2.330583e+00 1.871841e+00 2.437748e+00 1.478691e+00 9.868096e-01 2.564714e+00 2.613548e+00 3.330855e+00 2.888196e+00 1.848625e+00 1.592445e+00 8.049681e-01 1.379300e+00 5.326411e-01 3.195000e-01 4.436430e-01 2.831719e-01 1.758054e-01 5.760459e-01 5.499462e-01 6.388323e-01 6.205803e-01 3.479489e-01 2.939972e-01 1.213042e-01 3.094661e-01
<GCONST> 1.068449e+02
<STATE> 3
<MEAN> 39
 1.660360e+00 8.431515e-01 2.925030e+00 6.352083e+00 1.709123e+00 -1.270549e+01 2.018608e+00 -1.051756e+01 -1.201455e+01 6.437647e-02 3.229547e+00 -1.162200e+00 4.136913e+01 1.488240e-01 -1.819375e-01 7.107805e-02 1.018156e-01 -3.401438e-01 -2.071453e-01 3.288075e-01 -8.665439e-02 -1.591868e-01 -1.748793e-02 1.951486e-01 1.063582e-01 6.823416e-01 -2.028290e-01 3.694070e-02 1.546575e-02 -1.900086e-01 6.713495e-03 1.640604e-01 1.735540e-02 1.298539e-01 1.084662e-01 -1.934034e-02 1.425953e-02 7.594717e-02 -6.347486e-02
<VARIANCE> 39
 1.527824e+01 1.061517e+01 9.773298e+00 1.629940e+01 2.194707e+01 3.388104e+01 2.771759e+01 1.680137e+01 3.242713e+01 1.848650e+01 2.252621e+01 1.485992e+01 3.635332e+01 1.171414e+00 9.656205e-01 1.429547e+00 2.468295e+00 1.416649e+00 2.657131e+00 2.511123e+00 1.298887e+00 2.498673e+00 2.152781e+00 1.264068e+00 1.103495e+00 6.618500e-01 1.886023e-01 1.858494e-01 3.296130e-01 6.346763e-01 3.113602e-01 5.150408e-01 4.721938e-01 2.339324e-01 5.145786e-01 4.184843e-01 2.727585e-01 2.115977e-01 9.163304e-02
<GCONST> 1.001624e+02
<STATE> 4
<MEAN> 39
 -1.231500e+00 1.134650e+00 3.957039e+00 4.374331e+00 -2.032291e+00 -1.054091e+01 2.931482e+00 -9.104948e+00 -1.152637e+01 -2.563194e-01 4.000307e+00 1.199164e+00 4.511277e+01 -9.322213e-01 3.165043e-01 5.541976e-01 -1.402051e+00 3.330246e-03 3.789437e-01 1.351431e-01 1.326506e-01 4.455380e-01 -1.742489e-02 -1.897680e-01 2.342170e-01 8.624102e-01 -1.276776e-01 -1.009787e-02 6.276526e-02 -3.451931e-01 8.222149e-02 1.054123e-01 1.815933e-02 -5.955223e-03 1.985078e-01 -8.785523e-02 -1.204345e-01 -1.084727e-01 5.973857e-02
<VARIANCE> 39
 2.720132e+01 1.703873e+01 1.672304e+01 5.384666e+01 1.785193e+01 3.189565e+01 2.211982e+01 2.226906e+01 3.252100e+01 1.871908e+01 2.479253e+01 1.553770e+01 5.358780e+01 1.800478e+00 1.343343e+00 1.925385e+00 7.034472e+00 2.810987e+00 4.955119e+00 2.816293e+00 1.142304e+00 2.987206e+00 2.298931e+00 1.032279e+00 1.190759e+00 5.029271e-01 2.886444e-01 2.610952e-01 3.707988e-01 1.125166e+00 4.563416e-01 9.813513e-01 5.402967e-01 2.287433e-01 4.926945e-01 4.535556e-01 1.929154e-01 2.303593e-01 7.571317e-02
<GCONST> 1.087005e+02
<STATE> 5
<MEAN> 39
 -7.861151e+00 2.018216e+00 7.686750e+00 -7.506079e+00 -1.807464e+00 -7.040481e+00 3.589461e+00 -9.023778e+00 -4.312573e+00 -2.603123e+00 -2.062165e-01 -2.037416e-01 4.920248e+01 -5.765115e-01 -5.953143e-01 2.099869e-01 -1.735646e+00 -1.297487e-01 2.898558e-01 5.048831e-01 2.838656e-01 1.333901e+00 -5.974882e-01 -7.116878e-01 -6.915618e-01 1.005798e+00 2.501560e-01 -1.948822e-01 -2.962660e-01 4.947886e-01 -1.373015e-01 -2.059700e-01 1.772003e-02 1.439911e-01 -1.103267e-01 -5.494126e-03 2.922411e-02 -8.504993e-02 -1.256320e-01
<VARIANCE> 39
 1.078397e+01 1.419292e+01 2.315124e+01 9.744839e+01 3.671884e+01 3.614023e+01 2.170816e+01 6.668407e+01 2.884585e+01 1.151050e+01 2.869712e+01 4.328944e+01 7.779664e+01 1.297332e+00 1.386455e+00 1.960083e+00 8.723420e+00 2.772979e+00 6.220489e+00 1.435311e+00 2.155412e+00 1.170301e+00 1.176286e+00 7.414122e-01 1.176346e+00 3.614553e-01 1.764377e-01 2.654027e-01 2.203038e-01 1.165208e+00 5.513018e-01 1.082314e+00 2.317446e-01 3.773919e-01 1.936287e-01 1.771895e-01 1.550615e-01 2.068978e-01 5.012784e-02
<GCONST> 1.055711e+02
<STATE> 6
<MEAN> 39
 -9.857914e+00 -1.589231e+00 4.342856e+00 -8.778614e+00 -2.053593e+00 -6.981935e+00 5.652729e+00 -7.752979e+00 -1.653787e+00 -6.149516e+00 -3.197840e+00 -3.699222e+00 4.831269e+01 -2.558453e-01 -2.555798e-01 -1.004758e+00 8.666165e-01 3.202128e-02 -3.457940e-02 -6.178505e-02 6.311254e-01 2.234153e-01 -1.517998e-01 -1.457032e-01 -6.309825e-02 -6.094962e-02 -7.595503e-02 1.636066e-01 -1.063056e-01 2.886611e-01 1.150541e-01 6.706014e-02 -1.079383e-01 -2.677631e-02 -1.097232e-01 1.114108e-01 9.571201e-02 1.411734e-01 -1.857170e-01
<VARIANCE> 39
 2.632536e+01 1.239859e+01 4.904325e+01 1.046984e+02 1.881851e+01 4.455539e+01 3.032853e+01 7.917030e+01 2.412068e+01 3.304752e+01 1.672212e+01 2.854713e+01 7.492770e+01 1.608277e+00 2.131866e+00 1.450254e+00 3.975921e+00 2.180074e+00 4.654587e+00 1.197522e+00 1.628353e+00 1.919815e+00 2.455790e+00 8.987708e-01 1.216362e+00 7.923694e-01 2.656342e-01 4.120041e-01 2.402694e-01 5.806081e-01 3.251210e-01 9.222398e-01 1.910222e-01 3.320602e-01 2.829365e-01 2.697193e-01 1.164487e-01 1.395847e-01 7.418196e-02
<GCONST> 1.076286e+02
<STATE> 7
<MEAN> 39
 -1.541733e+01 -4.757342e-01 -1.355641e+00 -2.763800e+00 -1.288332e+00 -4.494328e+00 4.685893e+00 -6.392231e+00 -3.286926e-01 -4.274532e+00 -1.816971e+00 -2.039458e+00 4.412886e+01 -7.279928e-01 4.074520e-01 -3.759826e-01 4.654659e-01 1.285187e-01 3.276275e-01 -3.806719e-01 1.375540e-01 2.238105e-01 3.449990e-01 1.507311e-01 2.567470e-01 -4.280745e-01 -6.216103e-02 4.000437e-02 1.169320e-01 -1.302466e-01 -2.375035e-02 2.209288e-02 -2.374589e-02 -6.269574e-02 -2.751521e-03 2.667558e-02 2.853538e-02 2.230748e-02 -4.457832e-03
<VARIANCE> 39
 5.510644e+01 1.920727e+01 6.072973e+01 5.347532e+01 1.773937e+01 3.641134e+01 3.905479e+01 5.134037e+01 2.483899e+01 3.576596e+01 1.326770e+01 1.133981e+01 6.808461e+01 2.844312e+00 1.983382e+00 4.586775e+00 3.555278e+00 2.112933e+00 3.414773e+00 1.783633e+00 1.950788e+00 2.022710e+00 1.955407e+00 1.034946e+00 8.819849e-01 4.533929e-01 3.892668e-01 4.251312e-01 4.743154e-01 2.775286e-01 3.493766e-01 6.410970e-01 3.447610e-01 3.709553e-01 3.965571e-01 2.920617e-01 1.727898e-01 1.339718e-01 8.510184e-02
<GCONST> 1.092982e+02
<STATE> 8
<MEAN> 39
 -1.685838e+01 5.670860e+00 5.347959e+00 -2.531765e+00 -2.648810e+00 -6.524136e+00 1.790422e+00 -4.900445e+00 1.030534e+00 -5.276066e+00 -1.191387e+00 6.434090e-01 4.571721e+01 7.984152e-02 3.919961e-01 7.670980e-01 -3.359821e-01 6.720080e-02 -1.457157e-01 -2.421870e-01 -1.378877e-01 7.170948e-02 -2.571526e-01 -2.865679e-02 1.651241e-01 -3.478722e-01 4.249154e-02 -3.672776e-02 -7.834894e-03 -1.231145e-02 4.129423e-02 -1.266162e-02 -3.303014e-03 2.171835e-02 -1.349792e-02 1.001944e-02 5.041752e-03 1.319520e-02 -6.074609e-03
<VARIANCE> 39
 3.854382e+01 2.870841e+01 1.099024e+02 3.961610e+01 2.066697e+01 2.418950e+01 2.461076e+01 3.440814e+01 1.520806e+01 4.370363e+01 9.856246e+00 1.202484e+01 4.169399e+01 2.726558e+00 1.338807e+00 3.755833e+00 1.889661e+00 1.779737e+00 1.723096e+00 1.643133e+00 1.529492e+00 1.116235e+00 2.192005e+00 7.950926e-01 9.735432e-01 3.391688e-01 3.206791e-01 2.127296e-01 4.274409e-01 2.387880e-01 2.604092e-01 2.966870e-01 2.919067e-01 2.890662e-01 2.109863e-01 3.457631e-01 1.446455e-01 1.647374e-01 5.510601e-02
<GCONST> 1.006262e+02
<STATE> 9
<MEAN> 39
 -1.580674e+01 3.660436e+00 2.850407e+00 -2.422588e+00 8.591730e-01 -5.118261e+00 -1.736587e-01 -3.625836e+00 5.623183e-01 -2.817400e+00 -2.513454e-01 9.236000e-01 3.583739e+01 2.021605e-02 -2.205507e-01 -3.698991e-01 2.645228e-01 3.370172e-02 1.079084e-01 1.324566e-01 1.511711e-01 -7.019458e-02 8.770160e-02 1.315038e-01 1.781574e-03 -3.122979e-01 2.065965e-02 9.336144e-03 9.074330e-03 5.529788e-03 -3.168350e-02 2.771692e-02 -8.861150e-03 7.494025e-03 -1.118871e-03 1.933009e-03 -2.191927e-02 -1.711698e-02 -5.108808e-03
<VARIANCE> 39
 3.670335e+01 2.517098e+01 1.047685e+02 5.414324e+01 1.882055e+01 2.055906e+01 6.102760e+01 2.287399e+01 1.130534e+01 2.766786e+01 1.906979e+01 1.033479e+01 6.475109e+01 1.601491e+00 1.195339e+00 2.984964e+00 2.095482e+00 1.203246e+00 1.755286e+00 2.689403e+00 1.332431e+00 1.226044e+00 1.758442e+00 1.210607e+00 1.155339e+00 2.150956e+00 1.988734e-01 2.233151e-01 3.580499e-01 3.129462e-01 2.251258e-01 3.269589e-01 3.992241e-01 2.493647e-01 2.254289e-01 3.314593e-01 2.383974e-01 2.275498e-01 2.622736e-01
<GCONST> 1.048591e+02
<TRANSP> 10
 0.000000e+00 1.000000e+00 0.000000e+00 0.000000e+00 0.000000e+00 0.000000e+00 0.000000e+00 0.000000e+00 0.000000e+00 0.000000e+00
 0.000000e+00 8.514040e-01 1.485960e-01 0.000000e+00 0.000000e+00 0.000000e+00 0.000000e+00 0.000000e+00 0.000000e+00 0.000000e+00
 0.000000e+00 0.000000e+00 8.529153e-01 1.470847e-01 0.000000e+00 0.000000e+00 0.000000e+00 0.000000e+00 0.000000e+00 0.000000e+00
 0.000000e+00 0.000000e+00 0.000000e+00 8.252527e-01 1.747474e-01 0.000000e+00 0.000000e+00 0.000000e+00 0.000000e+00 0.000000e+00
 0.000000e+00 0.000000e+00 0.000000e+00 0.000000e+00 7.845543e-01 2.154457e-01 0.000000e+00 0.000000e+00 0.000000e+00 0.000000e+00
 0.000000e+00 0.000000e+00 0.000000e+00 0.000000e+00 0.000000e+00 8.142114e-01 1.857886e-01 0.000000e+00 0.000000e+00 0.000000e+00
 0.000000e+00 0.000000e+00 0.000000e+00 0.000000e+00 0.000000e+00 0.000000e+00 8.687833e-01 1.312167e-01 0.000000e+00 0.000000e+00
 0.000000e+00 0.000000e+00 0.000000e+00 0.000000e+00 0.000000e+00 0.000000e+00 0.000000e+00 9.396681e-01 6.033189e-02 0.000000e+00
 0.000000e+00 0.000000e+00 0.000000e+00 0.000000e+00 0.000000e+00 0.000000e+00 0.000000e+00 0.000000e+00 9.673211e-01 3.267892e-02
 0.000000e+00 0.000000e+00 0.000000e+00 0.000000e+00 0.000000e+00 0.000000e+00 0.000000e+00 0.000000e+00 0.000000e+00 0.000000e+00
<ENDHMM>
~h "mesicu"
<BEGINHMM>
<NUMSTATES> 10
<STATE> 2
<MEAN> 39
 9.004545e-01 4.611509e+00 9.469748e+00 6.191842e+00 -5.724517e+00 -7.479543e+00 1.285965e+00 -3.801279e+00 -5.432662e+00 -6.225142e+00 1.388368e-01 -1.017091e+00 3.939951e+01 3.187249e-01 2.531163e-01 4.859699e-01 -3.132951e-01 -8.295541e-01 -1.818513e-01 -1.012107e-01 -4.151061e-01 -3.922343e-03 -5.348867e-01 -9.115478e-02 1.364531e-01 9.943131e-01 -1.148485e-01 -8.354491e-02 -1.142093e-01 -9.488109e-02 -4.090297e-02 4.151092e-02 2.706636e-02 -4.128574e-03 9.184927e-02 2.574390e-02 4.097350e-03 3.601611e-02 -1.621927e-02
<VARIANCE> 39
 2.034959e+01 1.295547e+01 2.127829e+01 3.267720e+01 5.052205e+01 4.098627e+01 1.343715e+01 1.255632e+01 2.381915e+01 2.302006e+01 1.099183e+01 1.271804e+01 3.016061e+01 3.031940e+00 1.669137e+00 2.011739e+00 3.147598e+00 2.500520e+00 5.726216e+00 1.807388e+00 1.029689e+00 3.497843e+00 1.049096e+00 1.560605e+00 1.174159e+00 1.428649e+00 3.662498e-01 3.089685e-01 3.544669e-01 5.335643e-01 5.547560e-01 9.972508e-01 3.879560e-01 1.796612e-01 6.786625e-01 2.086213e-01 3.210010e-01 2.173988e-01 2.196983e-01
<GCONST> 1.069934e+02
<STATE> 3
<MEAN> 39
 -3.415367e+00 4.221065e+00 7.877428e+00 -1.432982e+00 -1.229153e+01 -6.749804e+00 1.618271e+00 -9.221914e+00 3.332510e+00 -9.092007e+00 -1.033852e-01 3.157262e+00 5.078373e+01 -2.365031e-01 -6.980533e-01 -1.192101e+00 2.374372e-01 7.920151e-01 -9.587245e-01 -1.081263e-01 3.573903e-02 9.299366e-01 7.279480e-01 -2.395912e-01 -6.429783e-02 8.389390e-01 -8.594650e-02 3.252685e-02 -2.335852e-02 1.016323e-01 2.965679e-01 4.647542e-02 -7.148053e-02 1.480765e-01 -1.214815e-01 1.321429e-01 -5.626464e-02 -1.025092e-01 -1.223839e-01
<VARIANCE> 39
 4.360138e+00 1.280632e+01 2.878593e+01 1.028887e+01 2.603897e+01 2.616919e+01 1.002094e+01 6.673698e+00 1.792942e+01 1.423415e+01 6.079128e+00 4.182373e+00 1.425965e+01 6.863486e-01 1.000179e+00 1.089140e+00 1.034470e+00 2.613608e+00 2.245549e+00 1.643430e+00 1.150077e+00 1.046837e+00 1.090041e+00 8.130339e-01 7.207949e-01 3.696755e-01 1.465988e-01 2.109776e-01 1.999295e-01 1.995539e-01 3.120044e-01 4.520126e-01 3.408889e-01 2.012050e-01 1.836501e-01 1.659393e-01 1.840794e-01 1.259347e-01 4.568020e-02
<GCONST> 8.262749e+01
<STATE> 4
<MEAN> 39
 -7.599059e+00 2.032115e+00 1.659924e+00 7.962250e-01 -4.130504e+00 -9.206419e+00 4.136102e-01 -6.743856e+00 6.199049e+00 -3.459710e+00 -2.196552e+00 1.872495e+00 5.317971e+01 -1.728882e+00 1.367320e-01 -7.444990e-01 1.925306e-01 1.482775e+00 6.323283e-01 7.382755e-02 7.772438e-01 -2.224727e-01 7.426696e-01 2.815950e-02 -1.344760e-01 -2.508313e-01 -2.796400e-01 4.494001e-02 1.214932e-02 -1.611598e-01 -1.706174e-01 2.269539e-01 8.097214e-02 9.371381e-02 -1.712130e-01 -1.655954e-01 1.608408e-01 8.402248e-02 -1.698382e-01
<VARIANCE> 39
 3.196919e+01 4.276400e+00 9.713796e+00 9.682858e+00 2.741918e+01 1.516709e+01 5.148935e+00 1.503928e+01 7.579865e+00 9.509895e+00 8.794172e+00 3.416775e+00 4.044785e+00 1.690324e+00 9.264629e-01 7.297806e-01 1.142583e+00 1.524968e+00 2.390371e+00 8.824619e-01 1.371708e+00 1.219133e+00 6.474037e-01 1.621406e+00 4.049266e-01 5.991294e-01 2.085056e-01 2.199645e-01 1.741882e-01 2.064789e-01 2.753789e-01 4.028676e-01 2.152266e-01 3.089815e-01 1.849311e-01 7.337230e-02 3.508040e-01 8.880288e-02 6.762841e-02
<GCONST> 7.939933e+01
<STATE> 5
<MEAN> 39
 -1.938521e+01 2.777643e+00 -2.050753e+00 -4.222308e-01 8.452463e-02 -5.312843e+00 1.181656e+00 -2.572231e+00 3.585320e+00 -2.458347e+00 -3.821713e-01 1.712521e+00 5.033168e+01 -1.423331e+00 -3.934756e-03 -4.658805e-01 -3.364076e-01 3.810106e-02 3.498220e-01 7.654909e-03 4.305651e-01 -3.873998e-01 -1.088847e-01 2.176166e-01 -9.418663e-03 -3.850690e-01 2.324934e-01 -1.639028e-02 8.575193e-02 1.210184e-02 -1.614548e-01 -1.493984e-01 -5.797427e-02 -9.651453e-02 1.865475e-02 -6.796674e-02 -6.294654e-02 -2.912296e-02 5.067533e-02
<VARIANCE> 39
 3.072538e+01 4.922873e+00 1.372551e+01 5.013647e+00 1.208654e+01 1.170493e+01 9.639120e+00 9.689169e+00 9.135209e+00 4.705980e+00 6.524105e+00 4.124279e+00 2.885556e+00 1.814181e+00 6.356747e-01 1.069615e+00 5.099436e-01 1.214189e+00 1.442302e+00 1.357880e+00 9.591600e-01 7.332875e-01 5.956554e-01 8.646065e-01 4.101326e-01 1.390597e-01 1.928453e-01 1.532350e-01 1.854714e-01 1.067054e-01 1.813589e-01 2.756974e-01 3.054915e-01 1.843351e-01 1.540181e-01 1.169707e-01 1.691017e-01 8.034620e-02 2.711179e-02
<GCONST> 6.981297e+01
<STATE> 6
<MEAN> 39
 -2.014872e+01 5.021451e+00 2.791306e+00 -6.140628e-01 -2.607875e+00 -4.838451e+00 9.643235e-01 -3.098936e+00 8.619224e-01 -4.976243e+00 1.109459e-01 9.013120e-01 4.844791e+01 3.231845e-01 3.989898e-01 8.066710e-01 7.161810e-02 -1.045107e-01 -7.030898e-02 1.408987e-02 -1.020383e-01 -2.297158e-01 -2.474415e-01 7.833140e-02 -4.858249e-02 -2.117808e-01 9.058837e-02 3.271487e-02 6.575235e-02 2.895221e-02 1.846585e-02 -5.329614e-03 -2.995257e-03 -1.333524e-02 -9.674836e-03 5.533001e-04 3.999643e-03 6.464180e-03 -9.651869e-03
<VARIANCE> 39
 3.435995e+01 2.065675e+01 7.204634e+01 6.176627e+00 1.152392e+01 1.035601e+01 1.312686e+01 1.813828e+01 9.999594e+00 1.424646e+01 9.086518e+00 4.537989e+00 5.427681e+00 1.643903e+00 1.022917e+00 2.060336e+00 6.743165e-01 1.063852e+00 1.070204e+00 1.326240e+00 1.456988e+00 7.972657e-01 1.132246e+00 9.955645e-01 5.436971e-01 2.613674e-01 2.129599e-01 1.732962e-01 2.710586e-01 1.383221e-01 2.193777e-01 1.991384e-01 2.737168e-01 2.792943e-01 1.543644e-01 2.259302e-01 2.017153e-01 9.775479e-02 5.044703e-02
<GCONST> 8.198991e+01
<STATE> 7
<MEAN> 39
 -1.484466e+01 1.036032e+01 1.158362e+01 5.754142e-01 -1.771178e+00 -5.958879e+00 -9.028745e-02 -4.309317e+00 -2.309585e+00 -7.128882e+00 6.679096e-01 1.028916e+00 4.490967e+01 2.908309e-01 3.422825e-01 3.194250e-01 1.570590e-01 2.053360e-01 3.970683e-02 -2.619665e-01 -6.379084e-02 -3.375346e-01 -1.444999e-02 -4.729984e-02 1.174654e-02 -4.351187e-01 -5.336889e-02 -7.101985e-02 -1.522877e-01 8.602549e-03 4.913418e-02 4.653392e-02 8.417336e-03 -1.024999e-02 3.652600e-02 4.340611e-02 -4.610340e-02 -2.295450e-02 -5.334350e-02
<VARIANCE> 39
 3.549162e+01 2.238120e+01 5.765034e+01 1.217236e+01 1.526857e+01 9.266471e+00 1.731743e+01 2.238006e+01 1.238841e+01 1.461175e+01 1.265715e+01 4.715870e+00 1.857613e+01 2.142698e+00 1.513422e+00 3.041263e+00 1.442024e+00 1.960732e+00 1.059720e+00 1.402890e+00 1.715434e+00 1.144035e+00 1.087109e+00 1.405492e+00 6.828609e-01 1.572987e+00 2.865927e-01 2.745624e-01 3.300009e-01 2.873260e-01 4.396598e-01 1.684247e-01 2.569820e-01 3.158383e-01 2.195257e-01 1.694240e-01 2.655221e-01 1.503955e-01 2.772957e-01
<GCONST> 9.511705e+01
<STATE> 8
<MEAN> 39
 -1.951802e+01 6.745155e+00 5.339728e+00 -2.043523e+00 1.580489e+00 -4.264696e+00 -2.269508e+00 -1.290280e+00 -2.003870e+00 -3.529455e+00 -1.814396e+00 1.252286e-01 4.370241e+01 -4.008425e-01 -5.318445e-01 -5.916008e-01 -3.489499e-01 8.582599e-02 1.330681e-01 -2.325734e-01 2.469779e-01 2.188298e-01 3.153119e-01 -1.025272e-01 -1.048313e-01 4.479800e-01 6.324389e-02 2.708822e-03 4.178814e-02 -3.320423e-03 -2.781865e-02 4.634049e-03 -1.943755e-02 -2.193654e-02 8.650258e-03 -1.320117e-02 3.684311e-02 -1.203061e-02 5.942173e-02
<VARIANCE> 39
 4.554048e+01 3.247764e+01 4.812525e+01 2.863984e+01 1.512858e+01 1.186285e+01 2.097324e+01 2.520750e+01 1.708815e+01 1.564296e+01 8.507158e+00 6.845251e+00 5.714293e+01 3.335214e+00 1.180682e+00 2.207866e+00 1.818150e+00 1.915792e+00 1.202849e+00 1.860269e+00 2.039402e+00 1.277732e+00 1.067152e+00 8.886601e-01 1.009681e+00 4.025643e+00 4.783654e-01 2.258585e-01 3.134896e-01 2.681599e-01 4.080108e-01 2.095143e-01 3.541936e-01 3.672358e-01 2.447193e-01 2.086838e-01 1.605571e-01 2.283792e-01 6.110867e-01
<GCONST> 1.019134e+02
<STATE> 9
<MEAN> 39
 -1.216144e+00 1.111319e+01 -1.413405e+00 -4.181886e+00 -3.613700e+00 1.745892e-01 3.296523e+00 -5.449806e+00 -4.272149e+00 -7.771650e+00 -7.507907e-01 -1.298598e+00 4.378012e+01 4.764238e-01 1.758469e-01 7.296896e-02 1.027108e-01 -5.163841e-02 6.942095e-02 2.419600e-01 -2.394476e-02 -7.290851e-02 -1.355982e-01 -4.694917e-02 -3.388073e-02 -4.111042e-01 -5.993262e-02 -2.306826e-02 2.327531e-03 2.132790e-02 1.730297e-02 -1.320951e-02 -6.562676e-03 4.927395e-06 1.076769e-03 1.555185e-02 -3.100667e-03 1.077466e-02 -2.917755e-02
<VARIANCE> 39
 9.512516e+01 3.983878e+01 1.769418e+01 1.573150e+01 1.829037e+01 1.420802e+01 5.398671e+01 3.844540e+01 2.383267e+01 3.198201e+01 1.177810e+01 7.576640e+00 3.412988e+01 1.713134e+00 7.481176e-01 7.365909e-01 8.897110e-01 9.256516e-01 9.144083e-01 1.747351e+00 2.002209e+00 1.222724e+00 9.436812e-01 6.182248e-01 5.586488e-01 1.837760e-01 1.544053e-01 5.914248e-02 8.357026e-02 1.347016e-01 1.465317e-01 1.650345e-01 2.364168e-01 2.598942e-01 1.879380e-01 1.226128e-01 8.879831e-02 9.115358e-02 1.966153e-02
<GCONST> 8.348856e+01
<TRANSP> 10
 0.000000e+00 1.000000e+00 0.000000e+00 0.000000e+00 0.000000e+00 0.000000e+00 0.000000e+00 0.000000e+00 0.000000e+00 0.000000e+00
 0.000000e+00 9.508891e-01 4.911092e-02 0.000000e+00 0.000000e+00 0.000000e+00 0.000000e+00 0.000000e+00 0.000000e+00 0.000000e+00
 0.000000e+00 0.000000e+00 8.642542e-01 1.357458e-01 0.000000e+00 0.000000e+00 0.000000e+00 0.000000e+00 0.000000e+00 0.000000e+00
 0.000000e+00 0.000000e+00 0.000000e+00 7.844298e-01 2.155702e-01 0.000000e+00 0.000000e+00 0.000000e+00 0.000000e+00 0.000000e+00
 0.000000e+00 0.000000e+00 0.000000e+00 0.000000e+00 8.361982e-01 1.638018e-01 0.000000e+00 0.000000e+00 0.000000e+00 0.000000e+00
 0.000000e+00 0.000000e+00 0.000000e+00 0.000000e+00 0.000000e+00 9.368379e-01 6.316212e-02 0.000000e+00 0.000000e+00 0.000000e+00
 0.000000e+00 0.000000e+00 0.000000e+00 0.000000e+00 0.000000e+00 0.000000e+00 8.912009e-01 1.087991e-01 0.000000e+00 0.000000e+00
 0.000000e+00 0.000000e+00 0.000000e+00 0.000000e+00 0.000000e+00 0.000000e+00 0.000000e+00 9.462647e-01 5.373527e-02 0.000000e+00
 0.000000e+00 0.000000e+00 0.000000e+00 0.000000e+00 0.000000e+00 0.000000e+00 0.000000e+00 0.000000e+00 9.772134e-01 2.278658e-02
 0.000000e+00 0.000000e+00 0.000000e+00 0.000000e+00 0.000000e+00 0.000000e+00 0.000000e+00 0.000000e+00 0.000000e+00 0.000000e+00
<ENDHMM>
~h "tyden"
<BEGINHMM>
<NUMSTATES> 10
<STATE> 2
<MEAN> 39
 -1.215138e+01 5.052310e-01 -1.114035e+00 -1.370546e+00 -1.104830e+00 -1.291698e+00 -5.181295e-02 -1.559821e+00 -1.742531e-01 -1.153798e+00 4.694932e-01 5.890628e-01 3.320976e+01 2.196743e-01 2.354150e-01 9.770094e-01 -4.689588e-02 1.851298e-03 -3.980992e-01 3.632178e-01 -4.808571e-01 5.976993e-02 -2.299169e-01 -8.447842e-02 -8.686246e-02 3.318444e+00 9.360399e-02 6.397709e-02 3.549499e-01 2.010170e-01 -1.288367e-01 -8.770020e-02 3.983048e-02 -1.603391e-01 -2.566131e-02 -1.713661e-01 -8.265417e-02 -3.584163e-02 4.624095e-01
<VARIANCE> 39
 3.664505e+00 7.079076e+00 2.288106e+01 1.188297e+01 9.866747e+00 9.335344e+00 9.328182e+00 9.532250e+00 3.683296e+00 1.063167e+01 5.026358e+00 4.037283e+00 1.635665e+02 5.942186e-01 1.176510e+00 1.887315e+00 1.947868e+00 1.191418e+00 1.299575e+00 9.074588e-01 8.317356e-01 5.383371e-01 1.495036e+00 7.153656e-01 4.775326e-01 1.199860e+01 1.244139e-01 2.725149e-01 2.860276e-01 3.941541e-01 2.679377e-01 2.898907e-01 2.443134e-01 2.004302e-01 1.286353e-01 3.268662e-01 1.280993e-01 1.139548e-01 2.663606e+00
<GCONST> 8.606272e+01
<STATE> 3
<MEAN> 39
 -8.728335e+00 6.229419e+00 1.168682e+01 8.677526e-01 -3.801979e+00 -5.041126e+00 7.862848e-02 -3.405137e+00 -3.029755e-01 -1.049964e+01 -2.563203e+00 3.034522e+00 4.708653e+01 1.651232e-01 3.722458e-01 7.891065e-01 1.137640e-01 -1.730443e-01 -2.488291e-01 -7.612552e-02 -8.131774e-02 7.635512e-03 -6.735503e-01 -1.588210e-01 2.421907e-01 2.243731e-01 -4.462225e-02 -4.269457e-02 -4.973960e-02 -7.180606e-02 1.069604e-02 2.214154e-02 -4.947129e-02 -2.218388e-02 6.691096e-03 3.415760e-02 1.580338e-02 -8.847006e-03 -1.599311e-01
<VARIANCE> 39
 6.081500e+00 1.903436e+01 4.241396e+01 7.442695e+00 8.931590e+00 1.093980e+01 1.327672e+01 1.538059e+01 4.989566e+00 4.354121e+01 1.601553e+01 7.624813e+00 5.881198e+01 6.739141e-01 1.039173e+00 1.851909e+00 1.108273e+00 9.180393e-01 1.208377e+00 1.484002e+00 9.877999e-01 5.209683e-01 2.499650e+00 5.884733e-01 4.909126e-01 2.646398e+00 1.105307e-01 2.056544e-01 3.067515e-01 2.421970e-01 1.671912e-01 2.422530e-01 2.575890e-01 2.120941e-01 9.640080e-02 3.892695e-01 8.618763e-02 8.950962e-02 5.444555e-01
<GCONST> 8.593693e+01
<STATE> 4
<MEAN> 39
 -8.874668e+00 8.864124e+00 1.389290e+01 4.815381e-01 -4.478598e+00 -7.452461e+00 3.761414e-01 -3.434870e+00 -8.664939e-01 -1.274784e+01 -2.593829e+00 4.295519e+00 4.707159e+01 -3.197493e-02 5.068430e-03 3.015671e-01 3.218893e-02 -4.448912e-02 -2.403387e-01 -8.234830e-02 -1.113274e-02 -3.818078e-02 -8.837058e-02 3.062482e-02 3.123575e-02 1.296448e-01 2.391772e-02 -3.437262e-02 2.625208e-02 -4.302762e-02 -3.104906e-02 -3.933012e-02 -1.468843e-02 -3.169172e-02 -3.468361e-02 4.369603e-02 -1.091322e-02 -5.783084e-02 3.022729e-02
<VARIANCE> 39
 3.852375e+00 1.644432e+01 2.663084e+01 5.355085e+00 1.167614e+01 1.473761e+01 1.315893e+01 1.665389e+01 8.479041e+00 2.708731e+01 1.787412e+01 5.306680e+00 4.296639e+01 2.329614e-01 6.632566e-01 1.041061e+00 8.795280e-01 7.245233e-01 8.454458e-01 1.005994e+00 1.005572e+00 6.519143e-01 1.201808e+00 3.607717e-01 3.913836e-01 1.189423e+00 5.210815e-02 1.049981e-01 2.252570e-01 2.265920e-01 1.487614e-01 1.494653e-01 1.854465e-01 1.685051e-01 1.218142e-01 1.944223e-01 7.985270e-02 7.204825e-02 1.954046e-01
<GCONST> 7.462186e+01
<STATE> 5
<MEAN> 39
 -9.706333e+00 5.504946e+00 1.219726e+01 7.039354e-01 -3.862319e+00 -7.857245e+00 -6.259556e-01 -2.886384e+00 -1.178849e+00 -9.671453e+00 -1.610759e+00 2.652738e+00 4.309898e+01 3.968282e-01 -3.746285e-01 7.458584e-01 -1.949399e-01 -3.674681e-01 -5.366666e-01 -3.140757e-01 -4.234776e-01 -3.582872e-01 1.328798e-01 -1.610144e-01 -6.528233e-01 5.851597e-01 1.375064e-01 9.271279e-02 9.398908e-02 -2.693572e-01 4.182955e-02 -1.108689e-01 -1.910241e-03 4.419262e-02 -1.709575e-02 1.891940e-01 -8.831852e-02 -1.907247e-01 -1.041329e-01
<VARIANCE> 39
 7.576961e+00 3.568892e+01 5.080321e+01 2.715110e+01 2.370533e+01 2.061689e+01 1.754167e+01 2.314414e+01 1.077617e+01 3.874651e+01 1.527708e+01 1.519532e+01 8.312541e+01 4.596733e-01 9.861854e-01 4.564851e+00 4.245167e+00 2.771311e+00 1.290840e+00 9.585503e-01 3.555293e+00 1.216574e+00 1.544354e+00 7.670943e-01 9.780951e-01 6.036273e+00 8.836963e-02 2.101914e-01 4.767979e-01 8.231201e-01 6.507072e-01 3.062123e-01 2.578137e-01 3.773048e-01 2.336880e-01 3.127398e-01 1.520712e-01 2.175790e-01 1.065647e+00
<GCONST> 1.045958e+02
<STATE> 6
<MEAN> 39
 -9.519954e+00 5.168124e+00 1.639648e+01 -1.058076e+01 -4.701894e+00 -8.605114e+00 -3.363030e+00 -6.944664e+00 1.401424e+00 -6.920280e+00 -3.152161e+00 -3.080863e+00 4.116471e+01 3.573512e-01 6.656544e-02 6.354054e-01 -6.462194e-01 3.082929e-01 -6.783445e-02 -3.917507e-01 -4.413174e-02 2.185812e-03 2.227965e-01 -4.804758e-01 -4.279044e-01 -9.893835e-03 -6.839619e-03 -4.820434e-03 -1.717551e-01 4.959404e-02 1.321068e-01 6.927572e-02 -4.044937e-02 3.849306e-02 9.716924e-02 5.674517e-02 -1.043339e-02 1.144222e-01 -1.007810e-01
<VARIANCE> 39
 9.244696e+00 2.421694e+01 4.203455e+01 1.784090e+02 3.754533e+01 2.062569e+01 1.995757e+01 4.309079e+01 2.529496e+01 2.139358e+01 1.103295e+01 1.429377e+01 3.454055e+01 6.073138e-01 1.522223e+00 4.787851e+00 6.769184e+00 4.747172e+00 2.411009e+00 1.815963e+00 2.540086e+00 1.279275e+00 1.928738e+00 1.059628e+00 1.059022e+00 6.261379e+00 1.183394e-01 2.173470e-01 3.953027e-01 9.446433e-01 8.800718e-01 3.743342e-01 2.983144e-01 2.968309e-01 2.593694e-01 3.141143e-01 1.918052e-01 1.508026e-01 1.038983e+00
<GCONST> 1.103432e+02
<STATE> 7
<MEAN> 39
 -8.909396e+00 2.563671e+00 1.478290e+01 -1.273821e+01 -2.605671e+00 -8.883985e+00 -3.449142e+00 -6.944986e+00 6.088074e-01 -5.108137e+00 -3.651809e+00 -2.686426e+00 4.151570e+01 2.456216e-01 -2.899893e-01 -1.915498e-01 -3.967544e-01 2.801706e-02 -1.879625e-01 -1.615464e-01 -4.116835e-02 2.386806e-01 8.829577e-02 3.062159e-02 6.450604e-02 5.797373e-01 -1.869916e-04 -4.426905e-02 -1.771077e-01 4.181253e-02 -7.299226e-02 1.002096e-02 2.768226e-02 4.048483e-02 4.523878e-02 -2.559412e-02 7.893802e-02 5.804274e-02 5.377883e-02
<VARIANCE> 39
 1.717291e+01 4.648650e+01 4.452411e+01 1.508102e+02 3.388983e+01 2.652796e+01 6.293708e+01 4.110658e+01 2.476937e+01 2.356470e+01 2.302013e+01 1.008986e+01 4.326363e+01 6.524943e-01 2.207423e+00 3.152720e+00 6.258149e+00 3.425169e+00 3.330342e+00 2.599360e+00 1.802888e+00 1.765477e+00 1.721284e+00 1.567965e+00 7.574408e-01 6.006287e+00 1.316509e-01 2.881177e-01 3.310544e-01 1.066316e+00 6.715163e-01 5.411745e-01 3.525556e-01 3.474227e-01 3.021751e-01 2.973643e-01 2.592829e-01 1.250893e-01 1.087793e+00
<GCONST> 1.146389e+02
<STATE> 8
<MEAN> 39
 -3.914087e+00 -3.263611e+00 3.568676e+00 -5.117760e+00 -3.840235e-01 -8.026659e+00 1.851964e+00 -3.644740e+00 3.512758e-02 -7.227068e+00 -2.057013e+00 -2.238539e+00 4.462601e+01 5.695343e-02 5.543394e-02 -2.985778e-01 2.562107e-01 1.392179e-01 1.407979e-01 1.233932e-01 -7.452462e-02 -6.859780e-02 3.250707e-02 -2.397102e-03 -3.956963e-02 -2.557091e-01 -4.032553e-02 2.149543e-02 1.440452e-02 -1.923641e-02 -4.457509e-03 2.337169e-02 7.250356e-03 1.697461e-02 -1.706889e-02 3.094963e-02 8.645449e-03 1.300730e-02 -7.185676e-02
<VARIANCE> 39
 1.402474e+01 3.255958e+01 5.605576e+01 7.780303e+01 2.986767e+01 3.003884e+01 6.843160e+01 5.337798e+01 4.213284e+01 4.345352e+01 1.992064e+01 1.320248e+01 7.553037e+01 5.009947e-01 1.886952e+00 1.859831e+00 3.889153e+00 1.937321e+00 2.294022e+00 2.886986e+00 3.853308e+00 1.783035e+00 1.754259e+00 1.140469e+00 7.190641e-01 2.166997e+00 7.212905e-02 3.009443e-01 3.011844e-01 7.246761e-01 3.336577e-01 3.695564e-01 4.647191e-01 6.285833e-01 2.400594e-01 2.698869e-01 1.994659e-01 1.118531e-01 3.084173e-01
<GCONST> 1.097404e+02
<STATE> 9
<MEAN> 39
 -6.365833e-01 1.089496e+00 -1.805854e-01 -7.428159e-01 1.076489e+00 -5.707822e+00 1.260224e+00 -1.091208e+01 -2.385714e+00 1.265293e+00 -1.669572e+00 -9.029992e-01 4.707778e+01 -1.258112e-02 2.117925e-01 -3.274290e-02 7.224801e-02 3.007544e-02 2.393230e-01 -1.684026e-02 2.614031e-01 -7.915543e-02 1.075819e-01 1.418409e-01 -3.378202e-02 -4.524361e-01 2.603773e-02 3.450953e-03 7.085239e-03 2.825043e-02 3.325664e-02 2.375551e-03 -2.671934e-03 3.528937e-02 3.072958e-02 -2.389249e-02 3.641982e-04 1.181526e-02 -1.010504e-02
<VARIANCE> 39
 9.394436e+00 1.425937e+01 3.315728e+01 1.108060e+01 1.260898e+01 3.107289e+01 4.694512e+01 7.687026e+01 4.083709e+01 2.382760e+01 1.468343e+01 5.554904e+00 8.093068e+01 3.391560e-01 6.212397e-01 2.030686e+00 1.011850e+00 1.139575e+00 1.327822e+00 2.754239e+00 3.759832e+00 1.426736e+00 1.883042e+00 8.330994e-01 6.477819e-01 8.573878e-01 4.764756e-02 1.048855e-01 3.009106e-01 1.947107e-01 1.579036e-01 2.211127e-01 4.739652e-01 5.875694e-01 2.074012e-01 2.791749e-01 1.265317e-01 1.008473e-01 1.152303e-01
<GCONST> 9.231014e+01
<TRANSP> 10
 0.000000e+00 1.000000e+00 0.000000e+00 0.000000e+00 0.000000e+00 0.000000e+00 0.000000e+00 0.000000e+00 0.000000e+00 0.000000e+00
 0.000000e+00 7.276643e-01 2.723357e-01 0.000000e+00 0.000000e+00 0.000000e+00 0.000000e+00 0.000000e+00 0.000000e+00 0.000000e+00
 0.000000e+00 0.000000e+00 8.544262e-01 1.455738e-01 0.000000e+00 0.000000e+00 0.000000e+00 0.000000e+00 0.000000e+00 0.000000e+00
 0.000000e+00 0.000000e+00 0.000000e+00 8.713959e-01 1.286041e-01 0.000000e+00 0.000000e+00 0.000000e+00 0.000000e+00 0.000000e+00
 0.000000e+00 0.000000e+00 0.000000e+00 0.000000e+00 5.510458e-01 4.489543e-01 0.000000e+00 0.000000e+00 0.000000e+00 0.000000e+00
 0.000000e+00 0.000000e+00 0.000000e+00 0.000000e+00 0.000000e+00 7.644030e-01 2.355970e-01 0.000000e+00 0.000000e+00 0.000000e+00
 0.000000e+00 0.000000e+00 0.000000e+00 0.000000e+00 0.000000e+00 0.000000e+00 9.066133e-01 9.338669e-02 0.000000e+00 0.000000e+00
 0.000000e+00 0.000000e+00 0.000000e+00 0.000000e+00 0.000000e+00 0.000000e+00 0.000000e+00 9.662209e-01 3.377910e-02 0.000000e+00
 0.000000e+00 0.000000e+00 0.000000e+00 0.000000e+00 0.000000e+00 0.000000e+00 0.000000e+00 0.000000e+00 9.144878e-01 8.551221e-02
 0.000000e+00 0.000000e+00 0.000000e+00 0.000000e+00 0.000000e+00 0.000000e+00 0.000000e+00 0.000000e+00 0.000000e+00 0.000000e+00
<ENDHMM>
~h "dnu"
<BEGINHMM>
<NUMSTATES> 5
<STATE> 2
<MEAN> 39
 -4.029057e+00 1.659534e+00 6.572753e+00 6.707706e+00 3.802629e-01 -5.479463e+00 -3.883236e+00 -5.931322e+00 -2.145611e+00 -4.705500e+00 -2.153014e+00 -3.203114e-01 3.633479e+01 4.952586e-01 -1.443211e-01 5.633745e-02 2.588939e-01 -3.200094e-02 -4.258152e-01 9.404443e-03 -3.883723e-01 -3.105093e-02 -7.189862e-02 -7.719169e-02 -7.933109e-02 6.957629e-01 -6.352817e-02 -6.719229e-02 -1.276877e-01 -6.654395e-02 -1.273559e-02 1.567221e-02 8.535540e-02 2.575452e-02 2.544303e-02 5.786108e-02 2.744418e-02 -6.084361e-03 -5.903169e-02
<VARIANCE> 39
 1.765008e+01 4.519365e+01 2.254213e+01 1.446631e+01 3.556275e+01 3.205207e+01 2.697345e+01 2.144328e+01 1.875872e+01 1.151835e+01 9.576359e+00 1.548452e+01 6.932679e+01 1.837033e+00 3.961215e+00 3.041646e+00 1.569026e+00 2.888133e+00 3.415592e+00 3.685232e+00 3.159251e+00 1.975883e+00 1.459978e+00 1.389669e+00 1.395296e+00 3.415003e+00 3.002771e-01 6.623899e-01 4.828496e-01 2.923312e-01 4.482618e-01 7.236395e-01 6.752809e-01 5.501289e-01 3.677247e-01 2.726882e-01 2.658753e-01 2.342099e-01 5.706605e-01
<GCONST> 1.120736e+02
<STATE> 3
<MEAN> 39
 3.315412e+00 -1.684143e+00 -1.823895e+00 9.025741e+00 -1.094981e+00 -9.378566e+00 3.566597e+00 -1.403724e+01 -5.056410e+00 -1.497852e+00 1.074665e+00 -3.093153e+00 4.408392e+01 1.279605e-01 -9.048344e-02 -4.580126e-01 -4.515013e-01 -7.156825e-02 1.384107e-01 4.651360e-01 4.813824e-01 -5.621994e-01 6.433392e-02 1.307998e-01 1.134417e-02 1.750259e-01 -1.262020e-03 2.665893e-02 3.391316e-02 -7.701948e-02 -3.424708e-02 -1.823454e-02 1.002925e-02 1.443904e-01 -9.272625e-02 -3.309072e-02 -8.134523e-03 2.207349e-02 -2.697037e-03
<VARIANCE> 39
 1.032215e+01 9.406241e+00 1.784964e+01 2.099520e+01 2.545612e+01 1.221375e+01 2.414339e+01 5.385056e+01 1.634820e+01 1.073807e+01 1.713329e+01 1.258178e+01 1.916161e+01 2.651548e-01 1.320941e+00 5.301252e-01 1.325454e+00 1.911132e+00 1.275785e+00 1.964578e+00 2.673866e+00 1.959184e+00 9.966175e-01 1.744472e+00 9.272648e-01 5.352887e-01 4.434472e-02 2.561949e-01 1.078571e-01 2.441695e-01 3.162022e-01 2.354037e-01 2.795054e-01 3.929443e-01 4.167189e-01 1.631858e-01 3.049199e-01 1.516700e-01 9.508762e-02
<GCONST> 8.922021e+01
<STATE> 4
<MEAN> 39
 3.093593e+00 6.712309e+00 -4.969468e-01 -2.963733e+00 -5.375116e+00 -5.216270e+00 5.682672e+00 -2.942356e+00 -7.092166e+00 -6.410852e+00 -4.203896e+00 -4.349434e+00 3.775023e+01 -1.819279e-01 2.409112e-01 1.402293e-01 -9.888329e-02 -2.126835e-02 1.664359e-01 -8.645703e-02 1.322680e-01 1.734127e-01 -4.402146e-02 -7.198453e-02 1.206487e-02 -3.609290e-01 -3.242840e-02 -3.091793e-02 8.058574e-04 4.916414e-02 1.658740e-02 3.560736e-02 -3.823726e-02 -9.298939e-04 5.857390e-02 2.352549e-02 2.334391e-02 1.904047e-02 -1.704734e-02
<VARIANCE> 39
 3.632444e+01 4.118057e+01 1.290537e+01 2.340748e+01 3.958765e+01 1.612569e+01 4.013433e+01 1.901480e+01 2.713572e+01 1.881252e+01 3.118564e+01 1.701507e+01 2.772346e+01 1.821202e-01 3.809342e-01 4.081279e-01 6.596754e-01 8.408601e-01 7.008307e-01 1.285276e+00 1.232700e+00 1.226767e+00 7.895781e-01 7.524493e-01 6.819033e-01 7.163414e-02 1.496582e-02 4.015786e-02 5.911466e-02 8.929175e-02 1.274406e-01 1.119339e-01 1.772757e-01 1.880216e-01 1.764209e-01 9.806291e-02 1.028284e-01 1.002280e-01 8.349733e-03
<GCONST> 7.251226e+01
<TRANSP> 5
 0.000000e+00 1.000000e+00 0.000000e+00 0.000000e+00 0.000000e+00
 0.000000e+00 9.580141e-01 4.198581e-02 0.000000e+00 0.000000e+00
 0.000000e+00 0.000000e+00 9.111912e-01 8.880879e-02 0.000000e+00
 0.000000e+00 0.000000e+00 0.000000e+00 9.746523e-01 2.534764e-02
 0.000000e+00 0.000000e+00 0.000000e+00 0.000000e+00 0.000000e+00
<ENDHMM>
~h "rok"
<BEGINHMM>
<NUMSTATES> 10
<STATE> 2
<MEAN> 39
 -1.298325e+01 -2.290050e+00 -1.225355e+00 -2.179289e-01 7.839893e-01 -2.459753e-01 -1.706855e+00 -4.972060e-01 1.363829e+00 -8.001114e-01 -6.214860e-01 -4.881323e-01 2.616566e+01 5.631953e-01 3.406006e-01 6.229262e-02 -9.486079e-05 5.833932e-01 -2.553642e-01 3.523066e-01 -3.596986e-01 1.230206e-01 -2.112374e-01 -1.409705e-01 -1.697750e-01 6.211358e-01 3.841787e-01 3.909573e-02 -1.937759e-01 -5.393362e-02 2.703984e-02 -1.884126e-01 9.464610e-02 -1.415597e-01 1.143025e-03 -1.042069e-01 -1.803956e-02 7.454874e-03 3.511013e-01
<VARIANCE> 39
 1.450869e+01 3.299599e+01 1.825038e+01 1.521757e+01 1.455997e+01 1.218670e+01 2.239124e+01 5.545140e+00 1.181847e+01 8.804391e+00 5.135444e+00 3.786766e+00 1.835390e+01 3.478499e+00 4.633785e+00 2.778725e+00 2.441760e+00 2.081412e+00 1.747560e+00 3.011721e+00 8.229378e-01 1.275949e+00 1.708329e+00 7.199354e-01 3.625529e-01 3.906370e+00 6.833473e-01 1.050914e+00 7.236310e-01 5.702546e-01 4.885089e-01 4.821325e-01 7.247345e-01 1.590306e-01 2.550520e-01 3.381425e-01 1.942046e-01 7.475206e-02 9.553925e-01
<GCONST> 1.001384e+02
<STATE> 3
<MEAN> 39
 -6.097042e+00 1.930490e+00 -3.923568e+00 -1.040142e+00 2.801894e+00 -3.558038e+00 1.805003e+00 -2.696424e+00 1.626565e+00 -1.775785e+00 4.391345e-01 -1.068054e+00 3.071830e+01 2.950655e+00 -5.824212e-02 -1.098740e+00 -4.412771e-01 9.316336e-02 -1.921407e+00 3.268997e-01 -8.451338e-01 2.568329e-01 -8.177869e-01 -2.269440e-01 6.526933e-03 3.056175e+00 1.993110e-01 -4.935379e-01 -2.640948e-01 -1.301054e-01 -2.638332e-01 -4.883613e-01 -1.411926e-02 -1.555429e-02 1.242772e-01 1.762898e-02 -6.802468e-02 1.582066e-01 4.761452e-01
<VARIANCE> 39
 8.225978e+01 1.680027e+01 2.870543e+01 1.591892e+01 1.721635e+01 2.175404e+01 2.239562e+01 1.191837e+01 1.682241e+01 1.129799e+01 7.587574e+00 4.721426e+00 5.225662e+01 4.326124e+00 2.759740e+00 4.109558e+00 3.089179e+00 1.925472e+00 3.627045e+00 2.882168e+00 1.627705e+00 1.270939e+00 2.849942e+00 2.574693e+00 4.448643e-01 2.870876e+00 1.180356e+00 4.152242e-01 7.865550e-01 5.691999e-01 4.037486e-01 6.588336e-01 5.888503e-01 3.097773e-01 3.471219e-01 2.912535e-01 2.245593e-01 6.523029e-02 6.292620e-01
<GCONST> 1.087948e+02
<STATE> 4
<MEAN> 39
 2.910317e+00 -1.674215e+00 -8.994670e+00 -2.411272e+00 1.030354e+00 -1.116595e+01 2.217753e+00 -6.651390e+00 3.946382e+00 -1.381212e+00 1.930230e+00 -1.146750e+00 4.450446e+01 1.016303e+00 -1.077668e+00 -4.687241e-01 -2.601847e-01 -2.747252e-01 -1.369451e+00 1.311658e-01 -4.666567e-01 2.982313e-01 -3.160206e-01 -2.654361e-01 2.560758e-01 2.299385e+00 -3.977579e-01 -1.088725e-01 2.076610e-01 2.026359e-03 2.335611e-02 2.057126e-01 4.494154e-02 1.917493e-01 1.550630e-02 5.600125e-02 -3.090767e-02 6.051642e-02 -2.114246e-01
<VARIANCE> 39
 4.408244e+01 2.158412e+01 2.599494e+01 1.336068e+01 1.107675e+01 2.414166e+01 2.126673e+01 2.114088e+01 3.448756e+01 2.423924e+01 2.231709e+01 4.813239e+00 8.714092e+01 3.469588e+00 1.114921e+00 2.765697e+00 1.784393e+00 1.357062e+00 4.160155e+00 2.257792e+00 1.466024e+00 1.454306e+00 2.154137e+00 2.040390e+00 4.180247e-01 2.813319e+00 5.320023e-01 3.452412e-01 4.749540e-01 4.109506e-01 2.631679e-01 6.566752e-01 5.358173e-01 2.297819e-01 3.163641e-01 3.147248e-01 2.516664e-01 1.164036e-01 3.630169e-01
<GCONST> 1.058205e+02
<STATE> 5
<MEAN> 39
 3.037636e+00 -6.751823e+00 -7.598978e+00 -2.432394e+00 -9.603560e-03 -1.215941e+01 6.102383e-01 -5.058728e+00 2.662719e+00 -2.842031e+00 -1.247913e-02 2.261222e-01 4.859264e+01 2.450239e-01 -8.627292e-01 2.367237e-01 -2.353315e-01 -1.413107e-02 -2.330919e-01 -3.109715e-02 3.437889e-01 -5.244118e-02 -2.522662e-02 -1.961502e-01 2.571846e-01 9.251741e-01 -1.749967e-01 5.483849e-02 6.907322e-02 -2.712359e-02 -3.360062e-02 2.156826e-01 -7.820600e-02 1.796641e-01 -8.140717e-02 1.086328e-01 1.941253e-01 -3.365211e-02 -2.204290e-01
<VARIANCE> 39
 2.948750e+01 1.472843e+01 2.547565e+01 1.845588e+01 1.417466e+01 1.635890e+01 3.549123e+01 2.585490e+01 2.614434e+01 3.343506e+01 3.296304e+01 7.331963e+00 5.112560e+01 1.133504e+00 1.110731e+00 1.409646e+00 2.485712e+00 1.707004e+00 3.061799e+00 3.716349e+00 2.131952e+00 2.351538e+00 1.367315e+00 1.475367e+00 8.565118e-01 3.415603e+00 2.904163e-01 1.489349e-01 3.323179e-01 4.679835e-01 3.424849e-01 5.163969e-01 5.545833e-01 3.528009e-01 3.094675e-01 3.105417e-01 3.255484e-01 1.562757e-01 4.170932e-01
<GCONST> 1.056446e+02
<STATE> 6
<MEAN> 39
 5.144138e-01 -1.082296e+01 -3.909193e+00 -4.108927e+00 -2.041680e+00 -1.293550e+01 2.557519e+00 -3.485575e+00 2.215135e+00 -2.110182e+00 -3.279370e+00 6.964587e-01 4.699479e+01 -1.212837e-02 -7.367850e-02 -8.380288e-02 -6.818503e-01 1.391651e-02 1.947071e-01 2.666423e-01 -1.086509e-01 -4.071603e-01 6.324440e-01 1.337232e-01 1.070941e-02 3.590026e-01 -8.245776e-02 2.052751e-01 -2.790720e-02 -1.185277e-01 9.206971e-03 1.286738e-01 1.630200e-02 -6.394017e-02 -8.295785e-02 -1.746704e-02 5.625675e-02 -3.480817e-02 -1.291077e-01
<VARIANCE> 39
 2.253634e+01 1.114018e+01 2.016356e+01 3.586692e+01 2.862473e+01 1.968943e+01 4.913440e+01 3.559586e+01 2.744983e+01 4.070441e+01 3.545742e+01 9.046679e+00 3.311901e+01 1.063433e+00 1.306914e+00 7.892710e-01 5.177829e+00 3.061679e+00 1.901261e+00 4.621023e+00 3.490707e+00 2.087880e+00 2.421602e+00 1.750607e+00 9.674250e-01 1.851883e+00 1.884831e-01 9.838098e-02 1.130570e-01 8.639782e-01 5.040866e-01 3.872470e-01 8.557547e-01 5.259101e-01 3.583909e-01 4.535786e-01 3.295355e-01 2.026555e-01 3.626323e-01
<GCONST> 1.086368e+02
<STATE> 7
<MEAN> 39
 -7.489748e-01 -6.479951e+00 -6.156922e+00 -1.247812e+01 3.806929e-01 -1.004116e+01 5.029828e+00 -5.434460e+00 -1.611075e+00 1.764445e-01 -2.446645e+00 5.226725e-01 4.780808e+01 -4.918776e-01 1.266141e+00 -2.426753e-01 -8.003547e-01 1.636166e-01 6.526951e-01 -4.084101e-02 1.297280e-01 -4.376293e-01 -3.419302e-01 3.554950e-01 -3.512116e-01 -7.107390e-01 -2.576621e-02 5.044484e-02 -3.890046e-02 3.517853e-01 -4.941583e-02 8.024890e-02 -1.362906e-01 1.222481e-01 6.399281e-02 -3.435252e-02 -6.748622e-03 -7.619264e-02 -3.106506e-01
<VARIANCE> 39
 7.014784e+00 3.532316e+01 1.007387e+01 6.216316e+01 2.264074e+01 1.906091e+01 2.492580e+01 7.264706e+01 3.738008e+01 4.804223e+01 6.763702e+01 9.680004e+00 6.462259e+01 6.813295e-01 1.255490e+00 6.026608e-01 4.851374e+00 1.996151e+00 1.576536e+00 2.835249e+00 2.478075e+00 1.494293e+00 2.517457e+00 1.814859e+00 9.045939e-01 1.824377e+00 1.136226e-01 1.701650e-01 1.010151e-01 5.961943e-01 3.383500e-01 3.448513e-01 3.861577e-01 3.637675e-01 3.002452e-01 3.377325e-01 2.975342e-01 1.807700e-01 1.399798e-01
<GCONST> 1.037347e+02
<STATE> 8
<MEAN> 39
 -5.431667e+00 8.261087e-01 -8.499641e+00 -1.031127e+01 2.259885e+00 -5.435662e-01 1.834370e+00 2.559135e-01 -4.229824e+00 -6.022620e-01 1.240998e+00 -8.551977e-01 3.828532e+01 -5.148389e-01 -2.189641e-01 1.594691e-01 9.510281e-01 1.383505e-01 4.480521e-01 -6.663052e-01 2.211468e-01 2.931750e-01 4.779895e-01 -6.889492e-02 -9.130786e-02 -1.037327e+00 1.964645e-02 -1.190067e-01 1.270958e-01 8.040830e-02 4.511534e-03 -6.437843e-02 3.267170e-02 -8.154944e-03 3.491958e-02 4.825345e-02 -1.351224e-02 7.031853e-02 5.755587e-02
<VARIANCE> 39
 2.016569e+01 4.184549e+01 1.150298e+01 4.481059e+01 3.468836e+01 3.392864e+01 4.517264e+01 3.933241e+01 2.463463e+01 3.783873e+01 2.079032e+01 1.069938e+01 1.168072e+02 1.550681e+00 3.593078e+00 1.684306e+00 1.721212e+00 2.865689e+00 3.874272e+00 2.436452e+00 3.176286e+00 2.540438e+00 1.363649e+00 1.489908e+00 1.345905e+00 8.255196e+00 2.131054e-01 5.856863e-01 3.314255e-01 3.617810e-01 5.046175e-01 6.729364e-01 4.563818e-01 4.953079e-01 5.106391e-01 1.977743e-01 2.063003e-01 2.673494e-01 8.629286e-01
<GCONST> 1.153939e+02
<STATE> 9
<MEAN> 39
 -9.584081e+00 -5.758383e+00 -5.255890e+00 2.162781e+00 5.446205e+00 -4.699577e+00 -3.871306e+00 -1.391203e+00 2.977794e+00 1.548404e+00 -1.004990e+00 -1.577024e+00 3.219892e+01 -1.231961e-03 9.021537e-02 2.726921e-01 3.656630e-01 9.347650e-02 6.803438e-03 -7.299379e-03 3.719698e-02 1.066693e-01 -7.847989e-02 -2.946488e-02 -1.357260e-02 -1.610593e-01 2.186995e-02 3.822074e-02 -3.335576e-02 -9.208725e-02 -4.407624e-02 7.615521e-03 4.296096e-02 -5.467947e-02 -4.205602e-02 -1.296524e-02 -3.182720e-03 -1.570719e-03 1.798046e-02
<VARIANCE> 39
 2.123610e+01 2.995941e+01 2.567860e+01 2.829432e+01 3.614790e+01 2.920774e+01 1.798210e+01 1.781005e+01 3.359106e+01 1.656015e+01 7.310169e+00 7.342654e+00 8.958685e+01 6.965111e-01 2.106140e+00 2.737528e+00 1.550076e+00 3.138242e+00 2.091348e+00 1.643661e+00 2.258174e+00 2.655366e+00 8.613058e-01 6.798617e-01 7.807595e-01 2.250235e+00 1.197036e-01 2.487084e-01 5.295410e-01 1.994811e-01 5.893378e-01 2.907516e-01 3.198670e-01 4.843453e-01 4.990115e-01 1.368188e-01 1.383419e-01 1.610900e-01 2.944737e-01
<GCONST> 1.011767e+02
<TRANSP> 10
 0.000000e+00 1.000000e+00 0.000000e+00 0.000000e+00 0.000000e+00 0.000000e+00 0.000000e+00 0.000000e+00 0.000000e+00 0.000000e+00
 0.000000e+00 7.700279e-01 2.299722e-01 0.000000e+00 0.000000e+00 0.000000e+00 0.000000e+00 0.000000e+00 0.000000e+00 0.000000e+00
 0.000000e+00 0.000000e+00 5.163182e-01 4.836818e-01 0.000000e+00 0.000000e+00 0.000000e+00 0.000000e+00 0.000000e+00 0.000000e+00
 0.000000e+00 0.000000e+00 0.000000e+00 7.455642e-01 2.544358e-01 0.000000e+00 0.000000e+00 0.000000e+00 0.000000e+00 0.000000e+00
 0.000000e+00 0.000000e+00 0.000000e+00 0.000000e+00 7.995684e-01 2.004317e-01 0.000000e+00 0.000000e+00 0.000000e+00 0.000000e+00
 0.000000e+00 0.000000e+00 0.000000e+00 0.000000e+00 0.000000e+00 8.908281e-01 1.091719e-01 0.000000e+00 0.000000e+00 0.000000e+00
 0.000000e+00 0.000000e+00 0.000000e+00 0.000000e+00 0.000000e+00 0.000000e+00 8.455124e-01 1.544875e-01 0.000000e+00 0.000000e+00
 0.000000e+00 0.000000e+00 0.000000e+00 0.000000e+00 0.000000e+00 0.000000e+00 0.000000e+00 9.091803e-01 9.081977e-02 0.000000e+00
 0.000000e+00 0.000000e+00 0.000000e+00 0.000000e+00 0.000000e+00 0.000000e+00 0.000000e+00 0.000000e+00 9.495786e-01 5.042141e-02
 0.000000e+00 0.000000e+00 0.000000e+00 0.000000e+00 0.000000e+00 0.000000e+00 0.000000e+00 0.000000e+00 0.000000e+00 0.000000e+00
<ENDHMM>
~h "sil"
<BEGINHMM>
<NUMSTATES> 5
<STATE> 2
<MEAN> 39
 -1.164369e+01 1.433333e-01 -2.837256e+00 -3.507715e-01 -7.690789e-01 1.992443e-01 -9.491544e-01 -2.000428e-01 -5.840173e-01 -7.540272e-01 7.941661e-01 2.949882e-01 2.283970e+01 -2.892679e-02 4.659124e-03 -4.255027e-03 -5.183298e-03 -1.404220e-02 2.656064e-02 -1.233513e-02 2.693215e-02 1.902429e-02 2.822138e-02 1.629677e-02 1.995979e-03 -5.230174e-02 2.280503e-03 -3.371091e-03 5.817539e-03 2.907107e-03 9.298784e-03 -5.280329e-03 -2.168445e-05 -1.163847e-02 -3.099740e-03 -1.143715e-02 -6.591217e-03 -3.586259e-03 1.947247e-02
<VARIANCE> 39
 1.574229e+01 4.738116e+00 7.486958e+00 4.485880e+00 6.983867e+00 5.905248e+00 7.219372e+00 5.996239e+00 5.629603e+00 4.746473e+00 4.230494e+00 3.620538e+00 5.305878e+01 1.728208e-01 2.383065e-01 3.835878e-01 4.119861e-01 5.301890e-01 5.834041e-01 6.378610e-01 5.594056e-01 5.684837e-01 4.937883e-01 4.309560e-01 3.912870e-01 1.763830e-01 2.959630e-02 4.372385e-02 7.058113e-02 7.554834e-02 9.955927e-02 1.150321e-01 1.227615e-01 1.110504e-01 1.138003e-01 9.832940e-02 8.336797e-02 7.923203e-02 3.249243e-02
<GCONST> 5.136415e+01
<STATE> 3
<MEAN> 39
 -9.996575e+00 1.122315e+00 -9.497863e-01 1.545255e-01 4.558107e-01 1.252035e-01 -3.139307e-01 -3.909291e-01 -2.407063e-01 -9.343662e-01 5.072798e-01 5.514532e-03 2.317471e+01 -4.899738e-01 -5.881780e-02 -8.528671e-02 5.439965e-02 2.992425e-02 5.316615e-02 -2.132107e-02 -7.214238e-03 4.201133e-02 1.066343e-02 5.428361e-02 2.529394e-02 6.862502e-01 5.287129e-02 5.605484e-03 -1.180550e-03 -8.062487e-03 -1.495661e-02 -1.121675e-02 1.104118e-02 -1.992416e-02 -2.397427e-02 -8.132119e-03 -5.890042e-03 4.834727e-03 4.978474e-03
<VARIANCE> 39
 2.961355e+01 1.321200e+01 1.823628e+01 9.501160e+00 1.293306e+01 9.959806e+00 1.196370e+01 8.787404e+00 7.429450e+00 6.459080e+00 5.602192e+00 4.530054e+00 1.031322e+02 1.379874e+00 7.384810e-01 9.517361e-01 7.541751e-01 9.154761e-01 8.436508e-01 1.033533e+00 7.781817e-01 6.679768e-01 5.855458e-01 5.053219e-01 4.124021e-01 5.246004e+00 1.816645e-01 1.273725e-01 1.730924e-01 1.400278e-01 1.746636e-01 1.491648e-01 2.027072e-01 1.576443e-01 1.262212e-01 1.165858e-01 9.850337e-02 8.201843e-02 8.045726e-01
<GCONST> 7.858546e+01
<STATE> 4
<MEAN> 39
 -1.139841e+01 9.919210e-01 -1.411833e+00 2.761480e-01 -2.858487e-01 1.797675e-01 -9.310116e-01 -5.945622e-01 -5.228868e-01 -8.878661e-01 6.850427e-01 2.069679e-01 2.476040e+01 9.078733e-04 -1.715252e-02 -1.144513e-02 9.348057e-04 2.692971e-03 -7.263597e-03 8.502112e-03 -2.443164e-02 -1.194599e-02 -4.625611e-03 3.678914e-03 7.062389e-03 -8.476138e-03 1.955182e-02 9.670510e-03 1.366199e-02 8.840987e-04 6.204564e-03 -1.743045e-02 4.194793e-05 -1.490835e-02 -1.023765e-02 -1.570545e-02 -9.278681e-03 -5.503155e-03 2.471373e-02
<VARIANCE> 39
 1.090872e+01 9.974536e+00 2.185057e+01 8.234911e+00 1.054416e+01 8.764630e+00 1.032169e+01 9.696719e+00 6.662428e+00 6.429013e+00 5.409571e+00 4.597026e+00 1.369807e+01 2.091956e-01 2.826328e-01 5.360791e-01 5.336042e-01 6.727960e-01 7.746677e-01 8.258147e-01 7.281314e-01 6.317682e-01 6.394903e-01 5.689973e-01 4.791459e-01 2.200530e-01 4.585299e-02 5.685883e-02 9.732805e-02 1.019063e-01 1.314614e-01 1.537297e-01 1.596224e-01 1.428567e-01 1.291607e-01 1.334128e-01 1.189499e-01 9.804694e-02 3.934966e-02
<GCONST> 6.132714e+01
<TRANSP> 5
 0.000000e+00 1.000000e+00 0.000000e+00 0.000000e+00 0.000000e+00
 0.000000e+00 9.441978e-01 5.580216e-02 0.000000e+00 0.000000e+00
 0.000000e+00 0.000000e+00 7.292455e-01 2.707545e-01 0.000000e+00
 0.000000e+00 0.000000e+00 0.000000e+00 9.412456e-01 5.875448e-02
 0.000000e+00 0.000000e+00 0.000000e+00 0.000000e+00 0.000000e+00
<ENDHMM>
~h "zobraz"
<BEGINHMM>
<NUMSTATES> 10
<STATE> 2
<MEAN> 39
 -1.277648e+01 5.983395e+00 4.225749e+00 -4.213141e+00 4.035076e+00 -2.432610e+00 -7.508475e+00 -4.400921e+00 -1.837160e-01 1.165346e-01 -1.428221e+00 -2.295110e+00 4.638287e+01 5.610128e-02 1.272744e-01 1.697076e-01 -3.696781e-01 1.700967e-01 -6.437868e-02 -3.410467e-01 -3.449388e-01 -1.620989e-01 -1.448020e-05 9.608211e-03 -4.524163e-02 9.497275e-01 9.656546e-02 -4.629169e-02 -5.561721e-02 -1.041921e-02 -6.297129e-02 -5.776946e-03 4.520676e-02 -1.424187e-02 -2.373612e-02 -3.476169e-03 1.881547e-02 2.017048e-02 -3.418519e-02
<VARIANCE> 39
 3.330974e+01 2.011407e+01 1.626078e+01 1.920691e+01 1.655579e+01 4.537051e+01 3.619680e+01 3.218693e+01 1.461375e+01 6.600247e+00 9.700225e+00 5.320227e+00 7.886704e+01 3.279349e+00 1.391028e+00 1.748202e+00 1.035564e+00 8.917065e-01 1.442145e+00 1.383417e+00 8.984360e-01 1.286778e+00 9.196938e-01 4.648544e-01 3.945213e-01 2.576556e+00 5.191153e-01 3.070636e-01 3.710808e-01 1.901549e-01 1.737166e-01 2.593825e-01 2.327707e-01 1.404725e-01 2.553433e-01 1.452045e-01 8.349944e-02 5.435985e-02 3.834807e-01
<GCONST> 9.183401e+01
<STATE> 3
<MEAN> 39
 -9.654358e+00 5.207283e+00 -6.408651e-01 -4.020947e+00 3.390941e+00 -6.142926e+00 -2.752485e+00 -7.010478e+00 3.331222e-01 -2.933884e+00 -2.098846e+00 -2.615283e-01 4.059769e+01 1.403941e+00 2.364198e-01 -6.835729e-01 -3.084918e-01 -2.818130e-01 -1.045301e+00 4.835501e-01 -8.142702e-01 -1.318231e-01 -9.180438e-03 -3.684498e-01 -4.291605e-02 1.056497e+00 1.756526e-01 -1.234307e-01 -1.911298e-01 -1.071699e-01 -2.205043e-01 -8.277125e-02 2.906327e-01 8.022050e-02 6.063960e-02 1.228991e-01 -1.193941e-01 9.200507e-02 5.658673e-02
<VARIANCE> 39
 4.025189e+01 1.245105e+01 2.202812e+01 3.171741e+01 1.827531e+01 7.169636e+01 5.699268e+01 2.042654e+01 2.971625e+01 1.182282e+01 3.122205e+01 5.598833e+00 1.237018e+02 3.905738e+00 1.500022e+00 1.234728e+00 1.249182e+00 1.560584e+00 2.305239e+00 3.137990e+00 1.641937e+00 2.089446e+00 1.244487e+00 1.270450e+00 6.434408e-01 8.108773e-01 3.885284e-01 1.730917e-01 1.695036e-01 2.131923e-01 2.873293e-01 3.004800e-01 4.357564e-01 4.647302e-01 4.467767e-01 2.095449e-01 1.772770e-01 1.143262e-01 1.235229e-01
<GCONST> 1.017650e+02
<STATE> 4
<MEAN> 39
 -5.690595e+00 5.299819e+00 -2.853464e+00 -4.008747e+00 3.755916e+00 -1.075239e+01 -1.519468e+00 -9.090475e+00 1.231478e+00 -3.498397e+00 -4.043729e+00 -4.030122e-01 4.125262e+01 9.046375e-01 -1.054749e-01 -4.545221e-01 -3.746617e-01 -3.206298e-01 -6.038260e-01 7.182542e-01 -5.967491e-01 5.459659e-03 5.630668e-02 -2.208525e-01 1.625145e-01 6.382729e-01 -6.074194e-02 -9.869864e-02 3.362407e-02 -7.618541e-02 -1.556579e-02 3.174049e-02 1.713268e-01 6.589721e-02 7.943396e-02 -4.084924e-02 -6.201777e-03 7.871836e-02 -1.018823e-01
<VARIANCE> 39
 4.287939e+01 3.025396e+01 1.583562e+01 5.691750e+01 2.125827e+01 6.583138e+01 3.590079e+01 1.913296e+01 3.498561e+01 1.558937e+01 2.581643e+01 9.304144e+00 7.735271e+01 3.593970e+00 2.286539e+00 1.417073e+00 3.069995e+00 2.228128e+00 2.721812e+00 3.711933e+00 1.788165e+00 2.428131e+00 1.330045e+00 1.334451e+00 8.595558e-01 1.470118e+00 4.377197e-01 3.114060e-01 1.978064e-01 4.064370e-01 2.086218e-01 2.095577e-01 4.786026e-01 3.533098e-01 4.296023e-01 2.351712e-01 2.342731e-01 1.739872e-01 1.568116e-01
<GCONST> 1.077571e+02
<STATE> 5
<MEAN> 39
 -1.865763e+00 3.707123e+00 -1.667653e+00 -5.969816e+00 3.162058e+00 -9.162567e+00 -9.604553e-01 -1.091094e+01 -1.862769e-01 -3.725040e+00 -4.046430e+00 -3.936200e-01 4.145723e+01 4.686320e-01 -4.910803e-02 2.466889e-01 5.028419e-02 -1.468008e-01 1.490449e-01 2.673582e-01 -1.049793e-01 -1.373980e-01 -8.189569e-02 -2.155253e-02 -5.893075e-03 -2.759285e-01 -1.457906e-01 -3.053728e-02 5.291115e-02 2.816127e-02 8.628476e-02 2.738669e-02 -4.430664e-02 1.272869e-01 6.878465e-02 -2.495774e-02 -2.031573e-02 -2.330599e-02 -5.877139e-02
<VARIANCE> 39
 2.033641e+01 3.538169e+01 1.991649e+01 6.434411e+01 2.825910e+01 5.924873e+01 3.988769e+01 1.894304e+01 4.119243e+01 1.690138e+01 2.079138e+01 1.369186e+01 6.240981e+01 1.881960e+00 2.837305e+00 1.605399e+00 4.803851e+00 1.542004e+00 2.475403e+00 3.643857e+00 1.699268e+00 2.435818e+00 1.240205e+00 1.262648e+00 1.192349e+00 2.700776e+00 2.489497e-01 4.112238e-01 2.635573e-01 6.409167e-01 2.128754e-01 3.458865e-01 4.403045e-01 2.815912e-01 4.294552e-01 2.103180e-01 1.899289e-01 2.171957e-01 3.349457e-01
<GCONST> 1.097419e+02
<STATE> 6
<MEAN> 39
 -6.950178e-01 4.238038e+00 7.108219e-01 -4.525125e+00 1.811632e+00 -5.680323e+00 1.789693e+00 -8.574008e+00 -1.580170e+00 -4.712225e+00 -4.255373e+00 -1.118213e+00 4.026252e+01 -8.573428e-03 -4.225149e-01 1.866269e-01 2.692094e-01 1.382991e-01 -7.097165e-02 -3.182700e-02 3.680841e-01 3.426636e-01 -1.864692e-01 1.686098e-02 -3.392117e-02 -1.178993e-01 -2.700933e-02 -1.125841e-01 -7.495306e-02 -3.412351e-02 -4.837243e-02 -3.792674e-02 -9.648136e-02 -1.741689e-02 6.589782e-02 3.906142e-02 9.752728e-02 2.766345e-02 1.794694e-01
<VARIANCE> 39
 1.640559e+01 3.578045e+01 2.699723e+01 7.182911e+01 2.737436e+01 4.913417e+01 4.272694e+01 2.882537e+01 3.115289e+01 1.931467e+01 1.734565e+01 1.201492e+01 6.005708e+01 1.500979e+00 3.873169e+00 3.014714e+00 6.272263e+00 2.105687e+00 2.832148e+00 3.035803e+00 2.725595e+00 2.629590e+00 1.860478e+00 1.695709e+00 1.175192e+00 6.649170e+00 2.686321e-01 4.863612e-01 5.200857e-01 9.033100e-01 3.449731e-01 4.730895e-01 5.222883e-01 4.716622e-01 4.117701e-01 3.106335e-01 2.359804e-01 2.098671e-01 7.644751e-01
<GCONST> 1.172127e+02
<STATE> 7
<MEAN> 39
 -4.305272e-01 -2.294898e+00 -3.752238e-01 -4.205956e+00 -5.577747e-01 -8.808842e+00 3.894430e-01 -6.348360e+00 2.061917e+00 -4.642257e+00 -1.947481e+00 -4.359102e-01 4.442834e+01 2.301506e-01 -8.749561e-01 -3.286151e-01 -5.803237e-02 -4.554489e-01 -3.366391e-01 -1.003176e-01 3.376737e-01 2.235690e-01 9.410936e-02 4.024522e-01 2.156268e-02 6.445556e-01 -2.174098e-02 1.056133e-01 4.123868e-02 5.638184e-02 5.457751e-02 6.845262e-02 -5.955881e-03 5.113033e-03 -1.288458e-01 3.824249e-02 -5.973631e-03 -5.969042e-02 -1.304155e-01
<VARIANCE> 39
 2.193625e+01 6.445725e+01 2.621638e+01 6.256929e+01 3.783789e+01 4.017156e+01 3.196509e+01 3.691802e+01 2.835073e+01 2.419333e+01 3.598504e+01 1.043803e+01 4.889965e+01 1.983659e+00 2.528467e+00 3.172137e+00 6.806492e+00 3.390109e+00 2.704659e+00 3.200499e+00 4.677182e+00 3.025378e+00 2.634024e+00 1.885892e+00 1.029627e+00 4.888183e+00 3.767660e-01 3.476682e-01 5.933719e-01 1.320010e+00 6.591734e-01 4.552314e-01 5.884743e-01 9.940172e-01 5.850025e-01 4.814776e-01 3.716787e-01 1.927968e-01 8.624676e-01
<GCONST> 1.229478e+02
<STATE> 8
<MEAN> 39
 -7.775025e-01 -5.537052e+00 -3.949843e+00 -7.410670e+00 8.786322e-01 -8.557449e+00 3.080111e+00 -3.951853e+00 1.356887e+00 -1.326537e+00 -5.084764e-01 -5.403016e-01 4.820364e+01 -6.578993e-01 2.348475e-01 -1.020170e-01 -8.785198e-03 2.702207e-01 3.041565e-01 2.680956e-01 5.142391e-02 3.699213e-05 1.394857e-02 -1.588877e-01 3.434100e-02 -8.784664e-02 -1.528399e-01 5.974905e-02 -4.036883e-03 5.185501e-02 4.601020e-02 4.228103e-02 3.903215e-02 -1.168705e-03 6.876612e-03 -3.020952e-02 1.198358e-03 4.219497e-02 -3.242369e-02
<VARIANCE> 39
 2.253606e+01 3.531871e+01 3.667110e+01 4.065852e+01 4.677792e+01 4.616765e+01 4.185310e+01 1.681236e+01 2.708902e+01 5.176450e+01 2.830781e+01 1.190509e+01 3.500286e+01 1.906270e+00 1.882778e+00 2.968350e+00 3.867528e+00 4.013639e+00 3.299968e+00 4.200982e+00 2.407309e+00 1.713019e+00 1.891986e+00 1.347644e+00 9.213046e-01 1.367866e+00 2.945696e-01 2.777421e-01 4.931121e-01 6.551747e-01 6.847713e-01 6.329405e-01 7.373655e-01 4.564436e-01 3.025711e-01 3.402575e-01 2.663991e-01 1.972682e-01 2.588001e-01
<GCONST> 1.147114e+02
<STATE> 9
<MEAN> 39
 -1.184024e+01 -3.474826e+00 -3.874344e+00 -3.753951e+00 2.430177e+00 -6.479001e+00 5.541881e+00 -4.028509e+00 2.234315e+00 -1.826095e+00 -1.141548e+00 8.766570e-01 4.231066e+01 -3.931698e-01 3.125882e-01 8.135613e-02 3.069759e-01 1.934294e-01 2.562501e-01 -5.224222e-02 1.773773e-01 -1.103160e-01 1.321366e-01 2.913591e-02 -5.247270e-03 -5.030762e-01 5.767201e-02 2.277673e-02 3.350546e-02 2.767965e-04 -2.429730e-02 3.403851e-02 -4.741944e-02 -6.543877e-03 -2.579875e-02 8.735001e-03 -7.569934e-03 -1.860905e-02 -2.414210e-02
<VARIANCE> 39
 6.349920e+01 3.275046e+01 1.681081e+01 4.371772e+01 3.719096e+01 2.929574e+01 2.254975e+01 2.021905e+01 1.512380e+01 2.925812e+01 2.272239e+01 9.357862e+00 8.620651e+01 1.632155e+00 1.261347e+00 1.180232e+00 1.619331e+00 2.127095e+00 2.365420e+00 1.783021e+00 1.571309e+00 1.264657e+00 1.104463e+00 1.013761e+00 5.732337e-01 5.947778e-01 1.655680e-01 2.117497e-01 2.335542e-01 2.955374e-01 3.884330e-01 4.418200e-01 3.435220e-01 2.865460e-01 2.349878e-01 1.899501e-01 1.788658e-01 1.195988e-01 7.000881e-02
<GCONST> 9.851109e+01
<TRANSP> 10
 0.000000e+00 1.000000e+00 0.000000e+00 0.000000e+00 0.000000e+00 0.000000e+00 0.000000e+00 0.000000e+00 0.000000e+00 0.000000e+00
 0.000000e+00 9.255902e-01 7.440981e-02 0.000000e+00 0.000000e+00 0.000000e+00 0.000000e+00 0.000000e+00 0.000000e+00 0.000000e+00
 0.000000e+00 0.000000e+00 5.672570e-01 4.327430e-01 0.000000e+00 0.000000e+00 0.000000e+00 0.000000e+00 0.000000e+00 0.000000e+00
 0.000000e+00 0.000000e+00 0.000000e+00 7.454139e-01 2.545861e-01 0.000000e+00 0.000000e+00 0.000000e+00 0.000000e+00 0.000000e+00
 0.000000e+00 0.000000e+00 0.000000e+00 0.000000e+00 8.697796e-01 1.302204e-01 0.000000e+00 0.000000e+00 0.000000e+00 0.000000e+00
 0.000000e+00 0.000000e+00 0.000000e+00 0.000000e+00 0.000000e+00 8.906564e-01 1.093436e-01 0.000000e+00 0.000000e+00 0.000000e+00
 0.000000e+00 0.000000e+00 0.000000e+00 0.000000e+00 0.000000e+00 0.000000e+00 8.976524e-01 1.023476e-01 0.000000e+00 0.000000e+00
 0.000000e+00 0.000000e+00 0.000000e+00 0.000000e+00 0.000000e+00 0.000000e+00 0.000000e+00 9.158718e-01 8.412822e-02 0.000000e+00
 0.000000e+00 0.000000e+00 0.000000e+00 0.000000e+00 0.000000e+00 0.000000e+00 0.000000e+00 0.000000e+00 9.498067e-01 5.019319e-02
 0.000000e+00 0.000000e+00 0.000000e+00 0.000000e+00 0.000000e+00 0.000000e+00 0.000000e+00 0.000000e+00 0.000000e+00 0.000000e+00
<ENDHMM>
~h "v-intervalu"
<BEGINHMM>
<NUMSTATES> 10
<STATE> 2
<MEAN> 39
 -7.168340e+00 1.499226e+00 -1.111700e+00 -9.287872e-01 1.451890e+00 -1.003713e+00 1.001707e+00 -3.074697e+00 -8.716910e-01 -1.584673e+00 5.103011e-01 1.535230e-01 3.427509e+01 3.854277e-01 1.211651e-01 1.570514e-01 -1.986739e-02 -1.109261e-01 -4.540666e-01 7.889057e-02 -2.659515e-01 -7.524522e-02 -3.579948e-03 6.225656e-02 1.611948e-01 7.300881e-01 3.559395e-02 -4.916140e-02 7.428889e-03 -3.408831e-02 -4.840228e-02 -6.456687e-02 -5.728289e-02 -7.157010e-02 7.841995e-03 2.962960e-02 1.360172e-02 -1.273292e-02 6.122980e-02
<VARIANCE> 39
 4.310193e+01 1.643934e+01 1.807977e+01 1.246877e+01 2.012733e+01 2.892772e+01 1.546747e+01 2.289512e+01 1.145557e+01 1.194414e+01 1.235586e+01 7.354732e+00 8.869015e+01 3.834710e+00 1.664697e+00 2.029475e+00 1.556847e+00 2.039554e+00 2.965435e+00 1.785684e+00 2.825613e+00 1.204374e+00 1.662284e+00 1.665220e+00 1.016873e+00 2.758942e+00 6.060111e-01 2.829364e-01 3.844821e-01 3.396451e-01 3.549241e-01 5.354647e-01 2.968284e-01 5.009777e-01 2.417187e-01 3.251955e-01 2.748095e-01 1.883858e-01 3.487820e-01
<GCONST> 1.045436e+02
<STATE> 3
<MEAN> 39
 -6.018789e+00 -2.728843e-01 -1.645659e+00 -2.412143e+00 -5.971519e-01 -4.878329e+00 -1.064070e+00 -5.313707e+00 -2.784917e-01 -4.046437e-01 7.166497e-01 7.380382e-01 3.540411e+01 3.136742e-01 -2.640006e-01 -6.683069e-02 -3.384117e-01 -3.955628e-01 -5.353575e-01 5.111285e-02 -3.137197e-01 2.225330e-02 -3.608790e-02 4.697751e-02 1.518359e-01 3.900290e-01 -6.119336e-02 1.284481e-02 1.371569e-02 -7.111436e-02 -1.055471e-02 1.383222e-01 -6.275953e-02 -2.730113e-02 4.500888e-02 -3.300957e-02 -2.661405e-02 -6.740439e-02 -2.639306e-02
<VARIANCE> 39
 3.475742e+01 1.258103e+01 1.577696e+01 2.469644e+01 3.139119e+01 3.331623e+01 4.015065e+01 4.405417e+01 1.779494e+01 1.733845e+01 1.670839e+01 1.343972e+01 1.152200e+02 1.828036e+00 9.318212e-01 1.768223e+00 1.813754e+00 2.581707e+00 3.989121e+00 2.363405e+00 2.725244e+00 1.220568e+00 1.921881e+00 1.606437e+00 1.312243e+00 3.850649e+00 3.062942e-01 1.814063e-01 3.232533e-01 3.102343e-01 5.360973e-01 6.810405e-01 4.630358e-01 4.993666e-01 2.465587e-01 3.144512e-01 2.989296e-01 2.529768e-01 4.836986e-01
<GCONST> 1.093584e+02
<STATE> 4
<MEAN> 39
 -5.871656e+00 -1.617095e+00 -1.622708e+00 -3.833380e+00 -4.021719e+00 -7.647917e+00 -1.656722e+00 -6.460477e+00 3.362310e-01 -1.844009e-01 2.166779e+00 1.449544e+00 3.689494e+01 -7.057170e-02 -5.225889e-02 3.420247e-01 -4.439076e-02 -3.459564e-01 -3.722981e-02 -1.583023e-01 -9.327754e-05 7.868212e-02 -3.793627e-01 -5.560818e-02 -1.581043e-01 9.660218e-02 -4.405999e-02 2.975366e-02 1.369757e-01 -6.124659e-02 7.072854e-02 9.155920e-02 5.654062e-02 -1.580429e-02 -4.107009e-02 -5.665462e-02 -2.932396e-02 -8.745080e-02 7.895791e-02
<VARIANCE> 39
 3.005004e+01 9.998680e+00 2.888331e+01 3.567194e+01 3.121045e+01 3.814610e+01 3.792734e+01 5.655170e+01 1.479319e+01 5.386098e+01 2.084875e+01 1.083361e+01 1.384469e+02 1.834258e+00 1.120807e+00 2.567252e+00 2.855612e+00 3.467821e+00 4.071861e+00 3.170975e+00 2.287461e+00 1.539338e+00 3.863862e+00 2.149531e+00 1.487071e+00 8.422584e+00 3.339572e-01 2.304332e-01 4.214274e-01 4.864033e-01 7.108611e-01 8.714509e-01 6.052673e-01 3.554511e-01 2.604525e-01 6.364935e-01 4.447140e-01 2.999709e-01 1.139750e+00
<GCONST> 1.186767e+02
<STATE> 5
<MEAN> 39
 -5.773032e+00 -5.867227e-01 3.128319e+00 -2.194382e+00 -4.130031e+00 -7.498413e+00 -4.173047e-01 -7.161897e+00 -2.345356e+00 -4.002638e+00 1.266658e+00 -6.929934e-01 3.877990e+01 5.864001e-02 2.240077e-02 2.610168e-01 3.135764e-02 8.489992e-02 -3.397321e-03 9.567601e-02 -7.364167e-02 -1.759018e-01 -2.888170e-01 -9.515755e-02 -1.374955e-01 2.668101e-01 2.285402e-02 -1.968696e-02 1.606170e-02 -4.871737e-02 2.768754e-02 -1.776402e-02 6.160349e-02 -2.567361e-03 -1.926997e-02 2.083117e-02 -3.220880e-02 1.972222e-02 4.059709e-02
<VARIANCE> 39
 3.054214e+01 1.639134e+01 4.568036e+01 6.204018e+01 2.248367e+01 3.252275e+01 4.731968e+01 4.932362e+01 2.971377e+01 5.685371e+01 2.557517e+01 1.122086e+01 1.108729e+02 1.845417e+00 1.578651e+00 3.345107e+00 4.378220e+00 2.127393e+00 3.246001e+00 3.925039e+00 3.200648e+00 2.191824e+00 4.248032e+00 2.774956e+00 1.178464e+00 7.319568e+00 3.187451e-01 2.502422e-01 4.703738e-01 6.330106e-01 4.321778e-01 6.332446e-01 5.539714e-01 4.424290e-01 2.881659e-01 6.880502e-01 5.593477e-01 2.310190e-01 1.028954e+00
<GCONST> 1.215376e+02
<STATE> 6
<MEAN> 39
 -5.621436e+00 4.026470e-01 4.436052e+00 -2.408481e+00 -1.747642e+00 -4.980510e+00 1.434955e+00 -7.838262e+00 -4.610878e+00 -4.566240e+00 -5.805813e-01 -1.811469e+00 3.834243e+01 -1.583426e-02 -1.647142e-01 -2.156230e-01 -2.366467e-01 4.302027e-02 -1.836878e-01 -4.678864e-02 5.276410e-02 3.124735e-01 8.806187e-02 -8.327203e-02 3.823197e-02 4.285542e-01 3.697008e-02 -2.088326e-02 -7.340265e-02 2.528434e-02 -2.962594e-02 -3.172990e-02 -3.961883e-02 1.231320e-02 7.432639e-02 2.917776e-02 3.125364e-02 1.870872e-02 1.592904e-02
<VARIANCE> 39
 3.074429e+01 2.695217e+01 2.794654e+01 8.746082e+01 1.778007e+01 2.722265e+01 4.873476e+01 4.639772e+01 4.086250e+01 2.409595e+01 2.055330e+01 9.936122e+00 7.887265e+01 2.416902e+00 2.114752e+00 2.585207e+00 4.672552e+00 1.872219e+00 2.386037e+00 3.911372e+00 3.302823e+00 2.871690e+00 2.420947e+00 1.990388e+00 9.461774e-01 7.775841e+00 3.511382e-01 3.040842e-01 4.140592e-01 6.142750e-01 3.467208e-01 4.208644e-01 5.702754e-01 4.885222e-01 3.525783e-01 3.969631e-01 3.342692e-01 1.707791e-01 1.063084e+00
<GCONST> 1.179078e+02
<STATE> 7
<MEAN> 39
 -5.807517e+00 -4.557622e+00 8.089665e-01 -5.647113e+00 -3.146553e+00 -7.704700e+00 2.944719e-01 -4.373511e+00 1.432826e+00 -4.039349e+00 -1.410586e+00 -4.340495e-01 4.174558e+01 4.188344e-01 -2.659593e-01 -3.384919e-01 -9.173177e-02 -9.639316e-02 -2.000537e-01 -9.318113e-02 -1.405121e-01 3.142223e-01 1.047446e-01 2.806954e-02 -2.927056e-02 4.032920e-01 -6.730193e-02 3.357857e-02 -3.302532e-02 7.974203e-02 8.202351e-02 1.015751e-01 -2.779986e-02 4.768409e-02 -7.236961e-02 2.014498e-02 2.099994e-02 -1.943654e-02 -2.198658e-01
<VARIANCE> 39
 1.472047e+01 3.301088e+01 3.086233e+01 4.993795e+01 2.110384e+01 4.560571e+01 3.878057e+01 3.204488e+01 3.000529e+01 2.960027e+01 1.235013e+01 1.753614e+01 1.035698e+02 1.732558e+00 1.629922e+00 1.626611e+00 3.729769e+00 2.076530e+00 2.357701e+00 2.224987e+00 1.654557e+00 1.552878e+00 1.479251e+00 1.081152e+00 9.846478e-01 3.894328e+00 3.177025e-01 2.300420e-01 3.142624e-01 5.126201e-01 3.663079e-01 4.096349e-01 3.634598e-01 2.821226e-01 2.294051e-01 2.812208e-01 1.885827e-01 1.784208e-01 5.696778e-01
<GCONST> 1.086803e+02
<STATE> 8
<MEAN> 39
 -1.113760e+00 -6.002402e+00 -2.707058e+00 -6.844801e+00 -3.175583e+00 -8.073668e+00 1.440079e+00 -6.285395e+00 2.103335e+00 -3.301671e+00 2.633654e-02 9.332654e-01 4.708556e+01 1.979194e-01 1.538896e-01 -2.082247e-01 -3.584477e-02 1.369539e-01 3.240550e-01 9.001718e-02 -1.212115e-01 -3.007553e-01 1.185478e-01 1.431128e-02 3.401218e-02 -2.353540e-01 -4.814304e-02 5.804096e-02 -1.697136e-02 4.865408e-03 4.337117e-02 4.387686e-02 -2.239820e-02 -1.397394e-02 -1.559305e-02 2.356190e-02 -1.035462e-02 7.179967e-03 -2.176156e-02
<VARIANCE> 39
 1.766469e+01 2.236058e+01 2.118989e+01 3.466959e+01 2.438076e+01 2.868974e+01 3.682450e+01 2.371050e+01 1.971898e+01 2.357492e+01 2.462080e+01 2.020975e+01 9.717783e+01 7.356592e-01 1.660776e+00 1.428509e+00 2.689012e+00 2.123526e+00 1.237889e+00 1.480660e+00 1.276010e+00 1.797129e+00 1.383118e+00 8.361372e-01 1.230033e+00 2.486104e+00 1.368878e-01 2.202411e-01 2.660351e-01 4.389980e-01 3.649476e-01 2.463496e-01 2.289122e-01 2.230164e-01 3.344946e-01 2.096758e-01 1.563063e-01 2.000640e-01 4.154931e-01
<GCONST> 1.014705e+02
<STATE> 9
<MEAN> 39
 -9.618812e-01 2.590330e-01 -4.665301e+00 -1.048066e+01 -3.224192e+00 -1.487181e+00 1.926469e+00 -8.295300e+00 -1.554917e+00 -1.693321e+00 -1.406481e+00 3.362592e-01 4.160914e+01 -1.130182e-01 2.719782e-01 1.204091e-01 1.295394e-01 -3.725011e-04 1.581652e-01 2.597443e-02 1.591766e-01 -8.919034e-02 -5.695493e-02 -2.464970e-02 -5.288300e-02 -4.079377e-01 -1.993409e-02 -3.025272e-02 1.850976e-02 4.582898e-02 -8.129531e-03 3.166600e-03 5.180609e-03 3.865539e-02 3.123112e-02 -6.071710e-03 2.151496e-02 8.020244e-03 -4.148790e-02
<VARIANCE> 39
 9.247330e+00 3.535725e+01 1.371834e+01 3.432671e+01 2.296290e+01 1.648240e+01 4.237498e+01 1.781873e+01 3.155727e+01 1.456530e+01 2.250405e+01 1.209853e+01 1.153663e+02 4.358928e-01 9.151437e-01 1.000666e+00 1.259412e+00 1.509862e+00 1.135109e+00 1.284263e+00 1.086639e+00 1.373989e+00 1.154985e+00 1.321584e+00 8.433050e-01 6.059363e-01 5.801439e-02 9.645688e-02 1.725211e-01 1.856501e-01 2.401510e-01 2.055136e-01 2.300904e-01 1.697374e-01 2.276406e-01 1.909485e-01 1.912777e-01 1.345576e-01 5.404582e-02
<GCONST> 8.833173e+01
<TRANSP> 10
 0.000000e+00 1.000000e+00 0.000000e+00 0.000000e+00 0.000000e+00 0.000000e+00 0.000000e+00 0.000000e+00 0.000000e+00 0.000000e+00
 0.000000e+00 8.925924e-01 1.074076e-01 0.000000e+00 0.000000e+00 0.000000e+00 0.000000e+00 0.000000e+00 0.000000e+00 0.000000e+00
 0.000000e+00 0.000000e+00 7.608075e-01 2.391924e-01 0.000000e+00 0.000000e+00 0.000000e+00 0.000000e+00 0.000000e+00 0.000000e+00
 0.000000e+00 0.000000e+00 0.000000e+00 8.261960e-01 1.738040e-01 0.000000e+00 0.000000e+00 0.000000e+00 0.000000e+00 0.000000e+00
 0.000000e+00 0.000000e+00 0.000000e+00 0.000000e+00 9.112111e-01 8.878884e-02 0.000000e+00 0.000000e+00 0.000000e+00 0.000000e+00
 0.000000e+00 0.000000e+00 0.000000e+00 0.000000e+00 0.000000e+00 9.331232e-01 6.687672e-02 0.000000e+00 0.000000e+00 0.000000e+00
 0.000000e+00 0.000000e+00 0.000000e+00 0.000000e+00 0.000000e+00 0.000000e+00 8.606393e-01 1.393608e-01 0.000000e+00 0.000000e+00
 0.000000e+00 0.000000e+00 0.000000e+00 0.000000e+00 0.000000e+00 0.000000e+00 0.000000e+00 9.481959e-01 5.180419e-02 0.000000e+00
 0.000000e+00 0.000000e+00 0.000000e+00 0.000000e+00 0.000000e+00 0.000000e+00 0.000000e+00 0.000000e+00 9.687620e-01 3.123797e-02
 0.000000e+00 0.000000e+00 0.000000e+00 0.000000e+00 0.000000e+00 0.000000e+00 0.000000e+00 0.000000e+00 0.000000e+00 0.000000e+00
<ENDHMM>
~h "hodin"
<BEGINHMM>
<NUMSTATES> 5
<STATE> 2
<MEAN> 39
 -3.121806e+00 3.290983e+00 -3.269893e+00 -7.805451e+00 1.876099e+00 4.676196e+00 1.053407e+01 -5.462352e+00 -3.680978e+00 3.338623e-01 1.860603e+00 -6.195567e-01 4.351239e+01 4.001909e-01 3.026638e-01 -1.291623e-01 -2.621332e-01 -6.468892e-02 -3.092788e-01 1.387881e-01 -2.915571e-01 -3.247652e-02 -1.371924e-02 1.044692e-02 -1.601716e-01 1.004646e+00 -3.177146e-02 -3.755372e-02 -2.281190e-02 3.879330e-02 -5.266884e-02 -9.877563e-02 -1.111728e-01 -3.103546e-03 1.180390e-01 -8.888541e-03 -3.859525e-03 2.762191e-02 -1.759266e-02
<VARIANCE> 39
 1.177666e+01 4.562880e+01 1.817786e+01 2.326309e+01 2.007796e+01 2.810902e+01 4.367327e+01 1.654541e+01 1.388784e+01 1.815050e+01 1.623833e+01 9.258422e+00 5.837727e+01 1.066838e+00 1.672829e+00 1.321778e+00 1.201071e+00 1.939979e+00 1.661272e+00 2.661884e+00 1.635648e+00 1.425071e+00 1.222970e+00 1.249255e+00 9.557246e-01 6.829926e-01 1.570286e-01 2.059452e-01 2.474723e-01 2.159108e-01 3.732690e-01 2.610147e-01 4.119754e-01 2.976876e-01 3.441183e-01 1.844700e-01 2.204495e-01 1.559576e-01 9.189682e-02
<GCONST> 9.627094e+01
<STATE> 3
<MEAN> 39
 -4.270356e+00 2.073098e+00 4.277345e+00 -3.062649e+00 2.013963e+00 -6.337985e+00 -1.098890e+00 -7.115390e+00 9.457234e-01 -6.112344e+00 -2.768872e+00 -1.008068e+00 4.189783e+01 -1.372009e-01 6.094981e-02 1.086615e+00 2.552671e-01 -3.343285e-01 -2.655804e-01 -4.169930e-01 1.735740e-01 6.192656e-02 -3.406939e-01 -7.807212e-02 2.122890e-01 -6.204054e-03 -1.700892e-02 1.994073e-02 4.202303e-02 5.457661e-02 -7.003836e-02 3.211406e-02 3.890503e-02 4.485309e-02 -6.838029e-02 3.763028e-02 5.234119e-02 2.501805e-02 -9.024926e-02
<VARIANCE> 39
 2.072006e+01 3.182537e+01 1.113553e+02 4.652424e+01 3.978746e+01 3.922968e+01 4.668933e+01 3.724160e+01 4.328176e+01 2.115470e+01 2.610421e+01 1.259821e+01 6.295842e+01 1.718255e+00 3.417206e+00 4.177947e+00 4.450370e+00 3.569433e+00 3.678652e+00 3.503551e+00 3.075119e+00 4.370136e+00 1.719451e+00 1.622075e+00 1.260721e+00 5.080360e+00 2.914813e-01 6.073216e-01 6.793464e-01 7.285452e-01 5.158836e-01 5.709084e-01 4.619108e-01 5.585015e-01 6.997167e-01 3.283847e-01 2.680639e-01 2.385984e-01 7.264345e-01
<GCONST> 1.227436e+02
<STATE> 4
<MEAN> 39
 -3.994294e+00 1.718515e+00 8.263594e+00 -7.330275e-01 -9.068187e-01 -4.973660e+00 1.372324e+00 -7.824464e+00 -1.907146e+00 -4.912206e+00 -2.149786e+00 -1.213593e+00 4.002940e+01 -2.115171e-02 2.636057e-02 -2.731979e-01 1.108056e-01 2.017395e-01 1.992343e-01 3.534198e-03 1.587981e-02 1.670865e-02 1.472283e-01 6.197112e-03 -6.574655e-02 -3.769378e-01 -3.530365e-02 3.405962e-04 -1.765880e-02 -4.320835e-02 3.118434e-03 7.465188e-03 1.866454e-03 2.989137e-02 2.277130e-02 4.145016e-02 1.253893e-02 1.242427e-02 -8.257381e-03
<VARIANCE> 39
 1.625673e+01 1.575139e+01 4.861362e+01 6.892966e+01 4.440010e+01 3.659676e+01 3.336599e+01 6.187602e+01 2.012210e+01 5.074317e+01 1.539187e+01 1.613751e+01 7.499033e+01 5.213314e-01 1.328290e+00 1.768280e+00 3.073430e+00 2.072397e+00 2.148658e+00 2.584031e+00 3.783807e+00 1.864383e+00 2.564708e+00 1.310536e+00 1.060401e+00 1.088050e+00 6.549434e-02 2.306171e-01 2.724260e-01 4.604479e-01 3.011713e-01 3.522072e-01 4.251024e-01 5.894755e-01 3.334549e-01 3.637160e-01 2.058914e-01 1.680975e-01 1.257564e-01
<GCONST> 1.067607e+02
<TRANSP> 5
 0.000000e+00 1.000000e+00 0.000000e+00 0.000000e+00 0.000000e+00
 0.000000e+00 9.318545e-01 6.814555e-02 0.000000e+00 0.000000e+00
 0.000000e+00 0.000000e+00 9.454029e-01 5.459714e-02 0.000000e+00
 0.000000e+00 0.000000e+00 0.000000e+00 9.723710e-01 2.762898e-02
 0.000000e+00 0.000000e+00 0.000000e+00 0.000000e+00 0.000000e+00
<ENDHMM>
~h "tesla"
<BEGINHMM>
<NUMSTATES> 10
<STATE> 2
<MEAN> 39
 -1.263025e+01 -4.003273e-01 -3.065634e+00 -3.069991e-01 -1.270191e+00 -2.974181e-01 -1.277338e+00 -5.253541e-01 -4.758266e-01 -7.535439e-01 9.328712e-01 2.606353e-01 2.325262e+01 -1.031365e-01 -1.204971e-02 -1.712150e-02 -4.969077e-02 -1.856891e-02 -4.388247e-02 8.471653e-03 -4.948553e-02 3.702562e-02 3.656735e-03 2.695806e-04 -1.095136e-02 4.342023e-01 1.306008e-02 -1.119311e-02 1.969705e-02 -1.362151e-02 9.047659e-03 -2.810174e-02 8.833554e-03 -1.073853e-02 8.995097e-03 5.021218e-03 5.627596e-03 -5.947877e-03 7.853701e-02
<VARIANCE> 39
 6.496874e+00 4.860751e+00 4.972882e+00 3.529219e+00 7.749718e+00 7.158595e+00 6.148537e+00 4.859869e+00 5.480995e+00 3.338985e+00 3.541248e+00 3.236175e+00 2.577105e+01 6.143814e-01 6.879295e-01 5.519493e-01 4.127174e-01 1.023591e+00 9.426949e-01 6.663582e-01 5.955189e-01 6.907558e-01 3.794478e-01 3.948359e-01 3.801324e-01 3.235170e+00 1.023243e-01 1.468360e-01 1.113749e-01 9.029052e-02 2.411079e-01 2.182490e-01 1.442166e-01 1.275561e-01 1.593278e-01 8.169652e-02 8.192641e-02 7.568447e-02 4.692545e-01
<GCONST> 6.272202e+01
<STATE> 3
<MEAN> 39
 -1.255799e+01 -1.455725e+00 -1.861041e+00 -2.148039e+00 -1.624116e-01 -3.909794e+00 -4.866337e-01 -3.014268e+00 1.878984e+00 2.620363e-02 7.459781e-01 -9.434253e-01 4.140145e+01 1.214880e+00 2.555843e-02 -1.832890e-01 -2.155409e-01 -1.591415e-01 -9.580043e-01 -1.535095e-01 -1.093686e+00 8.395078e-01 3.551565e-01 -1.222651e-01 -4.202307e-01 2.660562e+00 2.739245e-01 2.207975e-02 -9.490286e-02 -4.707356e-02 -1.167504e-01 -1.425274e-01 3.074848e-02 -1.235237e-01 1.814882e-01 1.661178e-02 -9.469929e-02 2.148760e-02 -3.449596e-01
<VARIANCE> 39
 5.242609e+01 1.907958e+01 1.311588e+01 7.749586e+00 1.347201e+01 1.802604e+01 8.084421e+00 1.344338e+01 1.286240e+01 6.001490e+00 4.682365e+00 7.012511e+00 1.979396e+02 4.296685e+00 1.552778e+00 1.344656e+00 8.129705e-01 1.758729e+00 1.924182e+00 1.332246e+00 2.090683e+00 1.171854e+00 1.108554e+00 8.111781e-01 7.480813e-01 7.758695e+00 6.599036e-01 2.954541e-01 3.054969e-01 1.681878e-01 3.757350e-01 6.155500e-01 2.546968e-01 2.996073e-01 1.643029e-01 2.539345e-01 1.525932e-01 2.078482e-01 1.718844e+00
<GCONST> 9.782819e+01
<STATE> 4
<MEAN> 39
 -9.945799e+00 6.643177e-01 -3.191891e+00 -3.120237e+00 2.379467e-01 -4.849874e+00 -9.298422e-01 -5.585407e+00 4.770863e+00 1.188750e+00 -2.627302e-01 -2.241360e+00 4.936934e+01 2.519405e-01 2.189890e-02 -3.579631e-02 -2.933444e-01 1.992477e-01 -4.059860e-01 2.464744e-01 -4.711356e-01 5.281221e-01 9.934623e-02 -3.807931e-01 -1.203779e-01 9.881818e-01 -1.881489e-01 -7.906752e-03 1.353170e-01 -8.671004e-02 1.410658e-01 -8.765548e-02 1.580029e-01 2.092832e-01 -8.562511e-02 -1.761321e-01 -1.013793e-01 1.753252e-01 -1.193109e-01
<VARIANCE> 39
 6.456226e+01 1.372427e+01 1.114740e+01 8.363151e+00 2.136619e+01 1.521413e+01 1.025312e+01 3.231754e+01 1.946645e+01 1.063982e+01 1.045463e+01 4.782912e+00 1.638156e+02 3.647030e+00 1.414328e+00 1.713511e+00 9.567230e-01 1.977146e+00 3.078159e+00 1.304729e+00 2.687369e+00 1.609388e+00 1.567410e+00 1.461310e+00 5.775158e-01 2.902070e+00 5.562485e-01 2.501886e-01 3.675607e-01 1.999944e-01 3.715262e-01 5.209829e-01 2.417852e-01 3.751129e-01 2.612770e-01 1.739812e-01 2.667996e-01 1.347419e-01 7.560122e-01
<GCONST> 1.006256e+02
<STATE> 5
<MEAN> 39
 -1.757699e+01 3.586582e+00 -2.112326e+00 -3.753549e+00 4.823758e+00 -4.095148e+00 1.297718e-01 -2.721947e+00 3.247136e+00 7.829968e-01 -8.550051e-01 -1.477890e+00 5.301175e+01 -5.785247e-01 8.242005e-02 1.889321e-01 -1.021560e-01 2.821566e-01 -3.816340e-02 1.400465e-01 2.974307e-01 -2.201629e-01 -2.294115e-01 2.719116e-02 1.855857e-01 9.464012e-02 9.994081e-02 -3.711074e-02 1.660857e-02 -4.579691e-02 -6.677774e-02 -2.312171e-02 -6.322299e-03 1.967835e-02 -1.519252e-02 -4.939029e-02 2.587751e-02 2.792920e-02 -3.977422e-03
<VARIANCE> 39
 6.094781e+01 9.635762e+00 7.974187e+00 7.413396e+00 1.337245e+01 1.246581e+01 9.078703e+00 2.335019e+01 1.300075e+01 1.216227e+01 9.627793e+00 4.086388e+00 3.294257e+01 2.749715e+00 7.671242e-01 1.334785e+00 9.399474e-01 1.036291e+00 2.011353e+00 1.002300e+00 1.785076e+00 8.864858e-01 9.870422e-01 1.380430e+00 4.399464e-01 1.491167e+00 3.028964e-01 1.318315e-01 2.949407e-01 1.937223e-01 1.797326e-01 2.943255e-01 2.079824e-01 3.305987e-01 1.637339e-01 1.527180e-01 3.057957e-01 9.033848e-02 1.065994e-01
<GCONST> 8.567632e+01
<STATE> 6
<MEAN> 39
 -1.506827e+01 9.521334e-01 -5.105977e-01 -5.016897e+00 3.028435e+00 -5.558944e+00 1.424297e+00 -2.177927e+00 1.805525e+00 -1.695502e+00 -3.312919e-01 4.013373e-01 4.809145e+01 1.803181e+00 -4.940335e-01 5.063343e-01 -1.239488e+00 -6.010520e-01 -8.775599e-01 5.172086e-01 -2.039053e-01 3.466592e-01 -6.606539e-01 -1.760778e-01 4.143512e-01 9.889296e-01 2.740774e-01 1.834057e-01 -4.892006e-02 -4.213743e-01 -6.250450e-02 3.258231e-02 8.004174e-02 -1.085852e-01 -1.075031e-01 -4.406870e-02 -2.336313e-02 -2.062254e-02 -1.461829e-01
<VARIANCE> 39
 3.796084e+01 1.585992e+01 4.436393e+00 1.515897e+01 3.106888e+01 5.388507e+01 9.878760e+00 1.117653e+01 1.241766e+01 2.961770e+01 7.702767e+00 8.239458e+00 6.579973e+01 1.329192e+00 1.004376e+00 1.083133e+00 2.817996e+00 9.293793e-01 5.265297e+00 6.073407e-01 1.845225e+00 1.680355e+00 1.520995e+00 7.953315e-01 8.978539e-01 5.495195e+00 3.068321e-01 2.320900e-01 1.493416e-01 5.604414e-01 3.116027e-01 4.844539e-01 1.211744e-01 3.567892e-01 1.734029e-01 4.209533e-01 2.684920e-01 2.015556e-01 2.946472e-01
<GCONST> 9.715953e+01
<STATE> 7
<MEAN> 39
 -1.157387e+01 -6.550735e-01 -1.072954e+00 -7.637836e+00 4.739680e-01 -8.078581e+00 4.220556e+00 -4.752958e+00 2.440212e+00 -3.117076e+00 -1.092605e+00 1.952095e+00 4.551605e+01 1.101365e+00 1.417377e-01 -8.357987e-02 -1.199779e+00 -1.789078e-01 -4.006544e-01 5.374780e-01 -4.700925e-01 -1.676944e-01 -1.750283e-01 -2.818759e-01 1.672624e-01 2.783310e-01 -3.879396e-02 1.339710e-01 -1.774573e-01 -6.831084e-02 1.273173e-01 -9.033576e-03 5.369838e-02 -4.680089e-02 -1.756056e-01 5.141172e-02 -3.227707e-02 -1.112205e-01 -1.835759e-01
<VARIANCE> 39
 7.282294e+01 2.638444e+01 1.469408e+01 6.808106e+01 1.559725e+01 7.502005e+01 1.426655e+01 1.574225e+01 1.805651e+01 4.323304e+01 7.698491e+00 6.457123e+00 4.110427e+01 5.145507e+00 2.028223e+00 1.045563e+00 5.585601e+00 1.253060e+00 4.347135e+00 9.507543e-01 1.569614e+00 1.611956e+00 2.780139e+00 1.026709e+00 6.931692e-01 2.838873e+00 4.818522e-01 3.442218e-01 2.039534e-01 6.828175e-01 2.330796e-01 4.465330e-01 1.308358e-01 3.384002e-01 2.262070e-01 4.302845e-01 2.347116e-01 1.595024e-01 2.429283e-01
<GCONST> 1.051388e+02
<STATE> 8
<MEAN> 39
 -3.201846e+00 4.566064e+00 -5.113503e+00 -1.827320e+01 4.965819e+00 -8.329260e+00 8.299719e+00 -4.416937e+00 -4.032990e+00 -4.523619e-01 -2.008620e-01 -6.497956e-01 4.723117e+01 4.791918e-01 1.119979e-01 -7.411870e-01 -7.090671e-01 6.478419e-01 -3.284849e-01 5.006615e-01 3.379551e-02 -3.593577e-01 -7.749034e-02 2.944956e-01 -4.433411e-01 -9.223697e-02 -2.258908e-01 -5.920867e-02 -5.586124e-03 2.704331e-01 9.028136e-02 2.071347e-01 -9.815810e-02 4.290988e-02 9.473266e-02 1.095572e-03 2.896096e-02 -1.909076e-02 -8.440875e-02
<VARIANCE> 39
 7.285200e+01 4.002617e+01 2.611124e+01 1.135272e+02 3.136950e+01 3.831508e+01 1.854945e+01 1.455485e+01 3.708041e+01 3.155296e+01 1.703821e+01 1.638737e+01 2.417756e+01 3.341309e+00 1.697747e+00 1.560151e+00 3.943572e+00 1.155748e+00 2.813273e+00 1.430353e+00 1.852382e+00 1.369224e+00 2.049414e+00 1.658580e+00 1.077819e+00 1.033849e+00 3.150048e-01 2.883641e-01 3.568094e-01 3.247395e-01 2.143745e-01 4.328741e-01 2.024329e-01 3.144091e-01 2.810491e-01 2.690283e-01 2.390160e-01 1.941896e-01 1.386593e-01
<GCONST> 1.062600e+02
<STATE> 9
<MEAN> 39
